bacteria -0.097099 0.31261 -0.57415 0.083231 -0.83698 0.10333 0.33415 -0.51276 -0.25059 -0.037227 -0.24658 0.39097 -0.49403 0.24365 -0.15234 -0.61263 -0.030819 -0.21219 -0.12432 0.34737 0.26252 -0.18991 0.32314 -0.14433 -0.3676 0.11842 -0.43449 -0.37169 0.11059 0.48302 -0.64289 0.12195 -0.66133 0.50407 -0.040296 0.13061 0.46073 0.39059 0.11789 -0.13761 0.17294 0.42296 -0.063685 0.19172 0.068635 0.12664 0.31176 -0.029966 0.17584 0.13279 -0.19737 -0.29296 -0.49109 -0.36516 0.17907 0.19619 0.072988 0.14273 0.070565 0.32553 -0.34613 -0.12072 0.24723 -0.057133 -0.49594 -0.20563 -0.14348 0.53963 0.15064 0.095489 -0.20587 0.30944 0.37616 -0.049466 -0.30522 0.10397 0.11878 0.61276 -0.27118 -0.31774 0.045191 -0.63551 -0.20363 0.519 0.12081 -0.048495 0.52898 -0.056861 -0.44743 -0.090043 0.031666 0.19894 0.0017852 0.061213 -0.11686 0.03493 0.064134 0.49084 0.12454 0.19805 0.30807 -0.2737 -0.12815 -0.33251 -0.049638 0.031708 -0.90333 0.25107 0.084646 -0.089567 -0.33301 0.0087925 0.44645 0.15281 0.19078 0.19375 0.29201 0.0046413 0.4346 0.37111 0.064928 -0.50831 -0.21008 0.031847 -0.026004 -0.15406 -0.28154 0.47647 -0.17207 0.32731 0.11506 0.18376 -0.20484 0.14856 0.035002 0.095361 -0.49912 0.29879 -0.33661 0.0040777 0.089822 0.84228 0.35668 -0.14987 -0.35422 0.22549 0.23032 0.15816 0.20077 0.11604 0.56871 -0.2038 0.053114 -0.048664 -0.10502 0.24373 0.40588 0.33424 0.077639 -0.21686 -0.44421 -0.024504 -0.28998 -0.36348 0.083381 -0.08266 -0.24491 -0.4213 0.36076 0.11778 0.068333 -0.75855 -0.15821 0.28755 0.13405 0.29985 -0.6266 -0.31798 0.38227 0.4266 -0.186 0.09377 -0.052018 -0.3649 -0.026887 0.12394 0.059265 -0.16777 0.2878 -0.44182 -0.17734 -0.67626 0.004082 -0.097532 -0.37105 -0.18019 0.38252 0.050393 -0.25765 0.12481 -0.024315 -0.043272 -0.27636 -0.058998 0.040837 -0.53581 -0.14101 -0.1281 -0.033273 0.16793 0.5583 -0.34544 0.31343 0.64527 0.017831 -0.087884 0.046685 -0.39376 -0.091932 -0.077914 0.28814 -0.14025 0.38519 0.37084 -0.22089 0.24577 -0.16235 -0.44599 0.089323 0.035604 0.070865 -0.59168 -0.16012 -0.60479 0.44396 0.0059111 0.11934 0.10364 0.26197 0.16197 0.34238 -0.21551 0.31368 -0.26464 -0.29828 0.48864 -0.11341 -0.51915 0.11129 -0.3529 -0.12625 -0.041213 -0.22895 0.44795 0.051504 -0.27326 0.01985 -0.22901 -0.066033 0.061107 -0.20786 0.65388 -0.29936 -0.10848 -0.97419 -0.081768 -0.28431 0.089524 0.10086 -0.18441 -0.012424 -0.092708 0.14485 -0.16104 -0.28849 -0.3676 -0.14285 -0.53428 -0.010727 0.16513 0.23384 0.38454 -0.21241 -0.095638 0.059423 -0.30724 0.62644 -0.0065731 -0.64214 0.56546 -0.51556 -0.41634 0.40532 0.075513 -0.065452 0.16262 0.2209 0.73603 0.22481 -0.079404 
listen -0.21389 -0.033307 0.11832 -0.12899 -0.11178 -0.137 -0.06029 0.1289 -0.077927 0.22632 -0.054231 -0.11853 -0.38453 -0.019589 -0.098034 -0.21989 0.0027727 -0.063696 0.057544 -0.4078 -0.17727 0.37621 -0.01648 0.15693 0.087305 -0.12723 -0.076713 -0.33255 -0.16011 0.20028 -0.24795 0.32008 -0.29392 -0.17426 -0.093681 0.25888 -0.19841 -0.19698 -0.067051 -0.3494 0.27468 -0.11768 0.0057947 -0.017633 0.0042308 0.07681 0.33583 -0.20748 0.015101 -0.21703 -0.16786 0.010209 0.13234 0.0057849 -0.3325 0.41107 0.23148 0.088136 0.037188 0.22199 0.09435 0.26087 -0.10089 0.15847 -0.22654 -0.37355 0.070579 0.48597 -0.1305 0.21387 0.52244 -0.063049 0.36837 -0.064885 0.080124 -0.076216 0.40493 -0.027745 -0.10999 0.16138 0.2262 -0.14395 0.12914 0.10797 -0.18276 0.13672 -0.18392 0.092049 0.1397 -0.19831 0.30487 0.21631 0.3481 -0.3068 0.21813 0.23247 0.16776 -0.19496 0.18512 -0.073667 0.3744 -0.15047 0.0053993 -0.13303 0.094853 -0.038429 0.15467 0.073087 0.18556 -0.20832 0.085707 -0.078404 -0.16537 -0.50925 -0.3185 -0.27767 0.35728 -0.21086 -0.38007 -0.06636 -0.14519 0.25927 0.011305 0.26981 -0.3475 0.034172 0.32525 -0.22325 -0.087904 0.56599 -0.10005 0.24408 -0.40602 0.12864 0.34124 0.080031 -0.30534 0.05178 0.10368 -0.12853 -0.011813 0.027554 0.022339 0.09227 -0.093583 -0.26706 -0.10702 -0.41976 0.24909 -0.229 0.19473 -0.35091 -0.17985 -0.022865 0.32705 -0.20603 -0.29434 0.213 -0.15436 -0.037412 -0.036493 0.25093 -0.18301 -0.040283 -0.31128 0.29591 -0.20366 0.0066014 0.13637 0.16138 -0.24684 -0.30155 -0.49667 0.24881 -0.11021 0.39358 -0.15122 0.15601 0.11268 -0.22527 0.11447 -0.027826 -0.058712 0.2549 -0.083376 0.39522 0.037772 -0.17347 0.0055733 0.025748 -0.062813 -0.19577 0.30173 0.14856 -0.18818 -0.31286 -0.11799 -0.090097 -0.59265 -0.2775 0.37388 -0.34984 0.35969 -0.21932 0.046743 -0.18849 -0.38271 0.21992 0.10194 0.22725 0.57745 -0.010511 0.056671 -0.23348 0.16221 -0.26473 -0.069403 -0.37305 0.027973 0.27882 -0.0023325 -0.30215 -0.069736 -0.017511 0.14127 -0.023833 -0.23523 -0.15098 0.051093 0.071235 -0.2906 0.29275 0.19018 0.17017 0.18006 0.00081651 0.19493 0.26768 -0.10854 -0.18986 -0.028428 0.12412 -0.27251 0.24443 0.0051222 0.071925 0.12712 0.18275 -0.26701 0.27042 0.059721 -0.03978 -0.2654 0.00045576 0.14652 0.016693 -0.040398 -0.32183 -0.11621 -0.15136 0.23366 0.21624 -0.021047 0.014909 -0.32763 -0.020867 -0.11014 0.14636 0.48484 -0.18666 -0.10641 -0.060554 -0.14239 0.36289 0.16036 -0.10743 -0.016066 0.040687 -0.10037 -0.18077 0.21321 -0.018392 -0.031142 0.06022 -0.36797 0.17271 0.14269 0.087017 -0.050908 -0.089932 0.002441 0.38941 0.1024 -0.050639 0.26699 -0.44076 -0.25864 0.14174 0.35928 -0.12287 
common -0.062562 0.20289 -0.068862 0.21247 0.19801 0.10201 0.31282 -0.15338 0.16056 0.13229 -0.036405 0.17842 0.22577 0.03204 0.10217 -0.26455 -0.22871 0.4028 0.12068 0.28963 -0.1019 -0.066006 0.054102 0.29419 -0.00042449 0.311 0.21863 0.12745 -0.25448 0.25006 0.089314 0.14714 -0.25991 0.45892 0.15107 0.0079834 0.2268 -0.022431 -0.13918 0.033746 0.14745 -0.19382 -0.025681 -0.015506 0.2349 0.25461 0.11444 0.053114 -0.26563 -0.36324 -0.23555 -0.12396 0.28405 -0.45157 -0.26278 -0.029014 -0.054343 -0.31131 -0.10915 0.14908 0.020888 -0.25834 0.17612 -0.30581 -0.0049785 0.13582 -0.1343 -0.10049 -0.0030772 0.27511 -0.14054 -0.12805 0.18329 -0.26442 0.0016443 0.22979 0.046689 0.1288 -0.081053 -0.092634 0.064144 0.1524 -0.24046 -0.23933 -0.17696 -0.10752 0.17448 0.38044 -0.32392 0.085523 0.37975 -0.34526 0.39577 -0.36238 0.0015881 -0.10971 0.034753 0.17579 0.25754 -0.11478 0.19633 -0.10031 0.22581 -0.22998 -0.082001 -0.039114 -0.21954 0.027366 0.049761 -0.12659 -0.24059 0.51143 -0.4566 0.00010025 -0.22042 0.0312 0.11897 0.33022 -0.058973 0.014772 0.25663 -0.091939 -0.31462 0.16228 0.11705 0.069243 0.0039827 -0.11711 0.058374 0.5287 0.064857 0.10841 0.073939 0.17169 0.051508 -0.30403 -0.41464 0.28492 -0.018282 -0.29951 0.1259 0.085047 0.35735 0.053067 0.22251 0.1745 -0.2596 -0.30992 -0.20139 0.12536 -0.041832 -0.41507 -0.3373 -0.24542 -0.25446 -0.024282 0.14869 -0.23925 0.33635 -0.26386 0.035953 0.53695 0.046962 -0.34439 -0.22794 0.13649 -0.058096 -0.21008 0.14205 0.14613 -0.1087 -0.17313 -0.092244 -0.022442 -0.0070811 0.27055 0.24069 0.066418 0.17907 0.081369 -0.27064 0.13622 0.18721 -0.19378 0.23754 0.060137 -0.10269 -0.099301 -0.27998 -0.12419 -0.034935 -0.15365 0.12358 0.35592 -0.22909 0.039466 0.20993 0.34185 -0.085013 -0.1887 -0.1354 -0.032738 -0.051162 0.25332 0.20466 -0.087876 -0.37329 -0.4078 0.11321 -0.056323 0.30046 0.27195 0.42297 -0.0076607 0.096574 -0.057048 -0.17208 -0.2413 -0.27977 0.0090914 -0.079087 -0.04203 -0.14246 0.23954 0.15461 -0.059357 0.11454 0.21446 -0.11709 -0.12343 -0.059856 -0.12595 -0.15628 0.055153 -0.019302 0.060853 0.17928 -0.19319 -0.0044154 0.095264 -0.32996 -0.16706 -0.036241 -0.10199 0.0057491 0.36103 0.032439 0.17612 0.090456 0.19038 0.030912 -0.071568 0.050115 0.10787 -0.03431 0.15808 -0.10205 -0.11681 0.22327 0.0026271 0.28274 0.0045968 -0.10116 -0.042509 -0.13696 -0.29196 -0.019902 0.057963 -0.015354 -0.027563 -0.49498 -0.086725 -0.016626 -0.039765 0.17865 0.053051 0.030265 -0.0054181 0.22389 -0.11727 -0.1239 -0.20982 0.23023 0.1894 0.48882 -0.24956 0.27816 0.27466 -0.259 0.21925 -0.0057133 -0.0099525 0.21109 0.12202 -0.37387 -0.088772 -0.18933 0.071301 0.22025 0.15683 
noun -0.20299 0.31203 -0.020567 0.24933 -0.13674 0.017247 -0.12107 -0.5169 0.048784 -0.14921 -0.033263 0.057125 -0.044618 -0.12687 0.048991 -0.32436 0.052616 0.49627 -0.24299 0.43629 -0.11909 -0.22105 0.48732 -0.31056 -0.04629 -0.056296 0.075654 0.087943 -0.10507 -0.10059 -0.34779 0.1451 -0.35912 -0.061292 -0.1004 -0.59446 0.050661 0.045391 0.13355 0.23942 0.3559 0.13759 -0.17476 -0.62164 -0.12896 0.26498 -0.30116 0.096192 0.2347 -0.19902 0.1313 -0.32092 0.20747 -0.28733 0.067411 -0.28426 0.13689 0.010006 0.20044 -0.018477 0.77494 -0.19753 0.10231 0.21158 -0.17771 -0.17711 0.02857 0.15767 0.03143 0.080826 -0.18787 0.44099 0.40707 0.44278 -0.29926 0.34807 -0.60794 0.25163 0.073263 0.32443 -0.14323 0.040204 -0.15643 0.24735 0.041161 -0.13206 0.37197 0.19658 -0.079197 0.30057 0.28051 -0.56388 0.53183 -0.48625 0.19904 -0.63265 -0.20478 0.15199 -0.4125 -0.18922 0.11444 -0.74049 0.23196 -0.22274 0.17397 -0.21882 -0.14185 0.50647 -0.073769 -0.22815 0.28899 -0.11661 -0.59792 -0.033789 0.076061 -0.020653 0.24195 0.036397 0.45999 -0.17299 0.34235 0.22929 -0.68102 0.42339 -0.44706 -0.29338 -0.12422 -0.15981 0.37798 0.15485 -0.32396 0.043615 0.17262 -0.022499 0.35583 0.076282 -0.11564 0.045958 0.15007 0.13791 -0.0027095 -0.070302 0.082167 0.13644 -0.049621 0.11263 -0.052265 -0.23765 -0.58463 -0.064169 0.10328 -0.096385 0.2219 -0.27622 -0.5246 0.071682 -0.17538 -0.011995 0.38002 -0.16473 -0.088959 0.37297 -0.29555 -0.4855 -0.46657 -0.74703 -0.5896 -0.22191 0.47498 0.3099 -0.16933 -0.30106 -0.75583 -0.053523 -0.14429 0.27049 -0.095449 0.42082 0.19172 0.21886 -0.2668 -0.2151 0.21222 0.22814 0.09984 0.084406 0.012965 -0.53668 0.048436 0.10726 0.31978 -0.13766 0.25271 0.54561 -0.38052 -0.026874 0.29335 -0.0073967 -0.1547 -0.083533 -0.058742 -0.33438 -0.011302 -0.021 0.06596 -0.47561 -0.11626 -0.39901 -0.22518 -0.19263 0.50932 0.44275 0.032701 0.27792 0.10388 0.10661 -0.19412 0.0058036 -0.27545 0.18461 0.037991 0.061575 -0.23797 0.53102 -0.0069917 0.16095 0.01458 -0.061703 -0.21539 -0.045815 0.18505 0.11054 -0.019747 -0.30498 0.10576 -0.019327 -0.035057 0.29626 -0.0029474 -0.38534 -0.23124 0.14936 0.41546 -0.11007 -0.34062 0.5181 0.099787 0.39724 -0.053013 -0.23653 0.28592 -0.29963 -0.36904 0.087338 0.1578 -0.18649 0.073779 -0.4093 0.23111 -0.59904 -0.033088 0.4361 0.1462 0.033254 -0.32659 -0.26991 0.026019 -0.15102 -0.12946 -0.077005 -0.0025241 -0.15793 0.047867 -0.80225 -0.36951 0.41646 -0.10323 -0.35829 0.1113 0.017563 0.022807 0.20647 0.048049 -0.23714 0.039318 -0.40892 0.25843 0.16723 -0.9852 -0.05753 -0.4486 -0.36921 -0.18258 -0.41748 -0.43775 -0.028479 0.26408 -0.12723 -0.037261 -0.068636 
singular -0.25932 0.24538 0.11519 0.30444 0.21895 0.26871 0.0022067 -0.197 -0.25243 -0.048795 -0.062877 0.13114 -0.13513 -0.034481 -0.23049 -0.15594 0.021008 0.54968 -0.071601 0.26088 -0.20307 -0.22983 0.40503 -0.14226 0.0069232 -0.20862 0.28569 -0.0084858 -0.21517 -0.088555 -0.31395 0.19367 -0.057208 0.29626 -0.1057 -0.4631 0.00039507 0.19091 -0.04864 0.2588 0.15778 0.23028 0.15074 -0.26905 -0.21494 0.1817 -0.16812 0.0059574 0.30518 -0.12036 -0.14364 -0.3719 0.39218 -0.26357 -0.15749 0.031463 0.074389 0.18712 0.12933 -0.10014 0.20275 -0.086213 0.057908 -0.028822 0.11424 -0.17839 -0.26193 0.1467 -0.023756 -0.22225 -0.1477 -0.043446 0.21308 0.023559 -0.45177 0.0873 0.0092662 0.35712 -0.17338 0.25429 -0.14887 0.23807 0.00079357 0.057633 0.050906 0.17424 0.69683 0.11202 -0.16471 -0.14842 0.14212 -0.36637 0.42352 -0.37555 0.31856 -0.61298 0.18815 0.10221 -0.10664 -0.079996 -0.045152 -0.45141 0.31288 -0.21255 -0.061123 -0.02559 0.23757 0.38944 -0.1469 -0.27661 0.15388 -0.10645 -0.28129 -0.059455 -0.085856 -0.1412 0.25644 0.014717 0.41397 0.17791 -0.015676 0.16705 -0.39124 0.218 -0.51324 -0.063345 0.041406 -0.20428 0.30761 0.054785 -0.033163 0.022196 0.016559 0.35572 -0.099397 -0.0057441 -0.018457 -0.34927 0.11209 0.057723 0.035451 -0.19818 -0.019496 0.11869 -0.26372 -0.00081695 -0.12258 0.10307 -0.30616 -0.098346 -0.0051716 -0.23511 0.05157 -0.3211 -0.47648 0.21947 0.081397 -0.099385 0.41603 -0.17639 -0.2761 0.38232 -0.21564 0.0075193 -0.133 -0.4094 -0.077611 0.13804 0.098002 0.31189 -0.071781 -0.21176 -0.57328 0.27561 -0.1373 0.35036 0.022284 0.25098 -0.026163 0.30408 0.032741 -0.26999 0.28433 0.25499 -0.009979 0.076915 0.095233 -0.42183 0.27639 -0.11576 0.24667 -0.42562 0.053819 0.20758 -0.38046 -0.25136 0.018962 -0.011053 -0.36661 0.088872 0.11856 -0.35244 0.24633 -0.21398 0.0646 -0.034328 -0.17118 -0.053192 -0.16868 -0.19605 0.51645 0.21713 0.048853 -0.0043924 -0.0046862 0.040156 0.18274 -0.06068 -0.15644 -0.0090553 0.12334 0.051707 -0.17548 0.47956 -0.028204 0.60749 -0.15126 0.25696 0.15586 -0.048227 0.28481 -0.14604 -0.20996 -0.38248 -0.15183 0.20094 0.030696 0.16428 -0.32196 -0.38917 -0.29137 -0.10633 -0.0095024 0.24348 0.038718 0.43418 0.098416 0.19997 -0.2186 -0.44503 0.052676 -0.18167 -0.51348 -0.24366 -0.040442 0.20474 0.032378 -0.25122 0.15505 -0.52687 -0.083778 0.43359 0.19153 0.3573 -0.051277 -0.1451 -0.13757 -0.064499 -0.30727 0.16024 -0.21408 0.050747 0.30118 -0.3147 -0.17267 0.15445 -0.26865 -0.13584 0.17489 0.20201 -0.1632 -0.065791 -0.013322 -0.21433 0.1636 -0.20404 0.1446 0.22574 -0.57825 0.051691 -0.402 0.09566 0.026576 -0.090606 -0.13768 0.15308 0.00038022 -0.062094 0.37569 0.02097 
bacterium -0.11693 0.3103 -0.43542 -0.2546 -1.1314 0.0084528 0.56033 -0.31552 -0.38768 -0.17512 -0.17154 0.42542 -0.79611 0.12914 -0.14123 -0.73861 -0.13673 -0.31871 0.084241 0.77201 0.37436 -0.090775 0.20985 -0.27951 -0.85558 0.18148 -0.59213 -0.19772 0.024205 0.52822 -0.72041 0.31869 -0.70896 0.48807 -0.066915 0.051969 0.43457 0.1341 0.14014 0.096277 0.15653 0.34534 -0.021468 0.036215 -0.14051 0.31788 0.4261 -0.0035115 0.42649 0.18764 -0.07702 -0.23073 -0.43262 -0.47366 0.12481 0.06542 0.12575 -0.072562 0.33374 0.40354 -0.12645 0.071732 -0.08602 -0.13428 -0.52525 -0.15832 -0.46753 0.36519 0.20812 -0.093054 -0.10199 0.21329 0.6067 0.13873 -0.13926 0.21679 -0.029092 0.85715 -0.33751 -0.029148 0.089453 -0.69679 0.27359 0.44998 0.081179 -0.21323 0.47719 0.072175 -0.32008 -0.20593 0.039104 -0.14581 -0.074758 0.20484 -0.25701 0.15939 0.20078 0.73647 -0.023709 0.022271 0.27086 -0.48715 -0.093172 -0.42389 0.11211 0.074153 -0.86647 0.52444 0.088076 -0.13139 -0.094385 -0.030423 0.40223 -0.014731 0.34918 0.017054 0.29948 0.23675 0.56561 0.44242 -0.033646 -0.32963 -0.28664 0.099356 -0.37937 -0.18115 -0.36548 0.48851 -0.11291 0.4376 0.20526 0.44495 -0.2859 0.11515 0.13115 -0.10164 -0.4264 0.11055 -0.32285 -0.074114 0.18849 0.88413 0.59475 0.26059 -0.59412 0.27343 0.10527 0.14913 0.19859 -0.0043764 0.59916 -0.095485 -0.09837 0.045028 -0.52791 0.23266 0.080728 -0.007476 0.21084 -0.29781 -0.33236 -0.15719 -0.24018 -0.62617 -0.094395 -0.085687 -0.17054 -0.29819 0.27256 0.089657 0.0014852 -0.82511 -0.16044 0.098499 0.31801 0.38996 -0.29384 -0.37885 0.38652 0.48236 -0.44685 0.13042 -0.12124 -0.51969 0.04633 0.11473 -0.16255 -0.33164 0.41974 -0.46573 -0.106 -0.50558 0.35542 0.13145 -0.56818 -0.31548 0.38225 0.37166 -0.21943 0.064638 -0.17641 0.01251 -0.22225 0.048254 -0.39487 -0.36745 -0.18827 -0.14211 0.0081203 0.11117 0.35654 -0.28428 0.45502 0.94141 0.002443 0.084328 -0.0373 -0.16071 0.24422 -0.20936 0.31857 -0.06698 0.28453 0.57326 -0.39349 0.21419 -0.20262 -0.40201 -0.059862 0.16374 0.21689 -0.33148 -0.3176 -0.44132 0.57091 -0.0013755 0.35296 0.10447 0.30374 0.15589 -0.091949 -0.47548 0.3197 -0.34561 -0.050114 0.36357 -0.13777 -0.58293 -0.19956 -0.059743 -0.064001 -0.050946 -0.25508 0.43997 -0.14169 -0.16128 0.21643 -0.2474 0.28775 0.088216 -0.1574 0.70291 -0.17153 -0.12154 -0.94272 0.068762 -0.13515 0.42468 -0.060494 -0.3805 0.00066374 -0.056609 -0.13276 -0.24356 -0.36221 -0.40985 0.068383 -0.50743 0.3986 0.23719 0.23492 0.2979 -0.26202 -0.28568 0.030583 -0.54385 0.6871 0.16638 -0.41993 0.243 -0.57772 -0.56133 0.43672 0.072461 -0.21038 0.28354 0.2236 0.56753 0.12771 -0.16251 
prokaryotic -0.029567 0.47378 -0.48846 0.3496 -0.49071 0.16439 0.30797 -0.012447 -0.10015 -0.11387 0.33897 0.17632 -0.74876 -0.11945 0.45992 -0.6826 0.1476 -0.10571 -0.049657 0.53084 0.062006 -0.4466 0.13676 -0.30121 -0.46663 0.28064 -0.44582 -0.21714 -0.033532 0.42615 -0.50027 0.050528 -0.075985 0.32577 -0.47335 0.2984 0.40821 1.0121 0.024133 -0.19069 0.2273 -0.0070005 -0.023026 0.09156 0.34711 0.0032265 0.5361 -0.055557 0.33157 0.18369 0.011611 -0.62584 -0.55436 -0.72252 0.12939 -0.10096 0.056966 -0.13587 -0.030882 0.33717 -0.089957 0.046255 -0.15222 0.00022052 -0.38343 -0.3083 0.027247 0.24344 -0.19737 -0.33152 0.19358 0.077998 0.95112 0.21201 -0.24058 -0.03522 0.24995 0.47585 -0.1728 -0.44365 0.46427 -0.37024 -0.48424 0.77152 -0.04129 -0.75332 0.538 0.031442 -0.75498 -0.081499 0.40621 0.58106 -0.10674 0.24313 -0.17631 -0.41046 0.38928 0.42649 -0.25462 0.02425 0.11659 -0.45324 0.29416 -0.15048 0.036771 0.072995 -0.88425 0.1648 0.32527 -0.078481 -0.58395 -0.11153 0.37018 -0.28442 0.65424 0.21339 0.44927 0.51992 0.22652 0.52087 -0.24542 -0.48438 -0.9738 0.27522 0.49396 -0.13319 -0.55692 0.77301 0.076888 -0.22513 0.15723 -0.042848 -0.043808 -0.25791 -0.042322 -0.026311 -0.74418 -0.041582 -0.057099 0.39822 0.38014 0.61686 0.77113 0.16223 -0.24831 0.27217 0.068933 0.13933 -0.1242 0.25214 0.56133 -0.64132 -0.23493 0.12302 0.11897 -0.045758 0.70671 0.28275 -0.18929 -0.20231 -0.44124 0.17457 -0.093999 -0.10758 0.029435 0.12782 -0.47261 -0.53077 0.12609 -0.087901 -0.22985 -0.73113 -0.33709 -0.20345 0.07491 0.062782 -0.3771 0.004716 0.45073 0.2462 -0.67194 -0.28577 -0.095331 -0.27292 -0.20752 0.22591 0.39737 -0.58929 0.39222 -0.26252 -0.088186 -0.8042 0.097942 0.15118 -0.17227 0.01442 0.6397 -0.16191 -0.15794 -0.066389 -0.23664 0.18074 0.12753 -0.082458 -0.17846 -0.15165 -0.41487 -0.049535 0.21337 -0.1812 0.54761 0.17212 0.31955 0.28977 0.30252 -0.23076 -0.2328 -0.7539 -0.085937 -0.098983 0.37324 -0.41989 0.22473 0.49747 -0.1045 0.31469 0.12244 0.0018166 -0.29575 0.0044037 0.21136 -0.62698 -0.38125 -0.59053 0.18987 0.051459 0.49343 0.14409 0.22198 0.2941 0.47507 0.32925 0.22597 -0.35856 -0.013918 0.41785 0.093297 -0.17874 0.50447 -0.43783 0.054866 -0.24341 -0.20602 0.28111 0.047401 -0.35905 0.060077 -0.5425 0.17097 0.20835 -0.11091 0.5754 -0.81684 0.14201 -0.64998 -0.11154 0.12107 0.11846 -0.49605 0.15539 0.47779 0.1463 0.012161 -0.23524 -0.022573 -0.30761 -0.35735 -0.34693 -0.21854 0.20127 0.61932 0.60953 -0.15871 -0.40986 -0.18578 -0.4101 0.45031 0.18027 -0.37818 0.72243 -0.30478 -0.74346 0.34441 0.29945 0.12297 -0.048364 -0.196 0.56532 0.13131 -0.46728 
microorganisms -0.14336 0.31535 -0.50724 0.067669 -0.73871 0.28752 0.21688 -0.46731 -0.19502 0.099776 -0.026185 0.50968 -0.27568 0.26345 -0.16378 -0.5973 0.11768 -0.0019738 -0.095123 0.2615 0.16471 -0.11501 0.16209 -0.2388 -0.2666 0.11203 -0.15476 -0.55674 0.22299 0.38582 -0.29778 0.31887 -0.61971 0.56021 -0.016006 0.28149 0.33541 0.40595 0.048473 -0.078162 0.37747 0.4444 -0.06221 0.025114 0.082113 0.21904 0.30626 0.09394 0.3041 0.10065 -0.12945 -0.23355 -0.40069 -0.31564 0.26347 0.040759 0.062179 0.1684 0.043572 0.16736 -0.5904 -0.25893 0.18864 -0.10896 -0.38859 -0.36295 -0.1746 0.31991 0.1239 0.20015 -0.27881 0.26027 0.32994 -0.2036 0.022891 0.17769 0.38664 0.3356 -0.04888 -0.51452 0.15259 -0.234 -0.11675 0.10204 -0.070092 -0.33896 0.36799 -0.2242 -0.37745 0.058619 -0.068507 0.30768 0.083556 0.01111 -0.18345 -0.14084 0.1797 0.37821 0.10581 0.081492 0.057658 -0.2493 -0.020066 -0.60625 0.00068549 0.19638 -0.7623 0.083144 0.030192 0.0068669 -0.37032 -0.047949 0.19548 0.116 0.25966 0.30303 0.2141 0.13767 0.39866 0.18407 -0.011462 -0.46799 -0.48988 -0.14139 -0.060445 -0.19874 -0.33795 0.599 0.015185 0.041992 0.12796 0.13537 -0.21472 0.038188 0.08362 0.19145 -0.43031 0.24709 -0.3231 0.24506 0.30844 0.77759 0.22475 -0.00062012 -0.3375 0.20895 0.2297 -0.034847 0.32112 -0.10809 0.60499 -0.21351 -0.065718 -0.14653 -0.047266 0.17878 0.21585 0.31069 -0.004249 -0.015956 -0.51304 -0.090166 -0.3167 -0.38582 0.23486 0.035495 -0.34275 -0.3585 0.65651 0.21448 -0.062388 -0.71709 -0.0075355 0.305 0.019084 0.34053 -0.55057 -0.41234 0.015558 0.30156 -0.34912 0.2447 0.027117 -0.24259 -0.13657 0.18335 0.07013 -0.077928 0.1872 -0.38214 -0.17247 -0.58177 0.038362 -0.2433 0.10566 -0.12372 0.049916 0.16392 -0.15778 0.19496 -0.18482 -0.057455 -0.28098 0.0415 -0.12879 -0.6087 -0.32974 -0.24105 0.052057 0.51763 0.80932 -0.26809 0.41822 0.44791 -0.171 -0.19127 -0.14959 -0.3106 -0.090863 -0.10295 0.11424 -0.26 0.33896 0.27424 -0.10357 0.10448 -0.4294 -0.50913 0.0096703 -0.15105 -0.070277 -0.6595 -0.28634 -0.35194 0.37878 -0.08459 0.098949 0.019329 0.23273 0.08909 0.30518 -0.20199 0.32325 -0.40823 -0.41277 0.44956 0.012876 -0.28667 -0.2932 -0.43323 -0.17667 -0.14961 -0.36889 0.54194 0.12093 -0.13877 -0.19169 -0.039237 -0.041874 0.065846 -0.2588 0.55296 -0.44711 0.11559 -0.7981 -0.20541 -0.41176 -0.095465 0.028688 0.036749 0.21408 -0.37714 0.1046 -0.23207 -0.32526 -0.11562 -0.25131 -0.21668 -0.12276 0.20533 0.43463 0.42815 -0.24312 0.069709 0.07758 -0.21028 0.31503 0.11636 -0.55445 0.66631 -0.33299 -0.32398 0.18717 -0.28183 0.024971 0.13678 0.23437 0.71986 0.063012 -0.11853 
earth -0.30029 -0.070795 -0.12162 0.39159 -0.30155 0.048568 -0.25531 0.078062 -0.085115 0.41076 0.18687 0.60866 0.22032 0.019179 0.020512 -0.0288 0.045304 0.2369 -0.20644 0.53383 -0.39098 0.50703 -0.13486 -0.12219 -0.34947 -0.047642 0.054833 -0.16379 -0.21724 -0.046662 -0.0059427 0.58241 0.14925 0.22622 -0.24634 0.18299 0.056697 -0.37334 0.39991 0.096481 0.17243 0.057691 -0.30473 0.02301 0.18662 -0.25616 0.23341 0.15354 0.25112 -0.0041825 0.096122 0.002797 -0.026974 -0.50333 0.18141 0.44531 -0.0021167 0.20863 0.20385 -0.04118 -0.1168 -0.052269 -0.036812 -0.13551 -0.15393 -0.19439 -0.032167 0.20394 0.2436 0.30754 -0.13092 0.014484 0.36095 -0.022595 -0.17498 -0.10758 0.0089354 0.09376 0.10654 -0.33209 0.10336 0.15132 -0.30745 0.22263 -0.19792 0.039624 0.18186 0.35344 0.016328 0.25445 0.13643 0.089985 0.12401 0.14211 0.25257 0.2902 0.14051 0.18059 -0.35056 -0.23167 -0.043555 -0.19904 -0.12911 -0.43421 -0.53314 0.048764 -0.22021 -0.072523 -0.18829 0.088367 -0.069417 -0.14026 0.29681 0.051595 -0.0054101 -0.37584 0.48191 0.32477 -0.013913 0.12776 -0.032969 0.13787 0.057044 -0.00088853 -0.0051027 0.016233 0.13117 0.35048 -0.084608 0.13144 0.13653 0.090748 -0.0772 0.46432 0.1223 -0.14117 -0.041668 -0.03807 0.28797 0.37811 -0.28492 0.015832 0.087261 -0.10085 -0.17085 -0.045793 0.033005 -0.11005 -0.0035775 0.17967 0.68286 -0.086583 -0.1014 -0.043612 0.19707 -0.23712 -0.10457 0.15089 -0.069523 -0.28672 -0.34678 0.17305 0.019049 0.24681 0.065673 -0.025254 0.11065 0.19124 0.034263 -0.05245 -0.10735 -0.20086 0.031069 -0.11147 0.033249 0.25878 0.087293 -0.040857 0.29058 -0.18439 -0.0021068 0.013604 0.35819 -0.2309 -0.02717 0.082835 0.065719 0.25104 0.49615 -0.3877 0.082231 -0.34916 0.16296 -0.09862 -0.26693 0.14712 -0.26544 0.26091 -0.062453 -0.18919 0.13133 -0.23394 -0.30793 0.32792 -0.25532 -0.45141 -0.35825 0.16595 0.36173 0.25317 0.94405 -0.010114 -0.049888 0.11265 0.093221 -0.35403 0.081343 -0.39005 -0.30948 0.12409 -0.62159 0.019733 -0.41271 0.14448 -0.3234 0.16657 -0.22115 0.017922 0.012873 0.021907 -0.030021 0.15461 -0.54719 0.2135 0.16163 -0.31959 -0.31292 -0.034294 -0.27492 -0.29017 0.23378 0.16709 -0.00062392 -0.24219 -0.09166 0.079889 -0.063531 -0.031129 -0.36094 0.014001 -0.08852 -0.068809 -0.34625 0.3264 0.30316 -0.088608 -0.19342 -0.068598 0.15786 0.36233 0.18417 0.10316 -0.037283 0.032879 -0.11795 -0.64619 -0.64488 0.25105 0.016954 -0.09434 0.039819 0.13602 0.30992 -0.035798 -0.19226 -0.023619 -0.24807 -0.23318 -0.18508 0.14159 0.40336 -0.12645 0.17057 -0.16086 -0.32847 -0.36903 0.086951 -0.20479 -0.015111 0.81706 0.086482 0.082676 0.079211 -0.058553 0.054003 0.027518 -0.064571 0.33365 -0.12823 0.2762 
soil -0.25541 -0.17983 -0.12814 0.14014 -0.36286 -0.23503 0.15962 -0.67955 -0.055754 0.37278 0.15245 0.2364 0.035346 0.13691 -0.054388 -0.49639 -0.30966 -0.24893 -0.044626 0.51416 0.31337 -0.40901 -0.22787 -0.20459 -0.17132 0.054819 -0.090273 -0.15687 0.21319 -0.039301 -0.054951 0.18328 -0.60294 0.027365 -0.34891 0.024264 0.067826 -0.050392 0.25858 -0.17843 0.56299 0.44785 -0.058486 -0.17313 -0.015954 0.22292 0.3998 -0.13037 0.452 -0.14984 -0.10451 0.21412 -0.15983 -0.096104 0.36341 0.33317 -0.17747 0.1964 0.030268 0.23101 -0.35706 -0.2552 0.10637 -0.12598 -0.15631 -0.59425 -0.33073 0.037275 0.046586 0.15657 -0.33731 0.044983 0.3025 -0.19289 0.221 0.014814 0.18516 -0.20127 -0.23386 -0.45438 -0.039549 0.12184 -0.19117 0.0081395 -0.62054 -0.35102 0.40217 -0.092411 0.048257 -0.045468 0.052943 -0.081854 0.24535 -0.15311 -0.35134 0.2004 0.055895 0.20965 -0.12056 -0.36652 0.1955 -0.49633 0.36216 -0.51374 -0.32597 -0.22401 -0.4677 0.062253 -0.17184 -0.37235 -0.02192 0.17595 -0.36631 0.11386 -0.21 -0.087399 0.029347 0.23063 0.32319 0.32041 0.39343 0.10203 -0.016648 -0.21229 -0.26111 0.10221 0.056037 -0.10258 -0.042717 -0.30124 -0.073092 0.17231 -0.10922 0.0048488 -0.11069 0.32482 -0.1562 0.11502 -0.20078 -0.041963 0.042926 0.59207 -0.043645 0.36401 -0.38422 0.38794 -0.027307 0.21673 0.15181 0.38093 0.48291 0.11707 -0.066773 -0.16811 0.33045 0.012724 -0.20038 0.31404 0.23 -0.24916 -0.10875 0.21782 -0.37063 -0.41735 0.38991 -0.16632 -0.2422 0.015427 0.50869 -0.28923 -0.025831 -0.030399 -0.28425 -0.16076 -0.22181 0.48309 -0.136 -0.42689 0.070516 -0.092471 -0.074434 -0.16083 0.24497 0.018875 0.0061817 0.20371 -0.02319 0.13652 0.27005 -0.52041 0.016936 -0.44868 0.12066 0.29528 -0.011172 -0.070968 0.14749 -0.28472 -0.32849 0.12489 -0.17371 -0.21513 -0.15382 0.22211 -0.23292 -0.37146 -0.094384 -0.3999 0.22925 0.42822 0.50347 -0.19507 -0.021207 0.49881 -0.44144 0.083159 -0.26437 -0.37043 -0.26221 -0.044548 0.005787 -0.32178 0.060735 0.21239 -0.085459 -0.0029497 -0.44425 -0.072948 0.030843 -0.39983 -0.14042 -0.0030052 -0.52864 -0.28652 0.19565 -0.54169 -0.010517 -0.063641 0.27869 -0.30376 0.19974 0.021885 0.084297 -0.39925 0.1134 0.1557 -0.12932 -0.33142 -0.18132 -0.053766 0.17606 -0.45289 0.25322 0.29318 -0.17554 0.05578 -0.32342 -0.13685 0.41552 0.1235 -0.031932 0.36071 -0.35099 0.042621 -0.14161 -0.15868 -0.48527 0.1094 0.054219 0.073195 0.29035 -0.18002 0.4116 -0.070521 -0.18162 0.05984 -0.2848 0.034747 -0.016743 0.21705 0.2176 0.11169 -0.37066 -0.2585 -0.24121 -0.36629 -0.11392 -0.031859 -0.52837 0.18365 0.010828 -0.28922 0.037994 0.024379 -0.22811 0.27132 0.22231 0.44736 -0.28732 0.21736 
acidic -0.2134 0.22911 -0.80706 -0.10635 -0.41037 -0.16881 0.40556 -0.73491 0.16937 0.47919 0.046524 0.16577 -0.26649 0.10141 -0.055425 -0.48149 -0.36659 -0.33531 -0.34175 0.25643 0.40888 -0.68771 -0.14388 -0.14803 -0.20452 -0.1278 -0.21314 -0.081734 -0.067911 0.4184 -0.549 0.042511 -0.37061 0.14928 -0.13822 -0.16312 0.097412 0.28117 -0.10893 -0.28284 0.47645 0.42669 -0.35339 0.13083 0.59713 0.082082 0.29286 0.087441 -0.18736 0.24455 -0.20792 0.23042 0.34727 -0.56382 0.35788 0.18931 0.089955 0.43449 0.18639 0.33316 -0.19729 0.3414 0.082414 0.36131 0.20258 -0.13399 -0.21398 0.19635 -0.10822 -0.077531 -0.38174 0.26851 0.1053 0.26908 -0.47512 0.28062 0.067197 0.22692 -0.48917 -0.40484 -0.0024699 -0.29945 -0.3169 0.3202 -0.46098 -0.1969 0.78555 0.023517 -0.0043582 -0.36009 0.24417 0.30758 0.18451 -0.25688 -0.10797 0.30618 0.30919 0.43148 0.26933 -0.053369 0.36067 -0.12316 0.14152 -0.063419 0.27065 -0.46434 -0.53359 0.38122 -0.024614 -0.35466 -0.39496 0.089827 -0.4369 0.20099 -0.34084 0.5817 -0.10672 0.14174 0.068917 -0.15249 0.52904 -0.25322 -0.26348 0.406 0.073912 0.061834 -0.41537 0.0062973 -0.5386 0.31749 -0.061671 0.20367 -0.31127 0.13334 -0.27611 -0.04288 0.011123 0.26995 -0.40088 0.057006 0.17302 0.82758 0.10836 0.1078 -0.31625 0.1961 -0.19173 0.27771 -0.059299 0.48204 0.59959 -0.41942 0.077103 -0.13759 -0.16838 -0.28076 0.19527 0.19731 0.23188 0.040049 -0.022153 0.33515 -0.36564 -0.40446 0.051101 -0.027628 -0.11239 -0.55571 0.28314 0.083341 -0.063188 -0.34968 0.04951 0.24676 -0.024919 -0.08247 -0.067534 -0.059003 0.15746 -0.17081 0.017068 -0.10079 0.58637 -0.30936 0.037339 0.46717 0.082235 0.0099799 0.2683 -0.12625 -0.16569 -0.2134 0.15317 0.040032 -0.34938 -0.011094 0.019173 -0.071983 -0.23186 0.42998 -0.15752 -0.40511 0.013001 0.15065 0.036552 -0.69248 -0.2638 -0.10079 -0.050918 0.40691 0.46733 0.0072864 -0.25217 0.53723 -0.54401 -0.080162 -0.32919 -0.71021 0.0668 -0.23038 -0.018046 0.52293 0.28825 0.079424 0.40529 -0.2847 -0.31186 -0.3586 -0.094172 -0.036667 -0.25534 -0.37347 -0.32399 -0.2709 0.21196 -0.18117 -0.034809 -0.30647 0.044773 0.221 0.30428 0.030092 0.18225 -0.14039 -0.17892 0.3682 -0.49143 -0.11196 -0.51054 0.17537 0.23055 -0.016556 -0.12543 0.30342 0.11085 -0.096897 0.18211 -0.14324 0.25429 0.23932 0.10846 0.64938 0.1586 0.26223 -0.7258 -0.49911 -0.33627 0.017709 -0.49861 0.067671 -0.19008 -0.2055 0.66364 0.24377 -0.12703 -0.39161 -0.52458 -0.068277 -0.21243 0.40359 0.60708 0.69588 -0.26611 0.19712 -0.021594 -0.55985 0.64515 -0.35439 -0.47618 -0.13424 0.11307 -0.17163 0.14496 -0.060592 -0.34305 -0.16518 0.20376 0.50344 0.1997 0.0010448 
hot 0.24237 -0.16009 0.66281 -0.28115 0.09719 -0.058844 0.28909 0.36479 0.35289 0.15912 0.039271 0.1716 0.082537 -0.11041 0.18316 -0.089184 -0.3341 -0.41337 -0.023752 0.50405 -0.30578 0.28971 -0.24234 0.15302 -0.10153 -0.27778 0.12013 -0.23244 0.0058417 -0.064865 -0.1891 0.38527 -0.21047 0.047251 -0.38714 -0.133 0.020291 -0.18704 0.21516 -0.32145 0.21208 0.34168 -0.37631 -0.046873 0.52309 -0.2314 -0.11862 0.30456 -0.23433 0.18734 0.06472 -0.12182 0.056851 0.2129 0.057811 0.0090099 -0.047418 0.38715 0.50432 -0.0050885 -0.32207 0.067285 0.24553 0.17088 -0.10346 -0.35493 -0.54154 0.082762 0.19797 -0.31625 -0.080284 0.25024 0.016518 -0.1652 -0.35471 0.30117 -0.3499 0.05664 -0.37364 -0.033888 0.1797 0.090612 -0.12183 -0.29373 -0.28748 -0.28371 -0.068889 0.080506 0.45766 0.15544 -0.21517 0.17437 0.25465 -0.24746 0.43228 -0.16964 -0.10573 -0.18544 -0.24246 -0.08517 0.40635 -0.32019 0.1896 0.11636 0.012308 -0.19759 -0.11805 0.3871 0.12688 -0.35132 -0.16642 0.18312 -0.15159 -0.20206 0.074446 -0.1293 0.50223 -0.13058 0.32166 0.48604 0.6635 -0.10779 -0.076798 0.17641 0.1959 -0.33291 0.24441 0.044278 -0.19775 0.56565 0.26094 0.36814 -0.010492 0.76348 0.2883 -0.52549 -0.18562 0.053862 -0.27602 0.054569 0.30172 0.39556 0.42966 0.31359 -0.41753 0.2031 -0.039269 -0.17873 0.032379 0.20165 0.28892 -0.14372 -0.041318 -0.43497 0.082208 -0.1041 0.08708 -0.063718 -0.10638 -0.28019 0.28103 -0.11736 -0.12511 -0.056595 0.057057 0.067385 -0.36467 -0.47833 0.37703 -0.095923 -0.037864 -0.38953 0.10782 0.062818 0.13007 0.21859 -0.44466 -0.25619 0.22586 0.16752 -0.040597 -0.054605 0.52193 -0.28147 -0.55027 0.33709 -0.075104 -0.16581 -0.29145 -0.11829 -0.044208 -0.13913 -0.25833 0.042942 -0.38972 0.02889 -0.26386 -0.014198 -0.55617 -0.24481 0.14432 0.36694 0.61549 -0.39897 -0.38532 -0.29272 -0.17958 -0.40931 0.050144 0.14103 0.67523 -0.4072 -0.25309 0.095724 0.54481 -0.14239 -0.41363 -0.42195 0.15954 -0.028555 0.014309 -0.34312 0.33616 -0.33483 -0.10655 -0.046721 -0.24476 0.25262 -0.24214 0.411 -0.35454 -0.17146 0.23077 0.23359 -0.040151 0.2331 0.15099 -0.11752 -0.51211 0.17626 -0.048862 0.20585 0.16403 0.032217 0.069741 0.13633 0.19322 -0.040862 -0.050658 -0.11381 0.33538 -0.14058 -0.40334 0.36092 0.0087006 -0.093241 -0.52829 -0.39241 0.32017 0.02393 -0.16239 0.3667 0.26299 -0.44631 -0.56815 -0.26283 -0.20806 0.17833 -0.14703 -0.27775 -0.32832 0.41674 0.038871 -0.14413 -0.050478 -0.37772 -0.0021815 0.14178 -0.39901 0.083234 0.47619 -0.26176 0.053349 -0.082127 0.20439 -0.053797 0.28191 -0.3003 0.026501 -0.10012 0.021812 -0.28597 0.46221 0.2231 -0.19709 -0.02078 0.6734 0.2802 0.57723 0.16271 
springs 0.36853 -0.062043 -0.11002 0.50617 -0.29878 -0.58408 0.29782 -0.12374 -0.10965 0.13107 0.21637 -0.013482 0.16147 -0.25609 -0.029722 0.085575 -0.1187 -0.24383 0.043607 0.44557 -0.43084 0.61017 -0.54816 -0.13257 -0.49341 -0.36422 0.040593 -0.13244 0.032349 -0.26192 -0.56377 0.28677 -0.34043 -0.16308 0.016878 0.089032 -0.32484 -0.072836 0.27834 -0.28683 0.61197 0.20414 -0.098116 -0.0028519 0.55062 0.066927 -0.086154 0.11211 0.27555 -0.28923 0.080852 -0.092021 0.012605 0.27776 -0.22174 0.36009 0.081407 0.48104 0.12743 0.33956 -0.13329 0.22766 -0.04197 0.035009 0.14633 0.0676 -0.57669 -0.2852 -0.080851 -0.19114 0.096023 0.061856 -0.086442 -0.089617 -0.030799 -0.30432 0.23383 -0.058094 -0.23762 -0.14351 -0.4947 0.1205 0.062147 -0.22992 -0.70086 -0.0024585 0.45891 0.0050313 -0.14751 0.018987 -0.18085 0.0083812 0.16481 -0.33706 0.29533 0.15945 0.14292 0.81317 -0.51389 -0.19433 0.049748 -0.11219 0.18642 0.051052 -0.09155 0.36269 -0.13653 0.33205 0.22279 -0.22528 0.03858 -0.08402 -0.12289 0.23258 0.32282 -0.088381 0.20858 -0.091016 -0.038296 0.44366 0.85235 0.34031 -0.07515 0.030613 0.30172 0.11236 0.35004 0.24919 -0.083118 0.25529 0.04037 0.27317 0.23879 0.31091 0.42247 -0.34681 -0.4689 -0.071017 -0.37497 0.20155 0.33671 0.49981 0.059228 0.28385 0.29809 0.33519 -0.27343 -0.076182 -0.23222 -0.13195 0.39677 -0.14838 0.40742 -0.36723 0.021435 -0.081482 0.10439 0.076281 -0.032899 -0.10003 -0.029272 -0.1317 -0.29741 0.093138 0.032226 0.013461 -0.58967 0.1889 0.093584 -0.41352 -0.62516 -0.065208 -0.62965 -0.20487 -0.083692 0.37721 -0.24331 0.079059 -0.018211 -0.09722 -0.46045 0.14904 0.39104 -0.54577 -0.25364 0.17552 -0.39255 0.1015 -0.24404 0.31599 -0.1248 -0.24356 -0.06663 -0.17464 -0.028061 0.14494 -0.071671 0.19988 -0.17832 -0.0017777 0.13474 -0.13053 -0.39222 -0.44982 -0.24661 -0.23718 -0.099645 -0.39752 0.45567 0.35272 0.31446 -0.25274 0.10332 -0.17442 0.28783 -0.22071 -0.26826 -0.29785 0.36869 0.48627 -0.051357 -0.011439 0.31265 -0.2627 -0.030004 -0.11475 -0.30608 0.30082 -0.028736 0.22858 -0.058973 0.032523 0.30531 -0.086779 0.022021 -0.24784 -0.080569 -0.09951 -0.44873 0.013038 -0.030323 0.15407 -0.25726 0.10555 -0.27984 -0.029221 -0.24976 -0.25524 -0.21836 -0.34217 0.14023 -0.015908 0.2365 -0.037396 -0.031926 0.12014 -0.10131 0.047611 0.17167 -0.16594 -0.15577 0.19285 0.33149 -0.31104 -0.3279 0.032068 -0.26701 0.27737 0.0021229 0.55244 -0.1015 0.095188 0.15833 -0.078074 -0.27666 -0.38759 0.29454 -0.34593 -0.39994 -0.029606 0.29192 -0.11866 -0.053525 0.02167 0.4075 -0.098745 -0.2241 -0.1176 0.02692 -0.015591 -0.058972 -0.50699 0.30702 0.6977 -0.31485 0.23145 0.21221 0.1386 0.17919 -0.20057 
radioactive 0.017055 -0.071183 -0.1247 0.16305 -0.31441 -0.24413 0.18869 -0.83146 -0.32006 0.049075 -0.0033698 0.56967 -0.32401 -0.047522 -0.050423 -0.28231 0.23917 -0.06034 -0.32788 0.48235 -0.2552 -0.40932 -0.45693 -0.053883 0.2208 0.1867 0.053662 0.26716 -0.020034 0.28494 -0.091136 0.56016 -0.16846 0.084197 0.1893 0.030922 0.16481 -0.45093 0.14379 -0.10507 0.17625 -0.028548 0.054603 0.0030685 0.21966 -0.35831 0.024446 0.10588 0.10493 0.1887 -0.27571 -0.29566 0.11865 -0.24034 0.22978 0.089455 0.046147 -0.1489 -0.033634 -0.05741 -0.76833 -0.17646 0.29242 0.0099584 -0.18432 -0.58599 -0.28479 0.22881 -0.47487 -0.054562 0.067703 0.13863 0.23469 -0.233 -0.18044 0.22097 0.096316 -0.12142 -0.10459 -0.172 -0.089783 0.1209 -0.55297 -0.18954 0.060657 -0.16643 0.10558 0.22207 -0.1655 -0.19047 0.10269 0.15224 0.22543 0.1695 0.21543 0.39945 0.46872 0.29736 -0.35554 -0.32825 0.31121 -0.3462 -0.041001 0.095381 0.10605 -0.31253 -0.689 0.023898 -0.071152 0.0011282 -0.68975 0.0068182 -0.26716 -0.077802 -0.19703 0.02889 0.20396 0.10478 0.12341 -0.074793 0.26787 -0.17495 -0.11867 0.40954 0.017231 -0.51618 0.15898 0.64676 0.082881 -0.15185 -0.18662 0.17734 -0.17296 0.19879 0.49704 -0.13329 0.11195 0.38664 -0.067111 0.32791 0.45104 0.35636 0.074644 -0.24075 -0.41241 0.2437 0.36296 0.42562 0.29608 0.14885 0.37751 -0.15912 0.11534 -0.25671 -0.17785 -0.14858 -0.10823 0.14274 -0.19668 -0.2603 -0.02789 0.10253 -0.68763 -0.2961 -0.23133 0.46454 0.19597 -0.16555 0.35216 0.10905 -0.10452 -0.18333 0.022309 -0.0054546 0.097734 0.065231 -0.37201 -0.23667 -0.24306 -0.040013 -0.28312 -0.11353 0.065877 -0.51294 -0.26275 0.015807 0.42029 0.048811 0.067475 0.020934 -0.2238 -0.45888 0.068291 -0.22678 -0.46979 -0.32496 -0.24333 -0.23957 0.10781 -0.10148 -0.14223 -0.095551 0.085409 0.023939 0.033206 -0.36928 -0.091348 0.14303 0.11453 -0.29043 0.63321 -0.34419 -0.048506 0.45469 0.0035748 -0.57073 -0.61117 -0.40212 -0.090819 0.35115 -0.11858 -0.0049338 -0.11154 0.57012 -0.3023 -0.30624 -0.29804 -0.2266 0.25303 0.036007 -0.036076 -0.12199 -0.56092 0.24575 0.48076 -0.14672 -0.071697 -0.33319 -0.32137 0.37339 0.27109 0.14035 0.054309 0.31045 -0.044935 0.26807 -0.00095595 -0.1716 -0.67239 -0.066125 -0.34109 -0.2325 -0.47934 0.22634 0.43046 0.035452 0.015891 -5.7512e-05 0.075848 0.31173 0.27567 0.30816 -0.18481 0.009549 -0.28743 -0.37534 -0.41281 -0.064878 -0.37041 0.044541 0.030333 0.17936 0.5559 -0.048873 -0.067674 0.049431 0.10215 0.2608 0.074123 -0.027164 0.54865 0.071364 0.032186 -0.33342 0.06322 0.39541 0.31477 -0.49568 -0.6336 0.29064 0.56585 0.073309 0.11976 0.11011 -0.1506 0.15797 0.22034 0.25566 0.16338 0.70054 
waste -0.21495 0.090211 -0.10221 0.37634 -0.19817 0.064439 0.44209 -0.61014 -0.033304 0.25506 -0.10329 -0.38032 0.39961 -0.17028 -0.27832 -0.53037 0.031399 0.066882 -0.3003 0.47895 -0.057582 -0.15408 -0.082296 -0.069195 0.14277 -0.082117 -0.23697 0.16866 0.2162 0.54938 -0.12748 0.42157 -0.56274 0.48023 0.26462 -0.20638 0.28347 -0.41236 -0.014496 -0.43177 0.13322 0.1469 0.12277 0.023021 -0.094675 0.15402 0.1971 -0.48592 -0.182 -0.072851 -0.42516 -0.1424 0.20036 -0.30299 0.033526 0.19975 -0.078928 0.037984 -0.16184 0.0036889 -0.36716 -0.081948 0.20731 -0.1168 -0.23338 -0.38341 -0.047935 0.032436 -0.50063 0.068789 -0.098407 0.25863 0.27189 0.061603 -0.46084 0.089728 0.28249 0.10262 -0.075479 -0.22154 0.14325 -0.050105 -0.36684 -0.17462 -0.34582 0.10747 -0.21313 0.083415 -0.015355 0.019895 0.033719 0.038715 -0.094673 -0.18134 -0.13151 0.54569 0.12799 0.38138 0.05429 0.16116 0.24814 0.13109 0.34825 0.099135 -0.23429 -0.26556 -0.59886 -0.067272 -0.48188 0.02828 -0.25915 0.46028 -0.31455 0.40275 -0.024876 0.070721 0.34501 0.18024 -0.035456 0.092353 0.20031 -0.17337 -0.045591 -0.052395 -0.029502 -0.008372 -0.040993 -0.015418 0.12254 0.19302 0.41904 0.28012 -0.065286 0.23009 0.4964 0.029271 -0.22322 -0.065769 0.32383 0.17553 0.16519 0.39309 -0.1413 0.040478 -0.16881 -0.24357 0.21874 -0.34508 0.34492 -0.0089191 -0.17841 0.031116 0.075628 -0.15728 -0.0044843 0.25568 -0.24621 0.082903 0.07757 0.021464 0.093253 0.092485 -0.40628 0.26656 -0.06183 0.22196 -0.39236 -0.28969 0.47633 0.11392 -0.61198 -0.37801 0.14386 -0.12042 -0.15377 0.13912 -0.32591 -0.14994 -0.073338 -0.27866 -0.18835 0.072388 -0.12169 0.022276 -0.11016 0.13952 0.22851 0.17619 0.10957 -0.43866 0.093479 -0.38379 -0.39045 0.0070796 -0.022998 -0.46125 -0.028119 -0.13361 -0.20865 0.010817 -0.18564 0.054567 0.033916 0.1177 -0.32323 -0.17263 -0.1741 0.080616 -0.024054 -0.072918 0.35152 0.027696 -0.063982 0.34651 0.21081 -0.14247 -0.081586 -0.29329 0.14848 0.33856 -0.13425 -0.17745 0.057784 0.3636 0.083046 -0.29902 0.025156 -0.16153 0.069189 -0.12686 -0.24514 -0.25267 -0.43998 -0.036545 0.36509 -0.19144 0.16339 -0.066771 0.25234 -0.016389 0.17876 0.30111 0.005932 0.019249 0.026009 0.32735 0.13202 0.21569 -0.30569 -0.0039936 0.26372 -0.31063 -0.13226 0.068109 0.21139 -0.087457 -0.3319 0.10798 -0.24114 0.28039 0.18839 -0.0057811 -0.1529 0.0040371 -0.25455 -0.27805 -0.16064 -0.44995 -0.032788 0.086557 0.12302 0.15276 0.022246 0.12541 -0.080498 -0.058906 0.37178 0.23092 0.017434 0.17624 0.53923 0.21517 -0.154 -0.29019 0.15042 -0.097837 0.34129 -0.38417 -0.55941 0.15045 0.71307 0.27297 -0.040902 -0.11977 -0.0071903 0.092666 -0.15923 0.5297 0.39022 0.87646 
crust -0.077428 0.21141 -0.49155 0.38607 -0.33408 0.42117 -0.033844 -0.3292 0.0096194 0.32028 0.3432 0.79172 0.22193 -0.1666 -0.0097655 -0.29851 -0.30653 -0.37439 -0.26144 0.56684 -0.2676 -0.29632 0.1862 0.14325 -0.10927 -0.15162 0.022989 -0.16788 0.11203 0.042469 -0.44351 0.050397 -0.096451 0.29839 -0.53897 0.15894 0.2158 -0.21762 -0.14808 -0.44692 0.49558 0.52766 -0.39515 -0.22798 0.34104 -0.13454 -0.023665 0.090189 0.066195 0.20415 0.19987 -0.29502 -0.070303 -0.076776 0.28619 0.3261 -0.1047 0.27528 0.37221 0.25553 -0.5406 -0.26411 0.066558 0.05756 -0.16407 0.078833 -0.27427 0.0053143 0.43986 0.080928 -0.20684 -0.22057 -0.0076388 0.025307 0.28971 0.33684 -0.40854 -0.089379 -0.15882 -0.42079 -0.02744 -0.13142 -0.51677 -0.15379 -0.096536 0.040882 0.68932 0.29116 0.11601 0.088054 -0.25925 -0.17277 0.23122 0.06221 0.11154 0.055152 -0.1028 -0.36606 0.20395 -0.14547 -0.037894 -0.59794 -0.0127 -0.23733 -0.0018681 -0.22857 -0.4683 0.0087896 -0.016259 0.040876 -0.3209 -0.1604 -0.08802 0.16957 -0.15284 0.19449 0.2163 -0.10856 0.27847 0.24872 0.12715 -0.04361 -0.042088 0.050638 0.34056 0.51416 -0.11419 0.21363 -0.2551 0.3248 -0.12826 0.21136 -0.17798 0.27223 0.41377 -0.70637 -0.29061 0.14067 -0.35672 0.2041 -0.080773 0.19873 0.11353 0.73048 -0.57756 0.67366 -0.29199 0.56799 -0.039968 0.49302 0.15507 0.092443 -0.10365 -0.25367 -0.081233 -0.39999 -0.02903 -0.33489 0.21234 -0.32047 -0.22632 0.41995 -0.37522 0.0068705 0.42098 0.15162 -0.35527 -0.14455 0.27505 -0.0072384 -0.30537 -0.33899 -0.17088 0.11812 0.016873 0.21716 -0.31281 -0.01604 -0.15213 -0.1609 0.62945 -0.069743 0.54893 0.11388 -0.47747 0.25119 0.14526 0.34624 0.5033 0.19365 0.17336 -0.16089 0.32592 -0.11346 -0.12445 0.076091 -0.057495 0.4802 0.11894 -0.21383 0.18431 -0.08119 0.15092 0.28382 -0.040093 -0.30677 0.26521 -0.25455 0.1547 -0.1111 0.93149 -0.10797 0.58601 0.46997 -0.021032 -0.48886 -0.21783 -0.43688 -0.11268 0.12681 -0.12882 0.18699 -0.34841 0.15688 0.07554 0.044411 -0.38321 -0.2253 0.20291 -0.27889 -0.70101 -0.26893 -0.66287 0.15438 0.4483 0.23165 -0.02992 0.295 -0.25561 -0.1874 0.20937 0.1634 0.17508 -0.38828 -0.44398 0.21624 0.19201 -0.11235 -0.53807 -0.34174 -0.035366 -0.034399 -0.25374 0.10587 0.53577 0.31927 0.2865 -0.48978 0.095289 0.35803 0.046036 0.53574 0.0096071 -0.11699 -0.25797 -0.72098 -0.74022 0.20821 -0.12233 -0.2096 0.057373 -0.59647 0.31118 0.01459 -0.1703 -0.24704 -0.17768 -0.0028056 0.2077 0.020714 0.70012 0.20014 -0.050385 -0.36128 -0.67778 -0.31719 0.18213 -0.43476 -0.054107 0.92817 0.24213 -0.028423 0.041568 -0.0032211 -0.41732 -0.078031 0.1964 0.57032 -0.32649 0.58106 
symbiotic -0.16112 0.34152 -0.37734 0.41749 -0.25953 0.14789 0.51832 -0.25048 -0.095143 0.57323 -0.028174 0.21963 -0.21959 -0.28129 0.0012181 -0.09891 0.43742 0.11041 0.25491 0.45608 -0.2356 -0.32124 0.30656 -0.31582 -0.49323 -0.20039 -0.51556 0.31427 -0.062641 0.15498 -0.26211 0.28642 -0.14848 0.17144 0.24811 0.18841 0.54596 0.16986 -0.000272 -0.10069 0.26537 0.0061763 -0.0097238 -0.08008 -0.20999 -0.025666 -0.10001 0.15343 -0.12628 -0.1413 -0.13419 0.25621 -0.28462 -0.25061 0.0024444 0.36517 0.27813 -0.1681 0.36904 0.48106 -0.51309 -0.21322 -0.0095892 -0.18096 -0.38154 -0.29507 -0.45572 0.34129 0.14886 0.43266 -0.063205 0.48847 0.27332 -0.15827 0.062867 0.14494 0.15131 0.33583 -0.37778 -0.0027278 0.16979 -0.53478 0.0018312 0.40715 -0.0051912 -0.0012115 0.51902 -0.045768 -0.65042 0.038663 0.16765 0.24435 -0.22879 0.052943 0.10638 -0.2157 0.35214 0.11186 0.17378 -0.31003 0.0018896 -0.28846 0.083345 -0.63501 -0.20202 0.14701 -0.47451 0.11994 0.0041463 -0.15572 -0.20593 -0.026851 0.24345 0.20993 0.024882 0.16748 0.40676 -0.014999 -0.27269 0.16135 -0.20375 -0.30837 -0.13636 0.23772 -0.11122 0.074926 -0.65085 0.18617 -0.43692 0.015274 -0.058806 0.1516 -0.26376 -0.0071433 0.19695 -0.10678 -0.72669 0.12853 0.10872 0.055733 0.014021 0.69025 0.11987 0.28434 0.056769 0.081723 -0.0050222 0.34269 0.13152 -0.28394 0.23077 -0.74906 -0.11766 -0.16825 -0.11518 -0.18128 -0.18187 -0.00090145 0.26466 0.077836 0.072682 0.19953 -0.16291 0.078507 -0.16367 -0.35568 -0.19503 -0.47577 0.51507 0.2065 0.19272 -0.32557 0.052455 0.35124 0.35889 0.088413 0.19257 -0.21656 -0.18256 0.34576 -0.19542 0.17132 -0.15067 -0.18848 -0.097524 -0.17665 -0.11643 -0.10021 0.42516 -0.20674 0.13684 -0.56818 0.51149 -0.013884 -0.26309 0.088803 -0.0075592 0.25516 -0.16157 0.10974 0.12277 -0.27965 -0.21072 0.22326 -0.016977 -0.4914 -0.49524 -0.33395 0.1895 0.35569 0.44177 -0.050568 0.40143 0.43759 0.21358 -0.003523 0.045793 -0.32221 -0.14409 -0.50595 0.18798 -0.69349 0.25579 0.47397 -0.42213 0.024367 -0.37594 -0.43719 -0.064085 -0.15274 0.29238 -0.30415 -0.042572 -0.30878 0.26442 -0.34116 0.37021 0.23965 -0.19135 -0.07533 0.064155 0.0080427 0.13213 -0.18816 0.1441 0.30156 -0.50522 0.13362 -0.23807 -0.081397 0.085302 -0.021906 -0.21587 -0.04686 0.070789 -0.13963 -0.062739 -0.21401 0.31276 -0.17451 0.039407 0.45645 -0.16437 0.032399 -0.55058 0.25939 -0.089924 0.33128 0.1381 0.016437 0.069679 -0.44113 0.27481 -0.056237 -0.41118 -0.16921 -0.27421 -0.28653 0.0098524 0.25177 0.2144 0.1185 -0.011455 -0.066698 -0.10112 0.010337 0.4869 0.43978 -0.5371 0.54685 -0.27301 -0.51593 0.091126 0.17601 0.29283 0.25735 0.039515 0.70005 -0.045056 -0.18223 
parasitic -0.094321 0.1407 -0.34618 0.41847 -0.051366 0.16438 0.38822 -0.36803 -0.015062 -0.17886 -0.11035 0.3542 -0.28683 -0.14375 -0.41696 0.035822 0.13799 0.22886 0.40223 0.50219 -0.33116 0.022362 0.4226 -0.11803 -0.4831 -0.11219 -0.15838 -0.23552 0.057733 0.12631 -0.30796 0.2757 -0.29507 0.44358 -0.21127 0.16427 0.67315 -0.15942 0.32118 -0.17582 0.15272 -0.066481 -0.11532 0.14913 -0.58875 0.14679 -0.35752 0.12017 0.32093 -0.17167 -0.088248 -0.0096604 -0.055383 -0.63726 -0.48219 0.12132 0.3752 -0.38917 0.0031515 0.1625 -0.56011 -0.17383 0.014126 0.13449 -0.1922 -0.39558 -0.35696 0.19974 0.45982 -0.02404 0.18757 -0.62937 0.47726 -0.16892 -0.19789 0.60484 0.05029 0.3342 -0.26629 -0.52005 0.083408 -0.042774 -0.045685 0.20921 -0.015854 -0.21465 0.12348 -0.075374 -0.24012 -0.097327 0.14792 -0.043017 0.17989 0.14458 0.0091422 -0.13945 0.64922 -0.068269 0.28349 -0.041481 0.70655 0.059847 0.043124 -0.25642 0.49666 0.41067 -0.61857 0.1537 0.039244 0.54873 -0.24407 0.10922 -0.21495 0.29611 0.18741 -0.082964 0.28534 0.045806 0.35928 0.46143 0.27196 0.045782 -0.29009 0.28193 -0.020008 0.1933 -0.61488 0.39478 -0.43292 -0.13517 -0.13003 0.12934 -0.13136 -0.12538 0.21684 -0.15913 -0.65806 -0.040094 -0.31838 0.35568 0.18165 0.71918 0.18252 -0.0098447 0.00034535 0.061522 -0.3241 -0.075886 0.22333 -0.17554 0.28051 -0.6105 0.17328 -0.29284 -0.36006 0.60406 0.453 -0.10666 0.22823 -0.58643 0.060786 0.040228 -0.17388 0.10589 0.029808 -0.30569 -0.30459 -0.7615 0.45479 -0.068404 0.026064 -0.15816 -0.07685 0.11328 0.47169 0.15973 -0.47152 -0.2616 -0.06472 0.40272 -0.23107 0.35133 -0.14087 -0.13913 0.16434 -0.10369 -0.60079 -0.26294 0.33834 0.10329 -0.45933 -0.885 0.22246 0.63025 -0.13014 0.089192 -0.12067 0.055891 -0.04289 -0.63369 -0.069215 -0.095895 -0.19622 0.4945 0.47815 -0.22511 0.1239 -0.43578 -0.021583 0.071008 0.47629 -0.085222 0.35186 0.42262 0.17872 -0.37288 -0.0041144 0.036507 0.47182 -0.64966 -0.20601 -0.54155 0.32483 0.58522 -0.19536 0.052422 -0.5897 -0.24343 -0.10777 -0.25415 -0.15335 -0.15312 -0.56844 -0.26957 0.18311 0.18058 0.56316 0.1267 -0.030273 -0.4087 -0.34695 -0.087681 0.096583 -0.38165 0.050334 0.7581 -0.1366 -0.35377 -0.048826 0.2312 -0.29138 -0.29538 -0.034215 0.39705 0.28357 -0.0080535 0.20256 -0.25756 -0.052093 0.058527 -0.3505 0.38463 -0.6951 -0.066068 -0.42826 -0.17335 -0.32569 0.20168 -0.090999 0.053318 0.064394 -0.28689 0.020623 -0.3747 -0.23021 -0.11903 0.036081 -0.47038 -0.19605 0.49214 -0.1203 0.32094 -0.2771 -0.044459 0.13886 -0.13036 0.28151 0.30934 -0.017619 0.58234 0.076 -0.29173 0.076948 0.35166 0.27357 -0.23152 0.066134 0.77985 0.10415 -0.18318 
phyla 0.36697 -0.024313 -0.42703 0.37102 -0.75043 0.60718 -0.092611 -0.51442 -0.047031 0.42732 0.064582 0.41398 -0.65135 -0.01884 -0.031389 -0.67697 0.11959 0.26072 -0.073953 0.71929 -0.27707 -0.28146 0.3373 -0.025869 -0.28853 -0.15086 0.0058832 -0.35892 0.15889 0.26931 -0.33587 0.39529 -0.12419 0.64442 0.014712 0.61302 0.49292 0.5113 0.163 -0.66804 0.28122 0.14779 0.11663 -0.23402 0.0059544 0.19653 0.010135 0.056503 0.064697 -0.21139 -0.34594 -0.64078 -0.38272 -0.44263 -0.092277 0.39409 0.12593 0.00056608 0.1034 0.95243 0.03373 0.29129 -0.097889 -0.098349 -0.0087645 -0.81382 -0.106 0.54084 0.33505 0.034367 0.21077 0.16156 0.76763 -0.054297 0.35338 -0.4305 0.56342 0.39113 0.14332 -0.7338 -0.037458 -0.64799 -0.93322 0.63266 -0.041835 0.073127 0.9006 -0.026967 -0.18378 0.084273 0.4154 0.34956 -0.52955 0.49229 0.046286 -0.68384 0.5377 0.22542 0.15699 0.1376 0.16791 -0.27564 -0.39594 0.042488 -0.14435 -0.18547 -0.43675 0.2628 0.24305 -0.33364 0.20344 0.16143 0.35052 -0.16163 0.24329 -0.1122 0.87314 0.69525 0.35144 0.016114 -0.45651 0.24378 -0.20012 0.55093 0.10204 0.14984 -0.31852 0.3035 0.27908 0.35719 -0.082586 0.15821 0.3612 0.44489 0.052702 0.19228 -0.9701 8.7539e-05 0.086061 0.11506 -0.07182 0.33795 0.2747 0.024811 0.068234 0.26722 -0.037374 0.406 0.079178 0.01146 0.5441 -0.74173 0.0049087 0.32937 -0.43018 0.051321 0.53755 0.46785 0.56066 0.27401 -0.48045 0.31342 0.45171 0.33316 -0.030133 -0.11976 -0.2519 -0.74707 0.035159 0.55249 0.17257 -0.0030662 -0.36976 0.15422 0.043142 0.0017807 -0.44719 0.35778 -0.25354 0.16356 -0.38967 0.42585 -0.21306 -0.027467 -0.29223 -0.11358 0.50042 0.19402 0.43583 -0.12442 0.0029294 -0.57225 0.30359 0.32444 -0.17685 0.35834 0.24295 -0.4552 0.12492 0.083479 0.059515 -0.51372 0.17992 -0.06306 0.74903 -0.39778 -0.60863 0.10415 0.27154 -0.023886 0.24066 0.0048299 0.38667 -0.017928 0.42336 -0.54103 0.017572 -0.3194 -0.066608 -0.56536 0.34762 -0.35409 -0.072623 0.68702 -0.29989 -0.032633 0.33486 -0.26252 -0.077987 -0.34082 -0.18934 -0.25837 -0.20702 -0.095833 0.38884 0.2699 -0.050799 0.42089 -0.26595 -0.097084 1.0145 0.046919 0.41769 -0.16348 0.12532 0.29392 -0.11278 -0.042803 -0.12572 -0.54631 -0.23675 -0.040949 -0.21172 0.013047 0.13686 -0.53554 -0.039568 -0.20374 0.38982 -0.11095 0.063799 0.58094 -0.32564 0.059349 -0.37704 0.306 0.28679 0.096429 0.23663 -0.28892 0.16918 -0.068999 0.31316 -0.66797 -0.0069563 0.051866 -0.26521 -0.47794 0.19484 0.20934 0.50503 0.61028 0.0017389 -0.35143 -0.22922 0.11664 0.31162 0.071031 -0.47408 0.46602 -0.40531 -0.82132 0.37484 0.60669 0.24006 -0.4003 -0.093758 0.49622 -0.035573 -0.093936 
species -0.31966 0.26761 -0.093161 0.17689 -0.29878 0.41833 0.78896 -0.66082 0.10882 -0.13697 0.40405 0.31976 0.18606 0.036059 -0.14902 -0.37972 0.059899 -0.089485 0.52796 0.0069763 0.2195 -0.41516 -0.14293 0.30177 -0.53062 0.038443 0.084318 -0.28741 0.091098 -0.012179 -0.3177 0.28401 -0.059641 0.44054 -0.041228 0.17557 0.55276 0.095087 0.24035 -0.68311 0.061525 -0.17528 0.10156 -0.020561 0.29481 0.32806 0.32586 -0.03808 0.12586 -0.36071 -0.043141 -0.14044 -0.10787 -0.48164 -0.12037 0.14463 0.11484 -0.1657 0.24039 0.62956 0.0061773 -0.13354 -0.16739 -0.38558 -0.13062 -0.24176 -0.083703 0.30012 0.073876 -0.050956 0.18406 -0.01796 0.59544 -0.32165 -0.15747 0.34075 0.20091 0.65196 0.17745 -0.0052129 -0.089216 -0.1692 -0.21104 0.048814 0.061103 -0.40991 0.57367 0.10685 -0.21321 -0.055161 -0.15337 0.22281 0.083342 0.53587 -0.050948 -0.26606 0.56642 0.59253 0.13376 0.21597 0.68463 -0.23612 -0.17264 -0.023264 0.38396 0.1068 -0.2172 0.17145 -0.11037 -0.11033 -0.034372 0.082114 -0.11722 -0.36572 0.16239 -0.26165 0.16533 0.19596 0.15082 0.06297 0.021107 -0.14021 -0.39379 0.25275 0.16519 0.44098 -0.40959 0.13268 -0.032594 0.034396 -0.085313 0.018203 0.15853 0.11919 -0.19397 -0.052765 -0.49291 -0.00088123 -0.16986 0.026172 -0.10509 0.65058 0.10429 0.10175 -0.31163 0.014507 -0.27481 -0.34997 0.67717 0.26957 0.46881 -0.63492 -0.0666 -0.23953 -0.59315 0.14591 0.063903 -0.0062562 0.62636 -0.38304 0.14402 0.29043 0.012931 -0.35696 0.24676 -0.11883 -0.46355 -0.48571 0.45983 -0.16837 0.067284 -0.0035386 -0.29124 -0.36673 0.48658 0.031192 -0.30734 -0.1604 0.40715 0.35668 -0.55415 0.52766 0.18659 -0.181 0.1296 -0.63037 -0.15957 0.22355 0.45801 -0.11313 0.0082629 -0.25127 0.56032 0.31581 -0.041406 0.00669 -0.24882 0.14592 -0.148 0.076142 0.12845 -0.15257 -0.16019 0.36678 -0.05242 -0.85688 0.055883 0.23058 0.2802 0.17715 0.49927 0.24597 0.49011 0.16298 0.016853 0.27658 -0.26667 -0.1721 0.15015 -0.52788 -0.28029 0.043138 -0.11167 0.41965 0.37169 -0.062431 0.28613 0.039971 0.0004202 -0.18354 0.25041 -0.22209 -0.5178 -0.067593 0.38883 0.22538 0.050859 -0.3352 0.11152 -0.081093 -0.25786 -0.26818 0.37452 -0.23862 0.12489 0.42104 0.1318 -0.59484 0.034412 0.014056 0.032855 -0.19112 0.27154 0.10756 0.37228 -0.24464 0.043214 -0.24649 0.10747 0.20714 0.41235 0.41987 -0.25037 -0.31972 -0.31559 0.16443 0.030196 0.47198 0.025734 -0.07619 0.046075 -0.33251 0.27955 -0.7196 0.075785 0.06153 -0.096219 -0.095498 0.16408 -0.3617 0.54594 0.43066 -0.097659 0.30316 0.43017 -0.09453 0.38113 0.38766 -0.37015 0.027586 -0.38565 -0.2327 0.22205 0.11592 -0.0056119 -0.55458 0.085931 1.0718 -0.034902 0.22364 
bacteriology 0.079689 -0.047906 -0.15355 0.15154 -0.54422 0.028356 0.22135 -0.23596 -0.2889 0.35867 -0.12962 0.27629 -0.65805 0.029692 -0.057416 -0.93679 0.32987 -0.47618 -0.51891 1.2224 0.1851 0.19066 0.038351 -0.39637 -0.34423 0.24772 -0.42368 -0.38406 0.25906 0.65443 -0.10757 0.46333 -0.76212 0.53291 -0.25214 0.02891 0.34164 0.0057546 0.30263 -0.16331 0.011472 0.25185 0.078241 0.15086 0.047024 0.094372 0.21668 -0.11904 0.17852 -0.44049 0.041753 -0.43933 -0.39573 -0.43719 0.096753 -0.48247 0.016522 -0.42576 0.025037 0.77638 -0.052176 -0.22288 0.0082671 -0.10289 -0.45232 -0.24214 -0.071791 0.064171 -0.24285 0.0067929 -0.40147 0.23486 0.69145 -0.044045 0.21116 -0.27374 0.37877 0.75176 0.37505 -0.24466 0.06427 -0.24889 0.1385 -0.24168 -0.11957 -0.23915 0.034155 -0.44209 -0.29648 -0.38973 -0.23182 0.0088039 0.17521 -0.71056 -0.67603 0.10539 -0.088746 0.30298 -0.09035 -0.24277 0.27639 -0.64168 -0.17975 0.075117 0.081536 0.10048 -0.3269 0.26877 -0.013539 -0.18338 -0.23789 0.1552 0.51003 -0.51152 0.0089267 -0.11619 0.10913 0.45134 0.44608 0.30784 0.41935 -0.62883 -0.22072 0.10045 -0.28108 -0.37067 -0.57056 0.56128 0.040921 0.10655 0.071523 0.3535 0.31557 -0.06493 -0.22139 0.25154 -0.2812 0.1618 -0.22114 0.31337 -0.033676 0.55181 0.31683 -0.080359 0.041318 0.25614 0.29773 -0.052026 -0.021793 0.091066 0.52127 0.0023056 0.32178 0.034879 0.084756 0.42128 -0.030577 0.28663 -0.16504 0.12034 -0.30199 0.53214 -0.38423 -0.47076 0.40895 0.19091 -0.23754 -0.12213 0.20284 0.37238 0.10763 -0.34999 -0.19217 -0.3964 0.15035 0.41406 -0.29652 -0.60642 -0.23422 0.80486 -0.29698 -0.21011 -0.4004 -0.5625 -0.03198 0.2668 0.054544 -0.21693 -0.23911 0.17077 -0.11455 -0.71833 0.043582 0.11454 -0.14679 0.1858 -0.0090948 -0.020489 -0.45598 -0.30869 -0.062983 0.4949 -0.20403 -0.45179 0.33187 -0.50017 -0.39811 -0.53155 0.039794 0.34205 0.23397 -0.3992 0.05354 0.07329 -0.2365 0.24565 -0.25657 0.33232 0.096097 0.18237 0.32171 -0.37174 -0.16921 0.23008 -0.77425 -0.068165 0.32683 -0.52391 -0.12877 0.052484 0.27632 -0.1812 -0.42883 -0.59298 0.18941 0.092686 0.31615 0.040687 -0.13102 0.042388 -0.27335 -0.093464 0.36807 -0.31409 -0.24587 0.27739 0.078867 -0.11313 -0.084986 -0.33039 -0.026729 0.26012 -0.065828 0.35634 0.041837 -0.32887 -0.051942 -0.3761 -0.043993 0.31043 -0.56523 0.94494 0.007603 0.42397 0.0086661 0.13647 0.29585 -0.30002 0.26364 0.30368 0.012664 -0.1225 -0.097089 0.32312 -0.12689 -0.41574 0.02223 -0.31738 -0.14014 0.59579 -0.475 0.21323 0.041702 -0.26732 -0.38432 -0.18942 0.017881 0.52556 -0.24226 0.24394 -0.26681 -0.32991 1.006 0.20098 -0.41679 0.028297 0.19927 0.18667 -0.19408 -0.26154 
microbiology 0.13257 -0.0014342 -0.070003 0.16638 -0.28941 0.16055 0.20122 -0.19741 -0.089201 0.20633 0.088118 0.20095 -0.6102 -0.19002 0.22007 -0.83345 0.11683 -0.30035 -0.60523 0.88756 0.1679 0.32846 0.15925 -0.30041 -0.40552 -0.14328 -0.42506 -0.39396 0.21282 0.42161 0.01814 0.52575 -0.65111 0.45408 -0.49874 0.095338 0.34272 0.20822 0.08747 -0.2352 -0.0062826 0.45034 -0.19796 -0.17814 0.15489 0.14315 0.2679 -0.10685 0.34115 -0.28241 -0.073164 -0.49364 -0.15869 -0.56896 0.37248 -0.62889 -0.12665 -0.3751 0.1782 0.64214 -0.2808 -0.12693 -0.015617 -0.21839 -0.19379 -0.2065 -0.11279 0.045974 -0.19637 0.20661 -0.43915 0.01938 0.69425 -0.0067694 0.080248 -0.22017 0.54552 0.32301 0.47169 -0.21028 0.21402 0.13862 -0.028308 -0.30795 0.25667 -0.27006 0.15928 -0.2708 -0.18409 -0.47511 0.015786 0.077063 0.14272 -0.73319 -0.30527 0.021297 -0.20843 0.16943 -0.0031365 -0.21913 0.27973 -0.44118 0.0089594 -0.24121 -0.050369 0.29056 -0.55952 0.16599 0.1306 -0.13308 -0.12091 0.028556 0.1822 -0.27516 0.12032 -0.072459 0.12248 0.38293 0.31826 0.18042 0.32992 -0.65824 -0.38038 0.14577 -0.16682 -0.066115 -0.4819 0.2601 -0.033407 -0.11234 0.26478 0.41909 0.12507 -0.023887 -0.32694 0.24526 -0.34514 0.28264 -0.1468 0.358 -0.037899 0.78201 0.41402 -0.040198 -0.083386 0.40347 0.17201 -0.067015 0.19015 -0.2479 0.2501 0.084181 -0.18907 -0.098277 0.13679 0.23574 -0.054364 0.10111 -0.25732 0.064483 0.040981 0.29978 -0.51105 -0.27475 0.72253 0.38765 -0.1029 -0.26501 0.33131 0.32076 -0.032454 -0.42723 -0.030208 -0.12245 -0.092462 0.39356 -0.20398 -0.70627 -0.19006 0.23571 -0.26054 0.047269 -0.22974 -0.45999 -0.15203 0.2438 -0.14418 0.055941 -0.27506 -0.014862 -0.32808 -0.5113 0.074735 -0.14164 -0.35318 0.018231 -0.21858 -0.094991 -0.47853 -0.29065 -0.13963 0.51782 -0.16252 -0.43959 0.20382 -0.14804 -0.38803 -0.30941 -0.10342 0.30595 0.30604 -0.36847 0.0044168 0.1342 -0.33121 0.14647 -0.03306 0.21276 -0.03471 0.21818 0.23863 -0.47254 -0.32302 0.25381 -0.96143 0.014604 0.02248 -0.50363 -0.28058 0.12965 0.28499 -0.24236 -0.49563 -0.39977 0.30208 -0.040181 0.14883 -0.1225 -0.02573 0.011236 -0.30904 -0.14479 0.11729 -0.43735 -0.24708 0.6153 0.1067 0.1133 -0.054311 -0.26293 0.14181 0.23354 -0.25842 0.17677 0.12582 -0.38967 -0.13258 -0.21072 0.024256 0.36651 -0.51529 0.70284 -0.050358 0.28344 -0.16811 0.37816 0.31737 -0.098809 0.14784 0.20388 0.47969 -0.36538 -0.021589 0.026254 0.064426 -0.34542 -0.057611 0.084108 -0.13993 0.55535 -0.17291 0.36671 -0.11089 -0.34495 -0.32288 0.06061 0.20403 0.19949 0.061724 0.52392 -0.38734 -0.14842 0.93275 -0.036089 -0.23658 -0.11664 0.39693 0.24062 -0.14709 -0.43778 
gram -0.24209 0.19805 -0.27168 -0.12703 -0.38094 0.14337 0.2882 -0.050579 0.0071046 0.41797 -0.38727 0.94521 -0.34177 0.18642 -0.24071 -0.096607 -0.23658 -0.49326 0.086119 0.11108 0.34018 -0.23964 0.37374 -0.20173 -0.70257 0.84808 -0.46949 -0.25175 0.01766 0.40803 -0.65786 0.47546 -0.23124 0.44546 0.1389 -0.046656 0.026403 0.097337 -0.10122 -0.059429 0.034442 0.21707 0.68314 0.1602 -0.32524 0.19921 0.49569 -0.46495 0.24976 0.14597 0.19064 -0.37659 -0.51783 0.12587 0.53264 0.056866 0.21254 0.21645 -0.093826 0.077642 0.040733 -0.36267 -0.037871 -0.35431 -0.72617 -0.11071 -0.75487 0.19407 0.58243 -0.29716 0.037769 -0.25684 0.51742 0.22517 0.39153 -0.36443 -0.096671 0.2048 -0.33927 -0.31969 0.068619 -0.048567 -0.35131 0.4508 0.40737 0.35419 0.26942 0.15655 0.29292 0.12789 -0.12139 -0.05105 -0.66768 -0.20209 0.03096 -0.074162 -0.10249 0.31159 -0.25504 -0.16778 0.2863 -0.05397 0.033114 0.25139 0.016996 -0.17524 -0.33513 0.6532 0.0034653 0.062375 -0.13449 0.39796 0.39204 -0.38563 0.012064 0.088015 0.10625 0.13656 0.74644 0.28786 0.4234 0.2284 0.0078478 0.62243 -0.69621 -0.3671 0.061118 0.49083 -0.17646 0.37956 0.23838 0.91536 0.30688 0.36329 0.48488 -0.25011 -0.030782 -0.17796 0.0075741 0.028157 0.099501 0.78352 0.15893 0.20462 -0.2505 0.36374 -0.025402 -0.12217 0.22236 0.016547 0.38586 -0.11283 0.25081 0.6742 0.51905 -0.13514 0.12137 -0.11665 0.1234 0.077986 -0.33516 -0.27163 -0.33982 -0.59661 0.015805 0.13941 -0.21369 -0.2589 0.23159 -0.1956 -0.15824 -0.24073 -0.18731 0.14908 0.16973 0.33249 -0.2192 -0.023368 0.10149 0.41154 -0.22107 -0.02298 -0.39453 -0.060289 0.018893 0.25746 0.35919 -0.10672 0.51185 -0.3651 0.27301 -0.36435 -0.033691 0.010914 -0.53929 -0.49499 0.64835 0.079297 -0.61885 0.2452 0.072184 0.30613 0.39079 0.13983 -0.68589 0.39469 -0.45549 -0.75137 0.012402 -0.6221 0.90201 -0.35311 0.60172 0.51887 -0.075378 -0.60092 0.31991 -0.34947 -0.22538 -0.2027 0.35089 0.44981 -0.07971 0.31345 -0.22652 0.18448 -0.088529 -0.21542 0.32249 0.027038 0.56493 -0.84289 -0.060842 -0.50751 0.11845 0.062182 -0.079312 -0.60697 0.31738 0.1936 0.035946 0.15205 -0.22162 -0.11778 0.86505 0.42935 -0.2333 -0.33331 0.17985 -0.079475 0.043968 -0.20525 -0.4371 0.30887 0.088493 -0.088129 0.11 -0.40749 0.19332 -0.39701 -0.082239 0.74807 0.43255 -0.47427 -0.62374 -0.49296 0.083545 0.50226 0.12061 -0.40893 -0.56053 -0.51652 -0.076567 -0.098376 -0.17061 -0.35491 0.3674 -0.55352 0.067411 0.18242 -0.07707 -0.11183 -0.14086 0.019454 -0.73947 -0.13805 0.54616 -0.0025681 -0.42971 0.11973 -0.17603 -0.21953 0.54761 0.37601 -0.31143 -0.23199 -0.098286 -0.020584 0.051523 0.099414 
millilitre -0.10926 0.057206 -0.12542 -0.034994 -0.0061733 -0.13573 0.16529 -0.50849 0.11854 0.013846 0.32411 -0.04132 -0.41856 0.20431 -0.18356 -0.44064 0.0079525 -0.12845 -0.11594 0.14697 0.43074 -0.14222 0.16808 0.11719 -0.28338 -0.096253 -0.59618 -0.34157 0.12782 0.26917 -0.27685 0.23409 -0.68459 0.54925 -0.08149 -0.16345 0.55736 0.29541 0.12996 -0.006649 0.24717 -0.073711 -0.22028 -0.36178 0.51213 0.17898 -0.056762 -0.25684 0.073058 -0.27062 -0.40154 -0.16603 -0.0048496 -0.66696 0.14651 -0.095115 0.52611 -0.14646 -0.18118 0.0367 0.025667 -0.059081 0.19897 -0.044562 -0.12986 -0.43788 -0.34313 -0.25897 0.41886 -0.38195 -0.027628 -0.3967 0.19456 0.39089 0.1708 0.12419 0.31324 0.49169 0.24987 -0.33737 0.49854 0.058836 -0.23281 -0.14771 -0.070427 0.17949 0.16785 0.4161 -0.026523 -0.33057 -0.1472 -0.28008 -0.6707 -0.18889 0.11783 -0.53529 -0.19707 0.39256 0.112 -0.082664 0.24403 -0.21122 0.43968 0.19034 0.68305 -0.037433 -0.29172 0.33787 0.14433 0.037358 -0.013079 0.14773 -0.14005 0.080024 -0.0065242 0.2271 0.044428 -0.20101 0.029792 0.012778 0.26196 -0.086079 -0.44837 0.59741 0.1269 -0.19656 0.12031 0.025953 -0.22885 0.14862 0.20294 0.27893 -0.18116 0.49516 0.021688 -0.20719 0.31404 0.082286 -0.42489 0.3216 0.13818 0.58433 0.10709 0.028757 -0.087657 0.2978 -0.10132 -0.37777 -0.30294 -0.2066 0.40959 0.23713 -0.16522 -0.10298 0.4004 0.05246 0.087249 0.45053 -0.021328 -0.052186 -0.50986 0.15664 -0.48603 -0.38128 -0.078984 0.19574 -0.50849 -0.15265 0.43731 0.1226 0.052131 -0.46962 -0.068872 0.45095 -0.5336 0.32888 -0.30114 -0.31102 -0.11584 -0.17119 -0.31319 0.084617 0.31104 -0.32941 -0.28126 -0.070262 0.10392 0.064681 0.15873 -0.44829 -0.28182 -0.81748 0.19907 0.076006 -0.46912 -0.25415 0.55677 0.29781 0.17651 0.054508 -0.32356 0.30875 0.22792 -0.22588 0.087474 -0.034647 -0.33398 -0.072175 0.21852 0.14212 0.74093 0.49851 -0.026194 -0.022144 0.071562 -0.34377 -0.28743 -0.4254 -0.0034858 0.55245 0.43513 0.21459 0.1737 -0.051798 0.18461 0.19282 -0.12905 -0.53826 0.2595 -0.18595 -0.23956 -0.31297 0.10893 -0.12471 0.45667 -0.091146 -0.19909 -0.71058 0.52695 0.11382 0.18197 -0.072655 0.53002 0.0064619 -0.294 0.58771 -0.15371 -0.1341 -0.61351 0.28714 -0.10453 0.13733 -0.55573 0.26311 0.48314 -0.22803 0.58345 -0.27008 -0.056113 0.065739 -0.3329 0.5149 0.050181 -0.28943 -0.20954 -0.39705 -0.32111 0.236 -0.057299 0.02467 -0.21662 -0.048082 0.2887 -0.19415 -0.22073 -0.30752 0.72214 -0.10889 0.35454 -0.23207 -0.0093081 -0.014816 -0.1527 -0.24246 0.2966 0.014928 0.48814 -0.019713 -0.45427 0.72512 0.036384 -0.26334 0.135 0.11136 -0.83005 -0.43631 -0.24956 0.14517 0.54399 0.35476 
fresh 0.067806 0.2653 -0.12345 0.19741 0.033651 0.097802 -0.05905 -0.072654 0.25737 0.36729 -0.089837 0.15034 0.094054 0.093873 0.18265 -0.23657 -0.22959 -0.17957 0.12861 -0.17017 0.16642 -0.029482 0.0602 -0.17896 0.11109 -0.17609 -0.14497 -0.027544 0.35567 0.010693 0.12355 -0.072909 -0.44707 0.21616 0.35888 0.14376 -0.029141 -0.1855 -0.048114 -0.30136 0.3071 0.59905 0.18619 0.12074 -0.078522 0.06341 0.40251 0.031013 -0.14375 -0.15005 0.089154 0.34507 -0.10563 -0.0030536 0.23876 -0.017709 -0.14728 0.52692 0.49287 0.015384 0.020934 0.11547 0.33814 0.05839 -0.26443 -0.21547 -0.31213 0.1388 -0.051295 -0.13214 -0.077225 0.13056 0.29468 -0.27259 0.12104 0.053847 0.43727 0.082853 0.21457 -0.20883 -0.095796 0.037072 0.28461 -0.15946 -0.094195 0.078712 0.20004 0.28514 0.28534 0.10015 0.026142 0.07706 -0.2549 -0.073491 0.028875 0.3297 0.095871 0.053795 0.52286 -0.052396 0.27327 -0.32597 0.24673 -0.15498 -0.15466 -0.13562 -0.18219 0.37082 -0.31801 0.054243 -0.13704 0.11784 -0.32855 0.31249 -0.13896 0.14086 0.018215 -0.20082 6.4975e-05 0.16739 0.46429 -0.13962 -0.21493 0.17406 -0.39182 0.016189 0.054167 -0.040724 -0.21406 0.36704 0.19408 0.026759 -0.14687 0.21666 0.038925 -0.11922 -0.1696 0.036244 -0.073342 0.21878 -0.16035 0.37025 -0.019354 0.23165 -0.12104 0.54477 -0.056501 0.33018 0.15688 0.15768 0.2283 -0.02645 -0.085286 -0.26316 0.11096 0.078545 0.054075 0.039644 0.25755 -0.044352 0.089739 -0.015572 -0.13241 0.34268 -0.079989 0.098833 -0.26991 -0.27292 0.46186 -0.23439 -0.28284 -0.15091 -0.014712 0.1183 -0.3774 0.38295 -0.38311 -0.066437 0.016496 0.11697 0.10787 0.09687 -0.0083459 -0.080088 -0.22281 0.25463 0.1038 -0.33656 0.37692 -0.029157 -0.20273 -0.17129 0.38066 0.7072 -0.20391 -0.19874 0.064588 0.30429 -0.55534 0.2208 -0.067349 0.12328 0.12625 -0.24753 0.0034466 -0.51657 -0.081288 -0.049661 0.21136 0.059411 0.19196 -0.14082 0.046398 -0.26604 -0.03214 -0.095038 -0.30412 -0.26729 0.37444 0.20722 0.30069 -0.21101 0.20627 0.15061 -0.18642 -0.0010606 -0.47384 0.11515 0.13321 0.12289 0.027838 0.13221 -0.023615 0.1187 0.06772 -0.037803 -0.25435 0.22254 0.051607 -0.16724 0.14987 -0.14462 -0.0019008 0.088507 -0.44947 0.41427 0.11032 0.31342 -0.11747 -0.036485 0.26285 0.038458 0.0089066 0.041347 0.15276 0.35644 -0.25262 0.072468 -0.011958 0.41983 0.1795 0.34992 0.19584 -0.39229 -0.15999 -0.34975 0.15086 0.1126 -0.16776 0.031817 -0.10613 -0.15095 0.21009 0.16477 0.0013923 -0.012745 0.0025591 0.18187 0.16923 -0.039364 0.58209 -0.0053342 7.2086e-05 -0.16741 -0.032972 -0.003706 -0.0011125 -0.0029665 -0.22511 -0.032674 0.075544 -0.13406 0.2328 0.068422 -0.19972 -0.15552 -0.032428 0.18986 0.046931 0.0984 
water -0.16701 0.030612 -0.39748 0.5635 -0.16118 -0.3211 -0.16044 -0.2913 -0.13533 0.22399 0.31188 -0.10033 -0.007989 0.055669 -0.00066792 -0.39806 -0.27308 -0.19445 -0.0095867 0.20317 -0.12401 -0.072215 -0.20168 -0.031345 -0.37312 -0.00051905 -0.086971 0.084112 0.22065 -0.033995 0.17358 0.065796 -0.4306 0.10222 0.041514 -0.27326 0.050611 -0.14215 0.14753 0.043295 0.57478 0.30119 -0.17501 -0.21804 -0.12052 0.01933 0.24735 -0.088416 -0.1986 0.14755 -0.039644 0.21167 -0.051076 -0.051579 0.087261 0.33209 -0.31423 0.28111 0.18101 0.088896 -0.025882 -0.31381 0.10762 0.141 -0.10321 -0.31382 -0.43689 -0.0186 0.18202 -0.2582 -0.49344 -0.045028 0.16251 -0.10514 -0.15507 -0.33348 0.24976 0.23355 -0.19559 -0.34231 0.14377 -0.098884 -0.11876 -0.45676 -0.44711 0.044567 0.12266 0.2406 0.033981 -0.11278 0.12584 -0.15682 0.015718 -0.30494 0.11015 0.18433 0.11296 0.40802 0.31357 -0.19576 0.13874 -0.14988 0.012902 -0.054052 -0.1676 -0.28166 -0.19501 0.32681 -0.37797 -0.13605 -0.12425 0.21847 -0.29823 0.054856 -0.15621 -0.010963 0.0044965 0.35625 0.073339 -0.07967 0.70851 -0.0082197 -0.10723 -0.25052 0.037914 -0.21163 -0.16295 0.0098381 0.011845 0.34591 0.13112 -0.12089 0.043184 0.19453 -0.16858 0.012589 0.20329 0.047862 -0.27793 0.4795 0.27543 0.41895 0.080839 0.079837 -0.24906 0.38114 0.042408 -0.04442 0.31511 0.062159 0.2558 0.12664 0.12942 -0.32405 0.2308 -0.3724 0.13999 0.29302 0.052071 -0.094624 0.099278 -0.063578 -0.073797 0.13648 -0.0057952 -0.15844 -0.31775 0.12701 0.035195 0.1487 -0.55284 0.012927 -0.14215 -0.077873 -0.26371 0.19843 0.09895 -0.20428 0.23702 -0.40222 -0.35731 -0.0012671 0.20021 -0.055924 0.11491 0.4362 0.35259 0.33374 -0.057249 -0.51094 0.096425 -0.33275 0.018862 -0.049202 -0.55995 -0.018614 0.084737 0.17997 0.0052331 0.053891 -0.31689 0.0017684 -0.21048 -0.026728 -0.16363 -0.59544 -0.39699 -0.32731 0.27961 0.15486 0.22943 -0.12462 -0.099092 0.049996 -0.02855 -0.11211 -0.18077 -0.70986 0.58645 -0.096562 -0.10095 -0.10217 0.26266 0.01753 -0.0391 -0.050455 -0.14493 -0.34627 0.024104 0.088407 -0.12549 0.14452 -0.29333 0.079703 0.18572 -0.23172 -0.23825 -0.24031 0.14928 -0.082676 -0.020378 -0.023303 0.131 -0.19944 -0.14017 0.45213 0.069311 -0.036384 -0.53156 -0.33848 0.05832 -0.33043 -0.0054136 0.2038 -0.077548 0.32716 0.13558 0.19114 0.12243 -0.014424 -0.035825 0.084551 0.021735 -0.64139 -0.3978 0.065516 -0.43963 0.080403 -0.27154 0.16853 -0.043351 0.11055 0.013304 -0.12911 -0.09875 0.074742 0.31042 0.19571 -0.21005 -0.0049948 0.42519 0.44362 0.053787 0.00057846 0.21748 0.00435 0.076921 -0.13583 -0.41646 0.087406 -0.067914 -0.11728 0.50962 0.058151 -0.52419 -0.038826 -0.13373 0.40681 0.43671 0.66428 
biomass -0.49413 0.39921 -0.031522 0.28985 -0.54329 -0.15989 0.4615 -0.7089 0.14898 0.15616 -0.027415 0.35762 0.59067 0.010486 -0.19069 -0.46595 0.16174 0.4572 -0.073981 0.36197 -0.12505 -0.43021 -0.078452 -0.2942 -0.40656 -0.14669 -0.32401 -0.064173 0.037939 0.079522 0.11862 0.61608 -0.51235 0.53409 0.24837 -0.49482 0.43885 0.35374 -0.1541 -0.38305 0.13246 0.21435 -0.086477 0.14994 0.26471 -0.050218 0.38027 -0.15207 0.17769 -0.1636 -0.17687 -0.47092 -0.078842 -0.19675 0.41014 0.077131 -0.037038 0.12938 0.12833 0.10984 -0.65263 -0.35644 -0.0898 -0.48965 -0.32921 -0.30699 -0.1996 0.23936 0.050091 0.19537 -0.24359 0.31607 0.64852 -0.12344 0.16936 -0.16069 0.53882 -0.0044551 0.16372 -0.27304 0.28236 0.25953 0.051111 -0.17064 0.095025 -0.36008 0.39321 0.34433 0.31391 -0.11611 0.45133 0.072694 -0.0026075 -0.054481 -0.31851 -0.001543 -0.14672 0.26006 0.24168 -0.14789 -0.028997 -0.19044 0.17231 -0.49691 -0.096244 -0.10453 -0.11591 0.14756 -0.43065 -0.15411 -0.22665 0.36631 -0.45667 0.029801 -0.067205 0.20042 0.28032 0.30868 0.21287 -0.11428 -0.3071 0.017565 -0.27237 -0.15539 -0.22092 -0.029168 -0.47778 -0.03593 -0.1684 0.16674 0.30271 0.053739 0.051686 0.58342 0.33969 0.43506 0.078462 0.25825 -0.18968 -0.0057665 0.23821 0.5679 0.28164 0.036899 -0.30832 0.20306 0.43008 0.27977 0.1373 -0.16085 0.16081 -0.42364 -0.042577 -0.18063 0.018123 0.042615 0.40648 0.18814 -0.12985 -0.038113 0.57174 0.026565 -0.28966 0.12583 -0.046726 -0.081518 -0.48715 -0.57406 0.35478 0.33807 -0.56456 -0.82109 0.21352 0.081723 -0.24113 0.23472 -0.62867 -0.091978 -0.21835 -0.25797 -0.15973 0.22579 -0.20239 -0.17866 0.074798 -0.3704 0.41967 0.39995 0.4623 -0.29175 -0.19451 -0.83502 -0.2221 0.16853 -0.012223 0.030533 0.13059 0.27107 -0.32571 0.19342 -0.22167 0.2544 -0.29856 -0.016819 -0.034919 -0.39748 0.023833 0.056458 0.11285 -0.072971 0.55687 0.15015 -0.028294 0.85138 -0.37689 -0.45287 -0.25933 -0.9807 0.27275 -0.3861 0.27993 0.17472 0.27823 0.27212 -0.20714 0.0035864 0.085506 -0.67928 -0.19316 -0.38775 0.02614 -0.43523 -0.33279 0.42713 0.42013 -0.48806 -0.12802 -0.32378 0.29065 -0.13669 0.10436 0.1064 0.34495 -0.14344 0.23852 0.15417 0.079885 0.13452 -0.24249 -0.50923 0.093466 -0.64578 -0.42463 0.33884 0.065856 0.1263 -0.40916 0.16936 0.073387 -0.10802 0.066197 0.43317 -0.066112 -0.37339 -0.64789 0.20738 0.19032 -0.17351 -0.0068713 0.17923 0.14321 -0.069951 -0.045486 -0.052827 -0.37082 -0.1941 -0.21581 0.19326 0.01152 0.027668 0.56244 0.27313 -0.38186 -0.28288 0.35515 0.16914 0.20418 -0.4048 -0.6892 0.3061 0.35857 -0.19355 0.41566 0.1122 0.005269 0.02085 0.13776 0.93337 -0.0088175 0.22322 
nutrient -0.31993 0.22756 -0.14478 0.37229 -0.49032 -0.25056 0.70838 -0.67305 0.070852 0.33328 0.26063 0.38006 0.15402 -0.10942 -0.082063 -0.53762 -0.19069 -0.11052 -0.23735 0.49385 0.17976 -0.11003 0.20506 0.089023 -0.31783 0.21704 -0.55608 0.20182 0.33224 0.14807 -0.15326 0.36481 -0.45474 0.58453 -0.00020999 0.052149 0.16336 0.62435 0.024488 -0.14827 0.80914 0.41815 0.046241 -0.056754 0.30763 0.014738 0.64557 0.13307 0.38642 0.064189 -0.16205 0.0024814 0.028707 -0.36396 0.31864 0.051572 -0.095263 -0.046548 0.19703 0.0093053 -0.32708 -0.31772 0.76222 -0.30234 -0.21769 -0.37859 -0.29943 0.41205 -0.15547 -0.0027394 -0.48971 -0.030579 0.47217 0.053605 -0.059827 0.10128 0.56832 -0.024146 -0.42751 -0.68018 0.19872 -0.09582 0.17058 0.2339 -0.53645 -0.077676 0.51316 0.12051 0.12031 -0.25571 0.22962 0.074674 0.25511 -0.25516 -0.22874 -0.13929 0.40773 0.23524 0.24279 0.1878 0.17734 -0.40938 0.14322 -0.5999 0.053656 0.27146 -0.40715 0.43793 -0.51605 -0.14088 -0.32572 0.14782 -0.54324 0.44136 -0.14335 0.14885 -0.027301 -0.0016777 -0.033114 -0.19488 0.11203 -0.41243 -0.54364 -0.041097 0.023702 0.069142 -0.23299 -0.054373 -0.32112 -0.0029309 0.12003 -0.012904 -0.37525 0.070685 0.074304 0.18794 -0.42609 0.49285 -0.49465 0.47746 0.048202 0.64518 -0.2013 0.10761 -0.26544 0.23467 0.24297 0.32121 0.1434 0.037534 0.34586 0.017564 0.099481 -0.18222 0.05493 0.17068 0.013063 0.2592 0.33905 -0.012131 0.41473 0.021925 -0.034294 -0.34762 0.14305 -0.46015 -0.56487 -0.10076 0.45213 0.44245 -0.43091 -0.32916 -0.26795 0.26019 -0.032121 0.18307 -0.64043 -0.18277 -0.091181 -0.13916 -0.011071 -0.0065202 0.19289 -0.26743 -0.34002 0.2796 0.049055 0.015104 0.35853 -0.40138 -0.36403 -0.47783 0.0025437 0.041356 -0.37561 0.042689 0.3782 0.18058 0.058408 0.15765 -0.43709 -0.093108 -0.22095 -0.2734 -0.45738 -0.72961 0.25644 -0.070035 0.10067 0.11798 0.33481 -0.064049 0.67374 0.68606 -0.30246 -0.12573 -0.19456 -0.70253 0.094657 -0.3127 0.20609 0.046522 0.56137 0.20809 -0.31975 -0.054839 -0.44956 -0.24497 0.0031187 -0.091897 -0.46221 -0.24128 -0.2877 -0.49577 0.38652 -0.29163 -0.26179 0.056809 0.27907 0.18197 0.12146 0.081103 0.59092 -0.71522 -0.27858 0.41776 -0.086695 0.031126 -0.44627 -0.13609 0.14645 -0.14702 0.30424 0.30556 -0.16626 0.097453 -0.22993 -0.1238 0.16564 -0.024269 0.21506 0.39302 -0.094473 -0.058869 -0.86549 -0.3015 -0.60001 0.17673 -0.24339 0.12547 -0.10711 -0.29741 0.067261 -0.19328 -0.1469 -0.093347 -0.093195 0.11358 -0.23774 0.059906 0.24222 0.37262 -0.45412 -0.080213 -0.14931 -0.18876 0.14002 0.2279 -0.75052 -0.088464 0.011485 -0.18229 0.22925 -0.25217 -0.069015 -0.12484 0.085181 0.62803 -0.057961 -0.17124 
cycle 0.068324 0.26753 -0.007046 -0.05032 0.11834 -0.078713 0.11727 0.07379 -0.02796 0.26236 -0.1613 -0.27211 0.13152 -0.086276 -0.38232 -0.11386 -0.025044 0.155 0.25841 0.68795 0.19627 0.14371 -0.29285 -0.3809 -0.27808 -0.1804 -0.5383 0.07525 -0.37285 -0.082074 -0.10986 0.77716 -0.030968 0.45464 0.20904 0.11177 0.089328 -0.06725 -0.51201 0.052596 0.12281 -0.35061 -0.4456 0.17796 -0.12338 -0.25787 -0.12067 -0.12234 0.094956 -0.15134 0.34744 -0.043678 -0.2349 -0.41763 -0.09795 -0.18142 -0.064126 0.26286 0.28939 -0.33435 -0.094865 0.064459 0.11822 -0.23708 -0.070854 0.00014079 -0.16732 0.13279 -0.003796 0.19686 0.058244 0.13368 -0.14745 0.01931 -0.063325 -0.049963 0.65104 -0.1787 0.060833 -0.07742 0.37776 0.37385 -0.33112 -0.39541 -0.38974 0.20075 -0.53773 0.055127 0.14143 0.075366 0.096449 0.1208 -0.16679 -0.053333 -0.0010565 0.015689 0.047646 0.013684 0.15137 -0.17993 0.29572 -0.06496 0.23282 -0.11028 0.063734 -0.054064 -0.23858 0.021982 -0.20654 -0.11595 0.32385 -0.07398 -0.35261 0.23375 -0.030515 0.10767 0.28532 0.35402 -0.11732 0.095232 0.35541 0.10113 -0.39874 0.070642 0.0091706 0.24665 -0.16121 0.27144 0.068376 0.16457 0.16232 0.19688 0.31818 -0.36424 0.31271 0.24486 -0.15326 0.41168 0.032595 0.56995 -0.062779 0.5508 0.27244 0.16345 -0.61566 0.1123 0.053313 -0.4421 -0.32355 -0.5313 0.15506 -0.51592 -0.035348 -0.44034 -0.026408 0.10271 0.46915 -0.19612 0.18159 0.064182 -0.27599 -0.49429 0.10392 -0.056859 0.071476 -0.38216 -0.22297 0.073534 0.0046448 -0.16366 -0.23232 -0.14738 0.030814 0.16106 -0.091731 -0.082585 -0.40007 0.43501 -0.093726 -0.13497 0.066973 -0.22303 -0.089401 -0.15481 -0.17577 -0.035663 0.26397 -0.25647 0.34536 0.46105 -0.39642 -0.41563 -0.31756 0.17144 -0.25144 -0.27219 0.16471 0.38933 0.0050693 -0.16601 -0.10641 0.049666 -0.17673 -0.12135 -0.0075267 -0.18427 0.03727 0.56495 0.12897 -0.22811 0.57366 -0.053136 0.2443 0.31763 0.19921 -0.4046 -0.23413 -0.38253 -0.0044842 -0.57982 -0.29742 -0.47558 -0.043596 0.31709 -0.1404 0.082165 -0.12889 -0.20324 -0.064329 -0.20689 -0.34691 -0.16235 -0.037815 -0.094237 0.13613 0.088611 0.089256 -0.086036 0.19469 0.044856 -0.089737 0.044128 0.020245 -0.46653 0.16626 0.49969 -0.046706 -0.15821 -0.14998 0.034296 0.024372 0.20343 0.012168 -0.13384 0.00092219 0.54746 -0.44349 -0.20429 -0.11595 -0.1595 0.32844 0.23447 -0.25255 -0.25168 0.092305 0.083183 0.011685 -0.048839 0.070349 0.26761 -0.27242 0.016313 -0.38683 -0.033433 -0.2946 -0.2638 -0.20374 -0.1815 -0.061218 0.25681 0.27004 0.44363 0.20922 -0.016872 0.19589 0.084252 0.15456 0.10985 -0.39684 0.45095 -0.042942 -0.16854 -0.15448 0.019676 0.13226 -0.013867 -0.18716 0.30407 0.45734 0.19702 
recycling -0.17708 0.027855 0.10803 0.51921 -0.14828 0.24173 0.21434 -0.49466 0.045583 0.18221 -0.28614 -0.28689 0.46704 -0.3079 -0.39002 -0.22156 0.047433 0.084408 -0.34952 0.42835 0.22051 -0.097588 0.074102 0.11454 0.012639 -0.36311 -0.094237 0.39893 0.014047 0.4459 -0.49558 0.34225 -0.43916 0.2455 0.05874 -0.43687 0.2978 -0.19581 -0.11438 -0.13757 0.036969 -0.40222 0.036641 -0.055785 -0.040398 0.10963 0.43751 -0.27784 -0.05207 -0.15228 -0.25864 -0.28551 0.035555 0.16437 0.13371 0.20239 -0.078815 0.41763 0.45514 0.030724 -0.46844 -0.0026361 0.36217 0.020984 -0.23481 0.064046 -0.098173 -0.25636 -0.42454 -0.11229 -0.24036 -0.086602 0.50097 0.11458 -0.39662 0.1061 0.26981 -0.18598 -0.041426 -0.34652 0.16798 0.33234 -0.39086 -0.10232 -0.38372 -0.1014 0.2257 -0.039 -0.14113 -0.01158 0.2708 0.042843 0.079854 -0.26635 0.065848 0.57582 -0.14664 0.042865 0.020776 -0.03407 0.13133 0.24387 0.13691 -0.13191 -0.19016 -0.2249 -0.71217 0.094989 -0.23763 0.20566 -0.35384 0.21819 -0.27912 0.25012 0.0068446 -0.078965 0.33816 0.17337 -0.1772 0.043604 0.042017 -0.13631 -0.086752 -0.22874 -0.3854 -0.15577 0.0548 0.20232 0.31167 0.42598 0.12404 0.31147 0.15357 -0.11053 0.32657 0.13044 -0.346 -0.00027571 0.01158 0.58517 0.33525 0.59953 0.0025921 0.035599 -0.21658 0.10669 0.42371 -0.28444 0.10333 -0.18631 -0.20112 -0.024305 -0.080115 -0.25428 0.028266 0.34971 -0.33509 -0.084644 0.27757 0.16096 0.32636 0.1229 -0.30216 0.14137 0.34626 -0.11229 -0.11943 -0.39037 0.39347 -0.038678 -0.62478 -0.39503 0.28436 -0.19858 -0.1392 -0.10659 0.2198 -0.10617 0.062231 -0.20703 -0.044303 -0.29364 -0.1029 -0.47377 0.1079 -0.15037 0.41077 0.17453 0.020185 -0.13782 -0.20275 -0.21907 -0.44209 -0.19745 -0.075618 -0.041279 0.14544 0.18768 -0.13148 0.077662 -0.28094 0.21566 0.12321 -0.24412 -0.48764 -0.19153 -0.51286 0.17821 -0.066504 0.097715 0.37431 -0.15621 0.090717 0.18994 -0.041694 -0.20043 -0.034185 -0.51224 -0.0028068 0.014633 0.032878 0.012111 -0.10365 0.31428 -0.29885 -0.38608 0.35662 -0.57311 -0.027379 -0.16293 -0.087513 -0.61032 -0.44854 -0.18689 0.020891 -0.08314 0.018276 -0.40735 0.27432 0.38585 0.26434 0.037736 -0.090683 -0.38076 -0.19587 0.21826 0.21078 0.29636 -0.34926 0.11339 -0.008381 -0.066761 -0.17658 0.064395 0.25587 0.052613 -0.17606 0.091634 -0.12295 0.2733 0.21268 -0.062329 0.15662 -0.050076 -0.42148 -0.11868 -0.36225 -0.35108 0.034529 -0.019241 -0.12613 -0.24114 -0.024622 0.5923 -0.33002 -0.062357 0.6254 0.22395 -0.15965 0.4349 0.51962 0.22607 -0.1592 -0.33815 0.16293 -0.035092 0.12525 -0.29129 -0.67252 -0.016771 0.28096 0.03178 -0.047646 -0.001116 0.14106 -0.21852 -0.16926 0.45012 0.34704 0.58957 
nitrogen -0.29349 0.037206 -0.17286 -0.2429 -0.68356 -0.51877 0.29511 -0.98834 -0.2386 0.32071 0.18164 0.25168 -0.067011 0.22788 -0.18026 -0.12148 -0.059409 0.11442 -0.27423 0.39692 0.062432 -0.48281 -0.24932 -0.15625 -0.37387 0.13729 -0.16187 -0.058808 -0.34965 0.31006 -0.40326 0.39375 -0.011465 0.47355 -0.12291 0.075437 0.23471 0.52283 0.23283 0.082554 0.74575 0.10292 -0.24463 -0.11503 0.13487 -0.33707 0.19529 0.26684 -0.011146 -0.077603 0.099932 -0.13738 -0.34855 -0.52751 0.10696 0.22878 0.34253 0.29465 0.25331 -0.18024 -0.60137 0.041548 0.27191 0.19352 -0.27011 -0.22004 -0.39102 0.14551 0.17983 0.25843 -0.13321 0.15629 0.2201 -0.013762 0.12699 0.19223 0.039851 0.20124 -0.10456 -0.18655 0.62247 -0.31769 -0.094796 0.18619 -0.38169 -0.085379 0.32612 0.072195 -0.2345 -0.42997 0.258 0.029135 -0.17698 0.11307 -0.21911 0.54027 -0.011138 0.14353 -0.024277 -0.13477 0.20972 -0.25082 0.26565 -0.35857 0.27226 0.075514 -0.52213 0.42316 -0.25107 -0.32543 -0.11556 0.20017 -0.42327 0.136 -0.60124 0.13439 0.077172 0.25661 -0.086702 -0.016672 0.19833 -0.31635 -0.86008 0.14974 0.0078511 -0.094731 -0.38336 0.35586 -0.66966 0.13643 0.16196 0.049503 -0.41639 0.037569 -0.13055 0.15228 -0.08568 0.43228 -0.14429 0.26666 0.17643 0.78906 0.22465 0.035659 -0.19217 0.023007 0.027366 0.50222 0.038897 -0.082915 0.38264 -0.14978 -0.082912 -0.59361 0.2392 -0.049465 0.32995 0.07989 -0.050561 -0.17965 0.40505 -0.10298 -0.082463 -0.55389 0.10443 0.27793 -0.2655 -0.40021 0.13023 0.16718 -0.36292 -0.32658 -0.10715 0.13675 -0.22551 0.30874 -0.66295 -0.3777 -0.11054 -0.00035495 -0.00027115 0.21266 0.37467 -0.30387 -0.24748 0.15659 0.29721 -0.1169 0.20289 -0.51776 -0.061399 -0.62918 -0.10721 -0.25917 -0.33676 0.079682 0.19617 0.15188 -0.041338 0.22146 -0.56006 -0.084095 -0.038143 0.42525 -0.069283 -0.71264 -0.11053 0.0091974 0.26291 0.13158 0.34694 -0.16745 0.10565 0.93989 0.020367 -0.51522 -0.3881 -0.64683 -0.16466 -0.080206 -0.0095135 0.34034 0.46251 0.53267 -0.060014 0.10827 -0.12728 -0.37045 -0.049998 -0.34119 0.33858 -0.18288 -0.14826 -0.40791 0.4983 -0.1128 0.13444 -0.31771 -0.22537 0.27549 0.1138 -0.1271 0.40507 -0.30737 -0.56152 0.14756 0.29151 -0.35649 -0.26071 -0.30485 0.092391 -0.47381 -0.16541 -0.13278 -0.25681 0.11523 0.31555 -0.26617 -0.097182 0.032191 0.072714 0.4831 -0.17479 -0.15166 -0.61088 -0.24987 -0.17789 0.081624 -0.18794 0.33497 -0.098996 -0.4712 0.26729 -0.076495 -0.28927 -0.27693 0.048307 0.066554 0.051622 0.23879 0.40508 0.3575 -0.52368 -0.089936 -0.10487 -0.22331 0.52255 0.19877 -0.79814 0.59821 0.022011 -0.14639 0.50119 -0.052369 -0.02551 0.055613 0.26012 0.69055 0.34301 0.21678 
atmosphere -0.037263 0.16008 -0.25649 0.26818 -0.1759 -0.093177 -0.28793 -0.1924 0.10321 0.39252 0.10631 0.15681 -0.025073 0.090351 -0.019766 -0.084304 0.27858 0.079617 -0.013826 0.37456 0.1122 0.080569 -0.2727 -0.10418 -0.14133 -0.023882 0.07603 0.14956 0.1721 -0.063895 -0.60155 0.29903 -0.20124 0.1676 -0.095057 -0.083002 0.00065284 -0.065233 -0.21452 -0.24098 0.14105 0.37613 -0.33732 -0.22203 0.081897 0.041581 -0.10304 0.031262 -0.26449 -0.12278 0.063541 -0.11017 -0.19797 -0.36891 0.38103 0.38269 0.071753 0.25662 0.34509 -0.10627 -0.36465 -0.028499 0.093631 -0.18839 -0.19568 -0.28762 -0.17167 0.15517 -0.071413 -0.014498 -0.26218 0.58746 -0.17033 -0.11356 0.081461 0.21368 0.11399 -0.1215 0.15965 0.036649 0.042038 0.13261 0.11912 0.11919 -0.23767 0.32131 0.24514 0.30365 0.084205 0.0068928 -0.021107 -0.12015 0.17116 -0.015174 0.15941 0.24586 0.20977 0.26888 -0.064124 -0.13187 -0.097118 -0.56769 0.48277 -0.21176 -0.37934 -0.26948 -0.45033 0.39296 -0.011634 -0.22843 -0.2479 0.25529 -0.019625 -0.33396 -0.14325 -0.065862 0.42075 0.21232 -0.070566 0.22395 0.10724 -0.35023 0.14658 -0.23266 -0.029802 0.085959 0.017396 0.36349 -0.46339 0.12726 -0.10157 -0.053304 -0.1716 -0.01634 0.083843 -0.13189 0.0050671 0.23143 -0.0249 0.31567 -0.062973 0.50405 -0.16846 0.15325 -0.19505 -0.22626 -0.076097 -0.0080501 0.53793 -0.33736 0.52772 -0.25801 0.15345 -0.40116 0.18949 -0.22337 -0.23973 -0.10346 0.0066541 -0.015036 -0.13763 0.23503 -0.22869 -0.14303 0.17796 0.066886 -0.0067668 -0.0024318 0.19218 -0.045457 0.064649 -0.035319 0.1553 0.32449 -0.021094 0.36535 -0.27051 -0.48474 0.085064 -0.28672 0.34135 0.30851 0.28517 0.0069628 -0.10181 0.59028 0.2503 0.31274 0.21125 -0.34199 0.018516 -0.23937 0.14452 0.051536 -0.0725 -0.36001 -0.12916 0.2997 -0.13641 -0.089996 0.070135 -0.26283 0.0083194 0.25223 -0.082908 -0.4665 0.029823 -0.21204 0.0033511 0.15112 0.79723 0.33055 -0.034129 0.37611 -0.041303 -0.39894 -0.095221 -0.60657 -0.31855 -0.011039 0.066978 -0.067072 -0.080172 0.042964 0.034567 0.26405 -0.40988 -0.41746 -0.17602 0.17533 0.25256 0.33906 0.052535 0.25615 0.054636 -0.068522 0.13183 -0.16601 -0.10037 0.42672 -0.0045543 -0.28363 -0.087861 -0.32197 -0.39264 -0.46391 0.14897 -0.24398 -0.48416 -0.0095589 0.1853 0.014306 -0.1583 -0.054677 -0.21849 -0.022428 -0.0059643 -0.43226 -0.25406 0.26505 0.041108 0.089531 0.061233 -0.095696 -0.13998 -0.57609 -0.16983 -0.13147 -0.05207 -0.25391 0.13558 -0.20073 -0.065103 0.10282 -0.45096 -0.23746 -0.088893 0.1132 -0.0056813 0.15491 0.4702 -0.14926 0.29195 -0.029067 -0.11804 -0.31219 0.37096 -0.080489 -0.4828 0.56571 0.040263 0.14804 -0.24391 0.1373 0.050308 -0.071406 0.12464 0.25593 0.14656 0.40098 
decomposition -0.27453 0.17188 -0.71932 0.16553 -0.44035 0.13098 0.67212 -0.88645 0.026722 0.12596 -0.012716 -0.12556 -0.2701 0.23829 0.098907 -0.047313 -0.10444 0.41333 -0.072181 0.48223 0.28998 -0.23028 -0.11285 -0.33303 -0.32664 0.082114 0.063624 0.027755 -0.30519 0.31902 0.23675 0.61218 0.14101 0.12162 -0.10737 -0.14914 -0.1182 0.42399 0.33046 -0.13006 0.2337 0.12354 -0.15071 0.0078447 0.19586 -0.039855 0.13741 -0.30223 0.44136 -0.10781 -0.25455 -0.020127 0.21121 -0.54067 0.27619 -0.15125 0.25309 0.30001 0.32523 0.35669 0.091236 -0.16518 0.06413 -0.30705 -0.20725 -0.14906 -0.077965 0.11181 0.07952 0.086028 -0.10935 0.2216 0.18187 -0.23868 0.12163 0.0037787 -0.11683 -0.0075161 -0.11543 -0.19758 0.019243 -0.071366 -0.51857 -0.27111 -0.19991 -0.045414 0.72026 -0.29213 0.061356 -0.13047 0.12235 0.45101 0.24221 -0.66859 -0.40151 -0.03447 0.21314 0.18109 0.11921 -0.013972 0.40083 -0.45347 0.41596 -0.26234 0.063482 -0.55251 -0.52815 0.4101 0.10747 -0.13622 -0.1693 0.20016 -0.5564 0.24128 0.22086 -0.10791 -0.00094934 0.30369 0.36026 -0.15155 0.15175 0.12796 -0.27099 0.07445 -0.17881 0.14907 -0.37231 0.36757 -0.21088 0.11456 0.17841 0.1933 -0.1703 0.23331 0.027506 0.45472 -0.40295 -0.25169 -0.19996 0.06299 0.29708 -0.092982 0.089118 -0.39349 -0.63516 0.27249 0.20521 0.21524 0.0064841 -0.2336 -0.015299 0.00071792 -0.012437 -0.7861 -0.25928 0.14102 0.55814 0.33882 0.21318 0.038591 -0.12206 -0.018701 -0.33885 -0.10441 0.08424 -0.0674 -0.25133 -0.41382 -0.026133 0.087458 -0.16397 -0.31707 -0.23661 0.56647 0.027309 0.23515 -0.76636 -0.079665 -0.23622 0.21664 0.02805 -0.30025 0.23196 -0.062238 0.27181 0.12756 0.0013416 -0.23809 0.36608 -0.10147 -0.13877 -0.27573 -0.048638 -0.068003 -0.1288 -0.053265 -0.29259 -0.13269 -0.5257 -0.066664 0.31795 0.073322 0.1236 0.091196 -0.11951 -0.37248 -0.26526 0.057769 0.20609 -0.14995 0.69345 0.18327 -0.049455 0.76251 0.076807 -0.35788 0.37155 -0.29949 -0.059849 -0.3666 0.17035 0.1546 0.2698 0.23155 0.23931 0.38406 -0.61732 -0.57714 0.16983 -0.29315 0.1414 -0.62892 -0.40809 -0.3162 0.52343 -0.074834 0.25167 0.082001 -0.0095409 0.12151 0.43442 -0.50574 -0.084784 -0.40186 -0.01356 0.0072463 0.039553 -0.067426 -0.49697 -0.91201 -0.19406 -0.16515 -0.34834 0.38794 0.022922 0.13177 -0.015561 -0.20515 -0.40995 0.0028733 0.24253 0.1125 0.10889 0.13773 -0.39676 -0.51267 0.05652 -0.24704 0.27869 0.1187 -0.26937 -0.48223 0.47348 0.029047 -0.041692 -0.22561 -0.043502 -0.073184 0.011676 0.28567 0.12403 0.1642 -0.17089 -0.098616 0.044751 0.058074 0.20952 -0.25498 -0.54336 0.37188 -0.10555 -0.10056 -0.24399 0.09107 -0.15894 -0.036397 -0.075092 0.54103 0.39381 -0.0046248 
putrefaction -0.028363 0.22134 -0.77605 0.14986 -0.25563 0.057956 0.045666 -0.3808 -0.014275 0.20973 0.39714 0.25863 0.078382 0.1787 0.022234 -0.13809 -0.1964 0.24254 0.0087404 0.45502 -0.25401 -0.19943 0.1013 -0.19137 0.01197 0.13031 0.12465 -0.097886 0.268 0.4393 -0.26288 0.3798 -0.43986 0.39302 -0.10592 -0.12134 0.21019 -0.22336 0.079841 -0.25752 0.2854 0.24674 -0.17408 -0.22317 -0.082034 0.14138 -0.067796 -0.28768 -0.036357 0.21296 0.074428 -0.40175 -0.22324 -0.18614 0.28028 -0.38388 0.020734 -0.092693 0.32131 0.35372 -0.30518 -0.080163 0.099981 0.18371 -0.080661 -0.39819 -0.057601 0.21359 0.30033 0.19495 -0.14853 0.23826 0.25521 -0.025705 0.13354 0.094103 0.14925 0.41796 -0.16596 -0.40376 0.17843 -0.35555 -0.29853 -0.061658 -0.18228 0.030127 0.34739 -0.12513 -0.00191 0.14019 0.26565 -0.06927 -0.069995 -0.61589 -0.60146 -0.027297 0.029164 -0.015479 0.086727 0.41707 0.1399 -0.37637 0.27168 -0.13367 0.17079 -0.4573 -0.79151 0.37882 -0.02151 -0.34728 -0.12028 0.39799 -0.066756 0.06841 -0.19722 -0.028955 0.0072098 0.15752 0.48615 0.11761 0.38302 -0.29632 -0.15564 0.23512 -0.43979 -0.07786 -0.070941 0.035313 0.090683 0.16173 -0.074496 0.23878 -0.18028 0.11249 0.52577 0.25998 -0.37577 -0.14394 -0.10223 -0.056271 0.0057913 0.35768 -0.15031 -0.15987 -0.49691 0.028608 0.26079 0.045754 0.32528 -0.22238 0.24781 -0.27404 0.21413 -0.30241 -0.04902 0.34681 -0.37023 0.39525 -0.063635 -0.3827 -0.25513 0.011712 -0.18501 -0.087177 -0.087779 0.12631 -0.2957 -0.27284 0.47754 0.053257 -0.37517 -0.41262 0.034555 0.40399 -0.060814 0.065002 -0.56917 0.085227 -0.21455 0.078792 -0.30859 -0.13037 0.34171 -0.27995 -0.13938 0.69738 0.3799 -0.068782 0.21965 -0.27616 -0.077773 -0.40132 0.18734 0.14078 -0.19139 0.036084 -0.22304 -0.29669 -0.45132 0.013392 -0.28249 -0.13564 0.059648 0.34994 0.13131 -0.32013 0.046988 0.13198 -0.027456 0.18612 0.56764 0.12163 0.15176 0.0059052 0.143 -0.28775 -0.083397 -0.26216 -0.13026 -0.14735 -0.23958 -0.33328 0.021034 0.6987 -0.20972 0.18045 -0.55893 -0.641 0.17024 -0.21945 0.047464 -0.22066 -0.13264 0.11863 0.26592 0.34239 0.34388 0.1375 0.30176 -0.091702 0.10641 -0.5076 0.052266 -0.08936 -0.35487 0.13284 -0.15011 -0.33144 -0.62498 -0.38845 -0.17464 0.2304 -0.18483 0.0098456 -0.14996 0.20109 -0.5074 -0.43664 -0.16958 0.062254 0.2205 0.6455 -0.30804 0.19414 -0.06851 -0.35037 -0.44843 0.033309 -0.072941 0.13808 0.1919 -0.41882 0.029627 0.20976 -0.13 -0.16266 0.0076175 -0.36266 0.0053293 0.11273 0.20168 0.13062 -0.19072 -0.16223 0.19035 0.053625 0.071167 -0.10436 -0.42477 0.21388 -0.0519 -0.063552 -0.041073 0.05204 -0.16525 0.38156 0.04384 0.55541 -0.0075812 0.34345 
hydrothermal 0.2172 0.71484 -0.36516 0.2206 -0.58381 0.23338 0.50936 -0.3848 -0.18933 0.25401 0.35297 -0.0090474 -0.23467 0.14567 -0.039392 -0.22795 -0.036985 0.24566 -0.59956 0.73696 -0.45933 -0.18089 -0.046975 0.09762 -0.80338 -0.37544 0.2314 0.07005 -0.0826 0.1072 -0.33088 0.21431 -0.27347 0.19623 -0.29287 -0.16191 0.060134 0.34478 0.029094 -0.56034 0.50331 0.40269 -0.047341 -0.52181 0.1798 -0.4302 0.31218 0.20396 0.096023 -0.020795 -0.37265 -0.21107 -0.061001 -0.41467 0.22347 -0.024332 -0.18279 0.4423 0.27173 0.046013 -0.99446 -0.044372 -0.17846 0.17408 -0.48978 -0.21721 -0.36534 0.25669 -0.25158 -0.08484 -0.02986 0.25187 0.37772 0.099069 0.15623 0.23546 0.047098 0.20256 -0.030155 -0.24621 -0.28483 -0.031197 0.1345 0.042991 -0.24981 -0.52691 0.75385 -0.13867 -0.58202 -0.2348 -0.20858 0.16356 0.53152 0.07025 -0.16893 -0.02894 0.34452 0.33593 0.092815 0.060684 0.26472 -0.35725 -0.076846 -0.072872 0.40731 -0.18245 -0.31301 0.42966 0.090413 0.034235 -0.26319 0.36167 -0.16355 -0.20533 -0.067531 0.3415 0.39119 0.058328 0.30115 0.21889 0.33616 -0.37304 -0.38573 -0.27641 0.39857 0.21751 0.3046 0.39196 0.18401 0.49526 -0.0056558 0.2996 0.13026 0.075738 0.56295 -0.33965 -0.35874 0.47655 -0.18551 0.22318 -0.098529 0.60082 0.27337 0.17247 -0.18928 0.7379 -0.030519 0.4355 0.61081 -0.13612 0.7373 -0.25207 0.108 -0.93639 -0.43505 -0.21775 0.50229 -0.13349 -0.27542 -0.18961 -0.18395 -0.10701 -0.35545 -0.24716 0.14973 0.27325 -0.51303 -0.43721 0.15454 0.33097 -0.17478 -0.20336 -0.21769 -0.064292 0.32756 0.081085 -0.26715 -0.34482 -0.27766 0.2538 -0.08178 -0.20151 0.5744 -0.33673 -0.067916 0.43765 0.27551 0.38666 0.40527 0.20404 -0.14239 -0.56918 0.045542 0.075884 -0.26307 -0.048166 -0.044573 0.36642 0.15089 -0.35815 -0.1405 -0.30466 -0.20602 0.33455 -0.10639 -0.2727 0.19782 -0.044471 0.37228 0.26725 0.70874 -0.2467 0.13137 0.20434 -0.099619 -0.36069 -0.42457 -0.59507 0.087913 0.007718 0.096826 0.21427 0.020602 0.34313 -0.054161 -0.3454 -0.14525 -0.23017 -0.18457 -0.16071 -0.64989 -0.53049 -0.58508 0.068042 0.51087 -0.085656 0.10869 -0.16729 0.13643 -0.018731 0.14189 -0.4867 -0.11445 -0.36148 -0.31183 -0.0602 -0.26739 0.0090265 -0.21014 -0.43216 0.3755 -0.15974 -0.37427 0.28638 -0.0034021 0.22146 -0.33087 0.14337 0.49551 -0.49776 -0.23043 1.0436 -0.10763 -0.28807 -0.86017 0.016336 -0.16953 0.18464 -0.52433 0.2474 0.44419 -0.15417 0.37969 0.072447 -0.18935 -0.058425 -0.096833 0.052586 -0.29896 -0.085215 0.44824 0.1436 -0.11632 -0.13163 0.16261 0.17339 0.2569 -0.37138 -0.69758 0.51994 0.094414 -0.2619 0.13435 0.24667 -0.22237 -0.31654 0.42151 0.88876 -0.2768 0.39255 
vents 0.30992 0.48387 -0.49345 0.43608 -0.57773 0.070975 -0.040908 0.12959 0.32891 0.42569 0.33211 -0.43382 -0.15406 -0.095233 -0.069569 0.0094978 0.095663 0.021082 -0.42622 0.43389 -0.65928 0.065425 -0.21588 0.27557 -0.32136 -0.2089 0.13629 -0.34933 -0.26643 -0.31643 -0.40335 0.529 0.074452 -0.39014 0.23337 -0.058832 -0.029561 0.47841 -0.23782 -0.508 0.16061 0.068692 -0.11876 -0.39206 0.11777 0.17343 0.0868 0.22681 0.25584 0.019245 0.27102 0.029132 -0.15192 -0.31888 -0.027424 0.59801 -0.13821 0.48262 -0.027083 0.34242 -0.60306 0.14907 -0.13439 0.40509 -0.16066 0.13141 -0.32868 0.34362 -0.42144 -0.038988 -0.33235 -0.083679 0.18915 -0.11029 0.17433 -0.046055 -0.39361 0.08916 0.14516 -0.07229 -0.15148 -0.47008 -0.59949 0.040762 -0.21053 -0.18923 0.27428 -0.28595 0.17133 0.078855 -0.15685 0.081439 0.19006 0.38242 0.032772 0.21882 0.30747 -0.09512 -0.037763 -0.34378 -0.25879 -0.17878 -0.064047 -0.16193 0.50935 -0.51493 -0.35559 0.071541 0.05604 0.15652 0.061302 0.41663 0.14292 -0.14714 -0.48411 -0.024735 0.37458 -0.61635 0.48054 0.19598 0.22573 -0.15521 0.10863 -0.48658 0.49912 0.43036 0.19176 0.21543 0.10522 0.62376 0.078059 0.40311 0.11629 -0.045315 0.10846 -0.031772 -0.29663 -0.01396 -0.20567 0.40141 -0.27524 0.54116 0.05349 -0.019642 -0.087116 0.57272 0.0025412 0.11375 0.25923 -0.070761 0.66642 -0.55245 -0.19704 -0.46009 0.33902 -0.067115 0.055248 -0.19759 0.10885 -0.3101 -0.037644 -0.26704 0.085703 0.56481 0.015778 0.27188 -0.22902 -0.38135 0.33374 0.20683 -0.23461 -0.29661 -0.55349 0.37905 -0.079612 -0.032205 -0.48977 -0.63742 0.062494 -0.10768 0.042865 0.28823 0.53271 0.017382 0.0046745 0.40455 0.34361 -0.16926 0.057899 -0.19987 0.30539 -0.38125 0.42765 0.20354 -0.17071 -0.52789 0.049612 0.33934 -0.16777 -0.42191 0.46438 -0.1326 0.10612 0.10213 0.24798 -0.29695 -0.048617 -0.16766 0.0072509 0.25451 0.52331 -0.24575 0.055195 0.20875 -0.066668 -0.48428 -0.7003 -0.36239 0.14785 0.046892 -0.090394 -0.093875 0.17771 0.095861 0.08522 -0.03957 -0.25918 -0.11043 0.0017898 0.19142 -0.71165 -0.25443 -0.233 -0.05674 0.24299 0.080549 0.30323 0.1173 -0.10751 0.15879 0.092227 -0.2032 -0.22649 -0.0026122 0.18688 0.59322 0.38391 -0.35816 -0.26551 0.035038 0.50541 -0.23225 -0.12875 -0.14442 -0.14802 0.0094363 -0.027236 -0.17045 -0.21915 0.17824 -0.16731 0.3219 0.045881 -0.36546 -0.52039 -0.33306 -0.27144 0.17303 -0.27127 0.28401 0.29068 -0.11627 0.36711 0.19031 -0.69711 -0.20489 0.22227 0.39203 -0.22685 0.040533 -0.076829 -0.12417 -0.090145 -0.1621 0.35881 0.20397 0.14925 -0.38199 -0.56313 0.5108 -0.22878 -0.24647 -0.14684 0.33043 -0.050907 -0.36207 0.19443 0.46776 -0.098862 0.16531 
cold -0.052903 0.26617 0.021709 0.30556 -0.17144 -0.084007 0.057731 0.060305 0.26341 0.22325 0.049621 0.40059 -0.035102 -0.26197 0.33234 -0.18412 -0.32162 -0.45657 0.078057 0.42169 -0.1684 0.41923 -0.25992 -0.1012 -0.12926 -0.064815 0.13955 -0.055706 0.082488 0.046312 -0.0082367 0.11379 -0.42131 0.029438 0.54908 -0.18394 -0.13294 -0.26055 -0.061066 -0.096559 0.22966 0.31856 0.13029 -0.011495 0.082701 -0.35862 0.013094 0.32717 0.055573 -0.050954 0.15853 0.025477 0.065998 -0.17201 0.26079 0.2033 -0.25962 0.34046 0.20686 0.18924 -0.21823 -0.11663 0.3755 -0.13508 -0.17938 -0.085033 -0.64513 0.22493 0.044682 -0.34138 -0.017542 0.22492 0.21731 0.11805 -0.18555 0.10457 -0.00014083 0.21245 -0.37455 0.067053 0.15679 -0.036632 0.37045 -0.38369 -0.21485 0.040865 0.20415 0.29835 0.12468 0.29429 -0.4802 -0.26676 0.32116 -0.17011 0.2597 0.22297 0.0048665 -0.20422 -0.13203 0.24633 0.24011 0.03339 -0.018411 -0.22639 -0.028119 -0.29865 -0.39278 0.29595 0.30734 -0.16426 -0.13299 -0.12408 -0.17774 -0.44113 -0.061138 0.29416 0.088066 -0.18809 0.072223 0.41681 0.5606 0.029338 -0.12884 -0.01823 0.20804 -0.23189 -0.13553 0.01777 -0.23459 0.28482 0.051381 0.45526 -0.24299 0.17064 0.078164 5.5657e-05 -0.033228 0.035736 -0.23132 -0.010625 0.09943 -0.022414 0.62527 0.24291 -0.30087 0.020281 -0.080828 0.022502 0.19094 0.048843 0.35965 0.0063596 -0.4142 -0.30667 0.074717 -0.21003 -0.058913 -0.089161 -0.22329 0.1093 0.13828 0.53407 -0.21563 -0.089331 -0.31602 0.090041 -0.26471 -0.048715 0.21119 0.074756 -0.3223 -0.50987 0.14639 0.053668 0.063016 0.049504 -0.17544 -0.071706 0.089444 -0.12676 0.095002 0.0096324 0.30912 -0.24046 -0.1041 0.36205 -0.21919 0.11889 0.10335 -0.14227 -0.30312 -0.45164 -0.0094929 0.33382 -0.30733 0.1996 -0.036465 -0.011184 -0.24034 0.17024 -0.21009 0.14096 0.06236 0.10992 -0.1186 -0.51136 -0.46541 -0.51067 -0.30565 -0.009601 0.46276 -0.33765 -0.052297 0.0314 0.15769 -0.10819 -0.053418 -0.37579 -0.23932 0.16003 -0.20399 -0.023782 0.20096 -0.032423 -0.01369 -0.16916 -0.33713 -0.14518 -0.3313 0.24625 -0.34983 -0.0028084 -0.1238 -0.211 -0.20288 0.17806 0.20898 -0.21162 0.20791 0.2372 0.47418 0.34651 0.25017 0.30278 -0.14966 0.14105 0.3669 -0.29433 -0.32653 0.082605 0.014089 0.44168 -0.17845 0.3486 0.026156 -0.24621 -0.22031 -0.32978 -0.060464 0.29889 0.097399 0.10034 0.13873 -0.11096 -0.13568 -0.4715 -0.016653 0.1375 -0.12462 -0.074056 0.063397 -0.0080285 0.12751 0.11506 0.050065 -0.24434 -0.21566 0.021308 0.070485 -0.20274 0.10293 0.080077 -0.26218 -0.044451 0.25631 0.1005 0.14651 -0.28579 -0.43431 0.25911 -0.35382 -0.33768 0.30455 0.20006 -0.23117 0.23819 0.5277 0.094871 -0.0073743 0.22263 
seeps 0.19762 0.31175 -0.74128 0.80126 -0.89335 0.089997 0.22035 -0.15149 -0.13521 0.23314 0.44914 0.20978 0.32056 -0.21291 -0.15988 -0.19861 0.014722 -0.035238 -0.013821 0.55283 -0.2981 -0.24877 -0.27221 0.36975 -0.37461 -0.39607 0.41375 -0.2073 -0.081568 -0.23957 0.025088 0.14784 -0.68831 0.14409 0.16526 -0.22135 0.49971 0.22761 0.078406 -0.75342 0.49813 0.33163 -0.13913 -0.064428 0.20933 0.097989 0.44396 0.089727 0.17963 -0.11345 -0.26783 0.16141 -0.17827 -0.27313 0.25973 0.27253 -0.016937 0.41132 0.37438 0.70857 -0.47077 0.09005 0.31246 0.050241 -0.23975 -0.10504 -0.47449 0.082688 -0.077799 0.23087 -0.021218 0.39458 0.36114 0.062158 -0.29726 -0.0020129 -0.015127 0.22696 -0.09164 -0.18233 -0.57532 -0.19194 -0.0716 -0.36696 -0.70886 0.046189 0.35034 -0.10847 -0.45726 0.056622 -0.08439 0.13128 0.11085 -0.050395 -0.020806 0.060938 0.030723 0.52958 0.17777 0.42711 0.31304 -0.071723 0.27358 -0.11727 0.24605 -0.36156 -0.68742 0.17026 -0.16403 -0.26476 -0.26486 0.32758 -0.035787 -0.033581 -0.53854 -0.16978 0.21665 -0.141 -0.11458 -0.099127 0.34585 0.051672 -0.16538 -0.55268 0.091951 0.50858 0.041156 0.16226 -0.31899 0.22875 0.0079937 0.074458 -0.31069 0.49207 0.043482 -0.21505 -0.25862 0.51617 -0.32743 -0.080605 0.35525 0.81684 0.13821 0.2212 -0.41613 0.36292 0.018165 0.30163 0.13404 0.12416 0.57253 -0.4321 -0.22959 -0.19547 0.10748 -0.20184 0.076458 -0.016409 0.10687 0.037434 0.31726 0.21286 -0.23918 0.013187 -0.27348 -0.26073 -0.22431 -0.3328 0.48382 0.22965 -0.50262 -0.072615 -0.17656 -0.14019 -0.25898 0.11196 -0.078733 -0.11766 -0.18231 0.16733 0.08753 0.014982 0.38703 -0.27073 -0.2049 0.55489 -0.0035894 0.17102 0.16654 -0.12173 -0.05785 -0.062466 -0.022698 0.058015 -0.040047 -0.10584 -0.028695 0.23682 -0.30512 -0.086301 -0.0045588 -0.44872 -0.12152 0.17125 0.18932 -0.64738 0.070996 -0.059385 -0.21581 0.2506 0.18753 -0.11418 0.0019072 0.098953 -0.25476 -0.1009 -0.29078 -0.52358 0.34033 0.056691 -0.16248 -0.083493 0.16285 0.26227 0.15004 -0.17535 -0.34856 -0.48668 -0.0083538 0.15089 -0.61609 -0.18006 -0.22764 0.21661 0.42008 0.015295 0.18169 -0.20161 0.62451 0.12333 0.067717 -0.23057 -0.021105 0.087268 -0.19067 0.080932 -0.22832 -0.33528 -0.75184 -0.38815 0.45403 -0.14286 -0.14472 0.11319 0.31985 0.34448 -0.16451 -0.3838 0.30309 0.15122 -0.04261 0.34923 0.0012229 -0.40949 -0.44482 -0.28768 -0.47153 -0.064953 0.0064536 0.38724 0.33792 -0.027823 0.60645 0.22698 0.10137 -0.24342 0.14178 0.15644 0.013361 -0.10367 0.26682 0.26876 -0.12159 -0.096779 0.27924 -0.055256 0.053924 -0.08334 -0.29448 0.087565 -0.18804 -0.19373 -0.00097009 0.17052 0.20728 -0.040376 0.12142 0.71767 0.10343 0.32174 
