berlin -0.10052 -0.017 -0.21077 -0.50765 -0.13132 0.21765 -0.26609 0.22856 -0.19865 0.33651 -0.11927 0.12591 0.47005 0.3127 -0.23583 -0.23453 -0.014921 0.07109 0.434 0.57627 0.09705 0.27706 -0.35411 0.19945 0.04167 -0.13174 -0.049887 -0.088114 0.23986 0.19416 -0.34101 0.18284 -0.038464 0.34261 0.20358 0.064062 -0.050313 -0.34356 0.17962 -0.096653 0.23099 -0.11119 -0.14206 0.017161 -0.10122 0.03682 0.0799 -0.031689 0.40153 -0.023915 0.31156 0.021064 -0.29796 -0.11779 0.035163 -0.37074 -0.0058891 0.3212 -0.090729 0.082942 0.28965 -0.10532 0.36011 -0.13221 -0.37254 0.072096 0.19259 0.202 -0.59373 -0.28543 0.27862 -0.31069 -0.27128 0.15297 -0.33777 0.11989 0.40642 0.24152 -0.13345 -0.46217 0.11127 0.47736 0.31819 -0.1213 -0.19735 -0.19502 0.13229 -0.39477 -0.083519 0.069615 0.16632 -0.21403 0.087144 -0.15085 -0.29616 0.25719 -0.46212 0.057489 -0.15393 -0.053855 -0.097108 0.29466 0.10151 -0.0075112 -0.054118 0.077753 -0.21713 0.15798 0.24575 -0.089792 -0.2821 -0.50229 0.39801 -0.31282 0.16383 -0.19914 0.24878 0.18505 -0.10793 0.089811 0.16746 0.14221 -0.02886 0.27972 -0.15821 0.071109 -0.04185 0.32773 0.48422 0.10852 0.0059997 0.10709 -0.052773 -0.53095 -0.13066 -0.032268 -0.21193 -0.14371 -0.49284 0.46708 -0.273 -0.36204 0.062994 -0.20143 0.0027814 0.19583 0.015716 0.17015 -0.0093628 0.16376 -0.073737 -0.3116 -0.18126 -0.35548 -0.28484 -0.12904 -0.062218 -0.2456 -0.52714 0.42998 0.44444 0.62813 0.033329 0.18109 -0.13282 -0.16096 -0.26294 0.31051 0.34078 -0.16779 -0.64985 -0.26081 -0.099533 0.042371 0.10895 0.059171 -0.21959 -0.4401 0.057538 -0.097591 -0.30488 -0.2746 -0.32697 0.040428 0.1185 0.35537 -0.11794 0.044468 -0.17292 0.028476 0.063188 -0.52779 0.061395 0.14078 -0.33479 -0.034258 -0.36712 0.082368 -0.28874 -0.38247 0.86799 0.19181 -0.04134 0.035703 0.32484 -0.51533 -0.58314 0.012628 0.40387 0.055428 0.35311 -0.15689 0.00097598 0.0538 0.19946 -0.37907 -0.12751 -0.51687 -0.32145 -0.20275 -0.096348 0.01612 -0.16761 -0.062865 -0.19366 -0.066753 0.058816 -0.26176 0.43434 -0.24779 0.5044 0.24896 0.26848 0.086134 0.091979 -0.047441 0.37085 0.13166 -0.062037 0.42314 -0.0026331 -0.18796 0.35673 -0.022603 -0.031035 -0.088854 -0.1549 -0.086829 -0.40554 -0.41943 0.22638 0.051392 -0.058888 -0.1738 -0.037833 -0.17967 -0.29044 -0.16025 -0.31979 0.23111 -0.28515 0.21077 0.11575 0.26087 -0.14531 0.048127 -0.0044873 -0.076777 -0.23207 -0.19785 -0.20284 0.058001 -0.076868 -0.15327 -0.064433 -0.14932 -0.02172 0.1706 0.42813 -0.048095 -0.25063 -0.49081 -0.32223 0.25426 -0.22155 0.30175 -0.43747 0.11183 -0.38952 0.51956 -0.20163 -0.082513 0.34158 0.067009 -0.077654 -0.093298 -0.28296 0.045193 -0.068595 0.27074 
prussia -0.77495 0.46207 -0.32183 -0.039434 -0.21987 -0.28076 -0.49284 -0.11217 0.2822 0.12209 -0.32197 0.1932 -0.35821 0.35476 -0.57486 -0.27395 -0.035952 0.3732 0.19478 0.80653 -0.011279 0.16408 -0.084958 0.19356 -0.47015 0.3719 0.00014764 -0.181 0.70679 0.48288 -0.4423 0.77119 -0.38373 0.40982 -0.55707 -0.43291 -0.4042 -0.33325 0.39868 0.046112 -0.1364 -0.071967 -0.12984 0.0067543 0.4694 -0.044467 -0.15321 0.077125 0.23502 0.017408 -0.02967 -0.34107 -0.4618 -0.2613 -0.15404 -0.17071 -0.21874 0.11752 -0.26426 0.59763 -0.080167 -0.36546 0.68594 -0.49851 -0.2374 -0.38755 -0.27607 0.6305 -0.25671 -0.48053 0.63682 0.2816 0.14644 0.060295 -0.050188 0.49378 0.43529 0.59968 -0.44518 -0.39563 -0.13838 0.10832 0.23141 0.21624 0.21865 0.090045 -0.09936 -0.03828 0.038124 -0.22601 0.095994 -0.22311 -0.10224 0.12925 0.19062 0.36505 -0.36119 0.37243 0.027 -0.0029576 -0.18231 0.19439 0.072679 -0.044022 -0.20309 -0.10207 0.18606 0.0068039 0.058177 -0.37407 -0.2093 -0.38305 -0.097954 0.10344 -0.16638 -0.046996 0.010345 -0.098524 -0.013106 0.34906 0.18841 0.45772 -0.36905 0.35965 -0.28771 0.10846 -0.19496 0.46037 0.2213 0.35499 -0.090817 0.12094 -0.22881 -0.79648 -0.27533 0.021301 0.098882 -0.55411 -0.062974 0.85897 0.013199 -0.47134 -0.021861 -0.19692 -0.080473 0.39466 -0.41205 0.30286 0.070991 -0.22789 0.52621 -0.45607 -0.12997 0.50242 -0.30171 0.11705 -0.067968 -0.27736 0.4508 0.16032 0.18009 0.49204 -0.21345 0.18795 0.028327 -0.2419 -0.021022 -0.087474 0.44722 -0.081875 -0.44068 -0.58138 -0.06359 0.36037 -0.22899 0.044421 0.0036432 0.15132 0.14255 0.14261 0.11556 -0.45101 -0.1706 -0.11664 0.30523 -0.22289 0.37671 -0.10762 0.27564 0.038079 -0.14232 -0.93382 0.11582 -0.13278 -0.29937 0.12512 -0.082594 0.050579 0.098312 0.14922 0.65216 -0.085719 -0.061727 0.32921 0.48954 -0.41087 -0.23866 -0.53948 0.19223 0.29513 0.43922 0.24956 0.035256 0.24027 0.052411 -0.022902 0.08106 -0.084478 -0.22702 0.012146 0.23497 -0.058183 -0.30916 -0.12899 0.10261 0.28592 0.7 -0.5978 0.28164 -0.70996 -0.24562 -0.45178 0.021895 0.27305 -0.17185 -0.0099056 -0.03099 0.083824 -0.248 0.24361 -0.0053999 0.089777 0.1582 0.42308 -0.15805 -0.37167 -0.11901 0.29965 -0.18451 -0.57645 0.42216 0.31722 0.20766 0.095755 0.096993 -0.10066 -0.37347 0.18867 0.025446 0.4562 -0.28456 0.44684 0.23807 -0.040001 -0.34975 0.11963 0.27222 0.026997 -0.1228 0.058283 -0.031463 -0.30326 -0.20806 0.095972 0.39293 -0.14201 0.053934 0.20015 0.33332 0.1806 -0.72845 0.03742 -0.2482 0.41726 -0.42588 0.31056 0.21551 0.02048 -0.43921 -0.065105 0.095284 0.15152 -0.21007 0.58021 0.05545 -0.026503 -0.15131 0.11626 -0.18457 0.54 
empire 0.081131 -0.055326 -0.34301 0.31939 -0.24409 -0.071024 -0.31686 0.021092 0.090576 0.64019 0.089383 0.35 0.17385 -0.30223 0.0057582 -0.16244 0.44917 -0.1567 0.13683 0.38119 -0.16361 0.1415 -0.72761 0.093985 -0.34037 -0.20888 -0.034663 -0.6623 0.5998 0.32592 -0.29287 0.25334 -0.073578 0.04932 -0.11529 -0.12283 0.56223 -0.018151 0.52818 -0.039253 0.039893 -0.083391 0.097886 -0.13765 -0.09994 -0.34215 -0.33368 0.39577 0.29896 -0.31917 -0.34025 -0.05743 -0.089938 0.29057 0.039556 0.20453 -0.24565 0.040724 0.21024 0.22462 -0.014415 0.075066 0.11802 -0.27245 -0.065369 -0.13868 -0.47924 0.14275 -0.62743 -0.1411 0.36241 0.10119 0.052665 0.02581 0.052572 0.40584 0.091143 0.55669 -0.31697 0.20306 -0.026509 0.051467 0.2132 0.22111 0.32876 0.024381 -0.070182 0.4974 0.59349 -0.021855 -0.30577 -0.36542 0.084694 0.025446 0.20298 -0.030082 0.057479 0.14412 0.22248 -0.16947 -0.25289 -0.067159 -0.085804 0.13973 -0.35091 -0.2319 -0.12691 -0.0084214 -0.19296 0.10954 0.15063 -0.19619 -0.19181 0.26594 0.11029 -0.070453 0.18624 0.13342 0.031831 -0.10182 0.2131 0.55638 0.28004 0.09573 0.2462 0.057251 -0.40534 0.069954 -0.073638 0.024386 -0.2987 -0.066524 0.09514 -0.19682 -0.046933 0.034528 -0.37033 -0.3915 0.16704 0.48062 0.11108 0.0061265 0.076753 -0.016431 -0.025789 0.46704 -0.44711 0.27811 -0.19321 -0.41643 0.22259 0.035888 0.015567 0.37801 0.14093 -0.21995 -0.091342 -0.056039 0.14846 -0.36262 -0.2332 0.56006 -0.022012 -0.025031 0.28143 -0.30291 -0.070682 -0.12387 0.7883 0.30123 -0.13094 -0.40339 0.097989 -0.077613 0.063595 0.045662 -0.0098465 0.26 0.41615 0.093688 0.23681 -0.09107 0.15589 -0.053264 -0.36142 0.22391 0.10953 -0.4311 0.19893 -0.47349 0.014102 -0.83202 0.09275 -0.14798 0.10902 0.26518 -0.078817 0.19416 -0.23643 -0.17326 0.28916 -0.34898 -0.082472 -0.1281 0.065756 0.17829 -0.38957 -0.076325 0.11956 0.17455 0.53506 0.17584 0.14053 -0.11584 0.27115 0.021666 0.17395 -0.14034 -0.2174 0.010131 -0.091292 0.14317 -0.73507 0.32869 0.087032 0.52612 0.67836 -0.38245 0.059823 -0.30413 0.089721 0.032994 0.21648 0.033051 0.04853 -0.014046 0.038185 0.17244 -0.22693 -0.089611 -0.11172 -0.2752 -0.041943 -0.088389 -0.18085 -0.16283 -0.33143 0.442 0.19589 -0.033288 0.11736 0.019141 -0.096986 0.15499 -0.25279 -0.072583 -0.54042 -0.23696 0.58728 -0.20711 0.1749 -0.012297 0.32244 -0.13861 0.052112 -0.15373 -0.098123 -0.33999 0.15232 0.06099 -0.0024765 -0.24431 -0.14737 -0.14196 0.054036 -0.23986 0.16375 0.26787 0.028812 0.052064 -0.47531 0.35509 -0.15763 -0.0092967 0.13693 -0.068537 0.061679 -0.13469 -0.33763 0.065 -0.045366 0.17898 -0.53399 0.13879 -0.26412 -0.028822 -0.048426 0.062022 -0.28649 0.14124 
weimar -0.034717 0.083167 -0.25607 -0.039952 0.094195 0.028546 -0.069067 -0.047135 0.094178 0.33415 -0.042446 0.15239 0.028963 0.0028171 -0.50052 -0.4279 -0.01029 0.41203 0.41546 0.75379 0.30435 0.74004 -0.40271 -0.051753 -0.36016 0.22328 0.067024 -0.15899 0.70336 0.2845 -0.47993 0.38365 -0.22496 0.37477 -0.083733 -0.27164 -0.43505 -0.36822 -0.43956 0.0024122 0.2359 -0.014567 0.054966 0.034631 0.076588 -0.093022 0.14044 0.077435 0.12613 0.2286 0.39259 -0.078854 -0.53309 -0.11015 -0.29259 -0.11641 0.13558 0.39416 0.098111 0.27129 0.21558 -0.18448 0.781 -0.32886 -0.13633 -0.62848 0.37933 0.35084 -0.26795 -0.56564 0.21881 -0.35685 -0.048911 -0.022564 -0.067953 0.38847 0.34317 0.35333 0.11622 -0.30356 -0.31728 0.23958 0.056599 -0.014979 0.34009 -0.066925 0.029542 -0.39814 -0.2 -0.18097 0.27963 -0.09574 -0.04122 -0.15937 -0.037359 0.26067 -0.42609 0.35729 -0.091462 -0.036316 -0.16222 0.34829 0.27907 -0.17404 -0.23302 -0.060596 -0.059403 -0.31047 0.43984 -0.48484 -0.36949 -0.37545 0.11706 -0.3969 0.1959 -0.060036 0.037618 0.06768 -0.039402 0.45031 0.023396 0.33941 -0.54685 -0.15714 -0.14787 0.024304 0.098749 0.50645 0.25911 0.15688 0.083456 0.30444 -0.34419 -0.71471 -0.18742 -0.1073 -0.11609 -0.49229 -0.24413 0.23524 -0.31429 -0.40026 -0.35422 0.48804 0.20157 0.14587 0.176 -0.2669 -0.16277 -0.14063 0.42358 -0.55256 0.20645 0.04652 -0.57552 -0.16536 -0.22724 -0.65843 -0.14005 0.30757 0.80931 0.45504 0.34645 -0.41768 0.15827 0.066995 0.026754 0.015993 -0.021762 -0.25033 -0.52725 -0.41561 0.12293 0.48215 -0.36236 -0.22372 -0.41268 -0.098639 0.055003 0.37353 0.13066 -0.74824 -0.11678 -0.52844 -0.084204 0.095288 0.021535 -0.38016 0.2619 0.4376 -0.16434 -0.53285 0.21076 -0.37172 -0.34011 -0.074723 -0.17978 0.55272 0.070308 -0.090601 0.72567 0.061914 -0.35902 0.30088 0.42872 -0.29892 -0.20595 -0.34079 0.16039 0.11121 0.41512 0.30418 -0.13933 0.16651 0.22271 -0.34088 -0.024635 -0.6002 -0.45307 0.20713 -0.24674 -0.029407 -0.32192 0.063167 -0.013113 0.24928 0.00028259 -0.42288 0.22571 -0.81801 -0.15719 0.28795 0.24638 0.054755 0.27949 0.35998 0.26105 0.09611 -0.21152 -0.033158 0.31122 0.29681 0.66452 -0.078342 -0.30663 -0.56061 -0.27751 0.4248 0.0055143 -0.34572 0.53363 0.19424 -0.15721 -0.27479 0.24014 0.12469 -0.48975 -0.14714 -0.27904 0.28295 0.12685 0.29948 0.016657 0.22753 -0.022535 -0.27417 0.031324 -0.03821 0.20876 0.083338 -0.24622 -0.039862 -0.21398 0.17834 0.07672 -0.26073 0.16618 0.24728 -0.071513 0.041476 -0.099458 -0.010792 -0.42409 0.29688 -0.071516 0.49436 -0.090757 0.02218 -0.37814 0.31096 -0.3452 0.13936 -0.37726 0.37443 0.32649 -0.031644 -0.71699 -0.15304 0.16991 0.3955 
republic -0.25064 -0.089208 0.39585 0.051971 -0.34216 -0.41402 -0.27419 -0.097953 0.091126 -0.060696 -0.051526 -0.24088 0.16909 -0.4389 -0.29448 -0.4061 -0.32983 -0.013891 0.29343 0.16221 0.20421 0.30909 -0.49161 0.07259 -0.40589 0.072205 -0.14332 -0.26865 0.47636 0.0041676 -0.10195 0.15421 0.033034 0.20472 0.01065 -0.089528 0.33192 -0.1387 0.29808 0.20918 -0.35518 -0.31107 0.14993 -0.26292 -0.28291 -0.18871 0.10139 0.42667 0.046401 -0.086292 0.131 0.22672 -0.32071 0.20894 -0.13007 -0.040565 -0.33483 0.36482 -0.10934 0.4321 0.048629 0.042448 0.29143 0.093956 0.16811 -0.36857 -0.43281 0.068288 -0.032598 -0.53434 0.71692 -0.18404 -0.4833 -0.42495 -0.31478 0.34841 -0.15365 0.5736 -0.17104 0.3136 -0.58307 0.4649 0.36721 -0.058065 -0.04308 -0.040139 -0.31001 0.18347 0.036405 -0.23795 0.18775 -0.48122 0.055163 -0.057479 -0.077923 -0.017164 -0.20211 0.25925 0.14571 -0.47352 0.23761 -0.52928 0.20133 -0.20318 -0.28416 0.20333 0.1335 -0.15668 0.26515 -0.30947 0.0051305 -0.42404 0.072105 -0.31609 -0.13818 0.028687 0.14867 0.011464 0.019382 0.050131 -0.36968 -0.087636 -0.22099 -0.19299 0.153 0.13502 -0.032423 0.56381 -0.030156 -0.43346 -0.075527 0.22068 0.082749 -0.39714 0.017286 0.14129 -0.24811 -0.02029 0.42572 0.32768 0.11815 0.1754 -0.2044 0.38298 0.032504 0.77547 0.39251 -0.32281 0.019789 -0.15581 0.13055 -0.1607 -0.031527 -0.25528 -0.33825 -0.34719 -0.43264 -0.47893 0.20303 -0.1535 0.14137 0.60581 -0.28421 -0.32696 1.0222 -0.28543 -0.043661 0.11629 0.17323 0.32699 -0.044777 -0.22002 -0.09241 -0.09162 -0.62641 -0.12242 0.17659 0.20442 0.17969 0.55098 0.18364 -0.3235 -0.097156 -0.26792 -0.18949 0.23991 -0.13167 -0.45526 0.35387 0.04338 -0.069461 -0.34908 -0.11472 0.068327 0.0022838 -0.096089 -0.20816 -0.21834 0.067639 -0.051502 -0.025913 -0.36515 -0.18488 -0.23519 0.40603 -0.34295 -0.10431 -0.36143 0.47196 0.85677 0.61073 0.1362 -0.066663 0.18751 0.36592 -0.14722 0.43753 -0.66267 -0.11298 0.019167 -0.069503 -0.054909 -0.25144 0.36392 0.44021 -0.11594 -0.29645 -0.085149 0.016847 -0.55796 0.50855 0.32611 -0.24613 -0.24309 0.2227 -0.041937 -0.016399 -0.31973 0.013766 -0.39916 0.16392 -0.072418 0.1329 -0.13348 -0.22604 0.042263 0.01829 0.42882 0.084193 -0.35111 0.11955 0.11715 -0.21686 -0.37594 0.21674 0.35844 -0.13517 -0.14386 0.15938 -0.074048 0.46406 0.011784 -0.0078751 -0.14448 -0.27598 -0.21935 0.033676 0.17649 0.068225 0.48418 -0.088514 -0.24414 -0.2974 -0.78741 -0.12102 0.035709 0.091994 0.52204 0.13441 -0.12924 -0.037881 -0.028147 -0.1156 0.088527 0.40923 0.39407 0.48761 -0.23131 0.020688 0.18354 -0.26437 -0.020533 -0.34415 0.049493 -0.17325 -0.0491 -0.27626 -0.11867 0.045784 -0.089264 
third -0.52339 -0.094985 0.15163 0.29287 0.15208 0.26274 -0.078631 -0.10348 -0.14451 -0.10378 0.16179 -0.012031 0.013971 -0.20675 -0.024802 -0.08964 -0.39185 0.24215 -0.19167 0.34402 0.17281 -0.11795 -0.016338 -0.21223 0.080792 0.18052 -0.15002 -0.084229 0.18443 0.0075898 -0.24848 -0.075262 0.18078 0.045838 0.13367 -0.62387 -0.27225 0.036753 0.20506 -0.5167 0.28571 0.03502 -0.12112 -0.042877 -0.026308 -0.061672 0.040773 0.217 0.075614 -0.02187 0.2489 0.038725 0.11777 0.052912 -0.19347 0.23718 0.14626 0.10279 -0.14636 0.13486 -0.030676 -0.17848 -0.028929 -0.05601 -0.17051 0.0131 -0.25358 0.15208 0.095244 0.28729 0.076093 0.2316 0.28068 -0.0084206 0.12453 -0.12692 0.20066 0.4454 0.2013 -0.033079 -0.039264 0.18686 -0.13756 -0.12426 0.057467 -0.25039 -0.19262 -0.049254 -0.021014 0.031053 -0.21782 -0.25658 0.40943 0.093967 0.0063648 -0.10781 -0.07955 0.14414 0.08716 0.30746 0.0060906 -0.037237 0.18635 -0.13881 -0.11946 -0.049805 0.22707 -0.12779 0.3438 -0.078394 0.098297 0.16158 -0.016549 0.00087457 0.17416 -0.22422 -0.02612 0.1499 0.10614 -0.036524 0.17616 0.069276 0.0077983 0.47027 -0.045673 0.029574 0.29848 0.24135 0.35612 -0.068213 0.093891 0.2921 0.067651 0.086038 -0.037739 0.13166 -0.13069 0.0083652 0.14978 0.11448 -0.20803 0.23491 0.4706 -0.065597 0.053058 0.51956 0.12294 -0.24993 0.070884 0.045005 -0.14732 0.047615 -0.071664 0.12818 -0.044304 -0.019268 0.12381 -0.017596 -0.023954 -0.11961 0.037178 0.17176 0.098305 0.092508 0.13749 0.063937 0.012785 0.28438 0.21862 -0.13737 0.014528 -0.033039 0.030802 0.018542 -0.072497 0.01271 -0.022579 0.40942 -0.11885 -0.041541 -0.12771 -0.12587 -0.15907 0.09869 -0.291 0.32838 0.2437 -0.22048 0.12106 -0.16229 -0.066826 -0.21645 0.12975 0.11435 0.10716 -0.094135 -0.1057 0.21062 -0.052856 -0.1482 0.13376 0.0032975 -0.12052 0.09107 0.3294 -0.47472 -0.095818 0.080364 0.16297 0.2527 0.36673 -0.28285 -0.00034465 -0.22163 0.068697 -0.30373 0.0051593 -0.44096 -0.10607 0.25284 -0.013302 -0.15934 0.10285 0.32327 -0.10617 0.41056 0.015595 -0.1776 -0.14347 -0.10019 0.0062174 0.03642 -0.16706 -0.17362 0.11964 0.019558 -0.077436 0.11075 -0.099776 -0.28716 -0.29663 -0.013272 -0.030984 0.13598 0.096242 0.05223 -0.17007 0.076845 -0.026708 0.070256 -0.097671 0.14695 -0.20596 -0.15219 -0.015305 0.1515 -0.10225 -0.22182 -0.18026 -0.098947 0.23165 0.26126 0.16075 -0.13082 -0.052751 0.16347 -0.0711 0.03103 0.24234 -0.40818 -0.37123 -0.16058 0.042376 0.059396 -0.31062 -0.08213 -0.13705 0.45536 0.073086 -0.03948 0.2137 0.14125 -0.22963 0.028478 0.30972 -0.20333 -0.17041 -0.091138 -0.15966 0.089608 0.25262 -0.21788 0.20283 -0.089883 -0.0040932 0.30158 0.020102 -0.29372 0.051634 0.2123 
reich 0.13064 -0.18084 -0.35075 0.075677 -0.12456 0.2831 -0.025601 0.21253 -0.090761 0.61954 -0.24017 0.336 -0.091168 -0.1013 -0.018394 -0.40006 0.038235 0.066332 0.32232 0.48712 -0.1089 0.42311 0.21089 0.26881 -0.039372 0.20126 0.20649 -0.28683 0.14572 0.45907 -0.66943 0.13448 -0.3018 0.15687 0.24495 -0.35319 -0.049162 -0.38871 0.18882 -0.096717 0.16851 0.18548 -0.14226 0.082447 -0.080291 -0.29128 -0.092628 0.080291 0.41584 0.18619 -0.39877 0.037755 -0.048676 -0.24992 0.026256 0.45372 0.115 0.17162 -0.077961 0.18378 0.044377 -0.41129 0.35588 -0.1302 -0.18931 0.031605 0.15674 0.066856 0.11393 -0.34792 0.20559 -0.18515 0.10393 0.031615 -0.18947 0.048878 0.30207 0.15742 -0.26554 -0.11166 0.11204 0.34073 0.081187 -0.14649 -0.14027 -0.11239 -0.18686 0.0062288 0.20567 0.03195 -0.42849 -0.47527 -0.12492 0.087783 0.03251 0.31722 -0.18496 0.37187 -0.098278 -0.016026 -0.28226 -0.33141 -0.049832 0.028281 0.10807 0.22125 -0.19586 -0.37931 0.47195 -0.31719 -0.084621 -0.29774 -0.24996 0.090514 0.13528 -0.043868 -0.44084 0.18357 -0.15863 -0.1527 -0.095479 0.50356 -0.70087 0.051467 -0.36422 -0.35967 -0.25867 0.35993 0.24177 -0.048808 0.31511 0.37068 -0.012727 -0.4982 0.054177 0.067264 -0.064668 -0.22277 0.2037 0.15249 0.12348 -0.055246 0.012938 -0.095242 0.18999 0.26474 -0.029451 -0.25913 -0.25515 -0.27976 0.37546 -0.33074 0.14349 -0.1471 -0.19263 0.017584 -0.28447 -0.012398 -0.0034351 0.04316 0.35667 0.43709 0.14598 -0.18815 -0.29981 0.11326 -0.10381 0.39874 0.19657 -0.12596 -0.3323 -0.22129 0.2751 0.13039 -0.20087 -0.20065 -0.36403 -0.26726 -0.23257 0.089977 0.074233 -0.12762 -0.063521 -0.019874 -0.020426 0.09844 0.23724 -0.6908 0.24731 0.19569 -0.012946 -0.79194 0.15055 -0.2262 0.17538 0.34804 -0.14348 -0.015888 -0.14047 -0.36431 0.56953 -0.26531 -0.25684 0.012184 0.25424 -0.18144 -0.27898 -0.6589 0.20239 0.12801 0.47783 0.00072563 -0.11217 0.083933 0.49327 0.039302 0.15389 -0.85747 -0.30517 0.18931 -0.3896 -0.057127 -0.23394 0.20609 -0.31586 0.41156 0.30952 -0.56785 0.062886 -0.32624 -0.0058889 0.1198 -0.080766 0.10285 0.11433 0.088664 -0.08355 0.20259 -0.099174 -0.046032 -0.291 -0.023019 0.46853 0.16465 0.076677 -0.12128 -0.1007 0.048776 -0.039212 -0.19565 0.065785 0.45649 -0.43982 0.011165 0.39026 -0.18415 -0.29534 -0.52979 -0.13063 0.21024 -0.06832 0.0076623 0.095181 0.04322 0.062605 0.27786 -0.13007 -0.10575 -0.030148 -0.54765 -0.57124 0.064421 -0.076497 -0.14849 0.035782 -0.036548 -0.02202 0.70114 0.13054 0.062074 -0.061917 -0.11333 -0.40915 0.56033 -0.075924 -0.17901 -0.27734 0.0010568 -0.80193 0.53372 -0.22963 0.21769 -0.20253 0.5799 0.25481 -0.1924 -0.54677 0.084023 -0.18398 0.10947 
municipality -0.3157 0.23419 -0.1407 -0.14829 -0.46911 0.33884 0.073044 0.091609 -0.44641 -0.17609 -0.39388 0.19329 -0.0085115 -0.012581 -0.22452 -0.28794 -0.24622 0.20809 -0.058224 0.58329 -0.47766 0.019435 0.025743 0.47685 0.058154 -0.10554 0.13996 -0.42886 0.0071045 -0.48153 0.0019396 0.20691 -0.37989 -0.23738 0.26369 -0.39622 0.39964 -0.25736 0.56543 -0.041486 0.096681 -0.59483 0.19711 -0.49627 0.19453 0.94051 -0.093861 0.27708 -0.43917 0.21841 -0.035113 0.24582 0.24826 -0.21087 -0.18141 -0.017543 0.44382 0.44576 -0.5034 0.82804 -0.42497 -0.054802 0.067162 -0.45291 -0.16371 -0.78541 0.099853 0.4056 -0.178 -0.032136 -0.11249 0.49348 0.45782 -0.19732 -0.29082 0.018369 0.56678 0.070091 -0.81152 -0.078393 -0.68383 0.52499 0.094822 -0.066632 0.156 0.57185 -0.046501 0.21357 0.085647 -0.62492 0.069677 -0.0056706 0.083955 -0.38702 -0.22051 0.077409 -0.015495 1.451 0.28239 -0.16337 0.40047 -0.49527 0.27515 0.11464 0.01052 -0.02119 -0.077733 -0.31725 0.030376 -0.33834 -0.37448 0.51196 0.35616 0.12226 0.22102 0.3969 0.038679 0.14798 0.36265 -0.11833 0.77958 0.84657 -0.5545 -0.32226 0.17971 -0.55222 -0.027073 0.32327 0.59237 0.44769 -0.36697 0.90872 0.64019 0.25188 0.40249 0.11046 0.15382 -0.14659 -0.053239 0.66649 0.13294 0.28664 -0.087247 0.36548 0.58458 0.40089 0.27734 -0.14984 0.14202 0.4678 0.25967 0.2813 -0.040708 0.20285 -0.4887 -0.15878 0.3825 -0.2105 0.025001 -0.33049 0.3066 0.79485 0.24184 0.03844 0.61288 0.19727 -0.28737 -0.38921 0.037678 0.6488 -0.31619 -0.025858 -0.54024 0.25581 -0.46784 0.036833 0.80846 0.4015 -0.30493 -0.39135 0.068449 -0.21744 -0.70492 0.37616 -0.12976 0.002544 -0.19386 -0.31914 0.19209 0.14143 0.33336 -0.046459 0.33626 0.51069 0.15873 -0.3421 0.061131 0.72185 0.068649 -0.050189 -0.37162 0.0082301 0.4101 0.239 0.091477 -0.12419 0.065849 -0.43761 0.15856 0.19245 0.23828 0.087718 -0.35818 -0.13789 -0.0047892 0.15281 -0.079233 -0.59816 -0.038246 -0.20442 0.11373 0.35444 -0.73211 0.43951 0.21636 0.23462 0.41292 -0.57499 0.44499 0.36232 0.87242 -0.57303 -0.11251 0.076998 0.3095 0.13235 0.10135 -0.13959 0.53813 -0.14519 -0.16667 0.29966 -0.38601 -0.77557 -0.086589 0.27029 0.10774 0.017007 -0.034837 -0.1747 -0.011918 -0.072991 -0.3993 -0.28769 0.10584 -0.44028 0.26072 -0.19713 0.076145 -0.19161 0.08035 -0.27786 0.22814 -0.32113 -0.25591 0.43541 0.77564 0.40317 0.091667 0.14753 -0.026482 -0.071285 0.5281 0.011079 -0.79784 0.10541 0.38421 0.53431 -0.18288 -0.1134 0.013807 0.075474 -0.3866 0.36314 -0.87853 0.0081069 0.12646 -0.50797 -0.066543 -0.11255 0.3719 -0.74309 -0.65174 0.8303 -0.16522 0.23426 -0.35129 0.42236 -0.11742 0.030778 
world -0.32423 -0.098845 -0.0073467 0.16121 -0.25998 -0.0060076 0.0046041 -0.13021 0.25626 0.34078 0.28565 0.26202 0.1617 -0.34681 0.063853 -0.0057415 -0.21039 -0.15594 0.14924 0.12123 -0.31505 0.18454 0.067557 -0.064524 0.18522 -0.11179 0.0064246 -0.18092 0.046077 -0.094983 -0.2517 0.18452 -0.066575 0.36489 0.11338 -0.09776 0.30747 -0.023661 0.39178 -0.03507 -0.10813 -0.027539 0.43034 0.10358 -0.10806 -0.22422 -0.08929 0.12713 -0.28126 -0.0069467 -0.11128 -0.18842 0.29751 -0.11981 -0.078897 0.25913 0.3523 0.39657 0.024184 0.071092 0.17349 -0.32468 0.061097 -0.28061 -0.14277 0.0022942 -0.24633 -0.11668 -0.23279 0.12904 0.083629 -0.10669 0.25295 0.22212 0.33765 0.031227 0.15566 0.3809 -0.076791 0.13093 0.012789 0.38097 0.22645 0.10582 -0.13103 0.18499 -0.15408 0.39885 -0.18911 0.058628 0.026293 0.0096371 0.47597 -0.10347 0.227 -0.20193 -0.26306 0.20054 -0.46428 0.19976 0.19478 -0.096227 -0.090747 -0.072301 -0.201 0.050161 -0.53361 0.094732 0.1288 0.20945 -0.17726 -0.35653 0.14161 -0.080905 -0.016251 -0.0958 0.37587 0.52891 0.11805 0.065107 0.2019 0.060531 -0.14157 -0.0025388 -0.18896 0.0045249 0.21342 0.28812 0.17907 0.078547 0.13383 -0.020373 -0.064534 -0.33421 -0.3559 0.064769 -0.077711 -0.015207 0.3099 0.63486 0.066338 0.020168 0.29862 0.16501 -0.37229 0.27157 -0.021179 0.064131 0.22547 -0.44628 0.32969 -0.012753 -0.23219 -0.16027 0.20027 0.1033 0.025454 -0.097411 0.080349 0.08146 -0.32789 0.0040305 0.20591 -0.07277 -0.035319 -0.11317 -0.044998 0.20649 0.32991 -0.16076 0.38777 -0.039422 -0.060492 0.051966 0.007784 0.066656 0.10081 0.31054 -0.30312 -0.32962 -0.022858 -0.13672 0.20578 -0.024593 0.010505 0.046384 0.0116 0.078211 0.21753 -0.29905 0.2172 -0.1159 0.20545 0.16613 -0.16653 0.015691 -0.026983 0.21195 -0.20077 -0.046234 0.27736 0.023131 0.14588 -0.12859 0.17107 -0.50074 -0.29859 -0.10064 0.56272 0.30691 0.54501 -0.39113 -0.12554 0.17813 0.45996 0.018619 0.35831 -0.27745 -0.0046902 0.32791 -0.18364 0.31163 -0.32295 0.034618 -0.15645 -0.34456 -0.080383 -0.043575 0.042087 0.16559 0.024058 0.34987 0.27348 0.012231 -0.12685 0.0072742 -0.022134 0.083285 -0.017813 0.088638 0.2044 0.076185 0.27567 -0.13946 -0.14153 0.23889 -0.22143 -0.080292 0.002125 0.45858 -0.32851 0.47206 0.19678 0.077539 0.26018 0.1628 -0.2611 -0.2211 0.23609 0.31686 0.087248 0.54821 -0.1004 -0.26447 -0.35366 0.18926 -0.025612 0.0047776 0.18239 0.019577 -0.14313 0.026834 -0.024435 0.10197 -0.25018 0.14014 0.16461 0.23887 -0.10994 0.15154 -0.1888 0.05091 -0.2567 0.15235 0.23851 0.22879 -0.13311 0.12802 -0.13385 0.18834 -0.041262 -0.10447 0.099186 -0.011132 0.14804 -0.13535 -0.50431 0.14867 -0.16452 0.13953 
war -0.21215 -0.054551 0.12272 0.1542 -0.20848 -0.19902 -0.041324 -0.13887 0.27145 0.18944 0.083779 0.37143 -0.14955 -0.037469 0.065647 -0.259 0.011188 -0.42298 0.16113 0.3763 -0.3727 0.45253 -0.21964 -0.18006 -0.001282 -0.20284 0.071565 -0.12764 0.25005 0.098119 -0.15178 0.26655 -0.22582 0.40602 0.46645 -0.3426 0.2276 -0.41469 0.33237 -0.29719 -0.073135 0.094512 0.25698 -0.15026 0.11849 -0.20131 0.13094 0.2477 -0.23625 0.0097662 0.10846 0.037471 -0.19794 0.018951 -0.48766 0.28114 -0.14821 0.15175 -0.27508 0.19805 0.057653 0.03167 0.069194 -0.21394 0.1371 -0.082173 -0.30797 0.24381 -0.37902 -0.43854 0.39056 -0.055343 0.15561 0.047421 0.22302 0.23705 0.14393 0.1278 -0.19975 0.12251 -0.13099 0.079722 0.17199 -0.020928 -0.072283 -0.19844 -0.22279 0.37946 -0.1701 -0.23583 -0.56774 -0.11022 0.41481 -0.39217 0.31943 0.17683 -0.35284 0.10346 -0.46196 0.019561 -0.17652 -0.016009 -0.17048 -0.094315 -0.048288 -0.069097 -0.52781 -0.0054422 0.056405 0.071436 0.34037 -0.045277 -0.36257 -0.46267 -0.28308 -0.037667 0.32782 0.51146 -0.21644 -0.05701 0.3321 0.32687 -0.23563 0.039839 -0.18981 -0.26572 -0.30333 0.025435 0.41872 0.12363 -0.22222 0.096493 -0.050157 -0.39185 -0.073688 0.16215 0.10942 -0.26996 0.12823 0.056214 -0.028575 0.0012821 0.2301 0.18154 -0.34918 0.20788 -0.068585 0.063604 0.082485 -0.049594 0.27976 -0.075166 -0.49676 -0.032321 0.004432 -0.012343 -0.0049044 -0.13668 0.23317 0.29662 0.13075 0.24103 0.30854 0.22348 0.06674 -0.12638 0.096269 -0.041181 0.4866 -0.42333 -0.084783 -0.12793 -0.029276 0.17101 0.26837 0.035083 0.13916 0.14706 -0.18261 -0.12845 0.044683 -0.26625 -0.013768 -0.064544 -0.026787 0.19029 -0.10804 -0.27433 0.32062 -0.025488 -0.11916 -0.44636 -0.025993 0.19611 -0.16367 -0.087897 0.034782 0.0022198 0.081494 0.066091 0.26301 -0.23926 -0.010847 0.1497 -0.015661 -0.081632 -0.24261 -0.16617 -0.24408 0.20829 0.42725 0.1071 -0.036835 0.15723 0.4037 0.33009 -0.095994 -0.10765 -0.41578 0.52164 -0.10603 0.32567 -0.15849 0.18192 -0.096339 0.12951 0.20013 0.078197 -0.14989 0.1996 0.37063 -0.014624 0.25068 -0.28537 -0.23039 -0.137 0.273 -0.23096 0.019021 -0.20801 0.19426 0.060483 0.47354 0.23949 -0.13112 -0.20097 0.24707 -0.018525 -0.26722 0.085001 -0.063588 0.3256 0.32747 0.5153 0.34511 0.087512 -0.27116 -0.50277 0.049927 0.011817 0.22052 0.15251 0.031921 -0.27194 -0.14795 -0.12562 0.039835 -0.11212 0.32418 0.2035 0.034003 -0.075295 -0.13514 0.10503 0.22125 -0.13232 0.012485 0.24477 -0.016037 0.20687 -0.093587 0.16995 -0.37017 -0.043593 0.34299 0.2114 -0.016034 -0.071072 -0.11408 0.1097 -0.027644 0.024935 -0.074419 0.074801 -0.11653 0.21925 -0.57547 0.06281 -0.14495 0.22892 
ii -0.55367 -0.25338 -0.011035 -0.053732 -0.47626 0.012098 -0.10512 -0.015505 0.41519 0.3478 0.19312 0.16229 -0.15342 0.12047 0.12969 -0.37487 0.27068 0.082047 -0.043934 0.12834 -0.12668 0.013917 -0.25649 -0.48856 0.0593 0.37846 0.43845 -0.304 0.050851 0.05639 0.202 0.36037 0.23258 -0.24665 0.24524 -0.37464 0.13428 -0.65214 -0.050862 -0.46048 0.048152 -0.087761 0.21667 -0.033493 0.2909 -0.54812 -0.14299 0.28215 0.12802 -0.010859 0.19894 -0.093541 -0.053685 0.26628 0.035795 0.085644 0.00088185 -0.056007 -0.20573 -0.14156 -0.094337 -0.18813 0.12986 -0.070838 -0.26348 -0.002366 -0.020266 0.0083219 0.06786 -0.54936 0.25553 -0.1757 0.5467 0.2325 0.10539 0.0091275 -0.11155 0.40139 0.0075537 0.061739 -0.13113 0.27981 -0.11951 -0.033136 0.25787 -0.010696 0.12106 0.19529 0.065757 0.13145 -0.44444 -0.31556 0.73936 0.14203 0.43882 -0.232 -0.45304 0.18757 -0.10675 0.28279 0.019561 -0.24354 -0.19956 -0.020038 -0.050386 -0.22783 -0.10951 0.19319 0.56456 0.23363 0.00081822 -0.06184 -0.36311 -0.3895 -0.023852 -0.012955 0.23324 0.69134 0.034431 0.54718 0.35224 0.14092 -0.27308 -0.11183 -0.52577 -0.41032 -0.11959 0.13931 -0.028089 0.44581 -0.33553 0.057616 0.025747 -0.13565 -0.39224 0.068975 0.11255 -0.39814 0.28015 0.32183 -0.078924 0.36492 0.001047 0.037783 -0.06671 0.57995 -0.33073 0.25401 0.11578 -0.012216 -0.028668 -0.19709 -0.30031 0.15552 0.29335 -0.27611 0.11109 -0.013264 0.24843 0.339 -0.25724 0.31661 0.29557 0.19002 -0.081194 -0.22743 -0.023764 0.2896 0.36984 -0.0042159 -0.25132 0.0019956 0.19797 -0.14087 0.61637 -0.066003 -0.10643 0.23137 -0.16152 -0.15188 -0.1857 -0.60563 -0.20918 -0.12093 -0.0045929 0.47316 0.30511 0.20023 -0.030367 -0.19263 0.17457 -0.69539 0.21727 0.20557 -0.28014 -0.67062 0.083969 0.31948 -0.33511 0.068549 0.03687 -0.055427 -0.21995 -0.075156 0.14703 0.043972 -0.29847 0.21286 0.056405 0.21599 0.36634 0.11292 0.3178 -0.17705 0.089015 0.25152 0.047232 -0.1907 -0.21378 0.63255 -0.11369 0.26645 -0.01532 0.13387 0.23772 -0.20437 -0.072427 -0.036675 0.057225 0.12554 0.60939 -0.2643 -0.26609 -0.16331 -0.14505 0.34958 0.066376 -0.16522 -0.27298 0.32703 -0.19036 -0.059638 0.10226 -0.21015 -0.034122 -0.19033 -0.1799 -0.21654 0.091944 0.10756 -0.068352 0.16806 0.65927 0.3072 0.36636 -0.14105 -0.084077 -0.42353 0.1453 0.1409 0.046992 0.16576 -0.022374 -0.010881 -0.052206 0.1338 0.22842 -0.16573 0.21221 0.22008 -0.41614 0.089453 -0.18819 0.054196 0.090571 -0.28714 0.24358 0.10636 -0.23881 0.12582 -0.019186 0.37755 -0.47993 0.17081 0.14591 0.49738 -0.16183 0.096046 -0.36777 0.37781 0.12407 -0.0091366 -0.080217 0.26166 0.090813 -0.26741 -0.50567 -0.10598 -0.22186 0.031846 
city 0.087039 -0.22126 0.28234 0.054348 -0.33725 -0.23217 -0.23832 -0.15317 -0.24853 0.071464 0.28981 -0.048546 0.32702 -0.18319 -0.23705 -0.41334 -0.09113 -0.25103 0.098358 0.17095 -0.42538 0.17143 -0.44089 -0.1068 -0.041345 0.042902 0.21679 -0.12305 0.12069 -0.047681 -0.30252 0.021729 -0.27625 0.29796 0.0073816 0.28204 0.31925 -0.39228 0.096429 0.0076577 0.27343 -0.18826 -0.034877 0.095364 -0.026853 -0.21096 0.029485 0.0088177 0.39348 -0.072242 -0.09159 0.10429 0.052902 0.20582 -0.28677 0.20779 -0.21244 0.19957 0.050192 0.18384 0.065457 -0.23552 0.2445 -0.067218 -0.63772 0.1123 -0.3324 0.21542 -0.043091 0.050515 -0.13988 0.028778 -0.20052 -0.036303 -0.24687 -0.026459 0.24393 -0.012006 -0.044602 -0.016885 -0.14971 0.42647 -0.12573 0.2165 0.11103 0.016948 -0.04254 0.42238 0.086137 -0.19831 -0.21735 -0.26888 0.052746 -0.32813 -0.21916 0.099052 0.45249 0.26624 -0.19653 -0.070015 -0.012725 -0.048062 0.38612 0.21361 -0.36272 0.029174 -0.19166 -0.12788 0.028222 0.0029761 -0.19422 -0.073646 -0.071933 0.00037561 0.28428 -0.075453 0.39202 0.040179 -0.17859 -0.13042 0.28748 0.19408 0.065044 0.10898 -0.017584 -0.24729 0.11249 0.36858 0.42476 0.039413 -0.19387 0.092955 0.33221 -0.040804 0.17679 -0.075991 -0.29158 -0.16674 -0.30978 0.51588 -0.13837 0.10578 -0.1705 0.29702 0.10208 0.021487 0.39597 -0.20738 0.11885 0.14036 -0.26878 0.11276 0.26097 -0.1367 -0.17457 -0.35302 0.1944 -0.33162 0.1111 -0.28698 0.26651 0.15518 -0.28848 0.058488 0.54685 -0.16525 -0.17709 0.075158 0.29611 -0.052126 -0.13626 -0.080856 -0.0323 -0.19967 0.0099639 0.26753 0.3491 0.30588 -0.056316 0.0077574 -0.015425 0.13701 -0.19517 -0.023038 -0.098878 0.49143 -0.18565 -0.078946 -0.066182 0.079071 0.38102 -0.30666 0.041953 0.22241 -0.35354 0.3075 -0.14307 0.31387 -0.38921 0.21626 -0.064738 0.07339 0.27288 -0.056804 -0.032128 -0.18171 -0.19605 0.29868 0.51498 0.042395 0.43507 -0.19045 -0.087023 -0.25501 0.24237 0.13372 0.055195 -0.13025 0.048899 -0.27705 0.35087 0.025157 -0.33885 0.32488 0.00096826 0.34527 0.16839 0.018715 0.18807 0.33857 0.27822 0.15902 0.044614 -0.085678 0.0036586 -0.24343 0.081168 0.23428 0.12354 0.064363 -0.11927 -0.15201 -0.096878 0.060935 0.081331 -0.17914 -0.18899 -0.08665 -0.40483 -0.15304 -0.20072 0.11673 0.087306 0.11459 -0.086415 0.010224 0.10924 -0.26279 -0.030487 0.2306 -0.19886 -0.088406 0.12303 -0.22086 -0.14721 0.16294 -0.04327 0.13004 -0.11265 0.19418 -0.051634 -0.253 0.040893 -0.15873 -0.094636 -0.26405 0.37253 0.32703 0.1415 0.36585 0.028832 0.12231 -0.3688 0.35437 -0.1855 -0.040041 0.14815 -0.073076 -0.18536 0.050574 0.039987 -0.19084 -0.32733 0.050801 -0.1913 0.09939 -0.25915 0.11432 -0.044132 -0.068647 
east -0.20549 -0.089313 0.22916 0.16061 -0.23373 0.030209 -0.33166 -0.051419 -0.12431 0.044616 0.0027315 -0.19627 -0.2213 -0.22824 -0.077636 -0.13549 -0.16341 -0.27199 -0.16219 0.17823 -0.37651 0.39538 -0.077406 -0.31388 -0.19693 -0.12103 0.030618 -0.072162 0.14545 0.2261 0.084491 0.46122 -0.5756 0.32056 0.10921 -0.71143 -0.040428 -0.26046 0.28749 0.062135 0.039802 -0.51041 0.090201 0.062614 0.11035 -0.057497 -0.1842 0.043584 0.47238 0.16647 -0.18955 0.027189 -0.17605 -0.11601 -0.26685 0.15493 -0.638 0.45067 -0.35373 0.21034 -0.19164 -0.024862 0.2935 0.08252 -0.38247 0.09649 -0.29502 -0.09656 -0.31158 0.17771 0.064436 0.22078 0.036511 -0.19201 0.12209 0.21637 -0.035175 0.058321 -0.091523 -0.083316 -0.44027 -0.057409 -0.051174 -0.28319 -0.032574 0.12454 -0.26994 -0.025796 0.10507 0.016551 -0.15151 -0.025186 0.36914 0.095245 0.074455 0.082256 -0.049797 0.25656 -0.12151 -0.22398 0.10667 0.076427 0.00027764 0.084129 -0.38337 0.099213 -0.026725 0.46057 -0.056228 -0.25808 -0.08483 0.0026062 0.025442 -0.26943 -0.046873 0.20319 0.18295 0.0016519 -0.16153 -0.21075 0.44755 0.15009 -0.35694 0.065647 0.29085 0.1704 -0.038819 -0.19387 -0.17631 0.038784 -0.116 -0.14562 0.20872 -0.027636 -0.31293 -0.28849 0.21615 -0.050891 -0.26403 0.41034 0.097295 0.17003 0.37266 0.24914 0.073078 0.45894 -0.070194 0.12023 -0.012982 0.32963 0.13173 -0.57104 -0.38429 0.020791 -0.34433 0.021868 -0.16158 -0.060316 0.010264 0.09704 0.2367 0.34535 -0.16022 0.054468 0.25074 -0.45217 -0.41432 0.1446 0.28559 -0.075214 -0.23123 -0.4876 -0.48196 -0.07993 -0.073447 0.2097 0.077588 0.44818 0.23537 -0.13429 0.044227 0.11652 0.051414 0.072661 0.61309 0.4801 -0.14759 0.036722 0.24404 0.071576 0.23095 -0.19931 -0.057206 0.034364 -0.13964 0.47974 0.087851 0.16986 -0.29177 -0.28541 0.02043 0.19292 -0.18164 -0.12737 -0.34395 0.035882 -0.065283 0.52884 0.27117 0.12816 0.37008 -0.089899 -0.019337 -0.064302 -0.041107 -0.023551 0.079743 -0.33922 0.28278 -0.1783 0.15645 0.39409 -0.042853 0.14243 0.19952 0.15194 0.11343 0.13026 0.38093 -0.093196 -0.013901 0.13023 -0.15527 0.32348 0.1206 -0.094688 -0.12112 -0.10757 -0.096409 0.031631 -0.15277 0.17421 -0.31366 0.045403 -0.26666 -0.016674 -0.12327 0.11097 -0.096118 0.14839 0.077271 -0.012445 0.02118 -0.21451 -0.030652 0.18971 0.095986 -0.20397 0.3927 0.24514 -0.01283 0.27031 0.04582 0.07138 -0.096065 0.030514 0.048369 -0.39833 -0.24729 -0.19437 -0.27696 -0.15165 -0.34561 -0.22862 -0.095295 -0.22667 0.12792 0.43251 0.041424 -0.20091 -0.37546 -0.11589 -0.3919 0.029685 -0.4635 -0.068433 -0.264 -0.034201 -0.020635 0.3195 -0.071383 -0.47815 0.15694 0.36865 -0.25997 -0.037413 -0.16865 -0.20865 -0.24835 0.051407 
berlin -0.10052 -0.017 -0.21077 -0.50765 -0.13132 0.21765 -0.26609 0.22856 -0.19865 0.33651 -0.11927 0.12591 0.47005 0.3127 -0.23583 -0.23453 -0.014921 0.07109 0.434 0.57627 0.09705 0.27706 -0.35411 0.19945 0.04167 -0.13174 -0.049887 -0.088114 0.23986 0.19416 -0.34101 0.18284 -0.038464 0.34261 0.20358 0.064062 -0.050313 -0.34356 0.17962 -0.096653 0.23099 -0.11119 -0.14206 0.017161 -0.10122 0.03682 0.0799 -0.031689 0.40153 -0.023915 0.31156 0.021064 -0.29796 -0.11779 0.035163 -0.37074 -0.0058891 0.3212 -0.090729 0.082942 0.28965 -0.10532 0.36011 -0.13221 -0.37254 0.072096 0.19259 0.202 -0.59373 -0.28543 0.27862 -0.31069 -0.27128 0.15297 -0.33777 0.11989 0.40642 0.24152 -0.13345 -0.46217 0.11127 0.47736 0.31819 -0.1213 -0.19735 -0.19502 0.13229 -0.39477 -0.083519 0.069615 0.16632 -0.21403 0.087144 -0.15085 -0.29616 0.25719 -0.46212 0.057489 -0.15393 -0.053855 -0.097108 0.29466 0.10151 -0.0075112 -0.054118 0.077753 -0.21713 0.15798 0.24575 -0.089792 -0.2821 -0.50229 0.39801 -0.31282 0.16383 -0.19914 0.24878 0.18505 -0.10793 0.089811 0.16746 0.14221 -0.02886 0.27972 -0.15821 0.071109 -0.04185 0.32773 0.48422 0.10852 0.0059997 0.10709 -0.052773 -0.53095 -0.13066 -0.032268 -0.21193 -0.14371 -0.49284 0.46708 -0.273 -0.36204 0.062994 -0.20143 0.0027814 0.19583 0.015716 0.17015 -0.0093628 0.16376 -0.073737 -0.3116 -0.18126 -0.35548 -0.28484 -0.12904 -0.062218 -0.2456 -0.52714 0.42998 0.44444 0.62813 0.033329 0.18109 -0.13282 -0.16096 -0.26294 0.31051 0.34078 -0.16779 -0.64985 -0.26081 -0.099533 0.042371 0.10895 0.059171 -0.21959 -0.4401 0.057538 -0.097591 -0.30488 -0.2746 -0.32697 0.040428 0.1185 0.35537 -0.11794 0.044468 -0.17292 0.028476 0.063188 -0.52779 0.061395 0.14078 -0.33479 -0.034258 -0.36712 0.082368 -0.28874 -0.38247 0.86799 0.19181 -0.04134 0.035703 0.32484 -0.51533 -0.58314 0.012628 0.40387 0.055428 0.35311 -0.15689 0.00097598 0.0538 0.19946 -0.37907 -0.12751 -0.51687 -0.32145 -0.20275 -0.096348 0.01612 -0.16761 -0.062865 -0.19366 -0.066753 0.058816 -0.26176 0.43434 -0.24779 0.5044 0.24896 0.26848 0.086134 0.091979 -0.047441 0.37085 0.13166 -0.062037 0.42314 -0.0026331 -0.18796 0.35673 -0.022603 -0.031035 -0.088854 -0.1549 -0.086829 -0.40554 -0.41943 0.22638 0.051392 -0.058888 -0.1738 -0.037833 -0.17967 -0.29044 -0.16025 -0.31979 0.23111 -0.28515 0.21077 0.11575 0.26087 -0.14531 0.048127 -0.0044873 -0.076777 -0.23207 -0.19785 -0.20284 0.058001 -0.076868 -0.15327 -0.064433 -0.14932 -0.02172 0.1706 0.42813 -0.048095 -0.25063 -0.49081 -0.32223 0.25426 -0.22155 0.30175 -0.43747 0.11183 -0.38952 0.51956 -0.20163 -0.082513 0.34158 0.067009 -0.077654 -0.093298 -0.28296 0.045193 -0.068595 0.27074 
east -0.20549 -0.089313 0.22916 0.16061 -0.23373 0.030209 -0.33166 -0.051419 -0.12431 0.044616 0.0027315 -0.19627 -0.2213 -0.22824 -0.077636 -0.13549 -0.16341 -0.27199 -0.16219 0.17823 -0.37651 0.39538 -0.077406 -0.31388 -0.19693 -0.12103 0.030618 -0.072162 0.14545 0.2261 0.084491 0.46122 -0.5756 0.32056 0.10921 -0.71143 -0.040428 -0.26046 0.28749 0.062135 0.039802 -0.51041 0.090201 0.062614 0.11035 -0.057497 -0.1842 0.043584 0.47238 0.16647 -0.18955 0.027189 -0.17605 -0.11601 -0.26685 0.15493 -0.638 0.45067 -0.35373 0.21034 -0.19164 -0.024862 0.2935 0.08252 -0.38247 0.09649 -0.29502 -0.09656 -0.31158 0.17771 0.064436 0.22078 0.036511 -0.19201 0.12209 0.21637 -0.035175 0.058321 -0.091523 -0.083316 -0.44027 -0.057409 -0.051174 -0.28319 -0.032574 0.12454 -0.26994 -0.025796 0.10507 0.016551 -0.15151 -0.025186 0.36914 0.095245 0.074455 0.082256 -0.049797 0.25656 -0.12151 -0.22398 0.10667 0.076427 0.00027764 0.084129 -0.38337 0.099213 -0.026725 0.46057 -0.056228 -0.25808 -0.08483 0.0026062 0.025442 -0.26943 -0.046873 0.20319 0.18295 0.0016519 -0.16153 -0.21075 0.44755 0.15009 -0.35694 0.065647 0.29085 0.1704 -0.038819 -0.19387 -0.17631 0.038784 -0.116 -0.14562 0.20872 -0.027636 -0.31293 -0.28849 0.21615 -0.050891 -0.26403 0.41034 0.097295 0.17003 0.37266 0.24914 0.073078 0.45894 -0.070194 0.12023 -0.012982 0.32963 0.13173 -0.57104 -0.38429 0.020791 -0.34433 0.021868 -0.16158 -0.060316 0.010264 0.09704 0.2367 0.34535 -0.16022 0.054468 0.25074 -0.45217 -0.41432 0.1446 0.28559 -0.075214 -0.23123 -0.4876 -0.48196 -0.07993 -0.073447 0.2097 0.077588 0.44818 0.23537 -0.13429 0.044227 0.11652 0.051414 0.072661 0.61309 0.4801 -0.14759 0.036722 0.24404 0.071576 0.23095 -0.19931 -0.057206 0.034364 -0.13964 0.47974 0.087851 0.16986 -0.29177 -0.28541 0.02043 0.19292 -0.18164 -0.12737 -0.34395 0.035882 -0.065283 0.52884 0.27117 0.12816 0.37008 -0.089899 -0.019337 -0.064302 -0.041107 -0.023551 0.079743 -0.33922 0.28278 -0.1783 0.15645 0.39409 -0.042853 0.14243 0.19952 0.15194 0.11343 0.13026 0.38093 -0.093196 -0.013901 0.13023 -0.15527 0.32348 0.1206 -0.094688 -0.12112 -0.10757 -0.096409 0.031631 -0.15277 0.17421 -0.31366 0.045403 -0.26666 -0.016674 -0.12327 0.11097 -0.096118 0.14839 0.077271 -0.012445 0.02118 -0.21451 -0.030652 0.18971 0.095986 -0.20397 0.3927 0.24514 -0.01283 0.27031 0.04582 0.07138 -0.096065 0.030514 0.048369 -0.39833 -0.24729 -0.19437 -0.27696 -0.15165 -0.34561 -0.22862 -0.095295 -0.22667 0.12792 0.43251 0.041424 -0.20091 -0.37546 -0.11589 -0.3919 0.029685 -0.4635 -0.068433 -0.264 -0.034201 -0.020635 0.3195 -0.071383 -0.47815 0.15694 0.36865 -0.25997 -0.037413 -0.16865 -0.20865 -0.24835 0.051407 
germany -0.20947 0.092044 -0.081754 0.057696 -0.33654 -0.047499 -0.22546 -0.26234 -0.11614 0.094206 -0.26419 0.079003 0.21629 0.10931 -0.071479 -0.42733 0.18731 0.51242 0.48695 0.14688 0.20093 0.23443 -0.27167 0.13979 -0.14047 -0.098305 0.0037765 -0.22529 0.18401 0.15886 -0.23973 0.3565 -0.63342 0.22442 -0.07232 -0.27882 -0.091204 -0.23501 0.55748 0.12161 -0.34588 0.089675 -0.36932 0.11233 0.00091398 -0.21387 -0.047945 0.084726 0.19042 -0.025982 0.016842 -0.2146 -0.21773 0.056044 -0.26952 -0.16876 -0.078455 0.24982 -0.31037 0.35461 0.018853 -0.064161 0.20368 -0.36327 -0.18218 -0.10502 -0.12311 0.29273 -0.33193 -0.42501 0.60748 -0.22663 0.10913 0.2697 -0.17387 0.30944 0.52453 0.3085 -0.11993 -0.59885 -0.29101 0.084161 0.26911 -0.095736 -0.059152 -0.13212 -0.083931 -0.072829 0.12647 0.069365 -0.028389 -0.087055 0.10566 0.071886 -0.10843 0.089603 -0.35359 0.012826 -0.22778 -0.039075 0.045487 0.28281 0.29347 -0.090244 -0.18877 -0.087399 -0.23241 -0.067747 0.22759 0.018625 -0.015829 -0.29179 -0.0028244 -0.13975 0.0043034 -0.10286 0.042019 0.0084601 0.32264 0.12718 0.3163 0.25659 -0.19799 0.10853 -0.059033 -0.1509 0.3031 0.16422 0.17654 0.069011 0.024901 0.22933 -0.07795 -0.68017 -0.42027 -0.48179 0.058036 0.11521 0.2299 0.51216 -0.056608 -0.20997 0.14069 0.01958 0.13874 0.53686 0.11833 0.22337 0.14458 0.042719 0.43273 -0.23492 -0.0036791 -0.20618 -0.64581 -0.13513 -0.068283 -0.14001 -0.14334 0.31941 0.21378 0.39915 -0.11209 -0.14097 -0.011734 -0.29899 0.017981 0.4423 0.35001 -0.21241 -0.29527 -0.19854 0.031829 0.35818 -0.025591 -0.17329 0.11605 -0.0073654 -0.0097356 0.22354 -0.17496 -0.74001 -0.23003 0.14444 0.066226 -0.027027 0.025917 -0.12035 -0.063993 0.091126 -0.20611 -0.41944 0.072929 -0.27596 -0.166 -0.023301 0.21495 0.0038261 -0.23519 -0.097132 0.2803 0.044735 0.35735 0.11317 0.32556 -0.20694 -0.36468 -0.48284 0.027713 0.47624 0.56669 0.0057605 -0.17769 0.32429 0.13413 -0.32043 0.14097 -0.40471 -0.12283 -0.14801 -0.17258 0.025419 -0.14673 -0.028935 0.1345 -0.045394 -0.014672 -0.38527 0.19493 -0.4365 0.077317 0.0058776 0.0033151 0.16085 0.12966 0.12729 0.085151 0.17284 -0.043316 0.24693 0.11025 0.22837 0.50621 -0.17364 -0.00048663 -0.090296 -0.18439 0.28459 -0.098643 -0.0036996 0.12965 0.19485 0.098409 -0.27317 0.053153 -0.08996 -0.23039 0.21481 0.15163 0.47065 -0.14852 0.13339 0.093155 -0.27074 -0.20302 -0.12694 0.092938 0.086456 -0.063701 -0.38603 -0.168 0.063726 -0.078884 -0.036706 -0.056929 -0.28633 0.047709 0.4422 0.39222 0.047903 -0.049811 -0.26767 -0.21101 0.3802 -0.024064 0.29455 -0.19669 -0.4264 -0.5694 0.27029 -0.10361 -0.05606 0.071104 0.4373 0.1386 -0.11365 -0.25436 0.04491 -0.076182 0.27178 
west -0.23022 -0.1885 0.37487 -0.090754 -0.143 0.074448 -0.28046 0.020945 -0.16023 0.27042 -0.063691 -0.23102 -0.30277 -0.27422 -0.091876 -0.004534 -0.17645 -0.32619 -0.14534 0.087537 -0.17129 0.57264 0.050563 -0.33022 -0.20491 -0.012055 -0.011214 -0.032217 0.20315 0.17706 0.10865 0.56499 -0.51063 0.47281 0.26769 -0.55486 0.0065369 -0.25456 0.22402 -0.047536 0.24688 -0.4632 0.087489 0.08417 0.22221 -0.20674 -0.24803 0.17683 0.58011 0.15979 -0.079743 -0.0070377 -0.076412 -0.026162 -0.27765 0.29924 -0.44762 0.3389 -0.096536 0.13908 -0.10287 0.0086852 0.39731 -0.041693 -0.3896 0.18858 -0.45481 0.002913 -0.24046 -0.031042 0.18377 0.20069 0.11562 -0.22354 0.20363 0.22379 0.086364 0.013349 -0.059724 -0.052704 -0.35884 0.012033 -0.032902 -0.18158 0.012058 0.1143 -0.20132 -0.087765 0.06333 -0.030226 -0.16293 -0.054469 0.18655 -0.086097 -0.065604 0.12602 -0.013543 0.15231 -0.017197 -0.010558 -0.06909 0.020935 -0.015075 0.034732 -0.29385 -0.080693 -0.077707 0.34864 -0.14539 -0.23841 -0.088829 -0.040528 0.013624 -0.18044 -0.18167 0.11913 0.37247 -0.24322 -0.022836 -0.18071 0.46606 0.076228 -0.23225 0.25922 0.2893 -0.019346 0.028829 -0.060213 -0.15494 -0.022322 -0.14887 0.0073079 0.10243 0.032892 -0.10351 -0.28096 0.067283 0.18409 -0.30343 0.31617 -0.043863 0.2289 0.12518 0.22327 -0.059106 0.30298 -0.20744 0.10665 -0.14539 0.15437 0.097895 -0.43843 -0.45291 0.036563 -0.54548 -0.18928 -0.076706 -0.068394 -0.023191 0.11957 0.20368 0.25463 -0.14427 0.16607 0.28092 -0.41778 -0.42035 0.12057 0.22952 -0.051544 -0.25983 -0.31354 -0.57031 -0.128 0.0014509 0.28286 -0.15459 0.47436 0.23196 -0.26889 -0.0085333 0.074936 0.034207 0.05232 0.47449 0.46527 -0.093237 -0.05967 0.18709 0.069494 0.25455 0.12868 -0.08905 -0.054442 -0.042243 0.35705 0.10859 -0.065024 -0.29784 -0.37514 -0.060739 0.5036 -0.22034 -0.15927 -0.19913 0.089002 -0.14652 0.30927 0.41474 0.22791 0.48806 -0.08955 0.058518 -0.12122 0.10708 0.1133 -0.058343 -0.31574 0.021088 -0.19461 -0.0088591 0.24892 -0.07685 0.15198 0.12639 0.0078407 -0.0017616 0.1475 0.27009 -0.0026717 -0.063371 0.059108 0.041185 0.3001 0.065116 -0.17116 -0.32352 -0.17752 0.035349 -0.066862 -0.27052 0.15583 -0.37985 0.12263 -0.13277 0.13617 -0.20294 0.044465 -0.052807 0.055784 0.040152 -0.044702 0.10811 -0.49215 -0.059928 -0.0087355 0.049496 -0.1503 0.3608 0.17151 -0.10112 0.35521 0.082518 0.10012 -0.10342 0.11481 0.1421 -0.2508 -0.17288 -0.088817 -0.17447 -0.10517 -0.060858 -0.17384 -0.028636 -0.17759 0.19624 0.31273 0.067919 -0.16604 -0.24587 -0.14487 -0.53728 0.21482 -0.5106 -0.051098 -0.093995 -0.10193 -0.35618 0.12931 -0.08629 -0.62607 0.090887 0.39347 -0.32358 -0.20125 -0.32457 -0.27514 -0.4336 0.050873 
berlin -0.10052 -0.017 -0.21077 -0.50765 -0.13132 0.21765 -0.26609 0.22856 -0.19865 0.33651 -0.11927 0.12591 0.47005 0.3127 -0.23583 -0.23453 -0.014921 0.07109 0.434 0.57627 0.09705 0.27706 -0.35411 0.19945 0.04167 -0.13174 -0.049887 -0.088114 0.23986 0.19416 -0.34101 0.18284 -0.038464 0.34261 0.20358 0.064062 -0.050313 -0.34356 0.17962 -0.096653 0.23099 -0.11119 -0.14206 0.017161 -0.10122 0.03682 0.0799 -0.031689 0.40153 -0.023915 0.31156 0.021064 -0.29796 -0.11779 0.035163 -0.37074 -0.0058891 0.3212 -0.090729 0.082942 0.28965 -0.10532 0.36011 -0.13221 -0.37254 0.072096 0.19259 0.202 -0.59373 -0.28543 0.27862 -0.31069 -0.27128 0.15297 -0.33777 0.11989 0.40642 0.24152 -0.13345 -0.46217 0.11127 0.47736 0.31819 -0.1213 -0.19735 -0.19502 0.13229 -0.39477 -0.083519 0.069615 0.16632 -0.21403 0.087144 -0.15085 -0.29616 0.25719 -0.46212 0.057489 -0.15393 -0.053855 -0.097108 0.29466 0.10151 -0.0075112 -0.054118 0.077753 -0.21713 0.15798 0.24575 -0.089792 -0.2821 -0.50229 0.39801 -0.31282 0.16383 -0.19914 0.24878 0.18505 -0.10793 0.089811 0.16746 0.14221 -0.02886 0.27972 -0.15821 0.071109 -0.04185 0.32773 0.48422 0.10852 0.0059997 0.10709 -0.052773 -0.53095 -0.13066 -0.032268 -0.21193 -0.14371 -0.49284 0.46708 -0.273 -0.36204 0.062994 -0.20143 0.0027814 0.19583 0.015716 0.17015 -0.0093628 0.16376 -0.073737 -0.3116 -0.18126 -0.35548 -0.28484 -0.12904 -0.062218 -0.2456 -0.52714 0.42998 0.44444 0.62813 0.033329 0.18109 -0.13282 -0.16096 -0.26294 0.31051 0.34078 -0.16779 -0.64985 -0.26081 -0.099533 0.042371 0.10895 0.059171 -0.21959 -0.4401 0.057538 -0.097591 -0.30488 -0.2746 -0.32697 0.040428 0.1185 0.35537 -0.11794 0.044468 -0.17292 0.028476 0.063188 -0.52779 0.061395 0.14078 -0.33479 -0.034258 -0.36712 0.082368 -0.28874 -0.38247 0.86799 0.19181 -0.04134 0.035703 0.32484 -0.51533 -0.58314 0.012628 0.40387 0.055428 0.35311 -0.15689 0.00097598 0.0538 0.19946 -0.37907 -0.12751 -0.51687 -0.32145 -0.20275 -0.096348 0.01612 -0.16761 -0.062865 -0.19366 -0.066753 0.058816 -0.26176 0.43434 -0.24779 0.5044 0.24896 0.26848 0.086134 0.091979 -0.047441 0.37085 0.13166 -0.062037 0.42314 -0.0026331 -0.18796 0.35673 -0.022603 -0.031035 -0.088854 -0.1549 -0.086829 -0.40554 -0.41943 0.22638 0.051392 -0.058888 -0.1738 -0.037833 -0.17967 -0.29044 -0.16025 -0.31979 0.23111 -0.28515 0.21077 0.11575 0.26087 -0.14531 0.048127 -0.0044873 -0.076777 -0.23207 -0.19785 -0.20284 0.058001 -0.076868 -0.15327 -0.064433 -0.14932 -0.02172 0.1706 0.42813 -0.048095 -0.25063 -0.49081 -0.32223 0.25426 -0.22155 0.30175 -0.43747 0.11183 -0.38952 0.51956 -0.20163 -0.082513 0.34158 0.067009 -0.077654 -0.093298 -0.28296 0.045193 -0.068595 0.27074 
west -0.23022 -0.1885 0.37487 -0.090754 -0.143 0.074448 -0.28046 0.020945 -0.16023 0.27042 -0.063691 -0.23102 -0.30277 -0.27422 -0.091876 -0.004534 -0.17645 -0.32619 -0.14534 0.087537 -0.17129 0.57264 0.050563 -0.33022 -0.20491 -0.012055 -0.011214 -0.032217 0.20315 0.17706 0.10865 0.56499 -0.51063 0.47281 0.26769 -0.55486 0.0065369 -0.25456 0.22402 -0.047536 0.24688 -0.4632 0.087489 0.08417 0.22221 -0.20674 -0.24803 0.17683 0.58011 0.15979 -0.079743 -0.0070377 -0.076412 -0.026162 -0.27765 0.29924 -0.44762 0.3389 -0.096536 0.13908 -0.10287 0.0086852 0.39731 -0.041693 -0.3896 0.18858 -0.45481 0.002913 -0.24046 -0.031042 0.18377 0.20069 0.11562 -0.22354 0.20363 0.22379 0.086364 0.013349 -0.059724 -0.052704 -0.35884 0.012033 -0.032902 -0.18158 0.012058 0.1143 -0.20132 -0.087765 0.06333 -0.030226 -0.16293 -0.054469 0.18655 -0.086097 -0.065604 0.12602 -0.013543 0.15231 -0.017197 -0.010558 -0.06909 0.020935 -0.015075 0.034732 -0.29385 -0.080693 -0.077707 0.34864 -0.14539 -0.23841 -0.088829 -0.040528 0.013624 -0.18044 -0.18167 0.11913 0.37247 -0.24322 -0.022836 -0.18071 0.46606 0.076228 -0.23225 0.25922 0.2893 -0.019346 0.028829 -0.060213 -0.15494 -0.022322 -0.14887 0.0073079 0.10243 0.032892 -0.10351 -0.28096 0.067283 0.18409 -0.30343 0.31617 -0.043863 0.2289 0.12518 0.22327 -0.059106 0.30298 -0.20744 0.10665 -0.14539 0.15437 0.097895 -0.43843 -0.45291 0.036563 -0.54548 -0.18928 -0.076706 -0.068394 -0.023191 0.11957 0.20368 0.25463 -0.14427 0.16607 0.28092 -0.41778 -0.42035 0.12057 0.22952 -0.051544 -0.25983 -0.31354 -0.57031 -0.128 0.0014509 0.28286 -0.15459 0.47436 0.23196 -0.26889 -0.0085333 0.074936 0.034207 0.05232 0.47449 0.46527 -0.093237 -0.05967 0.18709 0.069494 0.25455 0.12868 -0.08905 -0.054442 -0.042243 0.35705 0.10859 -0.065024 -0.29784 -0.37514 -0.060739 0.5036 -0.22034 -0.15927 -0.19913 0.089002 -0.14652 0.30927 0.41474 0.22791 0.48806 -0.08955 0.058518 -0.12122 0.10708 0.1133 -0.058343 -0.31574 0.021088 -0.19461 -0.0088591 0.24892 -0.07685 0.15198 0.12639 0.0078407 -0.0017616 0.1475 0.27009 -0.0026717 -0.063371 0.059108 0.041185 0.3001 0.065116 -0.17116 -0.32352 -0.17752 0.035349 -0.066862 -0.27052 0.15583 -0.37985 0.12263 -0.13277 0.13617 -0.20294 0.044465 -0.052807 0.055784 0.040152 -0.044702 0.10811 -0.49215 -0.059928 -0.0087355 0.049496 -0.1503 0.3608 0.17151 -0.10112 0.35521 0.082518 0.10012 -0.10342 0.11481 0.1421 -0.2508 -0.17288 -0.088817 -0.17447 -0.10517 -0.060858 -0.17384 -0.028636 -0.17759 0.19624 0.31273 0.067919 -0.16604 -0.24587 -0.14487 -0.53728 0.21482 -0.5106 -0.051098 -0.093995 -0.10193 -0.35618 0.12931 -0.08629 -0.62607 0.090887 0.39347 -0.32358 -0.20125 -0.32457 -0.27514 -0.4336 0.050873 
german -0.074423 0.29448 -0.25947 -0.1806 -0.060086 -0.032589 -0.33733 -0.0094443 -0.093711 0.099688 -0.073203 0.22465 0.075888 0.11471 -0.33527 -0.12085 0.12332 0.052926 0.41584 0.090759 -0.15192 0.30321 -0.3958 0.04872 -0.10845 0.25032 0.14867 0.10724 0.25447 0.23123 -0.37299 0.19303 -0.28157 -0.1512 0.015832 -0.15831 -0.3191 0.0094031 0.3114 0.055251 0.12422 0.1955 -0.25622 0.32696 -0.037221 -0.11255 -0.11113 0.0878 0.13944 -0.18158 -0.029283 -0.29121 -0.2389 0.024345 -0.32367 -0.08021 0.045689 0.34495 -0.02748 0.36231 0.2512 -0.14814 0.67554 -0.20677 -0.07836 -0.25262 0.056919 0.1542 -0.21333 -0.25423 0.4511 -0.38129 -0.077052 0.26983 -0.2474 0.43523 0.29567 0.24168 -0.15356 -0.59765 0.12636 0.13475 0.089557 -0.081512 -0.13584 -0.0037306 -0.17669 -0.26718 -0.17858 0.29318 0.31866 -0.17751 0.25374 -0.1198 -0.0068842 0.26817 -0.40614 0.016904 -0.13432 -0.002133 -0.32552 -0.041755 0.17703 -0.12155 0.1554 -0.10283 -0.33658 -0.1365 0.18209 0.021977 0.045334 -0.43662 -0.16009 -0.31746 -0.14131 -0.00042438 -0.17656 0.034293 0.17083 0.033753 0.25586 0.20045 -0.37766 -0.036165 -0.17239 -0.5521 0.10006 0.3561 -0.0037356 0.12774 0.19821 0.20093 -0.14149 -0.23548 -0.13624 -0.22318 0.12421 -0.018033 0.12394 0.37638 0.072198 -0.09413 0.14307 -0.021278 0.083664 0.26227 -0.039351 0.34478 -0.080029 -0.46239 0.24952 -0.21659 -0.05908 -0.11363 -0.59166 -0.028108 -0.092346 -0.19503 0.32911 0.24064 0.42189 0.55918 0.093494 -0.13222 0.34773 -0.32065 0.037914 0.58211 0.32404 -0.53253 -0.32534 -0.075839 -0.0077491 0.089065 -0.10604 0.084018 0.19744 -0.26768 0.012476 -0.20673 -0.11445 -0.32719 -0.016629 0.17748 0.10418 0.36206 -0.23198 0.04432 0.13771 0.096706 0.29153 -0.68389 0.095198 -0.30706 0.11578 -0.34966 -0.17996 0.25641 -0.13876 -0.24965 0.41478 -0.19001 0.25848 0.1 0.19865 -0.17596 -0.33626 -0.53548 0.10588 0.51498 0.49825 0.37082 0.13823 0.11882 0.10401 -0.14204 -0.017688 -0.093125 -0.23401 -0.22737 0.10333 -0.0062703 -0.11696 0.55491 -0.21548 0.015807 0.16569 -0.16963 0.40827 -0.11572 -0.16869 0.093342 0.073751 0.0038318 0.33615 -0.0016509 0.079159 0.022544 0.11686 -0.049166 0.001418 0.13285 0.73017 -0.083535 -0.15645 0.054888 -0.054188 0.21025 0.14752 -0.092047 -0.013609 0.13656 0.029174 -0.10428 0.12839 0.0082472 -0.023201 -0.0053514 0.023149 0.36307 -0.22218 0.18125 -0.12287 -0.18432 -0.22715 0.01206 0.10133 0.048042 0.068481 -0.66106 -0.73224 -0.031778 -0.21448 -0.12266 0.23186 0.011008 -0.13847 0.45015 0.12375 -0.1362 -0.1191 0.04405 -0.16925 0.049683 -0.15619 -0.098077 -0.34759 0.016826 -0.41752 0.11215 0.026383 0.22427 0.21449 0.44907 -0.26696 -0.10445 -0.13766 0.30855 -0.34677 0.11066 
exclave -0.29082 0.17265 -0.067939 -0.0098788 -0.21305 0.30342 0.12992 -0.1201 -0.1301 -0.057434 -0.40029 -0.036083 -0.20884 -0.066452 -0.29727 -0.49976 0.098034 -0.28142 -0.088138 1.0018 -0.46629 0.08375 0.16068 0.28473 -0.36208 -0.20894 -0.30822 -0.046914 0.17311 -0.14911 -0.37147 0.34358 -0.46291 0.10245 0.4023 0.060099 0.4197 0.079707 0.30567 -0.22246 0.51815 -0.12136 0.42878 -0.25393 0.32859 0.84031 -0.58615 0.17404 0.054477 0.60896 -0.20067 -0.01302 -0.38043 -0.57468 -0.21927 -0.33138 -0.45701 0.22413 -0.18577 0.67117 -0.12799 0.22995 -0.052621 0.13544 0.33123 -0.7762 -0.59682 0.36026 0.15559 -0.0086731 0.55245 0.39463 0.53272 0.026527 -0.40238 0.4807 0.37478 0.33162 -0.50603 -0.19587 -0.2106 0.13368 -0.032564 -0.18589 0.34585 0.36988 -0.12227 0.21897 0.42259 -0.17869 -0.048377 0.35405 0.14279 -0.018638 0.35262 0.5261 0.32301 0.6028 0.11512 -0.42162 -0.11542 -0.074498 0.11752 0.11019 0.077532 -0.31626 0.29354 -0.35069 -0.034147 -0.54155 -0.068907 -0.43219 -0.18435 -0.75848 0.26922 -0.026506 0.66517 0.19225 0.00048605 -0.047193 0.72411 0.060403 -0.48305 -0.014086 0.038666 0.21968 0.25567 0.67583 0.67722 -0.39468 -0.26284 0.11914 0.21049 -0.39081 -0.49162 -0.32917 0.22294 0.11142 -0.21137 0.74113 0.026334 -0.12033 0.0070861 0.38255 0.24327 -0.18689 -0.37889 0.49925 0.048323 0.2517 0.61337 0.48743 -0.013656 0.21171 -0.76463 -0.011839 0.1864 -0.39082 0.36913 0.44441 -0.10428 0.59175 -0.22376 0.1356 0.14892 -0.2803 -0.75626 -0.094063 0.58203 -0.16178 -0.56263 -0.56004 -0.68304 -0.00034862 -0.23364 0.45038 0.32052 0.45862 -0.7532 0.49701 0.088035 -0.036548 0.060302 0.52459 0.54644 0.64445 -0.30122 -0.34153 -0.093443 -0.14486 0.376 -0.064945 0.20094 0.31535 0.063596 0.096219 -0.17512 0.2484 0.22685 -0.28881 -0.19154 0.0065912 -0.13976 0.26823 0.40733 0.059213 0.15348 0.13961 0.066218 0.42079 0.11098 -0.14831 0.10801 0.25358 0.2912 0.16707 0.18984 -0.34101 0.068791 -0.05784 0.55784 -0.082244 -0.37709 0.029195 0.51265 0.11363 0.21832 0.12767 0.047813 -0.3126 0.57344 -0.33227 0.041452 -0.079646 0.14156 -0.076386 0.0075355 -0.18482 -0.37538 0.095792 0.17778 -0.054408 -0.2438 -0.37058 -0.13142 -0.031699 -0.074069 0.46132 -0.71356 -0.28742 0.34785 -0.51611 -0.26861 -0.17918 0.26652 0.40946 0.47779 0.15457 0.53826 -0.12345 0.20784 -0.21666 -0.35418 -0.013007 -0.44335 0.17927 -0.076522 -0.5643 0.074339 0.093681 0.076044 -0.017093 0.33896 -0.096799 -0.55241 -0.66497 0.18116 0.46156 0.11121 -0.48544 -0.013676 0.42605 -0.11873 0.34828 -0.055308 -0.44843 0.39755 -0.74887 -0.19807 0.021221 0.023949 0.12032 -0.65542 0.60079 -0.41209 0.04173 -0.42417 -0.072767 -0.15005 0.47119 
berlin -0.10052 -0.017 -0.21077 -0.50765 -0.13132 0.21765 -0.26609 0.22856 -0.19865 0.33651 -0.11927 0.12591 0.47005 0.3127 -0.23583 -0.23453 -0.014921 0.07109 0.434 0.57627 0.09705 0.27706 -0.35411 0.19945 0.04167 -0.13174 -0.049887 -0.088114 0.23986 0.19416 -0.34101 0.18284 -0.038464 0.34261 0.20358 0.064062 -0.050313 -0.34356 0.17962 -0.096653 0.23099 -0.11119 -0.14206 0.017161 -0.10122 0.03682 0.0799 -0.031689 0.40153 -0.023915 0.31156 0.021064 -0.29796 -0.11779 0.035163 -0.37074 -0.0058891 0.3212 -0.090729 0.082942 0.28965 -0.10532 0.36011 -0.13221 -0.37254 0.072096 0.19259 0.202 -0.59373 -0.28543 0.27862 -0.31069 -0.27128 0.15297 -0.33777 0.11989 0.40642 0.24152 -0.13345 -0.46217 0.11127 0.47736 0.31819 -0.1213 -0.19735 -0.19502 0.13229 -0.39477 -0.083519 0.069615 0.16632 -0.21403 0.087144 -0.15085 -0.29616 0.25719 -0.46212 0.057489 -0.15393 -0.053855 -0.097108 0.29466 0.10151 -0.0075112 -0.054118 0.077753 -0.21713 0.15798 0.24575 -0.089792 -0.2821 -0.50229 0.39801 -0.31282 0.16383 -0.19914 0.24878 0.18505 -0.10793 0.089811 0.16746 0.14221 -0.02886 0.27972 -0.15821 0.071109 -0.04185 0.32773 0.48422 0.10852 0.0059997 0.10709 -0.052773 -0.53095 -0.13066 -0.032268 -0.21193 -0.14371 -0.49284 0.46708 -0.273 -0.36204 0.062994 -0.20143 0.0027814 0.19583 0.015716 0.17015 -0.0093628 0.16376 -0.073737 -0.3116 -0.18126 -0.35548 -0.28484 -0.12904 -0.062218 -0.2456 -0.52714 0.42998 0.44444 0.62813 0.033329 0.18109 -0.13282 -0.16096 -0.26294 0.31051 0.34078 -0.16779 -0.64985 -0.26081 -0.099533 0.042371 0.10895 0.059171 -0.21959 -0.4401 0.057538 -0.097591 -0.30488 -0.2746 -0.32697 0.040428 0.1185 0.35537 -0.11794 0.044468 -0.17292 0.028476 0.063188 -0.52779 0.061395 0.14078 -0.33479 -0.034258 -0.36712 0.082368 -0.28874 -0.38247 0.86799 0.19181 -0.04134 0.035703 0.32484 -0.51533 -0.58314 0.012628 0.40387 0.055428 0.35311 -0.15689 0.00097598 0.0538 0.19946 -0.37907 -0.12751 -0.51687 -0.32145 -0.20275 -0.096348 0.01612 -0.16761 -0.062865 -0.19366 -0.066753 0.058816 -0.26176 0.43434 -0.24779 0.5044 0.24896 0.26848 0.086134 0.091979 -0.047441 0.37085 0.13166 -0.062037 0.42314 -0.0026331 -0.18796 0.35673 -0.022603 -0.031035 -0.088854 -0.1549 -0.086829 -0.40554 -0.41943 0.22638 0.051392 -0.058888 -0.1738 -0.037833 -0.17967 -0.29044 -0.16025 -0.31979 0.23111 -0.28515 0.21077 0.11575 0.26087 -0.14531 0.048127 -0.0044873 -0.076777 -0.23207 -0.19785 -0.20284 0.058001 -0.076868 -0.15327 -0.064433 -0.14932 -0.02172 0.1706 0.42813 -0.048095 -0.25063 -0.49081 -0.32223 0.25426 -0.22155 0.30175 -0.43747 0.11183 -0.38952 0.51956 -0.20163 -0.082513 0.34158 0.067009 -0.077654 -0.093298 -0.28296 0.045193 -0.068595 0.27074 
wall 0.053708 0.12299 -0.10333 0.29626 -0.32141 0.40818 -0.28746 0.25928 -0.069688 0.25657 -0.027455 0.13435 -0.017064 0.078712 0.0042418 -0.21394 -0.064796 0.090534 0.19051 0.51196 -0.10274 -0.16057 -0.098911 -0.096876 -0.049073 0.070654 0.027005 -0.095409 -0.0082063 0.1315 0.070137 -0.013387 -0.19054 0.074518 -0.077387 -0.086301 0.28537 0.0063632 0.072645 -0.23349 0.14334 -0.43726 -0.0033449 -0.086301 -0.044089 0.38157 -0.059892 0.0924 0.14999 0.097686 0.06785 -0.10761 -0.075528 0.16333 -0.034249 0.10772 -0.08791 0.18609 -0.039304 0.26728 0.061698 0.06715 0.50616 0.1833 0.038018 -0.29614 -0.14567 0.20704 0.048858 -0.047563 -0.27138 -0.12856 -0.015262 0.068286 -0.029825 0.11279 0.17797 0.20741 -0.062542 -0.50997 0.30972 -0.20175 -0.15079 -0.21526 -0.15985 0.20638 -0.12901 -0.23261 -0.19897 0.31611 0.048762 0.12523 0.29618 0.059238 0.17911 -0.12525 0.13258 0.16735 -0.16425 0.042602 -0.19492 -0.055537 -0.16692 0.17998 0.25313 0.021961 -0.39634 0.20049 0.04386 -0.006113 -0.16221 -0.084309 -0.010584 -0.19302 0.037627 0.22917 -0.18521 0.29112 -0.37131 0.23417 0.13094 0.0059104 0.39515 0.27193 -0.032332 0.44467 -0.21194 -0.098927 0.34833 0.11993 0.12263 0.00019739 -0.17872 -0.22734 0.12556 0.11822 -0.31446 0.211 -0.11872 0.31063 0.12865 0.27139 0.42718 0.30296 -0.18823 0.11206 -0.0056373 -0.10231 -0.37137 0.39822 -0.1782 -0.048948 -0.5083 0.2664 -0.028469 -0.21796 -0.094667 -0.1342 -0.083486 -0.073679 0.19609 0.05427 0.047074 0.016619 0.23696 -0.10212 -0.29188 0.20441 0.31476 -0.22818 -0.65019 -0.15638 0.026898 -0.13093 -0.32766 0.037492 -0.20841 -0.1912 0.36048 -0.13005 0.34 -0.079879 0.052237 0.081027 0.18376 0.50933 -0.13888 -0.21127 0.39769 0.0075218 0.16566 -0.13446 -0.0043131 0.44059 -0.20508 0.056609 -0.014552 0.1149 -0.60493 -0.43015 0.33336 -0.27034 0.079535 0.056616 0.3378 -0.37824 -0.44076 0.047927 -0.045823 -0.51561 0.19132 -0.067604 0.078132 0.011952 0.17964 0.17458 0.31208 -0.71736 -0.085205 -0.2347 -0.40803 -0.067948 -0.35609 0.054429 -0.15557 0.072896 -0.01089 0.097024 -0.13244 0.26432 -0.11451 -0.084371 0.074743 0.16192 0.18372 -0.32154 -0.21677 0.17741 0.25359 0.25861 -0.093818 -0.40156 -0.34358 0.12332 0.33347 0.37944 -0.062151 -0.46124 -0.15241 0.12177 0.45157 0.14492 0.060525 0.23257 -0.12433 -0.10323 0.015919 -0.46714 -0.12777 -0.26913 -0.51685 -0.032765 -0.073089 -0.20696 -0.080888 -0.11025 -0.32702 0.013271 -0.24114 0.027091 -0.20059 0.061214 0.12049 0.16828 -0.47654 -0.44904 0.48812 0.38123 -0.040825 0.094888 0.10792 -0.18378 -0.095554 0.24013 0.30746 0.093984 0.47786 -0.11326 0.030194 0.44383 0.038138 -0.19782 -0.022459 0.1045 -0.34169 -0.16814 0.0069382 0.071838 -0.49914 0.28266 
german -0.074423 0.29448 -0.25947 -0.1806 -0.060086 -0.032589 -0.33733 -0.0094443 -0.093711 0.099688 -0.073203 0.22465 0.075888 0.11471 -0.33527 -0.12085 0.12332 0.052926 0.41584 0.090759 -0.15192 0.30321 -0.3958 0.04872 -0.10845 0.25032 0.14867 0.10724 0.25447 0.23123 -0.37299 0.19303 -0.28157 -0.1512 0.015832 -0.15831 -0.3191 0.0094031 0.3114 0.055251 0.12422 0.1955 -0.25622 0.32696 -0.037221 -0.11255 -0.11113 0.0878 0.13944 -0.18158 -0.029283 -0.29121 -0.2389 0.024345 -0.32367 -0.08021 0.045689 0.34495 -0.02748 0.36231 0.2512 -0.14814 0.67554 -0.20677 -0.07836 -0.25262 0.056919 0.1542 -0.21333 -0.25423 0.4511 -0.38129 -0.077052 0.26983 -0.2474 0.43523 0.29567 0.24168 -0.15356 -0.59765 0.12636 0.13475 0.089557 -0.081512 -0.13584 -0.0037306 -0.17669 -0.26718 -0.17858 0.29318 0.31866 -0.17751 0.25374 -0.1198 -0.0068842 0.26817 -0.40614 0.016904 -0.13432 -0.002133 -0.32552 -0.041755 0.17703 -0.12155 0.1554 -0.10283 -0.33658 -0.1365 0.18209 0.021977 0.045334 -0.43662 -0.16009 -0.31746 -0.14131 -0.00042438 -0.17656 0.034293 0.17083 0.033753 0.25586 0.20045 -0.37766 -0.036165 -0.17239 -0.5521 0.10006 0.3561 -0.0037356 0.12774 0.19821 0.20093 -0.14149 -0.23548 -0.13624 -0.22318 0.12421 -0.018033 0.12394 0.37638 0.072198 -0.09413 0.14307 -0.021278 0.083664 0.26227 -0.039351 0.34478 -0.080029 -0.46239 0.24952 -0.21659 -0.05908 -0.11363 -0.59166 -0.028108 -0.092346 -0.19503 0.32911 0.24064 0.42189 0.55918 0.093494 -0.13222 0.34773 -0.32065 0.037914 0.58211 0.32404 -0.53253 -0.32534 -0.075839 -0.0077491 0.089065 -0.10604 0.084018 0.19744 -0.26768 0.012476 -0.20673 -0.11445 -0.32719 -0.016629 0.17748 0.10418 0.36206 -0.23198 0.04432 0.13771 0.096706 0.29153 -0.68389 0.095198 -0.30706 0.11578 -0.34966 -0.17996 0.25641 -0.13876 -0.24965 0.41478 -0.19001 0.25848 0.1 0.19865 -0.17596 -0.33626 -0.53548 0.10588 0.51498 0.49825 0.37082 0.13823 0.11882 0.10401 -0.14204 -0.017688 -0.093125 -0.23401 -0.22737 0.10333 -0.0062703 -0.11696 0.55491 -0.21548 0.015807 0.16569 -0.16963 0.40827 -0.11572 -0.16869 0.093342 0.073751 0.0038318 0.33615 -0.0016509 0.079159 0.022544 0.11686 -0.049166 0.001418 0.13285 0.73017 -0.083535 -0.15645 0.054888 -0.054188 0.21025 0.14752 -0.092047 -0.013609 0.13656 0.029174 -0.10428 0.12839 0.0082472 -0.023201 -0.0053514 0.023149 0.36307 -0.22218 0.18125 -0.12287 -0.18432 -0.22715 0.01206 0.10133 0.048042 0.068481 -0.66106 -0.73224 -0.031778 -0.21448 -0.12266 0.23186 0.011008 -0.13847 0.45015 0.12375 -0.1362 -0.1191 0.04405 -0.16925 0.049683 -0.15619 -0.098077 -0.34759 0.016826 -0.41752 0.11215 0.026383 0.22427 0.21449 0.44907 -0.26696 -0.10445 -0.13766 0.30855 -0.34677 0.11066 
reunification -0.33753 -0.032881 0.017637 -0.056404 -0.15655 -0.01651 -0.55491 -0.47579 -0.21646 0.31384 -0.45468 0.10477 -0.070623 -0.095987 0.28179 -0.46241 -0.004735 -0.067612 0.55899 0.38841 0.16959 0.22849 0.15848 -0.088511 -0.14521 0.010976 -0.094852 0.21357 -0.074057 0.046764 -0.29218 0.20628 -0.099087 0.181 -0.22634 -0.30953 0.12717 -0.39231 0.32199 -0.097956 -0.30395 -0.44404 0.051179 -0.09833 -0.011816 0.083974 0.42915 0.34537 0.035357 0.1638 0.013853 -0.27061 -0.28563 0.14389 -0.053496 -0.343 -0.61807 0.58282 0.15449 -0.091444 0.30787 0.06912 0.50376 -0.49995 0.30292 -0.55657 0.23745 0.22605 -0.31616 -0.10112 0.3364 -0.082225 0.038296 0.073887 -0.34381 0.39843 0.21154 0.10033 0.055373 -0.015792 -0.02201 0.21471 -0.15316 -0.044621 0.052645 -0.25503 -0.016074 -0.11109 0.027634 0.084695 -0.022094 -0.37533 0.30824 -0.10585 -0.043033 0.17794 -0.17335 -0.064748 -0.30752 -0.14179 0.11102 0.33994 0.032895 -0.21772 -0.25211 0.021582 -0.21733 0.1608 0.46781 0.21646 -0.018679 -0.24879 -0.40921 -0.37141 0.24226 -0.33107 -0.1223 0.29586 0.084602 0.08385 0.25439 0.36137 -0.36679 -0.081341 0.035082 0.13077 -0.048583 0.32771 0.26757 -0.049142 -0.072025 -0.055649 0.045868 -0.50399 -0.22375 0.15658 -0.25788 0.077391 0.20539 0.24861 -0.061534 -0.34275 0.037447 0.090808 -0.11795 0.45973 -0.12247 0.18398 0.37914 0.24525 -0.056536 0.049061 -0.13281 0.24312 -0.28362 -0.10508 -0.014779 -0.1449 -0.093656 0.4364 0.57747 0.3172 0.19831 0.25377 0.41542 -0.30059 -0.27258 -0.054565 0.22818 -0.32299 -0.29174 -0.23107 -0.23334 0.15762 -0.40727 -0.14715 0.22303 0.036683 0.12229 0.077005 0.042922 -0.20818 -0.10282 0.09029 0.27629 0.2977 0.19253 -0.2439 0.37214 0.0468 -0.10807 -0.75266 -0.15555 0.27731 -0.19082 0.28604 -0.0020942 -0.13487 0.16409 -0.059969 0.19211 -0.091505 0.025695 0.39216 0.31887 -0.16131 -0.51923 0.061851 0.2366 0.31638 0.50705 -0.0070537 0.036271 0.099342 0.17965 -0.15827 0.022255 -0.60947 0.057517 -0.032893 -0.034626 -0.094945 0.032052 -0.096511 -0.16241 0.16085 0.066163 -0.29067 0.10984 -0.6649 0.28682 -0.12797 -0.092553 0.22106 -0.12449 0.064391 0.30194 -0.4227 0.12951 0.42542 0.22816 -0.2488 0.30997 0.09482 -0.017597 -0.2411 -0.14301 0.23239 -0.25333 -0.20145 0.14663 0.40031 -0.044913 -0.31053 0.048417 0.052343 -0.12546 -0.66458 0.17443 0.021997 0.18056 0.042519 -0.049695 0.16688 -0.027236 0.33974 0.11629 0.10309 0.14122 -0.10966 -0.4704 -0.098024 0.19743 0.12929 0.14417 -0.2167 -0.19405 0.37656 0.25426 -0.075997 -0.14481 -0.089443 -0.0085601 0.10103 -0.076438 0.15382 -0.011508 -0.37291 -0.31977 0.43403 -0.31899 -0.17327 -0.11856 0.56002 -0.30595 -0.043247 -0.024037 0.15335 0.016406 0.048013 
germany -0.20947 0.092044 -0.081754 0.057696 -0.33654 -0.047499 -0.22546 -0.26234 -0.11614 0.094206 -0.26419 0.079003 0.21629 0.10931 -0.071479 -0.42733 0.18731 0.51242 0.48695 0.14688 0.20093 0.23443 -0.27167 0.13979 -0.14047 -0.098305 0.0037765 -0.22529 0.18401 0.15886 -0.23973 0.3565 -0.63342 0.22442 -0.07232 -0.27882 -0.091204 -0.23501 0.55748 0.12161 -0.34588 0.089675 -0.36932 0.11233 0.00091398 -0.21387 -0.047945 0.084726 0.19042 -0.025982 0.016842 -0.2146 -0.21773 0.056044 -0.26952 -0.16876 -0.078455 0.24982 -0.31037 0.35461 0.018853 -0.064161 0.20368 -0.36327 -0.18218 -0.10502 -0.12311 0.29273 -0.33193 -0.42501 0.60748 -0.22663 0.10913 0.2697 -0.17387 0.30944 0.52453 0.3085 -0.11993 -0.59885 -0.29101 0.084161 0.26911 -0.095736 -0.059152 -0.13212 -0.083931 -0.072829 0.12647 0.069365 -0.028389 -0.087055 0.10566 0.071886 -0.10843 0.089603 -0.35359 0.012826 -0.22778 -0.039075 0.045487 0.28281 0.29347 -0.090244 -0.18877 -0.087399 -0.23241 -0.067747 0.22759 0.018625 -0.015829 -0.29179 -0.0028244 -0.13975 0.0043034 -0.10286 0.042019 0.0084601 0.32264 0.12718 0.3163 0.25659 -0.19799 0.10853 -0.059033 -0.1509 0.3031 0.16422 0.17654 0.069011 0.024901 0.22933 -0.07795 -0.68017 -0.42027 -0.48179 0.058036 0.11521 0.2299 0.51216 -0.056608 -0.20997 0.14069 0.01958 0.13874 0.53686 0.11833 0.22337 0.14458 0.042719 0.43273 -0.23492 -0.0036791 -0.20618 -0.64581 -0.13513 -0.068283 -0.14001 -0.14334 0.31941 0.21378 0.39915 -0.11209 -0.14097 -0.011734 -0.29899 0.017981 0.4423 0.35001 -0.21241 -0.29527 -0.19854 0.031829 0.35818 -0.025591 -0.17329 0.11605 -0.0073654 -0.0097356 0.22354 -0.17496 -0.74001 -0.23003 0.14444 0.066226 -0.027027 0.025917 -0.12035 -0.063993 0.091126 -0.20611 -0.41944 0.072929 -0.27596 -0.166 -0.023301 0.21495 0.0038261 -0.23519 -0.097132 0.2803 0.044735 0.35735 0.11317 0.32556 -0.20694 -0.36468 -0.48284 0.027713 0.47624 0.56669 0.0057605 -0.17769 0.32429 0.13413 -0.32043 0.14097 -0.40471 -0.12283 -0.14801 -0.17258 0.025419 -0.14673 -0.028935 0.1345 -0.045394 -0.014672 -0.38527 0.19493 -0.4365 0.077317 0.0058776 0.0033151 0.16085 0.12966 0.12729 0.085151 0.17284 -0.043316 0.24693 0.11025 0.22837 0.50621 -0.17364 -0.00048663 -0.090296 -0.18439 0.28459 -0.098643 -0.0036996 0.12965 0.19485 0.098409 -0.27317 0.053153 -0.08996 -0.23039 0.21481 0.15163 0.47065 -0.14852 0.13339 0.093155 -0.27074 -0.20302 -0.12694 0.092938 0.086456 -0.063701 -0.38603 -0.168 0.063726 -0.078884 -0.036706 -0.056929 -0.28633 0.047709 0.4422 0.39222 0.047903 -0.049811 -0.26767 -0.21101 0.3802 -0.024064 0.29455 -0.19669 -0.4264 -0.5694 0.27029 -0.10361 -0.05606 0.071104 0.4373 0.1386 -0.11365 -0.25436 0.04491 -0.076182 0.27178 
