food -0.090345 0.05868 0.010369 -0.0016161 -0.45914 0.049791 0.25756 -0.66128 0.28087 0.33842 -0.00099617 0.30974 -0.067849 -0.19724 -0.067667 -0.41038 0.10888 0.044596 0.10505 -0.19357 -0.0217 0.33093 0.055828 -0.21113 -0.012885 -0.13972 -0.058592 -0.086088 0.28735 0.0082522 -0.005227 -0.10357 -0.36311 0.1965 0.1738 0.086029 0.24757 -0.089819 0.042765 -0.133 0.0778 0.16974 -0.10355 -0.011614 0.10319 0.17148 0.38137 -0.25595 -0.051348 -0.017718 -0.13626 0.025587 0.38891 0.075998 -0.2383 0.096163 0.011579 -0.049167 -0.058724 0.05471 -0.31772 -0.57441 0.25593 -0.1545 0.2286 -0.24909 -0.31104 -0.004736 -0.21419 -0.023585 -0.49084 -0.073627 0.50683 -0.43231 -0.21704 0.15904 0.12252 0.24229 -0.28812 -0.36653 0.35964 -0.20492 0.097914 -0.13861 0.0040562 0.2077 -0.061775 0.42943 0.33462 0.12648 0.3646 -0.21027 0.027347 -0.49658 0.19665 0.2075 0.076771 -0.048739 0.35811 0.1583 -0.20946 -0.4054 -0.19331 -0.31393 -0.22464 0.45229 -0.097287 0.17458 -0.58392 0.14828 -0.47817 0.10691 -0.26848 0.24906 -0.031659 -0.12289 0.096237 -0.14814 -0.10954 -0.14792 0.49341 -0.015613 0.023142 -0.070299 -0.38906 0.022856 -0.26611 -0.087382 -0.20299 0.045967 0.18578 -0.024205 -0.19048 0.18764 0.14116 -0.18087 -0.25945 -0.0044864 -0.53837 0.42078 0.14209 0.20046 0.20307 0.14217 0.065021 0.5078 0.084597 -0.40154 0.26227 -0.020558 0.034511 -0.029345 -0.28685 0.038208 0.24325 0.061038 -0.35884 -0.17299 0.11413 0.17015 0.1789 0.25499 -0.35253 0.25936 0.3092 -0.12891 -0.16245 -0.39138 0.50327 0.018914 -0.4039 -0.2205 0.065506 -0.16492 0.14967 0.18863 -0.22106 -0.13525 -0.26461 0.039587 -0.072494 0.034941 0.056342 -0.22091 -0.084663 -0.32466 0.27397 0.020568 0.15753 -0.092607 -0.28376 -0.37567 0.1368 0.0055067 -0.42829 0.043844 0.16416 -0.049447 -0.053191 0.20415 -0.44037 0.056663 0.0089663 -0.42139 0.076785 -0.24204 -0.45772 -0.098446 0.062873 -0.16558 0.90978 0.0050626 0.133 -0.013369 -0.16328 0.2159 -0.17367 -0.16257 0.060762 0.010989 -0.14357 -0.089586 0.24999 0.083016 -0.51014 0.31473 -0.36466 0.10376 -0.18639 0.037932 -0.15546 -0.064355 -0.22116 -0.19953 0.21503 -0.0009162 -0.17767 -0.038248 0.0085164 -0.21526 0.098858 0.37818 0.079738 -0.10055 -0.28118 0.48222 0.16748 0.12923 -0.20268 -0.29588 0.12741 0.016855 0.36118 -0.028623 -0.091095 0.21574 0.058895 -0.31846 -0.081399 0.29548 0.14381 0.070355 -0.28671 -0.29881 -0.26539 0.15951 -0.052686 -0.20323 -0.10321 0.010546 -0.29878 0.065229 -0.05628 0.24581 -0.20789 0.096259 0.036334 0.29552 0.067827 0.121 0.3321 0.079409 0.092908 -0.11111 -0.02315 0.25054 0.020456 -0.21551 -0.36217 0.52636 0.2466 -0.25078 0.47905 -0.53256 -0.22046 0.11992 0.30345 0.36579 0.035406 0.12429 
and -0.031533 0.046278 -0.12534 0.19165 -0.1266 -0.012853 0.10342 -0.0098085 0.15189 0.27582 0.13695 0.0088799 0.14132 -0.12 -0.063439 -0.15178 0.09809 -0.1201 -0.069086 0.014666 -0.023041 0.03043 -0.12664 -0.063282 -0.082246 0.036718 0.22698 -0.096025 -0.011699 0.066158 -0.18542 0.19223 -0.061685 0.27049 0.075116 -0.054928 -0.086027 -0.19387 0.14677 -0.06013 0.068269 0.071613 -0.094414 0.036158 0.002782 -0.081711 -0.013369 -0.053017 0.052227 -0.079682 -0.00031768 0.030397 -0.16847 0.021828 -0.19577 -0.050109 -0.0096879 0.085536 -0.28135 0.17001 -0.049194 -0.16721 0.19018 -0.0474 -0.00036412 0.026316 -0.22135 -0.061583 -0.21854 -0.021669 -0.2963 -0.071949 0.010638 -0.19055 -0.11292 -0.099072 0.19357 0.14115 0.068346 -0.00045947 0.072621 -0.021192 -0.1242 -0.041933 -0.028386 0.049083 -0.073574 0.073525 0.088135 -0.032184 0.029903 -0.070025 0.15323 -0.17236 0.073502 0.13232 0.090191 0.0079023 -0.027887 -0.046971 0.039198 -0.12567 0.19803 -0.075995 -0.21353 0.031964 -0.17346 0.055884 -0.055404 -0.0083924 -0.024104 0.0023894 -0.1057 -0.10604 -0.061323 -0.041473 0.0060497 0.055896 -0.071338 0.1375 0.094781 0.048121 -0.071236 0.26263 0.07257 -0.00020344 0.1864 0.066703 0.055229 0.11258 0.047647 0.085482 -0.14489 0.0098078 0.082585 0.039254 -0.10044 0.16532 -0.030841 0.10315 -0.046584 0.11211 0.15416 -0.050309 0.14853 0.2287 -0.056036 -0.072966 0.0018167 -0.015694 -0.06022 -0.19044 -0.075073 -0.0032815 -0.079256 -0.078324 -0.11073 -0.093705 0.26284 0.01034 -0.095 0.17295 -0.053949 0.15056 0.22815 -0.16589 -0.080074 -0.076248 0.13423 -0.093626 -0.065384 -0.014181 -0.067937 -0.038283 -0.084514 0.11082 0.068804 0.19402 -0.069373 -0.043398 0.15402 -0.10172 0.049785 -0.010005 -0.03371 0.29018 0.025405 -0.094919 0.093876 -0.055423 -0.059419 -0.082542 0.094048 0.059422 -0.032564 -0.0062017 -0.0095274 0.092439 -0.16995 0.00038904 0.19187 -0.025048 -0.11844 0.027879 -0.034024 -0.046866 -0.09009 -0.034417 0.25534 0.096778 0.20841 0.029693 -0.015943 -0.035779 0.0021559 0.080246 -0.031355 -0.22676 -0.11579 -0.059579 -0.07442 -0.12871 -0.10199 0.064969 -0.070388 -0.040131 -0.1474 -0.098839 0.11614 0.15871 0.0693 0.031897 -0.028738 -0.084634 -0.14864 0.11398 0.072688 -0.065752 -0.013296 0.085164 0.025053 0.016867 -0.045257 -0.042925 0.12329 0.13012 -0.01532 -0.13943 0.089764 0.082172 -0.081918 -0.011688 -0.11742 0.029242 -0.065814 0.029959 -0.010941 -0.0183 0.05718 0.068436 0.0072271 0.0057584 0.071466 -0.083164 -0.01501 -0.07806 0.0033293 0.099132 0.061188 -0.097815 -0.14008 -0.0026304 0.0022269 0.083496 -0.14334 -0.037447 0.061564 0.21536 -0.036836 0.038629 0.13031 0.045944 0.027701 0.061679 0.062921 0.068453 -0.026292 0.17342 -0.14421 -0.013124 0.15494 -0.10786 0.18314 0.13881 0.02757 -0.035073 -0.017829 0.11163 -0.058231 0.011977 
listed -0.23611 -0.32184 -0.061116 0.19884 -0.53486 0.02082 0.27997 -0.30776 -0.0012017 0.046638 0.41279 -0.058123 0.051281 -0.20906 0.3642 -0.097725 0.12713 0.15838 -0.17492 -0.1524 -0.45071 0.26183 -0.2762 -0.43234 -0.027109 -0.39809 -0.19338 -0.18551 -0.042354 0.14018 0.016893 0.063268 -0.14484 0.57381 -0.25711 -0.24982 -0.048348 -0.11749 0.11961 0.024512 0.3092 -0.096987 0.30631 0.32095 0.48329 0.030566 0.26093 0.12636 0.065023 -0.40012 0.51529 -0.30738 0.059385 0.19121 -0.23274 0.19504 -0.05046 -0.062351 0.070812 0.31253 -0.026815 0.14555 0.17918 -0.31306 0.21329 -0.057319 0.003622 -0.15732 -0.087633 -0.062594 0.21449 -0.14087 0.59843 -0.25049 -0.19042 0.01439 -0.13994 0.43884 -0.10134 -0.35107 0.45128 0.29664 -0.18439 0.1984 0.085823 -0.24827 -0.31669 -0.17454 -0.11064 -0.002968 -0.095617 0.27592 0.72553 0.0010409 -0.027748 0.089123 -0.32435 0.32972 -0.17958 0.53925 -0.057542 -0.58036 -0.35885 -0.29209 -0.32416 0.11974 0.13489 0.14327 0.13556 0.17217 0.0030169 0.41518 -0.14615 -0.11783 0.030516 0.20976 0.0479 -0.058011 -0.098333 0.26892 0.27999 -0.44327 -0.38856 0.30141 -0.10584 0.13742 0.093007 0.11255 0.17338 -0.20739 -0.066613 0.13446 -0.058916 0.30199 -0.10064 0.015029 0.096689 -0.16698 0.083076 -0.055326 0.34966 0.088698 0.13246 0.3479 0.17086 -0.14055 -0.22416 0.37245 -0.27446 -0.0024341 -0.087328 -0.32072 -0.070203 -0.15832 0.080815 -0.095788 -0.22452 -0.11443 0.36328 0.15007 -0.065707 0.32911 0.00069822 -0.13961 -0.082257 0.18647 -0.16282 -0.081485 0.24372 -0.1621 -0.30149 -0.098557 -0.24691 -0.21351 -0.18332 -0.10421 -0.076924 0.035677 0.067754 0.33578 -0.27745 0.38684 -0.21599 0.19573 -0.37142 0.12364 -0.20684 0.41983 -0.13929 -0.24251 0.331 -0.1692 0.11779 -0.26389 -0.42704 -0.23253 -0.017608 0.22302 -0.14898 -0.14198 0.023845 -0.023421 0.14634 0.046472 0.059041 -0.44209 0.078971 0.35968 0.42516 -0.12252 0.19639 -0.3117 0.074386 0.24959 0.14036 0.11706 0.0095886 -0.35791 -0.27591 -0.031837 0.041571 0.10739 -0.21769 -0.4461 0.21844 0.08189 0.040264 0.032976 0.16323 0.020048 -0.062441 -0.086566 -0.049691 -0.14236 -0.38562 0.089571 0.011074 0.049987 0.011647 0.29174 -0.14583 0.24098 -0.069801 -0.013097 0.082615 0.18925 0.22067 0.26682 0.29917 0.31412 0.29442 -0.2769 -0.032966 -0.18481 -0.034499 -0.028936 0.060934 -0.24076 0.56515 -0.42746 0.24356 0.16253 -0.45066 -0.018399 0.047855 0.04664 0.027505 0.19999 -0.16283 -0.056611 0.029413 0.5437 -0.11513 -0.26237 0.1359 -0.14424 0.36528 0.45912 0.064816 0.381 0.3097 0.44189 -0.12962 0.26454 0.18697 0.10172 -0.37035 0.29868 -0.034831 -0.26534 0.12275 0.14169 0.026774 0.53469 -0.19678 -0.12925 -0.38829 -0.27208 0.25594 0.039823 
rice -0.12156 -0.046709 -0.24987 -0.019462 -0.16466 -0.13885 0.43068 -0.6303 0.20417 -0.16998 0.61291 0.26776 -0.028747 -0.036959 -0.028246 -0.33025 -0.010043 -0.43674 0.13989 0.33776 0.02771 0.12628 0.19148 -0.069366 -0.0028128 0.53212 -0.15487 -0.40348 0.27647 -0.34827 0.29787 -0.14962 -0.78055 0.31508 0.39793 -0.48555 -0.029996 -0.21691 0.011106 -0.21541 -0.079867 0.144 -0.11665 0.061731 0.006194 -0.12588 0.08221 -0.13943 -0.060758 0.18677 0.12909 0.09864 0.19295 0.10928 -0.044386 0.099541 0.31668 0.34169 -0.17596 0.10118 -0.12203 -0.35536 0.021045 -0.13942 -0.36167 -0.1597 -0.34872 -0.1629 0.1119 -0.081591 -0.50755 -0.49483 0.4811 -0.42533 -0.22974 -0.010621 0.38901 0.11686 -0.077935 0.097464 0.24976 -0.14115 -0.29394 -0.1677 0.027098 -0.13963 0.10828 0.25934 0.51245 0.11275 0.072243 -0.33754 -0.14298 -0.51237 0.21971 0.042302 0.33933 0.078808 0.2221 -0.1542 0.19241 0.27575 0.012152 -0.062688 -0.044266 0.29124 0.053968 0.11749 -0.069775 -0.33584 -0.4113 0.16011 0.12029 0.04655 0.1363 -0.17003 0.077029 0.045584 0.51504 0.17042 0.32092 0.13224 -0.22484 -0.0082046 0.16164 0.1256 -0.25112 -0.60592 0.15284 -0.10188 0.53879 -0.19592 0.24066 0.23425 0.19234 0.029071 0.060545 -0.48053 -0.11138 -0.33195 0.17955 0.34328 -0.1373 0.32417 -0.14809 0.68197 -0.13298 -0.01777 -0.087836 0.015136 0.29635 -0.13463 -0.23671 0.31067 0.5978 -0.22368 0.08232 0.10482 -0.096783 0.073932 0.071217 0.30569 -0.50078 0.32725 0.18038 0.12628 0.20914 0.10288 0.60994 -0.12298 -0.55859 -0.47016 0.16216 -0.2624 0.21331 0.37358 -0.075711 -0.27207 0.13113 -0.08814 0.57225 0.23248 0.30796 0.23497 -0.37531 0.053004 -0.0079609 0.0013281 0.48277 -0.27782 0.30872 -0.3488 0.1281 0.20179 -0.39878 0.20441 0.13272 0.22099 -0.3459 0.29222 -0.069411 0.26759 -0.096569 -0.24781 -0.025404 0.20026 0.033425 0.056349 0.60686 -0.064149 0.71309 -0.27797 -0.085332 0.14113 0.042102 0.21114 -0.22491 -0.24017 -0.019761 0.12866 -0.27074 -0.339 -0.0043102 -0.02331 -0.70367 -0.26117 -0.3352 0.21871 -0.24283 -0.032987 0.081283 -0.49854 -0.071012 -0.099738 0.056158 -0.42831 -0.19291 -0.0093026 0.16954 -0.08473 -0.14657 0.39305 0.138 -0.063723 -0.16346 -0.16208 0.19196 0.1157 -0.16233 -0.12099 0.48628 -0.37537 0.2169 -0.23192 -0.18307 0.47894 0.023923 -0.28191 0.37484 0.27057 0.14466 0.28286 0.15209 0.28304 -0.29848 -0.43663 -0.052938 0.037735 0.27307 -0.38128 -0.076822 -0.29636 0.060897 -0.01051 -0.065011 -0.19173 0.0039725 0.042783 0.12792 0.35706 0.34493 0.031201 0.0036378 0.1116 -0.20083 0.0092302 -0.068855 0.41835 -0.13568 -0.088782 -0.18772 -0.30482 0.50426 -0.32214 -0.090552 0.27233 -0.075242 0.48283 0.0069907 -0.28209 
wheat 0.068247 0.0057288 -0.027402 0.36263 0.28153 0.0088299 0.39409 -0.50611 0.54019 -0.38852 0.52408 0.57057 0.25462 -0.16209 0.2848 -0.43566 -0.28032 -0.348 0.24268 0.35949 -0.057482 -0.27684 0.12301 0.0083826 -0.14932 0.428 0.042138 -0.30649 0.0021022 -0.0054252 0.20826 0.10734 -0.90444 0.25788 0.35009 -0.16551 -0.21292 -0.03333 -0.30036 -0.11348 0.14074 -0.1145 -0.18663 -0.07946 0.078818 -0.019151 0.46623 0.18543 0.061559 -0.0095644 0.40855 -0.087424 -0.38143 0.012703 -0.29691 0.0021923 0.0087038 0.31965 -0.23735 0.34109 -0.09756 -0.27431 0.29007 -0.40786 -0.26852 -0.62468 -0.5122 0.057882 -0.13043 0.095102 -0.063122 -0.3592 0.75813 -0.26362 0.016319 -0.12293 0.21944 0.0010549 -0.32279 -0.34484 0.02702 -0.13328 -0.20651 -0.19009 -0.21898 0.24796 0.53195 0.41456 0.65457 0.093299 0.17589 -0.4762 -0.27245 -0.37239 -0.1754 -0.057226 0.021699 0.014319 0.062836 -0.15246 0.10003 -0.1067 -0.52749 -0.34838 -0.21688 0.14394 -0.03027 0.12557 -0.22153 -0.029895 -0.28742 -0.057327 0.25307 0.20213 -0.042414 0.18444 0.058754 -0.14422 0.20023 0.38779 0.4032 0.27154 0.10022 0.22615 -0.13431 0.055704 -0.47282 -0.25186 0.037097 -0.14539 0.078949 0.081182 -0.1482 0.20415 0.43905 -0.057997 0.31644 -0.34844 -0.41683 -0.017814 -0.056909 0.52985 0.096792 0.29642 -0.20657 0.56877 -0.22264 -0.0071345 -0.10531 0.13244 0.23074 -0.13708 0.012514 0.047592 0.34888 -0.0077357 0.49829 0.10491 0.090117 0.0035797 -0.11195 0.45853 -0.072522 0.20002 0.35178 0.33832 -0.30507 -0.065137 0.55262 -0.086377 -0.48461 -0.64959 -0.1965 -0.53657 -0.040039 0.28017 -0.048991 -0.25101 0.12407 0.27102 0.14024 -0.26387 0.19706 -0.021727 -0.2654 0.0027469 0.29432 -0.15009 0.32326 -0.15072 0.28421 -0.45883 -0.16245 0.065552 -0.19997 0.31608 0.18452 0.0094949 -0.62077 0.58012 -0.60649 0.22693 -0.12668 -0.18637 0.10394 0.5082 -0.3546 -0.078647 0.46197 0.084975 0.70867 -0.083481 -0.23561 0.54299 -0.24701 0.012153 0.16233 -0.081816 -0.21189 0.33709 -0.10898 -0.32051 -0.10165 0.16713 -0.081044 0.036752 0.053251 0.35053 -0.078114 -0.43671 0.052424 -0.23291 0.077453 0.20376 0.2793 -0.25744 0.28547 0.30256 0.28611 -0.35891 -0.02676 0.19668 0.11097 -0.43304 -0.23264 -0.015986 0.4655 -0.48591 -0.25847 -0.1105 -0.15468 -0.20472 0.43218 0.048513 -0.32951 0.40219 0.20347 -0.25731 0.38362 0.27093 -0.11331 0.28777 0.19198 0.13377 -0.42911 0.092519 -0.1481 -0.13002 -0.072689 -0.17348 -0.2872 -0.27594 0.021191 0.132 -0.29719 -0.28754 0.11315 0.31749 0.098308 -0.062597 0.30867 -0.02013 -0.34189 -0.056273 -0.26984 0.00031682 -0.097961 0.39933 -0.30061 -0.030507 0.076586 0.0065302 0.38652 0.015812 -0.31836 0.38981 0.15485 0.38079 0.23611 0.022883 
milk -0.084606 -0.032313 -0.36705 -0.0080062 -0.10256 -0.15675 0.18091 -0.40259 0.32025 0.12244 0.3741 0.27225 0.25561 -0.22962 -0.10522 -0.47133 -0.10675 -0.7229 0.1069 0.126 -0.033649 -0.12252 -0.21263 -0.24261 -0.11544 0.27688 -0.25352 -0.23929 0.22139 -0.098468 0.13666 0.16326 -0.46403 -0.016387 0.22578 -0.069777 0.17656 -0.016538 0.087104 -0.10869 0.08079 0.12493 -0.33933 0.095018 0.14011 0.19075 0.13906 -0.17643 0.00083463 0.34385 0.39351 -0.088808 0.027347 -0.33469 0.0095854 0.23803 0.15914 0.16082 -0.0036483 -0.10168 0.0012635 -0.17789 -0.018683 0.14838 0.23683 -0.7706 -0.40548 0.057397 0.14215 -0.12745 -0.37961 -0.33582 0.60669 -0.114 -0.0067172 -0.066973 0.21231 0.30629 -0.419 -0.027032 0.1157 -0.44759 -0.30876 -0.090163 0.092347 0.26091 0.092434 0.49131 0.43328 0.1064 -0.13865 -0.20515 -0.43624 -0.39109 -0.21081 0.18027 -0.091902 -0.25275 0.041298 0.18335 -0.14237 -0.1664 -0.14949 -0.18991 -0.0689 0.18966 -0.0087418 0.35558 -0.43607 0.33135 -0.31675 0.14831 -0.045592 -0.019156 -0.17633 0.25467 -0.072274 -0.16514 0.032468 -0.072823 0.61761 -0.1039 0.34181 0.45488 0.061199 -0.34507 -0.25296 -0.56727 -0.019705 0.39208 -0.038023 -0.077864 -0.23348 0.2765 -0.033766 -0.32102 0.034906 0.075924 -0.26574 0.26251 -0.17832 0.53327 0.044563 0.21275 0.1027 0.70925 -0.010548 0.1809 0.10756 0.10354 0.33137 -0.19715 -0.23093 -0.21391 0.061074 0.0094433 0.0026939 0.058666 0.11619 -0.0081266 -0.093682 0.27995 -0.13152 0.10748 0.22459 0.010738 -0.14892 0.056474 0.71425 0.18779 -0.35797 -0.41178 -0.095581 0.18008 -0.34464 -0.13613 -0.25142 -0.19978 -0.1017 0.13063 -0.10522 -0.41219 -0.11533 0.21789 -0.17863 -0.1089 0.10078 -0.044841 -0.011796 -0.015062 0.034981 -0.0014472 0.047607 0.3665 -0.49951 -0.22385 0.2906 0.044998 -0.39103 0.18295 -0.68207 0.43133 0.31814 -0.27917 -0.10439 0.18676 -0.79336 -0.0078325 0.33341 -0.068159 0.4865 0.061702 -0.093075 0.13394 0.15712 -0.16222 -0.18698 -0.19451 0.20815 0.12567 -0.13877 -0.53997 -0.091091 -0.0060682 -0.31962 -0.032967 -0.54748 -0.12391 0.069424 -0.22106 -0.14637 -0.16151 0.045581 -0.16014 0.21981 -0.25775 -0.22499 -0.12897 0.20623 -0.12021 -0.13641 0.29386 0.038195 -0.037778 -0.43421 0.22476 0.38871 0.028567 -0.64887 0.010429 -0.10536 0.14236 0.032108 0.27041 0.3433 0.057348 0.087057 -0.45339 0.24897 -0.28072 0.14977 0.5954 0.36199 0.014054 -0.39026 -0.22832 -0.16458 0.16749 -0.19803 0.15386 -0.42176 -0.22029 0.34511 0.27835 0.089288 -0.25571 0.44843 -0.1258 0.25233 -0.039279 0.52976 0.10711 0.36246 0.25343 -0.056141 0.034086 -0.03431 -0.21858 -0.25675 0.12694 0.13715 -0.4124 0.31156 -0.3049 -0.30329 0.34982 0.11265 0.47814 0.032373 0.19812 
eggs 0.12268 -0.0066955 -0.35258 0.30346 -0.15757 0.51647 0.12959 -0.26937 -0.11126 0.070491 0.025534 0.47539 0.10045 0.28161 -0.043635 -0.66683 -0.024254 -0.26289 0.15967 0.012347 -0.15066 -0.21128 0.28364 0.071133 -0.58912 -0.13513 -0.21911 0.11727 -0.062714 0.053242 0.029236 0.01573 -0.42018 -0.23513 0.26302 0.3784 0.70838 0.043146 0.2206 -0.30011 0.092241 -0.0053353 -0.31876 0.35859 0.12614 0.08255 -0.13225 -0.27963 0.37652 -0.062012 0.27411 -0.30197 -0.024711 -0.20196 -0.38249 0.15963 0.12763 0.46278 0.2146 0.39488 0.1336 -0.33875 0.22568 -0.039058 -0.25291 -0.59459 -0.40993 -0.0022153 0.17668 0.19505 -0.081744 -0.27813 0.00051233 -0.31247 -0.26832 0.25353 0.16062 0.60903 -0.13517 -0.22113 -0.29593 -0.27051 -0.11436 -0.15247 -0.005952 0.11637 -0.13439 0.15336 0.48465 0.3458 0.16572 -0.10452 -0.52477 -0.13673 0.097458 0.094881 0.15892 -0.15118 0.033473 0.060738 0.33875 -0.2916 -0.11501 -0.34154 0.13701 0.2289 -0.45537 0.04376 -0.45717 0.18727 -0.56429 -0.24659 -0.54863 -0.016029 -0.16337 -0.23615 -0.044769 -0.36496 -0.0047137 0.36542 0.1822 0.12189 -0.23297 0.17931 0.38479 0.1281 -0.24917 -0.49583 0.087961 0.12846 -0.12875 0.16127 -0.51401 0.55162 0.16255 -0.051267 -0.48519 0.016887 -0.38178 -0.025458 0.11275 0.49312 0.20014 0.44442 -0.05091 0.40462 -0.24814 -0.43071 0.18014 0.35033 0.11239 -0.21166 0.29173 -0.13005 0.41884 -0.28213 0.11331 0.2171 0.49644 0.053966 -0.022403 0.056121 -0.27992 0.083127 -0.16433 0.049162 -0.35942 -0.1856 0.7213 -0.19112 -0.27606 -0.46496 0.051403 0.20507 0.53103 0.17072 -0.53121 -0.21149 -0.038026 0.26919 -0.13243 -0.15236 -0.079802 -0.13494 -0.32042 -0.13633 -0.033185 -0.043713 0.30351 -0.29852 -0.14443 -0.38924 0.16073 0.52569 0.074628 -0.32849 0.20025 0.12499 0.12601 0.079058 -0.14266 0.32573 0.0012165 -0.13521 0.43775 -0.42133 0.11903 -0.21573 0.089534 -0.02264 0.76772 0.2357 0.45712 0.062829 0.01026 0.25224 -0.42243 -0.52904 0.49287 -0.23274 -0.1906 -0.02376 0.076685 0.31348 -0.40968 0.46923 -0.45275 0.037897 0.61543 -0.73396 -0.24438 -0.3437 -0.23027 0.26084 0.2844 -0.28291 -0.067813 -0.43075 0.012646 -0.20829 0.086516 0.1812 0.29958 -0.24363 -0.34673 0.51882 0.51078 0.095051 -0.25472 0.067488 -0.24037 -0.24328 -0.27145 0.25404 0.71573 0.43187 -0.0047947 -0.028071 -0.043573 0.0073541 -0.016045 0.83238 -0.12961 -0.30238 -0.36706 -0.01606 -0.31849 0.32918 0.21187 0.32046 -0.42883 -0.20627 0.25969 0.16169 -0.26965 -0.00058634 0.24724 -0.41316 0.010286 0.095455 0.37984 0.41541 -0.20331 0.27468 -0.092366 0.18096 0.28607 0.28206 -0.053006 -0.057974 -0.2613 -0.6781 -0.37734 0.030899 -0.22031 0.13562 0.18515 0.53728 0.029107 0.34912 
meat -0.29503 0.37267 -0.35688 0.14567 -0.17507 0.32181 0.29833 -0.59047 0.062891 -0.0061939 0.022015 0.17104 0.12698 -0.33171 -0.14655 -0.28629 0.011346 -0.18185 0.26492 -0.1271 -0.19578 -0.09561 0.039493 -0.14649 0.30976 0.052264 -0.09278 -0.17481 0.34511 0.011513 0.086194 -0.057428 -0.42569 0.010838 0.44681 -0.05512 0.22557 -0.35327 -0.019114 -0.12994 0.050312 0.40019 -0.0043133 0.12107 -0.03899 0.18558 -0.0092795 -0.23758 0.048284 -0.024862 0.20907 -0.028636 0.3232 0.15536 -0.39134 -0.037672 0.085061 0.092139 -0.035095 0.18457 -0.10521 -0.47091 -0.025909 -0.10614 -0.21795 -0.42927 -0.32655 -0.064978 0.037751 -0.1097 -0.19967 -0.09379 0.32826 -0.42133 -0.13746 -0.10111 0.088836 0.37785 -0.20946 -0.1099 0.30204 -0.24985 0.091751 -0.24341 0.22342 0.23627 0.0039685 0.51788 0.74549 0.37633 0.14236 -0.14531 -0.086343 -0.38967 -0.057865 0.14807 -0.36916 -0.16786 0.058437 0.14842 0.021435 -0.096066 -0.37159 -0.14495 0.062514 0.22177 0.16924 0.24658 -0.25826 -0.029585 -0.69616 0.51632 -0.21251 0.13065 -0.011846 -0.33753 0.12865 -0.16909 0.26886 0.079389 0.080683 -0.1044 0.10739 0.2628 -0.23928 0.046491 0.0145 -0.46608 -0.20548 0.14971 -0.088698 0.10485 -0.49054 0.27965 0.098507 -0.13463 -0.12004 -0.12735 -0.46943 0.082789 -0.046428 0.13849 0.060556 0.075866 -0.314 0.65823 -0.11445 0.03979 0.10617 0.40763 0.19932 -0.25147 0.22164 -0.24627 -0.085849 -0.14163 -0.40976 0.11729 0.13189 0.13386 0.18941 0.32081 -0.45519 0.21342 0.1545 0.043822 0.012001 -0.30044 0.68665 0.017828 -0.39049 -0.59094 0.050517 0.29363 -0.12856 0.22331 -0.57444 -0.24273 -0.09375 -0.062876 0.088407 -0.32295 -0.15828 0.22002 -0.34801 -0.15324 0.13397 -0.21311 0.11314 0.25538 0.016098 -0.23343 0.070743 0.23062 -0.081435 0.10495 -0.031221 -0.0047979 -0.48294 0.30635 -0.34141 0.28833 0.26852 -0.053561 -0.23907 0.14589 -0.24679 0.11113 -0.016916 -0.44901 0.81859 0.25524 0.26143 -0.0024909 0.25567 -0.067045 -0.30921 -0.16206 -0.37505 0.2088 -0.15388 0.19691 -0.067946 0.13133 -0.59277 0.28728 -0.28378 0.30044 -0.10077 -0.23037 0.020829 -0.075576 -0.096125 -0.095781 0.34665 -0.16386 -0.021323 0.070286 -0.15927 -0.14462 0.12832 0.61374 -0.018099 -0.042448 -0.56017 0.31611 0.89517 0.031981 -0.2819 -0.215 -0.048365 -0.22269 0.14254 0.087819 -0.093613 0.27609 0.18222 -0.38405 0.11489 0.053003 0.38978 0.58664 -0.14529 -0.20389 -0.5063 -0.094325 0.10241 -0.058399 -0.024261 0.34396 -0.14227 -0.17664 0.15435 0.34071 -0.02251 -0.40624 0.21951 0.19148 0.12784 -0.28853 0.53779 0.3836 0.18142 -0.17591 0.14191 -0.032343 -0.027477 -0.032048 -0.62607 0.090421 0.089453 -0.036516 0.42893 0.011692 -0.29435 0.55173 0.41879 0.55842 -0.18157 0.26811 
chicken -0.022829 0.12041 -0.027856 0.16264 -0.12119 0.014634 0.01548 -0.43985 0.37214 -0.10852 0.043809 0.39979 0.088586 -0.39478 0.19688 -0.26537 -0.15368 -0.30189 0.28118 0.06372 -0.18574 0.046439 0.15515 0.047997 0.11282 0.036198 -0.29693 -0.35043 0.0051646 0.26846 0.0082725 -0.074031 -0.33924 -0.14083 0.19117 0.032019 0.31684 -0.20067 -0.036487 -0.059415 -0.10457 0.10293 -0.30009 0.16625 0.18673 0.50778 0.040049 -0.2462 -0.079326 0.26153 0.39011 -0.077952 -0.24122 0.050521 -0.1771 -0.063439 0.27578 0.13421 0.18521 0.30461 0.089698 -0.35454 0.23006 0.25271 -0.25369 -0.15293 -0.11908 -0.002843 0.29478 0.00051454 0.090378 -0.26196 0.42318 -0.36098 0.099924 0.22452 -0.13601 0.25568 -0.28965 -0.03123 0.11053 -0.14989 0.077866 -0.13156 0.24241 0.12119 0.0033134 0.35607 0.39842 0.11707 0.42163 -0.16691 0.20322 -0.18086 0.31572 0.29354 -0.30902 -0.17926 -0.03575 0.19519 0.20128 -0.12353 -0.35811 -0.042827 -0.1912 0.18151 0.21568 0.20824 -0.21931 -0.088826 -0.57325 0.062319 -0.29331 -0.023844 -0.13044 -0.16633 0.12783 -0.40666 0.32104 0.26238 0.26752 0.005423 0.31498 0.41912 0.23166 0.043768 -0.33706 -0.54607 -0.028533 0.23144 -0.20426 0.42343 -0.40148 0.33528 0.11065 -0.0067802 -0.48593 -0.19966 -0.36146 -0.1995 -0.066609 0.41514 0.11689 0.37192 -0.14884 0.49897 -0.060037 -0.093296 0.16865 0.59155 -0.083997 -0.21171 -0.2243 -0.28406 -0.0028404 -0.1695 0.071817 -0.11467 -0.042382 -0.2764 -0.097854 0.040107 -0.59568 0.36694 -0.067498 -0.0605 -0.233 -0.36294 0.84648 0.14333 -0.28296 -0.33554 0.14545 -0.0082555 0.15069 0.44694 -0.22065 -0.18158 -0.16932 0.065289 0.16487 -0.45972 0.15628 -0.086143 -0.18511 -0.17483 0.022618 -0.20139 0.080829 0.32158 0.20237 -0.27493 0.025187 0.1904 -0.46877 -0.23814 -0.17535 0.030607 -0.16109 -0.10228 -0.15836 0.79455 0.13586 -0.019892 0.25846 0.092809 -0.13353 0.14659 0.12094 -0.35863 0.65172 -0.084377 0.046893 0.20141 0.15378 -0.30976 -0.23369 -0.071415 -0.23415 0.29064 -0.33047 0.032143 -0.33467 0.25096 -0.77083 -0.013474 -0.28754 0.31883 -0.1046 -0.07692 0.26285 -0.25593 -0.094334 -0.10662 -0.049983 -0.13194 -0.37314 -0.089619 -0.30466 0.06663 0.035417 0.38153 0.072408 0.37775 -0.49544 0.061614 0.39971 0.22628 -0.0002866 -0.088896 0.16851 -0.19395 -0.035809 -0.092907 0.14487 0.23376 0.031152 -0.087234 0.15789 0.21986 0.36869 0.24507 0.11779 0.052541 -0.40558 0.10131 -0.25611 0.038374 0.12472 0.059921 -0.38898 0.11924 0.054508 0.27214 0.13878 -0.28136 0.14008 0.11799 0.2296 -0.069636 0.55134 0.46664 0.20049 -0.015562 0.1669 -0.022737 0.27815 0.088706 -0.043869 0.081657 -0.26377 -0.36229 0.087412 -0.050893 -0.56103 0.46467 0.40591 0.29821 0.13346 0.094167 
fish 0.010938 0.32371 -0.16997 0.42405 -0.44794 0.15972 0.31668 -0.15638 -0.18606 0.0088676 0.16734 0.2122 -0.048738 -0.11182 0.098233 -0.15183 0.043405 -0.22468 0.19034 -0.30115 0.15664 -0.096927 0.16435 0.010091 0.073486 0.052227 -0.25341 -0.28348 0.57372 -0.23342 -0.16211 -0.052487 -0.52392 -0.078643 0.69784 -0.019325 0.47848 0.021712 0.10682 -0.23415 -0.097152 0.063526 -0.066124 -0.1463 0.19244 2.0577e-05 0.095067 -0.18701 -0.070934 0.028477 -0.22294 0.11079 -0.29913 -0.047856 -0.20582 0.055853 0.06438 0.2544 0.08244 0.086144 -0.28299 -0.44653 0.28606 -0.46398 -0.21185 0.098782 -0.032547 -0.11778 0.17301 0.12614 -0.21814 -0.33637 0.23424 -0.47528 -0.26288 0.10904 0.35317 0.37551 -0.10969 -0.015738 0.20072 -0.17583 0.011498 -0.068857 0.15707 -0.050283 0.38094 0.40599 0.28519 0.15012 0.0035969 0.58218 -0.066914 -0.13745 0.2071 0.27847 0.45216 0.3794 0.040082 -0.051057 0.16799 -0.12896 -0.48187 -0.075653 -0.017141 0.093492 -0.011243 0.19815 -0.38666 0.14203 -0.47831 0.096774 -0.33337 0.02091 -0.19279 -0.29428 0.11398 0.11818 0.049358 0.19387 0.29733 -0.13082 0.056249 0.30801 0.21601 -0.024191 0.062461 -0.41141 -0.12726 0.1166 -0.090661 -0.019808 -0.096029 0.45793 -0.049627 0.12982 -0.014447 -0.032626 -0.41995 0.12238 -0.013437 0.2047 -0.012627 -0.1506 -0.15857 0.72996 -0.14618 -0.22428 0.62205 -0.0035453 0.11222 -0.51019 0.1356 -0.54596 0.064113 0.11099 -0.23722 0.28155 0.090356 -0.50925 0.13284 0.11175 -0.3838 0.19847 0.19987 0.070159 -0.15289 -0.29788 0.64618 0.14629 -0.48873 -0.08101 -0.047812 -0.38174 0.14717 0.16893 0.13691 -0.0011492 0.37641 0.085478 -0.054725 -0.11552 -0.077844 -0.15797 -0.2007 0.063287 0.03433 0.22881 -0.0025858 0.066433 0.16013 -0.46898 0.373 0.39175 -0.16776 0.067195 -0.06568 0.20455 -0.38138 -0.16817 -0.1271 0.049269 -0.18164 0.23907 -0.14556 -0.44882 0.032618 -0.041966 -0.079073 -0.331 0.41822 -0.045537 0.6025 -0.21379 -0.036556 0.12169 -0.19493 -0.43263 0.34945 0.015709 0.084217 0.2504 -0.10457 0.3836 -0.58224 0.29999 -0.28497 0.16818 -0.15597 -0.23014 -0.088767 -0.35364 -0.55917 -0.092464 0.17761 -0.11698 -0.14407 0.26531 -0.10406 -0.065338 -0.034635 0.2636 0.42531 0.27015 -0.14259 0.20957 0.3007 -0.092859 -0.22417 -0.25057 0.067799 -0.31065 0.1971 0.031056 0.042806 0.06642 0.20991 -0.012064 -0.042792 0.29154 0.34308 0.48196 0.15036 -0.42654 -0.42906 -0.20267 0.37112 0.28753 -0.033935 -0.085925 -0.063222 0.32506 0.088682 -0.047433 -0.01497 -0.14322 0.15892 0.010814 0.071627 -0.15974 0.55616 0.39193 -0.20347 -0.045437 0.46362 0.47146 0.028809 -0.0081377 -0.51232 0.044395 -0.67032 -0.16622 0.5305 0.20952 -0.18951 -0.022582 0.075045 0.50115 0.07971 0.42043 
prawns 0.22463 0.74098 -0.33966 0.44292 -0.27506 0.26074 0.41534 -0.41201 -0.44519 0.22237 -0.022414 0.40672 0.098993 -0.093836 0.13886 -0.56948 -0.17657 -0.01116 0.14111 -0.20013 0.08227 -0.22777 0.65392 0.25564 0.016395 0.29465 -0.30062 -0.23401 0.39891 -0.18771 0.15476 0.0083772 -0.57387 0.21532 0.22623 0.13395 0.64309 0.24541 0.034337 -0.44905 -0.18802 0.13354 0.08696 -0.50205 0.28417 -0.17801 0.013983 -0.31886 -0.26175 0.0554 0.079563 -0.20189 -0.1826 0.31427 -0.23723 -0.21905 0.31823 0.36496 -0.26866 0.30665 -0.32471 -0.37989 0.086815 -0.091666 -0.56149 -0.16983 0.016238 -0.2902 0.75709 0.55106 -0.062138 0.051919 0.48398 -0.16501 0.20654 0.071187 0.17052 0.3977 -0.39479 -0.072689 0.25388 0.14086 -0.01363 -0.094515 0.46511 -0.24089 0.14751 0.51371 0.42898 -0.17357 0.24582 -0.14647 -0.24629 -0.14354 0.27222 0.16197 0.27923 0.21256 0.45685 -0.42133 0.11122 0.043162 -0.6055 0.059253 0.17417 0.63342 0.041602 0.7053 -0.29563 -0.064334 -0.34082 0.26541 -0.44586 0.131 -0.16781 0.21043 0.073112 -0.16803 0.20758 0.14789 0.4404 0.36128 -0.35007 0.056765 0.32271 0.11419 -0.094486 -0.23565 -0.070281 0.11102 0.28519 0.0073305 -0.035361 0.57762 -0.10803 0.0078674 -0.19418 0.18792 -0.031958 0.074159 0.115 0.36373 0.13986 -0.078867 -0.032818 0.54253 -0.45799 -0.23167 0.53347 0.18544 0.28692 -0.80418 -0.18262 -0.073987 0.19712 -0.094982 -0.227 0.15287 0.52648 -0.21802 0.11354 -0.088937 -0.34072 0.60307 0.058117 -0.036661 -0.60472 -0.6764 1.1558 0.29235 -0.28016 -0.43656 0.054974 -0.029177 0.56044 0.37893 -0.23661 -0.00048003 0.19336 0.15114 0.069123 -0.1858 -0.072857 -0.15233 -0.18661 0.0063047 -0.084801 -0.15299 0.038054 0.48224 0.46309 -0.58117 0.31931 0.65855 -0.36049 -0.3516 -0.18204 0.053917 -0.24262 -0.0066365 -0.12372 -0.10907 0.18977 0.13884 0.21521 -0.48607 0.13301 0.05918 -0.19626 0.11836 0.4381 -0.064967 0.2664 -0.20142 -0.1346 -0.30569 0.071016 -0.18557 0.90991 -0.007945 0.23954 0.75589 0.11453 -0.11885 -0.55424 0.23297 -0.30085 -0.027982 -0.008938 -0.50684 -0.017721 -0.4648 -0.56246 -0.18007 0.425 -0.016182 -0.016378 0.15157 -0.25932 -0.214 0.11224 0.34148 0.056976 -0.037046 -0.48291 0.21349 0.41964 0.079806 -0.32637 -0.14952 0.46515 -0.60888 -0.04334 -0.14836 0.090453 0.33668 0.095187 -0.086615 0.19287 0.153 0.083133 0.79845 -0.011195 -0.58335 -0.7535 -0.24288 0.077366 0.27127 0.10784 0.28311 -0.070112 -0.10443 0.25192 0.016219 0.17557 -0.22637 0.015978 0.0079292 -0.0097756 -0.28069 1.1861 0.44272 0.026408 -0.046107 0.072252 0.43957 -0.077223 0.3023 -0.48102 0.18086 -0.51901 -0.37122 0.34646 -0.04181 0.018695 0.43441 0.26599 0.55616 0.36496 0.075597 
beef -0.12514 0.29001 -0.16942 0.026132 -0.06143 0.12436 0.070159 -0.45398 0.016612 -0.034422 0.0043335 0.25025 0.093885 -0.4874 0.14007 -0.49025 -0.070623 -0.12087 0.48111 -0.12521 -0.15158 -0.040502 0.14463 0.071882 0.35908 0.25283 -0.2936 -0.28856 0.16092 -0.026219 0.257 0.22523 -0.41104 -0.22265 0.32178 -0.022116 0.20453 -0.22319 -0.18653 0.067122 0.17516 0.39164 0.026501 0.023618 0.18542 0.1219 0.17417 -0.1511 -0.085861 0.15074 0.54484 -0.14189 0.058161 0.17804 -0.42269 0.069867 0.011433 0.023054 -0.0096584 0.038624 0.20445 -0.50554 0.51695 -0.078297 -0.20018 -0.26155 -0.2053 -0.1196 -0.0083454 0.067354 0.005418 -0.26435 0.59214 -0.34093 0.04842 0.23147 0.34229 0.40848 -0.12585 0.031259 0.031845 -0.073723 0.02963 -0.11766 0.22629 0.031926 0.12787 0.61099 0.82568 -0.12812 0.19336 -0.21342 -0.11862 -0.30246 0.062582 0.22643 -0.19732 0.082237 -0.00050308 -0.13295 -0.094223 -0.33213 -0.30866 -0.0331 -0.15169 0.41113 0.34308 0.13795 -0.16873 -0.22375 -0.32959 0.28245 -0.11748 0.24654 -0.0030954 -0.00053442 0.072472 -0.42605 0.1928 0.34213 0.30361 -0.37021 0.22998 0.53259 -0.056774 -0.0015816 -0.20635 -0.59183 -0.093251 0.15489 0.097415 0.29988 -0.42015 0.31412 -0.21446 -0.12191 -0.25444 -0.03935 -0.30814 -0.14043 -0.18443 0.26189 -0.084379 0.16441 -0.21258 0.57003 -0.12845 0.094759 0.070002 0.35893 -0.10963 0.00062436 -0.02946 -0.34966 0.010741 -0.031036 -0.13443 0.0035238 0.16526 -0.031807 0.073652 0.26805 -0.33326 0.27495 0.12836 -0.027322 -0.20599 -0.31599 1.0146 -0.27238 -0.32476 -0.77327 0.03032 -0.028834 -0.20835 0.33535 -0.53853 -0.25799 -0.37849 -0.0049617 0.39542 -0.33154 0.06509 0.21831 -0.39515 0.22181 -0.072669 -0.23624 0.17501 0.26263 -0.096072 -0.30421 -0.31371 0.074003 -0.38098 0.1483 -0.065503 0.040461 -0.38365 0.15953 -0.34222 0.35338 0.30704 -0.067607 -0.068958 0.47477 -0.10578 0.16118 0.20151 -0.28543 0.79772 0.24257 0.13951 0.29241 0.057701 0.1129 -0.25526 -0.10751 -0.01895 0.46098 -0.12311 0.26043 -0.08207 0.15466 -0.60124 -0.077259 -0.12916 0.35181 -0.34137 -0.2 0.033049 -0.26113 -0.19066 -0.020675 0.32028 -0.19911 -0.063207 0.070535 -0.14432 -0.041843 0.024569 0.50465 -0.016765 0.21185 -0.41136 -0.052509 0.83298 -0.079489 -0.38496 -0.20125 -0.10317 -0.26931 0.19815 0.040856 0.13228 0.24434 0.21259 -0.5148 0.13863 0.21551 0.35151 0.45795 0.043877 -0.026689 -0.68247 -0.044364 0.12388 0.20512 -0.04528 0.44549 -0.31744 -0.0078741 0.21482 0.15622 0.27401 -0.39639 0.2048 0.50619 0.41045 -0.301 0.63041 0.28313 0.020524 -0.042608 0.09074 -0.2269 -0.15606 0.036508 -0.40619 0.0089862 0.37364 -0.067021 0.49207 -0.24997 -0.56039 0.65848 0.4299 0.54533 -0.13667 0.089405 
pork -0.22762 0.11502 -0.03424 -0.039147 0.098787 0.22244 0.3331 -0.46559 0.12631 -0.084231 -0.3859 0.33345 0.16744 -0.46948 -0.098818 -0.7936 -0.20522 0.084377 0.60923 -0.1729 -0.30428 -0.022061 0.17628 0.1355 0.70619 0.17431 -0.3156 -0.27969 0.19665 0.07398 0.040346 -0.21642 -0.55174 0.095375 0.18373 -0.090193 0.22604 -0.25161 -0.16287 0.043894 0.00035925 0.28948 -0.069448 -0.057211 0.10373 0.30356 0.025458 -0.17117 -0.015972 -0.048267 0.29565 -0.086481 0.09155 -0.10729 -0.36603 -0.036101 0.15005 0.028392 -0.22791 0.24979 -0.021585 -0.48132 0.42271 -0.12669 -0.036544 -0.39584 -0.13204 -0.20055 0.25805 0.14719 0.082846 -0.29703 0.53619 -0.19539 0.22294 -0.024055 0.063673 0.30216 -0.24553 0.078473 0.095234 0.078525 -0.28736 -0.069213 0.2932 0.15628 -0.01712 0.67231 0.63946 0.22441 0.10206 -0.24541 -0.14377 -0.30769 0.085158 0.2527 -0.26053 -0.085362 0.31375 -0.084071 0.04994 -0.073024 -0.37844 -0.070063 0.20552 0.26057 0.3129 0.29695 0.031089 -0.1996 -0.33087 0.24449 -0.19792 0.19934 -0.10633 -0.080514 -0.020452 -0.20639 0.39679 -0.011089 0.09689 -0.38288 0.22891 0.31368 -0.1723 -0.15723 -0.40477 -0.54514 -0.23866 0.24063 -0.35196 0.1757 -0.41598 0.16378 0.090708 -0.11354 -0.28493 -0.33816 -0.35929 -0.31701 -0.069118 0.098132 0.070607 0.36013 -0.21567 0.605 -0.11698 -0.36335 0.028763 0.43259 0.10699 -0.27255 -0.11167 -0.047967 -0.12315 -0.17671 -0.080011 0.01903 0.38806 -0.312 0.057683 0.22429 -0.70887 0.60801 -0.0023136 0.035268 -0.18733 -0.51769 0.75113 -0.097662 -0.63714 -0.61381 0.10176 0.23286 -0.27131 0.23627 -0.38685 -0.22993 -0.014561 0.024602 0.10598 -0.43215 0.054847 0.1263 -0.31082 0.2823 0.17848 -0.23112 -0.23816 0.246 0.27984 -0.25021 -0.055375 0.12348 -0.26937 -0.11365 -0.28086 0.12546 -0.63109 0.14295 -0.23082 0.25281 0.44141 -0.10808 -0.17364 0.14626 0.14307 0.035488 -0.033424 -0.36005 1.0271 0.018106 0.057754 0.23838 -0.022575 -0.14451 -0.51572 -0.32736 0.020713 0.43177 -0.13873 0.0083332 -0.41392 0.11669 -0.66269 -0.01111 -0.33993 0.17315 -0.1096 -0.029487 0.069848 -0.28282 -0.13445 -0.094683 0.096382 -0.13473 -0.31829 -0.044408 -0.069153 -0.22205 0.52724 0.53234 -0.0036282 -0.025667 -0.66666 0.056964 0.82763 0.032828 -0.21942 -0.26825 0.24744 -0.090339 0.17378 -0.046735 -0.048418 0.5439 0.1438 -0.3131 0.16419 0.12458 0.32967 0.3319 0.10396 -0.17444 -0.69247 -0.23794 0.19202 0.14501 -0.12089 0.22452 -0.46868 -0.2726 0.26489 0.33787 0.11407 -0.33192 0.48352 0.35764 0.12405 0.099847 0.68843 0.16381 -0.20938 0.062724 0.18113 0.23636 -0.11596 -0.13672 -0.42684 0.10183 0.091376 -0.51065 0.16875 -0.054732 -0.41084 0.89021 0.63972 0.59234 -0.064452 0.21856 
plant -0.33989 0.10333 0.18981 0.0085674 -0.40148 -0.13544 0.3203 -0.46866 0.43524 0.078758 0.37599 -0.022774 0.44306 -0.26636 -0.34725 -0.69118 -0.1377 -0.27048 0.15642 0.72849 -0.08068 -0.11126 -0.18892 -0.38506 -0.27053 0.043686 0.11649 0.18745 0.082145 0.042942 -0.16823 0.2846 -0.52767 -0.027779 -0.10755 -0.16142 0.3753 -0.18516 0.35548 -0.14809 0.10286 -0.23995 0.0096899 -0.03769 -0.16468 0.19566 0.49718 -0.013989 0.24376 -0.041158 -0.16019 -0.010537 -0.031753 0.11029 0.051816 0.20104 0.0608 -0.14206 0.17449 0.46187 -0.35741 -0.15103 0.1699 0.15542 -0.3173 -0.47359 -0.083598 0.10589 -0.128 0.17207 -0.28943 0.041537 0.5453 -0.077936 -0.24108 0.095702 0.24385 -0.18285 0.01863 -0.20985 0.21836 0.10836 -0.082207 -0.23829 -0.14677 -0.041131 0.19381 0.33507 0.12486 0.10264 0.37131 0.27837 -0.26391 0.16643 -0.21261 -0.31548 0.3006 0.49971 0.1176 -0.23739 0.49229 -0.079791 -0.089404 -0.47538 0.2952 -0.22831 -0.77623 0.050311 -0.28239 0.086327 -0.0009328 -0.049745 0.15302 0.28328 -0.30485 0.088096 0.24512 0.065045 0.055487 0.4886 0.15367 0.16373 -0.40956 0.27736 0.15637 -0.12712 -0.23021 0.099359 -0.16969 0.10946 0.38882 0.12192 0.14007 0.042697 -0.0063207 0.24298 -0.12387 -0.017565 -0.30124 -0.12006 0.046929 0.36299 0.36951 -0.067763 -0.12113 -0.035012 0.014759 0.25409 0.15309 0.23051 -0.065883 -0.33889 0.060495 -0.18341 -0.29005 -0.033702 0.17956 -0.32514 0.22988 0.031174 -0.14976 0.11424 -0.53767 -0.04345 0.021786 0.20872 -0.48286 -0.029744 0.45826 0.10331 -0.19797 -0.47859 0.12571 -0.28607 -0.29185 0.14888 -0.1867 -0.40045 0.0025651 -0.099367 -0.40919 0.17182 -0.48421 -0.42059 0.21395 -0.1952 -0.34566 0.060003 0.32004 0.11704 0.10304 -0.32908 0.10061 -0.048222 0.085177 0.03168 0.18907 -0.32597 -0.068232 0.047867 -0.52224 -0.10063 0.0017108 0.27475 0.2746 -0.38332 -0.171 0.051209 0.34273 0.19191 0.43095 -0.089433 -0.15354 0.2488 -0.37459 -0.14508 -0.031267 -0.26274 0.22572 -0.17131 0.13387 -0.098953 -0.15774 0.77622 -0.19853 -0.0002079 0.086621 -0.26091 -0.43415 0.20708 -0.047402 -0.28961 -0.3961 0.3612 -0.26004 -0.32989 0.087232 -0.13011 0.10294 0.11521 -0.020551 -0.073812 0.46268 -0.024792 -0.10447 0.14722 -0.12488 -0.34185 -0.15448 -0.046673 -0.10147 -0.30629 0.12605 -0.027529 0.19869 -0.34787 -0.21127 0.088195 0.34438 -0.21087 -0.036425 0.19097 -0.32469 -0.1237 0.15669 0.04962 -0.031714 0.32538 0.20042 0.21527 -0.14487 0.11184 0.0021165 0.03865 -0.30207 -0.753 0.02716 0.003042 -0.1296 0.019807 0.50438 0.30587 -0.37251 -0.20488 0.31411 0.42404 -0.40662 -0.26012 -0.45375 0.078504 0.070707 -0.2102 0.5774 -0.016669 -0.16102 -0.41354 -0.032266 0.40528 -0.19844 0.20792 
edible -0.21695 -0.028069 -0.20519 -0.092868 -0.28259 0.27871 0.31564 -0.81273 0.28552 0.20283 0.17582 0.22797 0.45214 -0.0048552 0.1789 -0.32813 0.22533 0.10229 0.00073004 -0.052871 0.060129 -0.69831 0.35052 -0.041968 -0.043599 0.24754 0.14249 -0.079464 0.26723 -0.36338 -0.40692 -0.11325 -0.48556 0.22845 0.24625 0.12866 0.4058 0.023809 -0.11777 -0.18747 -0.10431 0.31036 0.20665 0.17729 -0.12045 -0.11793 0.20198 -0.26235 -0.31328 -0.13025 -0.39233 0.3482 0.38204 -0.062698 -0.29784 0.034007 0.18527 0.038258 0.41978 0.45136 -0.14575 -0.23886 0.12189 -0.24334 -0.17444 -0.61674 -0.048479 -0.13885 -0.067473 0.30036 -0.059905 0.024597 0.64286 -0.12054 -0.057717 0.26776 0.01195 0.49223 -0.019008 -0.11157 -0.46462 0.084392 -0.13737 0.014506 -0.0058469 0.11525 0.3494 0.39994 0.551 0.089276 0.14944 -0.10118 -0.031213 -0.23966 0.17326 -0.35274 0.33631 0.19077 0.39693 -0.072445 0.33855 -0.19326 -0.1138 -0.26859 0.28552 0.1603 -0.43712 0.079879 -0.4541 -0.033563 -0.37405 0.2672 -0.045949 0.38476 -0.011623 -0.084261 0.29138 -0.17315 0.28405 -0.15219 0.1926 -0.1715 -0.27562 0.41666 -0.035843 -0.064694 -0.56502 -0.4252 -0.62342 0.040314 -0.29025 0.032585 -0.33902 0.32627 0.13808 -0.12786 -0.32977 -0.43599 -0.48528 0.18164 0.28102 0.54625 0.53935 0.15471 -0.27132 0.38231 -0.21379 0.30899 0.11287 0.051731 0.45787 -0.47731 -0.046774 0.026459 -0.23781 -0.015019 -0.32998 0.18217 0.68433 0.34615 0.39924 0.24994 -0.41079 0.16422 0.1626 0.06521 -0.26753 -0.36276 0.88076 0.12447 -0.50757 -0.4734 0.11474 -0.17177 -0.082196 0.48292 -0.50004 -0.12984 0.23514 0.20852 -0.1866 0.080823 0.10249 0.030993 -0.013624 -0.34488 -0.35044 -0.088689 0.31688 -0.31204 0.19215 -0.20167 0.27625 0.40245 -0.18392 -0.11843 0.21563 0.17547 -0.19177 -0.014725 -0.33407 0.014925 0.36881 -0.0834 0.040196 -0.30776 0.026775 0.16824 0.39025 0.15618 0.41271 -0.12154 0.18624 0.54607 0.11137 0.022822 -0.090554 -0.15856 -0.011417 -0.17239 0.059995 -0.10789 0.079436 0.087329 -0.3461 0.053448 0.064874 0.3 -0.012648 -0.40417 -0.081602 -0.069804 -0.70316 -0.14517 -0.021647 -0.18509 -0.37163 -0.0052641 0.3302 -0.18778 0.18687 0.027712 0.22487 -0.22131 -0.21791 0.57202 0.36762 -0.17342 -0.45728 -0.12925 0.42001 -0.0332 0.01198 -0.083929 0.59606 0.16466 -0.0023354 -0.19488 0.22024 0.030567 -0.08432 0.41826 -0.12282 -0.41476 -0.32939 -0.1477 -0.37538 0.25574 -0.056429 -0.14371 0.04214 -0.43025 0.26108 0.0085617 -0.19348 -0.33229 0.53251 -0.14619 0.23333 0.20801 0.52456 0.28587 -0.081692 0.22425 0.36821 0.35062 0.1081 -0.142 -0.60218 0.036062 -0.078311 -0.17645 0.25829 -0.30351 -0.0057001 -0.078417 -0.1068 0.40307 0.014356 0.30806 
mustard -0.14351 0.00099291 -0.032439 0.017751 -0.23223 -0.25394 0.26693 -0.35238 0.41661 0.24845 0.11128 0.32955 0.38566 -0.18887 0.37464 -0.36286 -0.20852 -0.12826 0.14084 0.28429 0.26451 -0.35764 -0.085075 0.11141 0.49779 0.34029 0.25937 0.012596 0.055763 0.16091 -0.32046 0.029425 -0.32443 0.091066 0.1671 -0.4184 -0.10443 -0.15503 0.21514 -0.29707 0.15839 0.14202 0.16974 -0.11074 0.023769 -0.41538 0.31212 0.17132 -0.35102 0.058834 0.062597 0.11235 -0.0077607 -0.096549 -0.15157 -0.10345 0.041452 0.05182 0.0014114 0.17515 -0.29717 0.082525 0.43814 0.069568 -0.41145 -0.14112 -0.17233 -0.058043 0.091323 0.1891 0.16402 -0.26215 0.36056 -0.35037 0.11099 0.39736 -0.27364 0.27222 -0.024755 0.035716 0.32496 -0.16433 -0.10669 -0.35511 -0.12491 -0.18044 0.025968 0.11921 0.43157 0.027559 0.16162 -0.039705 -0.39563 0.094595 -0.096388 0.07866 -0.13644 0.13303 0.16691 -0.10511 0.22546 -0.11227 0.062581 0.18291 0.22801 0.060528 -0.71411 -0.11292 0.20684 -0.13508 -0.11436 0.18806 -0.15696 -0.011346 -0.86526 0.4661 0.12934 -0.02789 0.25019 0.094011 0.49138 -0.014765 0.038988 0.54148 -0.29758 -0.13832 -0.32182 -0.012274 -0.30197 0.15993 0.015581 0.44565 -0.29534 0.564 0.38493 -0.0099547 0.1057 -0.070413 -0.14345 -0.1871 0.26423 0.67074 0.56872 0.29176 -0.24576 0.34182 -0.18023 0.017606 -0.34078 0.45824 0.31811 -0.1331 -0.081442 -0.2186 0.0627 0.043156 0.3235 -0.27046 0.42541 -0.17943 0.18089 -0.20869 -0.46283 0.28974 -0.063742 0.048226 -0.16529 -0.22237 1.0607 -0.21097 -0.53577 -0.63909 -0.21685 -0.18616 0.34674 0.54677 -0.23776 -0.42928 -0.37971 0.07912 -0.047354 0.072217 0.14098 0.092109 -0.13964 0.23975 0.057297 -0.3119 0.087388 0.077876 -0.013559 -0.27772 0.32202 0.067951 -0.13951 0.10577 0.0085278 0.0073581 -0.2695 0.12501 -0.38296 0.34414 0.39602 -0.05676 0.34925 -0.02522 -0.10624 -0.14912 0.28301 0.046165 0.32288 -0.11824 -0.3518 0.31262 -0.026531 0.13576 -0.14416 -0.085004 -0.35882 0.067738 0.054542 0.11883 -0.35952 0.22439 -0.41176 -0.081877 -0.25416 0.40353 -0.00077172 -0.062608 0.089502 -0.012326 -0.0095132 0.27332 -0.3219 -0.11274 -0.17231 -0.094312 -0.14691 0.10729 0.18724 -0.18062 0.077929 0.17349 -0.88682 0.22452 0.41867 -0.17915 -0.3948 -0.10275 0.043871 0.012393 0.069485 -0.54585 0.1514 -0.20995 0.11837 -0.32863 0.40674 -0.028011 0.072623 0.48858 -0.15057 -0.11533 -0.14687 -0.51582 -0.46126 0.16804 0.49633 -0.18863 -0.27348 -0.036648 -0.045203 0.073368 0.015256 -0.1922 0.1162 0.20039 0.3079 -0.1475 0.70663 0.11997 -0.12866 0.046272 -0.17948 0.42418 -0.53655 0.2907 -0.38896 0.14351 0.22927 0.058827 0.53178 -0.20258 -0.47314 0.048481 0.085274 0.25964 0.093591 0.2892 
oil 0.22567 0.16071 -0.57205 0.2193 -0.25761 -0.20548 -0.16736 -0.35993 0.0010614 -0.057489 0.44098 0.23384 0.49199 -0.12972 -0.28911 -0.11634 0.078595 0.07889 -0.085719 0.92651 -0.16357 -0.10179 -0.51357 0.025948 0.006251 -0.020379 0.64473 0.12053 -0.22473 -0.2275 -0.11666 0.45389 -0.38384 0.045785 -0.19067 -0.3606 0.13426 -0.34232 -0.069094 -0.72654 0.28803 0.20448 0.040102 0.0050161 0.10887 -0.058988 -0.15874 -0.014212 -0.26136 -0.08208 0.21553 0.13669 -0.29109 -0.030322 -0.22008 -0.32822 -0.04487 0.23934 0.05659 -0.21279 -0.19756 -0.041788 0.062388 -0.6271 0.0029948 -0.50748 -0.11629 -0.44145 0.18362 0.31121 -0.29732 -0.076806 0.24304 -0.23746 0.20868 0.1117 -0.098078 0.15642 0.087464 0.10484 -0.084572 -0.15992 -0.071634 -0.6012 0.029949 -0.058295 0.34159 0.35166 0.092058 0.028022 0.13226 0.12777 -0.44181 0.10992 0.18428 -0.012142 0.17579 0.65636 0.32033 0.13919 -0.015843 0.18552 -0.29779 -0.090675 -0.15415 0.045568 0.020142 0.2736 -0.5711 0.067443 -0.33753 0.032464 -0.38414 -0.0023467 -0.27288 0.1949 -0.077539 -0.39967 -0.56119 -0.30437 0.41684 0.28902 -0.024735 -0.22024 0.1748 -0.08155 -0.095757 -0.26102 -0.26301 -0.1007 -0.073331 -0.1501 -0.40265 0.40335 -0.058305 0.091698 0.05658 -0.14189 -0.30872 -0.079298 0.12967 0.32289 0.5418 -0.12525 -0.59708 0.75074 0.20709 0.25827 -0.30754 0.092191 0.20862 -0.28909 -0.035782 -0.10211 0.23034 -0.3357 0.35742 -0.38285 0.46244 -0.27149 0.10526 -0.19783 -0.16858 0.47877 0.23749 -0.14307 0.074568 0.012548 0.78618 0.40115 -0.75509 -0.42741 -0.074449 -0.57083 0.242 0.24649 -0.21379 0.14334 -0.45 -0.07881 -0.10906 0.079236 -0.23581 0.0039613 -0.10605 0.33342 0.21575 0.00057386 0.18358 0.086635 -0.06938 -0.22496 -0.205 -0.20641 -0.26897 -0.26766 0.32982 -0.088948 -0.25942 0.23062 -0.083661 -0.025338 0.042424 -0.32034 -0.15983 -0.17257 -0.27952 -0.071579 0.15208 0.13778 0.31733 -0.19575 -0.33346 0.2888 -0.29527 0.032018 -0.19258 -0.4028 -0.013988 0.40245 0.24427 -0.14266 -0.35478 0.32404 -0.21031 0.19337 0.024259 -0.17691 0.07245 0.072933 -0.27052 -0.081472 -0.040178 0.13588 0.0032291 -0.52361 -0.2717 -0.28864 0.44816 -0.063297 0.17793 -0.077115 0.46192 -0.118 -0.42504 0.2261 0.30685 -0.29745 -0.82007 0.25239 -0.093944 -0.37612 -0.17419 -0.053602 -0.18575 0.32199 -0.030738 -0.17198 0.25328 0.19959 -0.25582 0.30623 0.42009 -0.3977 -0.61323 -0.068186 -0.24605 -0.12997 0.064104 0.16029 0.13296 -0.19632 -0.00069467 0.23569 -0.14457 -0.47561 0.28683 0.60649 0.075587 -0.20547 0.065005 -0.065718 -0.13479 -0.033931 0.29627 0.11846 -0.16525 -0.034447 -0.29052 0.096141 -0.0086108 0.15998 0.38357 0.29891 0.22477 -0.025714 -0.36126 0.55813 -0.058092 0.2939 
vegetable 0.18081 0.25177 -0.053686 0.036869 -0.07896 -0.0033471 0.2053 -0.76653 0.27055 0.093748 0.36416 0.48611 0.31917 -0.079382 0.10009 -0.40513 -0.071643 -0.19049 0.1289 0.33878 -0.012419 -0.13359 0.10832 -0.13865 0.18084 0.26596 0.12821 -0.19727 0.17603 -0.18249 -0.067666 0.16812 -0.38484 -0.005723 0.12717 -0.14529 0.26622 -0.0021459 -0.1581 -0.17874 0.26586 0.093431 0.10559 -0.033277 0.027135 0.18642 0.06124 -0.40534 -0.43353 -0.18094 0.14457 0.16531 0.03516 -0.081579 -0.31768 0.031165 -0.055502 0.21386 -0.010076 0.10856 -0.20711 -0.19866 0.20637 -0.25182 -0.073956 -0.56111 -0.21463 -0.17772 0.12239 0.15868 -0.35262 -0.0071289 0.55632 -0.32389 -0.058683 0.13352 0.047739 0.28578 -0.33924 -0.16789 0.0068718 0.099944 0.063678 -0.27973 0.014919 0.049473 0.31535 0.13102 0.53813 0.051984 0.539 -0.058682 -0.47396 -0.448 0.02936 -0.2639 -0.032404 0.3291 0.23667 -0.029457 0.1552 -0.17679 -0.16773 0.14267 -0.0036161 0.035466 -0.07883 0.23251 -0.43667 0.047267 -0.31457 0.28814 -0.13072 0.31554 -0.30285 -0.081067 0.2551 -0.11703 0.2727 -0.028964 0.53041 0.096729 0.03657 0.28894 -0.3652 -0.1193 -0.17102 -0.36486 -0.45946 0.0098719 0.23947 -0.10831 -0.10963 0.18949 0.20723 0.063793 -0.093667 -0.14584 -0.48973 -0.042459 -0.15652 0.45103 0.03916 0.15507 0.016429 0.39116 -0.039042 0.034305 -0.064901 0.46189 0.14312 -0.20862 -0.25487 -0.14197 0.15871 -0.089684 0.030928 -0.060953 0.099968 0.31484 0.053983 0.25996 -0.36325 0.26913 0.10137 -0.21621 -0.35821 -0.23403 1.0363 0.15688 -0.50975 -0.48931 0.037309 -0.27546 -0.097895 0.31309 -0.30652 -0.42438 -0.16097 0.045422 0.12617 -0.22662 -0.15809 -0.14434 -0.047564 -0.11643 0.13808 -0.24696 0.17185 0.028827 0.049207 -0.30744 0.1785 0.30873 -0.12821 0.009049 0.079425 -0.0095628 -0.22269 0.14217 -0.47749 0.24686 0.14427 -0.1087 0.083095 -0.15599 -0.35635 0.27479 0.19231 0.23816 0.68522 -0.11682 -0.15261 0.51462 -0.10074 -0.051355 0.0076826 -0.17409 -0.059068 -0.14103 0.16675 0.10507 -0.008585 0.23755 -0.64354 0.12371 -0.067528 0.28747 -0.15343 -0.087429 -0.012754 -0.39596 -0.2564 -0.1606 0.040985 -0.37415 -0.18611 0.12779 0.089074 -0.034184 0.17075 0.32256 0.13883 -0.17799 -0.47502 0.45767 0.46964 -0.072672 -0.34388 -0.43051 0.22696 -0.18411 0.19325 -0.12676 0.037285 0.18686 -0.07712 -0.19677 0.087492 -0.030856 0.045025 0.11496 0.061676 0.11907 -0.47941 -0.17148 -0.26083 0.067143 0.10287 0.28563 -0.21572 -0.245 0.15138 0.23605 -0.37413 -0.67099 -0.098137 0.18586 -0.006511 0.10256 0.79837 0.36206 -0.064071 -0.026422 -0.045034 0.39003 -0.12107 -0.15898 -0.34582 0.087887 -0.15502 -0.00078992 0.52003 -0.24289 -0.2345 0.49422 0.082273 0.5535 -0.078751 0.47034 
banana -0.30111 -0.19338 0.035946 0.040627 0.24098 -0.35617 0.43996 -0.50769 0.23846 -0.11783 0.041925 0.38578 0.058127 -0.31229 0.24358 0.0063238 -0.1638 -0.21466 0.072414 0.031108 -0.20347 -0.3119 -0.0068726 -0.11922 0.19367 0.034159 0.14245 -0.49221 0.37807 -0.13559 -0.17762 -0.028286 0.012631 -0.060696 0.21406 0.17967 0.1332 -0.10145 0.035567 -0.058773 0.0035201 -0.13185 -0.20512 -0.36758 -0.23941 0.24328 -0.19306 -0.1086 -0.2943 -0.12678 0.12801 0.12631 -0.27696 0.11438 -0.014922 0.30976 -0.049566 0.14666 0.0094512 0.17601 0.07053 -0.20026 0.15706 -0.15835 -0.26484 -0.13059 -0.064535 -0.18401 -0.016381 -0.32187 0.052166 -0.27484 0.23197 -0.26201 -0.1809 0.1396 0.0093495 0.30652 -0.45989 0.30672 -0.089905 -0.19602 -0.10036 -0.098641 0.12598 -0.13698 0.070113 0.49087 0.41637 -0.059103 0.41641 -0.31553 -0.12144 -0.43308 0.51223 -0.40488 -0.53534 0.061645 0.068219 -0.42741 0.37241 0.23328 -0.24909 0.048463 0.043527 0.16963 -0.20155 0.30007 -0.0039874 -0.2003 0.025314 -0.22086 0.0071884 0.071076 -0.38673 -0.24782 0.085174 -0.19149 0.28223 0.30838 0.49094 0.10694 -0.097525 0.38621 0.096263 -0.37649 0.056691 0.039023 -0.11253 0.060874 0.22851 0.00013421 0.066634 0.36528 -0.043813 -0.088703 -0.08522 -0.15361 -0.17581 -0.11333 0.34235 0.40614 -0.15783 0.095854 -0.41482 0.35831 -0.30966 0.17449 0.029056 0.027873 0.19824 -0.33422 -0.095075 0.17255 -0.052698 -0.083982 -0.17941 -0.63201 0.33383 0.19314 -0.022927 0.041519 -0.31304 0.26549 0.59618 -0.11224 -0.2031 -0.078615 0.38202 -0.072755 -0.33811 -0.44795 -0.049413 -0.26037 0.14616 0.046212 -0.038488 -0.38917 0.093958 -0.18827 0.23537 0.030808 0.2712 -0.30398 -0.38711 -0.39598 -0.5323 -0.12712 0.37146 0.088331 -0.041051 -0.19518 0.087812 0.34894 -0.32748 -0.26618 -0.15856 0.035143 -0.1552 0.084073 -0.25726 0.32797 0.057463 -0.20898 0.13449 -0.13624 -0.22053 0.06218 0.27908 0.081794 0.32756 -0.23961 -0.14119 -0.13944 0.15505 -0.35363 0.31237 -0.72068 -0.09459 0.13057 -0.48969 -0.33039 0.065021 0.36438 -0.14873 0.12575 -0.24761 0.13926 0.10299 -0.082783 0.026703 -0.26064 -0.19229 0.063639 -0.14692 -0.42314 -0.24635 0.23503 0.2399 -0.4028 -0.036488 0.13658 0.01601 -0.10247 0.075371 0.25766 0.37786 0.077816 0.086026 -0.22042 0.20229 -0.14139 0.18192 -0.24932 0.067449 0.11869 -0.044106 -0.14954 0.03103 -0.15594 0.027933 0.25048 0.034484 0.15328 -0.40658 -0.36455 0.02398 0.2322 0.17394 0.03462 -0.45204 -0.66581 0.36955 -0.01015 -0.21456 -0.099783 0.34613 -0.046947 -0.071115 0.15862 1.005 -0.099018 -0.11687 -0.142 0.094885 0.028259 -0.011585 -0.20932 -0.1345 0.058005 -0.12751 -0.074978 0.30441 -0.28015 -0.2026 -0.16739 -0.29336 0.2084 0.24191 -0.19329 
india -0.31769 0.14506 -0.36471 0.57575 -0.13222 0.40453 -0.19492 -0.55563 -0.38972 0.16279 -0.045526 0.18601 0.14253 -0.050678 0.041665 -0.21305 -0.12488 0.18187 0.62789 0.55638 -0.14388 0.36361 -0.12433 -0.31626 -0.22471 0.099936 0.035748 -0.37167 0.39086 0.12409 -0.23452 0.1806 -0.44709 0.23447 -0.25996 0.030131 -0.16572 0.022553 0.29909 0.0090766 -0.41244 -0.038986 0.025394 -0.10333 0.02378 -0.16335 0.046666 -0.24753 -0.049127 -0.19363 -0.21586 -0.3552 0.082392 0.29481 -0.21992 -0.08062 -0.063304 0.11316 -0.060823 -0.04058 -0.12737 0.067223 -0.075719 -0.0041634 -0.061135 -0.16534 -0.51855 -0.21147 -0.080232 0.055015 -0.054847 -0.32736 0.32132 -0.087468 0.29712 0.18674 0.30684 0.44323 -0.31546 0.010993 0.25019 0.18061 -0.026035 -0.25033 -0.12173 0.034856 -0.46469 0.23249 0.10711 0.15198 -0.13207 -0.20381 -0.40824 -0.23653 0.10891 0.26877 -0.12199 0.45204 -0.22681 -0.27921 0.17041 0.27943 0.056881 0.051993 -0.40217 0.041393 -0.21163 0.060635 -0.30607 0.030232 -0.21559 0.059959 0.17638 -0.3655 -0.12754 0.0037116 -0.19975 0.086381 0.13621 -0.1858 0.32162 0.039125 0.053582 0.17684 -0.037593 0.13451 -0.11742 0.032745 -0.06138 0.38209 0.072992 0.15902 0.21803 -0.23455 0.068466 -0.1755 -0.14039 0.0026626 0.36032 0.60831 -0.11997 0.40356 0.30333 0.0081042 0.26114 0.55705 -0.05222 -0.012316 0.32247 0.67212 0.21816 -0.33203 -0.1201 -0.10383 0.25512 -0.019316 0.21047 -0.44323 0.033164 0.20652 0.38409 0.17612 -0.055491 -0.18625 0.41502 0.19313 -0.083699 -0.15057 0.55029 0.34056 0.31876 0.10299 -0.12635 -0.1269 0.059712 0.22683 -0.040551 0.36923 -0.0052634 0.38072 -0.075553 -0.050373 -0.1835 -0.034387 0.093375 -0.040068 0.14753 -0.044561 0.32867 -0.26622 -0.18498 0.16906 0.053139 -0.08106 -0.29661 0.014982 0.32572 -0.50618 -0.45982 0.099347 0.10837 0.12195 0.10337 0.13867 0.049852 -0.30915 -0.17063 0.17356 0.36094 0.16018 0.47203 -0.084641 0.04704 -0.041102 0.31905 -0.44298 0.64227 -0.25034 -0.23715 -0.048877 0.14604 0.13574 -0.21536 -0.019048 0.4597 0.48062 -0.1761 -0.17885 -0.019866 0.012229 0.064511 -0.01947 0.074915 0.018694 -0.14465 0.054571 -0.2285 -0.34588 -0.066058 0.13009 0.08831 0.18868 -0.13149 0.00071352 0.070861 0.22724 -0.26325 0.24403 0.4237 0.34151 0.23989 -0.17564 -0.11691 -0.082447 -0.34525 0.15046 -0.19202 0.16423 0.37492 0.076509 0.23497 -0.25515 0.43093 -0.29995 -0.38934 -0.38513 0.18138 0.2122 0.14209 -0.34575 -0.0072048 0.085813 0.15299 -0.41737 -0.12781 0.037901 -0.019962 -0.029198 -0.057406 -0.21411 -0.061809 -0.34686 0.0020833 -0.0031236 -0.14932 0.31038 -0.4561 0.019597 -0.017963 0.34184 -0.47729 -0.059828 0.24853 -0.43099 0.15247 -0.3182 -0.30743 0.03464 -0.42418 0.06911 
herbivores -0.22543 0.31865 -0.551 0.50521 -0.17314 0.078521 0.56259 -0.9199 0.29616 0.4051 0.077005 0.20699 -0.00133 0.17345 -0.14382 -0.26482 0.071466 0.090413 0.28625 -0.21394 0.15589 -0.41125 -0.03747 -0.23724 -0.42717 0.065951 -0.054717 0.011387 0.14825 -0.14087 -0.15069 0.41706 -0.51758 0.25479 0.43026 -0.024833 0.56838 0.69346 -0.23541 -0.6036 -0.25749 0.35064 0.40222 0.053928 0.43773 0.26726 0.011859 0.14166 0.068774 -0.2865 -0.32258 0.20492 0.23644 -0.28159 -0.2408 0.46903 0.081597 -0.11914 -0.2504 0.93524 -0.3383 -0.3874 0.40028 -0.070332 -0.093303 -0.46565 0.32865 0.83663 0.24248 0.29115 -0.20362 0.024771 0.31328 -0.55273 -0.22633 0.1059 0.033306 0.77016 -0.076977 -0.027839 -0.11551 -0.19519 -0.058205 0.37282 0.27435 -0.10003 0.38756 0.25783 0.657 0.37313 0.074929 0.10622 0.1906 0.42778 -0.047064 -0.32151 0.63403 0.086738 -0.027817 0.2939 0.13743 -0.069918 0.098613 -0.63482 0.33756 0.33639 -0.13993 0.268 -0.1838 -0.014308 -0.36175 0.14838 -0.16125 0.15886 -0.044428 0.074424 0.39773 0.28566 -0.23379 0.02222 -0.17948 0.041373 -0.12964 0.036828 0.02062 0.55657 -0.28231 0.41543 -0.091043 0.28561 -0.13259 -0.34121 -0.096456 0.15414 -0.19077 -0.10799 -0.065302 0.13332 -0.91954 -0.025244 -0.16851 0.11673 -0.10429 0.04989 0.38034 0.26525 0.12441 -0.11336 0.50401 0.2122 0.38563 -0.6432 -0.075469 -0.10412 -0.60222 -0.086467 0.10254 0.44494 0.31442 -0.40625 0.33734 -0.20118 -0.3287 -0.01268 0.10325 -0.094408 -0.39582 -0.13659 0.41103 0.11697 -0.28821 -0.44457 -0.62255 0.050705 0.32096 0.56327 -0.65377 -0.06277 0.1459 0.19039 -0.12447 0.17555 -0.23368 -0.46349 -0.15393 -0.39279 -0.18394 -0.05592 0.084394 -0.25758 -0.29345 -0.28891 -0.10465 0.19684 0.15657 0.23447 0.20922 -0.24224 -0.22911 -0.21244 0.029727 0.031218 -0.21013 0.37862 0.26473 -0.76836 -0.34396 -0.21944 0.072624 0.24573 0.88511 0.26552 0.40596 0.44517 -0.49407 -0.091836 -0.12815 -0.2906 0.070104 -0.4992 -0.26157 0.15732 0.4414 0.39998 -0.057166 0.11255 -0.028638 -0.28837 -0.20305 -0.22651 -0.19664 -0.063654 -0.40662 -0.14476 0.57627 -0.014494 0.22456 -0.15623 0.12145 0.20706 0.4101 0.39715 0.24051 -0.3755 -0.29671 0.20772 0.27015 -0.36532 -0.2977 -0.15586 -0.13071 -0.3845 0.25854 0.67672 0.062952 -0.05211 -0.31136 -0.028743 0.10233 -0.10799 -0.022707 0.44075 -0.51719 0.040241 -1.1863 0.02888 -0.15883 0.15841 -0.040521 0.11933 -0.09448 -0.060787 0.11958 -0.54277 -0.23279 0.096696 -0.1359 -0.20835 -0.46113 -0.060235 0.59725 0.4952 -0.5184 0.11155 0.24177 -0.42951 0.074269 0.049128 -0.46375 0.32218 0.020017 -0.49417 0.48667 -0.32604 -0.11505 0.12346 0.096679 1.3642 -0.17123 -0.16393 
carnivores -0.28853 0.3282 -0.69728 0.37368 -0.17638 0.54331 0.35535 -0.65903 0.15459 0.42883 -0.084294 0.18801 0.14371 -0.28489 -0.20715 -0.081397 0.11866 0.25129 0.15372 0.14303 0.011115 0.2491 0.025449 -0.24934 -0.15364 -0.0098908 -0.18916 -0.12506 0.64463 -0.043381 -0.27396 0.21983 -0.48558 -0.096184 0.54686 -0.15604 0.67828 0.3395 -0.28571 -0.52773 -0.42424 0.26399 0.1654 0.14906 0.38512 0.15656 -0.49915 0.18328 0.083121 0.0025976 -0.19677 -0.028503 0.22671 -0.28723 -0.043946 0.23657 0.033131 -0.15323 -0.2396 0.82928 -0.27391 -0.42058 0.29379 0.22601 -0.13965 -0.43508 0.58305 0.87584 -0.06006 0.41752 -0.13399 -0.36903 0.069868 -0.34079 -0.44879 0.18123 -0.036599 0.45667 0.38743 -0.16107 -0.059837 -0.18118 0.18895 0.47492 0.41397 -0.066901 0.076888 0.33928 0.59968 0.41507 -0.22071 0.09711 0.14846 0.22092 0.10905 -0.50146 0.34789 -0.075723 0.34047 0.392 0.033343 0.14086 -0.049165 -0.59436 0.016207 0.12323 -0.024781 0.37318 -0.14317 -0.037838 -0.15872 0.11043 -0.20232 -0.12557 -0.1988 -0.20816 0.39931 0.10396 0.077735 0.1825 -0.19736 -0.33772 0.10814 0.22738 0.31219 0.45637 0.041787 0.32541 0.089872 0.23536 -0.11026 -0.34318 -0.1153 0.054661 -0.056265 0.21322 -0.0055463 -0.028712 -0.85029 0.32563 -0.21501 -0.24204 0.07872 -0.0037641 0.27557 0.63945 0.067399 -0.098708 0.78623 0.053602 0.19107 -0.74353 -0.13989 -0.44091 -0.41033 -0.085419 0.085661 0.63141 -0.032963 -0.49167 0.18442 0.20335 -0.11217 0.034718 0.23268 0.092198 -0.069063 -0.25751 0.42684 0.1058 -0.20153 -0.39203 -0.55085 0.2257 0.19789 0.72189 -0.3912 -0.24226 0.19076 0.42048 -0.51632 -0.084409 -0.092139 -0.46425 -0.30463 -0.41702 0.022627 -0.18278 0.024482 -0.084894 -0.077116 -0.54268 -0.07825 0.19077 0.20307 0.010289 -0.19776 0.085651 -0.33803 -0.24651 0.13377 0.32532 0.015579 0.44405 0.22028 -0.5733 -0.14602 0.054167 0.099996 -0.36539 0.57024 0.11869 0.24876 0.046615 -0.29835 -0.096199 -0.12026 -0.27612 0.1973 -0.4257 -0.2009 0.23149 0.30491 0.33332 -0.063053 -0.043191 -0.06519 -0.061364 -0.42956 -0.27122 -0.26738 -0.17213 -0.33272 -0.21383 0.52147 0.37841 0.15778 0.12005 -0.1343 0.086275 0.15443 0.49108 0.36787 -0.20531 -0.45879 0.43612 0.21276 -0.36143 -0.28617 0.068307 -0.12578 -0.20432 -0.17637 0.4076 0.19791 -0.095342 -0.1071 -0.20132 0.079177 0.1534 0.22898 0.67812 -0.28578 -0.28194 -0.82874 0.048422 -0.17488 -0.00081042 0.22161 0.33667 0.12813 0.14805 0.29615 -0.28955 -0.091666 -0.0038305 -0.078769 -0.52951 -0.2927 0.0486 0.6907 0.31666 -0.091576 0.17137 0.41002 -0.13087 0.16867 -0.0042679 -0.39947 0.38459 0.029469 -0.59904 0.20497 -0.070159 0.10222 0.021783 0.12904 1.0306 -0.03114 0.13097 
