pedagogy -0.026278 -0.12337 -0.16253 0.11716 -0.10651 -0.065217 0.17983 0.086571 0.11351 0.56499 -0.14212 -0.031923 -0.15051 -0.11384 0.067268 -0.62168 0.29841 0.095349 -0.17716 1.0722 0.17413 0.067722 0.31403 -0.16337 -0.12376 -0.28176 0.1605 0.18244 -0.21168 0.24777 -0.33347 0.6518 -0.443 0.36713 -0.13852 -0.020694 0.021998 -0.083404 0.36739 -0.26781 0.031078 -0.093263 0.012878 -0.15228 0.27126 0.13583 0.0088264 0.095758 0.17464 -0.38394 0.16632 -0.17906 -0.10196 -0.016501 -0.045474 -0.43144 0.03035 0.085611 0.31927 0.45987 0.1299 0.089444 -0.037191 0.039987 0.28104 -0.14617 -0.048174 0.13691 -0.07775 0.089295 -0.12184 0.21878 0.12306 0.65963 0.63662 -0.081098 0.17775 0.026403 -0.064171 0.088837 -0.050874 0.18742 -0.022833 -0.1821 -0.096877 -0.1029 -0.13011 -0.35341 -0.12173 -0.55 0.15088 -0.21585 0.56464 -0.63515 -0.14531 -0.084807 -0.20946 0.38296 0.29166 -0.20268 0.058576 -0.60741 0.78112 -0.28655 -0.031954 0.091093 -0.029965 0.031398 0.039027 -0.029334 -0.19567 -0.11447 -0.12781 -0.19969 -0.038808 -0.12087 0.074125 -0.12054 0.070108 0.20145 -0.34293 0.18673 -0.30822 -0.093993 0.31851 -0.19943 -0.10346 -0.071773 0.16158 0.23701 0.12652 -0.39222 0.2311 -0.2412 -0.46923 0.50067 -0.42987 -0.3821 -0.15488 0.35351 0.11091 -0.066012 -0.13275 0.10005 0.025725 0.36611 0.12384 -0.24754 0.21792 -0.23312 0.2546 -0.020959 0.5842 -0.040256 -0.17591 0.33633 -0.24787 -0.24826 0.15 0.22148 0.23493 0.21936 -0.20284 -0.31999 0.50775 0.44634 0.050161 0.02785 0.1083 0.17006 -0.15791 -0.1012 -0.2844 0.19314 -0.046323 0.10267 -0.18354 -0.28221 -0.20321 0.13178 0.34319 -0.1465 0.26911 0.25464 0.19723 0.26789 0.24297 -0.25606 0.050185 0.49198 0.36237 -0.36553 0.33896 0.054167 -0.49371 -0.036366 -0.30089 0.29833 -0.45233 -0.31415 0.36682 0.12028 -0.25075 -0.11501 -0.095173 -0.32096 -0.51742 -0.55995 0.011083 0.34342 0.4415 0.13336 0.35386 -0.21832 0.073157 -0.027662 -0.10576 -0.31394 0.048085 -0.10893 0.24641 -0.07647 -0.59027 -0.003305 -0.48472 -0.11087 0.29306 -0.23823 0.37312 0.13525 0.22305 0.23671 -0.31403 -0.48877 -0.017118 0.077455 0.39623 0.090087 -0.39208 -0.044623 -0.13477 0.37502 0.016677 -0.0080865 0.29895 -0.090684 0.12451 0.15502 -0.012498 0.11157 -0.33314 0.43292 -0.4613 -0.41247 -0.067829 0.11168 -0.21643 0.118 0.27779 0.1578 -0.17287 0.45362 0.2139 0.35892 0.10852 0.24414 0.15882 -0.047797 -0.022853 0.40602 0.20923 -0.22813 0.089779 -0.023966 0.093574 -0.016319 0.035006 0.26139 -0.39313 0.11949 0.068319 0.18252 -0.08113 0.15932 -0.56847 -0.0068365 0.060342 -0.12377 -0.30406 -0.066394 -0.1584 0.28255 0.29668 -0.69059 0.054756 -0.11565 0.03334 0.28504 0.2025 -0.15998 
preschool 0.19812 -0.24513 0.0011022 0.26264 -0.043243 -0.20478 0.18159 -0.14859 0.28134 0.45694 0.14297 0.24045 -0.24827 0.46084 0.11489 0.12588 0.55944 -0.1586 -0.33052 0.22694 0.063869 0.24238 0.32693 -0.115 0.038877 -0.019428 -0.16548 -0.04948 0.065286 0.13823 -0.77933 0.094621 -0.34066 0.035271 -0.15779 -0.25758 0.3448 0.40687 -0.3185 0.026678 0.20857 -0.12171 -0.20904 0.013273 0.36657 0.30483 0.22891 0.12762 0.25193 -0.3834 0.62296 -0.091656 0.055358 0.037989 -0.047703 0.18235 0.19808 0.23116 -0.25173 0.70158 -0.28614 0.42149 -0.0062927 -0.11115 -0.12267 -0.46426 0.34223 0.14071 0.047475 0.10206 -0.048571 0.15389 0.38305 0.23129 0.10819 -0.024108 0.31337 0.2065 -0.33755 -0.21894 -0.6583 0.18965 -0.36929 0.028965 -0.093417 -0.14518 -0.31522 0.38251 -0.17612 0.030826 0.061484 -0.29624 0.41813 -0.52947 0.32539 -0.035947 0.28572 0.30534 0.1879 -0.068202 0.11324 0.086434 -0.051522 -0.47718 -0.13209 0.0071025 0.070917 0.25168 -0.14137 0.22392 -0.40996 -0.35538 -0.51566 -0.20582 -0.13602 -0.73713 0.10349 -0.47832 -0.25277 0.12909 0.2326 0.18618 -0.014718 0.26921 0.1546 -0.26866 0.13071 -0.10693 0.37423 0.66998 0.0077976 -0.13287 -0.032198 0.028594 -0.19879 0.32175 -0.39565 -0.47842 -0.33391 0.48484 0.31156 0.12428 -0.13086 0.071177 0.58361 0.55227 0.28804 -0.26438 -0.074307 0.42079 0.14722 0.039334 -0.12569 -0.4873 0.37152 0.33335 0.1137 -0.069867 0.39561 0.23727 0.65658 -0.27646 -0.44557 -0.11236 0.88095 0.12164 0.24287 0.060395 -0.13148 0.42336 -0.40071 0.01817 -0.32614 0.20713 0.25583 0.032301 -0.62865 -0.077316 -0.17861 -0.054728 0.028995 -0.20742 -0.28847 0.008766 0.16422 -0.055694 0.011792 -0.11207 0.57755 0.037285 0.14591 0.25953 0.12 0.26979 -0.2885 0.16588 0.030251 0.50019 -0.15039 -0.019024 0.029499 0.050499 -0.37132 0.15083 0.21477 -0.14309 -0.36243 -0.3197 -0.011507 0.28018 0.77202 -0.20748 0.34408 -0.28527 -0.28589 -0.27232 0.085283 -0.36909 0.077293 0.30643 0.15943 0.20598 -0.3494 0.30472 -0.20604 -0.25467 0.15095 0.34737 0.35518 0.11445 0.0060368 -0.082849 0.10017 -0.10196 -0.17238 0.28934 -0.30055 0.092454 -0.42548 0.044703 0.09005 0.16538 0.053422 -0.27502 0.095599 0.05966 0.00024024 0.028455 -0.056669 0.22828 -0.11666 0.55596 -0.52551 0.003261 -0.044877 -0.17467 0.15591 0.093139 0.3226 -0.1674 0.15651 0.26965 0.51732 -0.065615 0.4609 0.38674 0.10593 -0.012632 0.069338 -0.029515 -0.30218 -0.019914 0.18739 -0.16968 -0.15078 -0.076821 -0.011491 0.3356 0.1724 0.065881 0.20532 0.51671 0.10431 0.24932 -0.14979 -0.071019 -0.033224 -0.42933 0.023049 -0.33091 0.57732 -0.058397 0.1623 -0.42641 -0.27633 -0.049221 0.049679 0.0026348 0.42465 -0.34584 
kindergarten 0.13535 0.157 -0.3069 0.097416 0.19638 -0.20168 0.1335 -0.48963 0.12377 0.22947 0.059166 0.47849 -0.037285 0.51606 -0.20809 -0.11784 0.30532 -0.11009 -0.0935 0.10259 0.11586 0.19525 0.27591 -0.13557 0.17003 0.14911 -0.43661 0.13602 -0.29699 0.07691 -0.94452 0.33468 -0.48989 -0.10598 -0.12157 -0.4765 0.48138 0.1195 -0.2083 -0.045423 0.42925 -0.21408 -0.083039 0.1452 0.29828 0.26261 0.06002 0.27851 0.14022 -0.23663 0.66938 -0.28785 0.14292 -0.14173 -0.17303 0.079471 -0.18676 0.19524 -0.054017 0.74741 -0.34902 0.53999 -0.080237 -0.26347 -0.067409 -0.39336 0.39917 0.23597 -0.14251 0.40954 -0.11068 0.41162 0.38163 0.24027 -0.091057 -0.3244 0.020556 0.40443 -0.35523 -0.25027 -0.36721 0.45821 -0.60847 0.12213 -0.16989 0.26816 -0.43299 0.23248 -0.21724 0.0075184 0.27389 -0.16159 0.51381 -0.447 0.40078 0.29683 0.24192 0.51143 0.062537 -0.1201 0.12553 -0.16115 0.13711 -0.27715 0.086212 -0.066018 0.094066 -0.0093265 0.057623 0.076635 -0.48776 -0.23377 -0.32226 -0.19799 -0.0055787 -0.67113 -0.073043 -0.27287 -0.15855 0.43437 0.46868 0.20126 -0.21522 0.33291 0.42001 -0.11841 -0.10035 0.17374 0.59205 0.57029 -0.13094 0.089173 0.0010019 0.0042532 0.10123 0.50915 -0.39819 -0.44044 -0.064667 0.48804 0.33527 0.11301 0.093862 0.30248 0.82645 0.43568 0.25399 -0.13441 -0.0058087 0.027522 0.5168 0.43648 -0.16165 -0.4861 0.093476 0.41487 -0.2148 -0.23624 0.082868 0.079868 0.54255 -0.15471 -0.049921 0.18898 0.73542 -0.037855 0.11374 0.061044 -0.16682 0.54339 -0.51891 0.029948 -0.34962 0.074613 0.31947 -0.22305 -0.60279 -0.19895 0.10422 0.14147 0.17391 -0.28367 -0.31206 0.15213 0.081987 -0.14077 -0.21425 -0.43295 0.1912 -0.090253 0.47683 -0.00070316 0.23218 0.27356 -0.026416 -0.077627 -0.1406 0.50025 0.16924 -0.2083 0.068319 0.020683 -0.28411 0.10825 0.13349 -0.21183 -0.17627 -0.37488 0.052641 0.31672 0.91385 -0.60012 0.23545 -0.12709 -0.15305 -0.28117 -0.14695 -0.59266 -0.10059 0.25766 0.047158 0.55386 -0.075059 0.059061 -0.060464 -0.59589 0.22531 0.28556 0.51154 0.40508 0.23426 -0.045994 0.4212 0.017234 0.37469 0.15071 -0.42237 0.049428 -0.46997 -0.12872 0.077469 0.073375 0.033007 -0.43812 -0.047725 -0.22988 0.30006 0.20867 -0.22129 0.20572 0.10487 0.33615 -0.64754 -0.24971 0.20384 -0.2142 0.37992 -0.188 0.08456 -0.36353 -0.1338 0.23243 0.48207 -0.20064 0.33968 0.17087 0.54652 0.0040618 0.33996 -0.065089 -0.034508 -0.067013 0.43883 -0.095821 -0.22379 -0.2518 0.12549 0.46044 -0.028337 -0.016304 0.083504 0.22927 0.083527 0.17004 -0.53674 0.031072 -0.15229 -0.44288 -0.3472 -0.29991 0.42474 -0.19725 0.39532 -0.083473 -0.15135 0.285 -0.00085759 -0.21957 0.26069 0.067851 
primary 0.1891 0.11902 0.067255 0.53248 0.10849 -0.2583 0.024235 -0.45859 -0.06548 0.17309 -0.033387 -0.17778 0.062462 0.22315 0.46256 -0.38643 -0.011229 -0.48851 0.040923 0.095931 0.013715 0.28526 0.12888 -0.13288 -0.073231 0.30703 -0.10544 0.04038 -0.02412 0.092583 -0.097213 0.21423 -0.092801 0.30695 0.15914 -0.3241 -0.020151 0.082256 -0.13416 0.03247 0.10488 0.013703 0.29492 0.47637 -0.013365 0.49995 0.14982 0.40785 0.14222 0.0092561 0.28919 -0.05209 0.023297 -0.031057 -0.25071 -0.21553 0.17591 0.052889 -0.11477 0.053293 -0.39705 0.083869 0.15355 -0.048142 -0.25172 -0.15546 -0.19314 -0.21574 0.131 0.13315 -0.011401 0.20561 0.343 -0.18278 -0.17423 0.10042 0.37893 0.24689 -0.10883 -0.14473 -0.22206 0.2772 -0.16896 -0.14963 -0.048591 -0.035298 -0.1462 0.05184 -0.072711 0.15316 0.53599 0.17565 0.33914 -0.56335 0.21827 0.14304 0.34903 0.26611 0.065796 0.16452 0.12002 -0.16954 0.42526 -0.12 -0.11995 0.12153 -0.059913 -0.015987 -0.09063 0.020809 -0.11072 0.42669 -0.10027 0.040571 0.16061 0.21393 0.21179 0.21419 -0.11732 0.031582 0.41183 0.14848 -0.054834 -0.0049388 0.20829 -0.0083169 -0.18659 0.054439 0.26567 -0.088124 0.074296 0.053226 0.091996 0.40826 -0.14879 0.25593 -0.23167 -0.15727 0.31416 -0.25017 0.075311 -0.015248 0.21139 -0.14843 0.26934 0.44934 0.20325 0.061733 -0.00018726 0.011177 0.12358 -0.5766 0.04757 -0.019681 -0.12815 0.16315 0.024083 -0.33096 0.48982 0.063795 -0.036153 -0.0012731 0.11297 -0.10223 0.679 -0.024877 0.20264 -0.0059648 -0.12656 0.084484 -0.036057 -0.15527 0.06752 0.06829 -0.071368 0.095956 -0.3793 0.12444 -0.36883 -0.3682 0.044511 -0.20382 -0.46684 0.055889 -0.006883 0.079139 0.40383 0.076179 0.013245 0.18305 0.30342 -0.20701 -0.28496 -0.17957 0.065047 0.32426 -0.236 0.63276 0.023143 -0.22122 -0.25852 -0.10255 -0.26725 0.21495 0.39607 -0.24251 -0.022281 0.27741 -0.18015 0.20613 0.22975 -0.16202 0.094384 -0.0049318 -0.071317 -0.14229 -0.47401 -0.28026 -0.068927 -0.024373 -0.13388 0.16003 -0.096784 0.20805 -0.21346 -0.047245 -0.2816 0.19259 -0.37735 0.099202 0.4415 -0.056124 -0.059898 -0.15485 0.090464 -0.14169 -0.1486 -0.053251 -0.26061 -0.025347 0.044622 0.30028 -0.38816 -0.36959 -0.15088 0.013463 0.052824 0.30529 0.31314 0.40869 0.062496 0.177 -0.48774 0.24206 -0.042083 0.024915 -0.30558 -0.28223 -0.13054 -0.67004 0.16335 0.39046 0.1818 0.00054372 0.0071265 -0.30549 0.22417 0.10306 0.14567 -0.074081 -0.45596 -0.042784 0.54268 -0.40228 0.051919 -0.026779 0.33405 0.24528 -0.17335 0.27785 0.029695 -0.23151 0.046759 -0.042656 0.21135 -0.085535 -0.025643 -0.064661 -0.15928 -0.16768 0.37994 0.10902 0.15095 -0.092081 0.0058058 -0.38283 0.22789 -0.058617 0.27294 0.17469 
school 0.22869 -0.028009 -0.085097 0.24309 -0.26317 -0.11202 0.039456 -0.28124 0.30743 0.17091 0.22821 -0.074532 -0.14216 0.0074727 0.22099 -0.28197 0.3143 -0.084497 -0.098618 0.49764 0.10058 0.41745 0.12981 -0.23762 0.06865 0.23092 -0.19101 0.31252 0.033131 0.21395 -0.48624 0.31525 -0.3059 0.0049942 -0.049818 -0.078912 0.38837 0.10109 -0.081014 -0.29326 0.45915 -0.023954 -0.30263 0.46563 -0.025378 0.12146 -0.075863 0.13385 -0.12211 -0.40954 0.37466 -0.31341 0.22262 0.10399 -0.10581 -0.28576 0.016809 0.13574 -0.16435 0.35275 -0.16555 0.17956 0.080846 0.27856 -0.17459 -0.3546 0.16616 -0.28542 0.045847 0.082316 -0.072671 0.34245 0.22845 -0.033578 0.13721 -0.47394 0.33248 0.13369 -0.16712 -0.15695 -0.24327 0.30842 -0.23262 -0.05941 -0.10467 0.068933 -0.49366 0.49679 -0.066409 -0.081599 0.057622 -0.13286 0.50645 -0.39212 0.18089 0.32451 0.35698 0.26969 -0.067222 -0.18543 0.20487 0.013419 0.04359 -0.1235 -0.26041 -0.094033 -0.18862 0.22934 -0.11248 0.034285 -0.48659 -0.032477 -0.12568 -0.083626 -0.12629 -0.33144 0.30312 -0.16933 -0.1418 0.22216 0.41686 0.24273 -0.16214 0.10395 0.53591 0.027088 -0.21948 -0.21237 0.38657 0.17376 -0.21233 -0.11442 0.13554 -0.12886 -0.46518 0.38517 0.095843 -0.37739 0.070177 0.10336 -0.046608 0.0048551 -0.012481 0.21233 0.52061 0.36687 0.47144 -0.055217 -0.29614 -0.073691 0.12355 -0.13563 -0.11267 -0.2026 -0.18016 0.02181 -0.11769 -0.32574 0.31155 0.16532 0.35864 0.35299 -0.056351 0.017639 0.5587 0.056945 0.082128 0.064561 -0.0043055 0.253 -0.26588 -0.11758 -0.15983 0.25661 -0.017241 0.19402 -0.41857 -0.11006 0.20889 -0.14091 -0.011836 -0.0057944 -0.3357 0.15189 -0.16835 -0.03914 0.059314 0.0042839 0.20252 -0.10732 0.40503 0.059054 -0.1481 0.092425 -0.070491 -0.0001241 -0.0016259 0.72782 -0.22663 -0.43043 0.02191 -0.15601 -0.37599 0.16893 -0.18846 -0.058359 -0.0014713 -0.35734 0.15577 0.10934 0.69167 -0.32724 0.16009 -0.40792 -0.11439 -0.030013 -0.12524 -0.027639 0.063727 -0.14089 0.013969 0.41208 -0.36629 0.02648 0.20469 -0.2759 -0.070599 0.006753 0.14241 0.2103 0.3727 -0.0062525 -0.0084329 -0.27378 -0.089864 -0.02836 0.0015354 0.45145 -0.18245 0.20555 0.054421 -0.025571 -0.032553 -0.018942 0.097465 -0.18188 0.091925 -0.055566 -0.1843 -0.05103 -0.06108 0.069601 -0.045432 -0.049843 0.006233 0.045287 -0.00021775 -0.14776 0.076178 -0.17957 0.0078284 -0.060164 0.4239 -0.12532 0.10443 0.075369 0.050524 0.12161 0.11281 -0.057907 0.05202 -0.11776 -0.31597 -0.42454 -0.096316 -0.25219 0.26053 0.31455 -0.20336 0.0079374 -0.19716 0.078221 -0.028117 0.19894 -0.34614 0.024755 -0.21811 -0.14425 -0.05119 -0.33597 0.32747 -0.03847 0.40644 -0.19799 -0.023426 0.10254 -0.03794 -0.14674 -0.13088 -0.18213 
secondary 0.15286 0.33951 -0.1821 0.76305 0.37555 -0.085675 -0.18647 -0.24384 0.2396 0.26899 0.028641 -0.023609 -0.28053 -0.031759 0.28294 -0.39814 0.014634 -0.26911 -0.073472 0.22014 -0.14416 0.24058 0.17557 -0.45007 -0.0073306 0.37504 -0.15225 -0.081012 -0.014802 0.23539 -0.2462 0.34369 -0.089766 0.050965 0.10622 -0.10993 -0.10933 0.41942 -0.16903 0.04269 0.037354 -0.034078 0.16094 0.41788 0.12446 0.56702 -0.05333 0.35448 -0.034522 -0.028407 0.25517 -0.068323 0.052443 -0.026293 -0.34774 -0.40396 0.14016 -0.037517 -0.14836 0.13113 -0.58976 0.047759 0.33266 0.10599 -0.29367 -0.075071 -0.13417 0.086772 0.097094 0.16986 -0.20573 0.27703 0.11587 -0.15033 -0.015274 -0.065587 0.43942 0.49974 -0.049149 0.19451 -0.19745 0.3041 -0.26026 -0.013108 0.11879 0.028646 0.2897 0.062278 -0.26462 -0.10336 0.33472 -0.19733 0.52282 -0.58494 0.15182 0.19164 0.24154 0.48206 0.19485 0.33066 0.22736 -0.034708 0.1443 -0.066764 0.06619 -0.06206 0.15043 0.001472 -0.07788 -0.031328 -0.063894 0.34698 -0.19747 -0.095431 0.15771 -0.1492 0.080762 0.24446 -0.040404 0.18969 0.57176 -0.081323 -0.34331 0.085255 0.064737 -0.20404 -0.35923 0.043541 0.31033 -0.096137 -0.13336 0.027007 0.10854 0.52804 -0.25512 0.33288 -0.24049 -0.086006 0.30044 -0.10585 -0.035479 -0.038635 0.25774 0.097844 0.43055 0.38097 0.45142 -0.025673 -0.082958 -0.21341 -0.072479 -0.40693 0.029065 -0.21291 0.018057 0.13932 0.31502 -0.24419 0.56545 -0.037083 0.16943 0.089571 -0.22446 -0.11358 0.79904 -0.14753 0.053161 0.027463 0.028617 -0.002653 -0.27031 -0.065968 -0.13096 -0.0082281 0.078756 -0.032356 -0.506 -0.17762 0.010952 -0.16418 0.30949 -0.06791 -0.22885 0.19348 -0.020975 -0.059843 0.5533 0.098394 0.29603 0.089253 0.17419 -0.067919 -0.20113 -0.32261 -0.0048267 0.3815 0.018673 0.48466 -0.10729 -0.35492 -0.1646 -0.13882 -0.096708 0.36331 0.31895 -0.1703 -0.19238 0.25411 -0.0047889 0.39664 0.18114 -0.26951 0.3061 0.085019 -0.052698 -0.21684 -0.52688 -0.26214 -0.15522 -0.055856 -0.060586 0.29357 0.066336 -0.029407 -0.054989 -0.15876 -0.22875 0.11294 -0.19515 0.26593 0.11819 -0.098694 -0.13549 -0.25018 0.16853 0.12574 -0.031691 -0.085448 -0.44381 0.04675 0.12945 -0.25303 -0.40999 -0.39135 -0.047197 0.22671 0.21377 0.24962 -0.020765 0.45317 0.035762 0.34438 -0.60981 0.015956 -0.24268 0.085746 -0.13484 -0.36037 -0.063431 -0.75243 0.085286 0.037299 0.27368 -0.21669 -0.12889 -0.096324 0.32706 0.43569 -0.1025 0.12474 -0.17504 -0.17962 0.089776 -0.41704 -0.18376 -0.25195 0.38929 0.38643 -0.092399 0.3179 0.14997 -0.22497 -0.44576 -0.21276 -0.33869 -0.1187 -0.15061 -0.34406 -0.21055 -0.29741 0.55613 -0.081427 0.45375 -0.087573 0.23068 -0.4048 -0.10882 0.059398 -0.058045 0.062471 
school 0.22869 -0.028009 -0.085097 0.24309 -0.26317 -0.11202 0.039456 -0.28124 0.30743 0.17091 0.22821 -0.074532 -0.14216 0.0074727 0.22099 -0.28197 0.3143 -0.084497 -0.098618 0.49764 0.10058 0.41745 0.12981 -0.23762 0.06865 0.23092 -0.19101 0.31252 0.033131 0.21395 -0.48624 0.31525 -0.3059 0.0049942 -0.049818 -0.078912 0.38837 0.10109 -0.081014 -0.29326 0.45915 -0.023954 -0.30263 0.46563 -0.025378 0.12146 -0.075863 0.13385 -0.12211 -0.40954 0.37466 -0.31341 0.22262 0.10399 -0.10581 -0.28576 0.016809 0.13574 -0.16435 0.35275 -0.16555 0.17956 0.080846 0.27856 -0.17459 -0.3546 0.16616 -0.28542 0.045847 0.082316 -0.072671 0.34245 0.22845 -0.033578 0.13721 -0.47394 0.33248 0.13369 -0.16712 -0.15695 -0.24327 0.30842 -0.23262 -0.05941 -0.10467 0.068933 -0.49366 0.49679 -0.066409 -0.081599 0.057622 -0.13286 0.50645 -0.39212 0.18089 0.32451 0.35698 0.26969 -0.067222 -0.18543 0.20487 0.013419 0.04359 -0.1235 -0.26041 -0.094033 -0.18862 0.22934 -0.11248 0.034285 -0.48659 -0.032477 -0.12568 -0.083626 -0.12629 -0.33144 0.30312 -0.16933 -0.1418 0.22216 0.41686 0.24273 -0.16214 0.10395 0.53591 0.027088 -0.21948 -0.21237 0.38657 0.17376 -0.21233 -0.11442 0.13554 -0.12886 -0.46518 0.38517 0.095843 -0.37739 0.070177 0.10336 -0.046608 0.0048551 -0.012481 0.21233 0.52061 0.36687 0.47144 -0.055217 -0.29614 -0.073691 0.12355 -0.13563 -0.11267 -0.2026 -0.18016 0.02181 -0.11769 -0.32574 0.31155 0.16532 0.35864 0.35299 -0.056351 0.017639 0.5587 0.056945 0.082128 0.064561 -0.0043055 0.253 -0.26588 -0.11758 -0.15983 0.25661 -0.017241 0.19402 -0.41857 -0.11006 0.20889 -0.14091 -0.011836 -0.0057944 -0.3357 0.15189 -0.16835 -0.03914 0.059314 0.0042839 0.20252 -0.10732 0.40503 0.059054 -0.1481 0.092425 -0.070491 -0.0001241 -0.0016259 0.72782 -0.22663 -0.43043 0.02191 -0.15601 -0.37599 0.16893 -0.18846 -0.058359 -0.0014713 -0.35734 0.15577 0.10934 0.69167 -0.32724 0.16009 -0.40792 -0.11439 -0.030013 -0.12524 -0.027639 0.063727 -0.14089 0.013969 0.41208 -0.36629 0.02648 0.20469 -0.2759 -0.070599 0.006753 0.14241 0.2103 0.3727 -0.0062525 -0.0084329 -0.27378 -0.089864 -0.02836 0.0015354 0.45145 -0.18245 0.20555 0.054421 -0.025571 -0.032553 -0.018942 0.097465 -0.18188 0.091925 -0.055566 -0.1843 -0.05103 -0.06108 0.069601 -0.045432 -0.049843 0.006233 0.045287 -0.00021775 -0.14776 0.076178 -0.17957 0.0078284 -0.060164 0.4239 -0.12532 0.10443 0.075369 0.050524 0.12161 0.11281 -0.057907 0.05202 -0.11776 -0.31597 -0.42454 -0.096316 -0.25219 0.26053 0.31455 -0.20336 0.0079374 -0.19716 0.078221 -0.028117 0.19894 -0.34614 0.024755 -0.21811 -0.14425 -0.05119 -0.33597 0.32747 -0.03847 0.40644 -0.19799 -0.023426 0.10254 -0.03794 -0.14674 -0.13088 -0.18213 
apprenticeship -0.18444 0.3105 -0.22636 -0.26028 -0.18638 0.32403 0.14215 0.26687 0.4845 0.48108 -0.0021788 0.16913 -0.063883 0.077067 0.15026 -0.48639 0.041365 0.31093 -0.22831 0.25837 -0.25175 0.042421 0.32349 -0.66114 -0.043835 -0.2696 -0.23994 0.31981 0.00014551 0.19071 -0.071314 0.13041 -0.093348 -0.33355 -0.10975 -0.17696 0.41878 -0.21089 -0.21104 0.095555 -0.12356 -0.13493 -0.14854 -0.13714 0.21502 -0.083673 -0.048467 0.11681 -0.031343 0.13463 0.34049 -0.2459 -0.18591 -0.13807 -0.75149 -0.41211 0.018005 -0.14074 0.50378 0.17174 -0.56788 0.0030016 -0.11391 -0.062389 -0.31469 -0.26386 -0.11272 0.1492 -0.26724 0.01453 0.33086 0.21763 0.072734 0.055743 0.21226 -0.010534 0.6372 0.10474 -0.12797 -0.23156 0.32555 0.14656 -0.082811 -0.078615 -0.41784 -0.063424 -0.24823 0.21629 -0.24573 0.24044 -0.14469 -0.23385 0.57477 -0.61101 0.035595 0.47195 0.052881 -0.3495 -0.18891 0.10787 0.33329 -0.030447 0.37132 0.53659 -0.078581 -0.20405 -0.075047 -0.35361 -0.15686 0.25154 -0.040201 -0.11221 -0.020097 0.11571 0.0053374 -0.30138 0.10325 -0.28803 -0.14695 -0.3359 0.6294 0.25205 -0.23643 0.34105 0.1158 -0.09239 -0.14699 0.19866 0.28664 0.46752 -0.025744 -0.10995 0.2927 -0.43126 -0.30134 0.47703 0.1797 -0.53188 -0.099393 0.050944 -0.048707 0.064987 0.0032751 -0.1546 0.17922 0.34158 0.12479 -0.2749 -0.52103 -0.33607 0.046127 -0.18631 0.41716 -0.27547 -0.49091 -0.12108 -0.34319 -0.2954 -0.08647 0.45506 0.0064025 0.27896 0.16167 0.019632 0.80635 -0.055117 0.080927 -0.29914 0.24458 0.18086 -0.65269 -0.39175 0.0015697 0.080824 0.14026 0.042842 -0.61731 0.080611 0.063952 0.09498 0.14305 -0.51057 -0.21563 -0.068276 0.073845 -0.22927 0.28912 -0.040003 0.060192 0.55224 0.37245 0.043599 0.10358 0.017846 0.10322 -0.087387 0.3149 0.38984 0.18823 -0.010199 0.035748 -0.036301 -0.31122 0.24271 0.10635 -0.37209 -0.060493 -0.34693 0.28692 0.28031 0.74479 -0.035483 0.037666 0.53458 0.26746 0.29673 -0.18128 -0.55135 -0.31588 -0.44386 0.35655 0.18663 0.047075 0.071743 0.036001 0.15197 0.35234 -0.28292 0.21754 0.16822 -0.17817 -0.10522 0.00051855 -0.0078427 -0.6672 -0.055187 0.090501 0.19022 -0.23779 -0.46451 0.136 0.070979 0.18158 -0.13534 -0.44176 -0.067323 -0.16543 0.096113 -0.48155 0.47389 0.088404 0.12749 -0.35029 -0.14485 -0.13479 -0.15223 -0.23558 -0.29434 -0.0449 -0.056921 -0.20309 0.60845 0.18757 0.27822 0.19342 -0.002227 0.3741 0.032784 0.56847 -0.28996 0.02168 -0.27603 -0.11911 0.14271 -0.54504 -0.47656 0.28835 0.049259 0.12145 0.014384 0.20489 0.047143 -0.060045 0.30797 -0.22734 0.61967 0.018041 0.11894 0.12012 -0.28215 0.10184 -0.19667 0.22196 -0.10124 -0.070163 -0.040386 -0.12157 0.29634 0.097341 0.24257 
etymologically -0.35407 0.21617 -0.06317 0.14458 0.0050114 0.24391 -0.3465 -0.5044 -0.069607 -0.037098 0.35504 -0.06404 -0.074906 -0.31567 -0.17953 -0.2143 0.072723 0.17751 0.10025 0.14416 -0.23723 0.041767 -0.0094323 -0.081044 -0.20342 0.26318 0.3987 -0.093389 -0.38324 -0.067526 -0.32413 0.25904 -0.43636 0.2382 0.035592 -0.28209 -0.079709 -0.0072049 -0.067128 0.28039 0.34437 0.11027 -0.086101 -0.27962 0.0089731 0.15914 0.053894 -0.078923 0.23488 0.10242 -0.052764 -0.14667 0.028096 -0.1965 -0.2264 -0.048715 0.24244 0.055762 0.085859 0.22886 0.54006 0.052997 -0.25244 0.2623 0.16157 -0.20078 -0.03473 -0.015732 0.25141 0.14372 0.30735 0.069984 0.74689 0.26585 -0.26665 0.10392 -0.0022763 0.22748 -0.20803 -0.10072 -0.084303 -0.078965 -0.18965 0.4014 -0.20503 0.17113 0.2288 0.21542 -0.24281 0.13387 0.075243 -0.3075 0.30742 -0.090684 0.1314 -0.21322 0.37519 0.25992 0.21867 0.035722 -0.037465 -0.31302 0.025996 -0.022821 0.36744 -0.30069 0.019982 0.073559 0.046565 -0.10568 0.04733 -0.04494 -0.55511 -0.24995 0.095125 -0.52137 0.057325 0.074893 0.091687 -0.13006 0.051239 0.059728 -0.43197 0.38305 -0.37391 -0.020889 0.027177 -0.011691 0.18238 0.14004 -0.1316 -0.47276 0.25532 0.15114 0.41568 -0.27326 0.037119 0.11324 -0.21055 -0.014004 -0.32601 -0.003659 0.42359 0.25293 -0.073047 -0.15222 -0.23034 -0.11283 -0.4917 0.087067 0.3191 -0.34772 0.13129 -0.045338 -0.62053 -0.062338 -0.19336 0.086413 0.43115 0.03864 -0.023434 0.25933 -0.29486 -0.26916 -0.072851 -0.36485 -0.33084 -0.056474 0.49148 0.29955 -0.033358 -0.54086 -0.3188 0.24866 -0.15399 0.065375 0.072201 0.43315 0.0045351 0.1474 -0.021363 -0.17719 0.28326 0.25248 0.40056 0.29034 0.040996 -0.27855 0.091896 0.18988 0.53681 -0.37852 0.28429 0.34288 -0.17706 0.22977 0.1862 0.070057 -0.20844 0.01813 -0.32122 -0.13144 0.3593 0.45424 -0.3346 0.11054 -0.19688 -0.087356 0.17529 0.035814 0.16538 0.26408 0.30119 0.37323 0.075657 -0.049088 -0.097969 0.12655 -0.20666 0.0043868 0.092342 -0.31029 -0.49227 0.39133 -0.085117 0.16604 0.19803 -0.039097 -0.3069 0.055763 -0.084427 0.1179 -0.23993 -0.11652 0.17436 0.43557 0.11373 -0.20058 0.15372 0.0053683 0.023845 0.051343 -0.071562 -0.061852 -0.28416 0.21511 0.10019 0.38301 -0.11811 -0.61225 0.16532 0.12053 -0.17033 -0.072128 0.089531 -0.031598 -0.053995 -0.011863 0.17729 -0.38737 -0.077361 0.33663 0.26717 0.068111 -0.50534 -0.24719 -0.21462 0.10181 -0.075807 0.01833 -0.48092 -0.11053 0.3991 -0.34027 -0.13912 0.41622 -0.1894 -0.09942 -0.20367 -0.076424 0.35699 0.22062 0.28905 -0.18072 -0.092058 -0.21804 0.056901 0.1328 -0.26919 -0.23074 -0.56971 -0.0498 0.16994 -0.2606 -0.185 0.16067 -0.1471 -0.10695 0.17874 0.327 
latin 0.032988 0.22589 0.28287 -0.27629 -0.038983 0.073134 -0.1701 -0.12561 0.23454 0.074371 0.33829 -0.13967 -0.33374 -0.08619 -0.33004 -0.45673 0.10606 0.10088 0.099113 0.29053 -0.66752 0.1094 -0.079264 -0.17997 -0.061488 0.21572 0.30146 0.052358 0.017317 0.29784 -0.29227 0.26622 -0.2747 0.35226 0.21078 0.19028 -0.15873 -0.30007 0.17327 -0.10881 0.024807 -0.21153 0.15662 -0.039628 -0.16294 0.11836 -0.022769 -0.17059 -0.1264 -0.31595 -0.23288 0.053372 0.21987 0.0017774 -0.59788 -0.26953 -0.056325 -0.16306 0.32487 0.40314 0.26337 0.21119 0.59121 0.013072 0.12697 0.15134 0.030619 0.14436 -0.16795 0.119 -0.28485 -0.030225 0.24808 0.53633 0.049449 0.38093 -0.0039806 0.39138 0.072688 -0.098701 0.085002 0.14839 -0.22196 0.2405 -0.16227 -0.23169 0.08097 0.56795 -0.050322 0.18463 -0.080667 -0.32562 0.26109 0.19308 0.18753 -0.35842 -0.095277 0.29432 0.12338 -0.23938 0.1921 -0.6408 0.58859 -0.13081 0.23472 -0.067802 -0.11561 0.35491 -0.082641 -0.03732 -0.023427 -0.26088 0.11224 -0.36919 -0.02866 -0.012267 0.063792 0.24315 0.2766 0.19919 -0.17591 -0.015703 0.44807 0.43449 -0.012417 -0.038489 0.18281 -0.13686 0.10178 0.34853 0.32405 -0.17037 0.1973 0.30046 0.14774 -0.24648 0.1162 -0.099661 0.14114 0.54664 0.47049 -0.027625 0.30328 0.13096 -0.19333 0.42058 -0.081292 -0.071289 -0.63797 0.1863 0.01369 -0.17172 -0.08446 0.035829 -0.40465 0.31935 -0.63265 0.34507 0.2768 -0.40412 0.042388 0.56102 -0.13175 -0.42783 0.12894 -0.44083 -0.2089 0.085717 0.25356 0.16716 -0.28299 -0.11828 -0.13391 0.007024 -0.0026439 0.068289 -0.055673 0.23373 -0.48277 0.36194 -0.049116 -0.51255 0.31559 0.042754 0.34204 0.30926 -0.093563 -0.066534 0.28244 -0.13058 0.25885 -0.14859 0.10186 0.066055 -0.47562 0.29856 0.21736 0.2589 -0.26444 -0.15135 -0.1177 -0.081337 0.34998 0.014152 -0.34324 -0.59014 -0.11729 -0.11848 0.018245 -0.26356 0.30278 0.095247 0.025871 0.25718 0.015163 0.27771 -0.40843 -0.046217 -0.027692 -0.006103 0.23576 -0.3349 -0.41911 0.34459 -0.25002 0.51294 -0.11485 -0.11853 0.22245 0.024525 0.29954 0.32482 -0.28195 0.20433 0.18979 0.038687 0.27936 -0.0012624 -0.21784 -0.011884 -0.35076 -0.15215 0.42094 -0.10656 0.15405 -0.02042 0.11913 0.2164 0.22262 0.035281 0.6481 0.25129 -0.07291 -0.016615 -0.63023 0.041055 -0.218 0.097161 0.40769 -0.10259 0.16394 0.18407 0.74266 -0.18975 -0.17762 -0.030566 -0.038958 0.048347 0.023003 -0.17976 -0.48863 -0.046944 -0.37577 -0.14713 0.064524 0.30202 -0.051586 -0.17359 0.06563 -0.1837 0.30457 -0.08353 -0.048554 -0.071231 -0.0017511 -0.47437 -0.043025 0.13916 -0.24344 0.22482 -0.169 0.057205 0.6861 -0.12417 -0.15044 -0.035713 0.11854 0.27512 0.054621 0.15496 
homonym -0.35903 0.37273 -0.19062 -0.52271 -0.068766 0.23183 0.11532 -0.19129 0.19132 0.057744 0.3465 -0.20127 0.11751 -0.15363 -0.085697 -0.30655 0.091342 0.033894 0.133 0.50282 -0.12048 -0.15959 0.37816 -0.14173 -0.00033154 0.24039 0.099043 0.21639 -0.37296 -0.36644 -0.27412 0.28177 -0.42776 0.49103 0.46148 -0.34446 0.51917 0.2471 0.50328 0.21424 -0.24705 -0.3048 -0.38659 -0.26053 -0.13678 0.11109 0.34714 -0.11603 -0.39617 -0.071211 0.35722 -0.27 -0.070038 -0.94486 -0.3677 -0.21281 0.3546 -0.37843 0.087774 0.50303 0.20247 0.056838 -0.30949 -0.070897 -0.039544 -0.61334 0.33281 0.059593 0.14302 0.038716 0.062992 0.10771 0.31697 0.24963 -0.24407 0.44368 -0.24311 0.70041 -0.050063 0.015523 -0.67915 -0.055099 -0.12581 0.35084 -0.19965 -0.0043008 0.27463 0.19826 -0.21861 -0.075439 0.46008 -0.40039 0.20548 -0.15416 0.10254 -0.20288 0.20427 0.28656 0.36904 -0.037083 -0.38616 -0.21957 -0.27872 -0.21775 0.14926 -0.20679 -0.24392 0.13654 0.6706 -0.23493 0.24512 -0.043219 0.021758 -0.15655 -0.17278 -0.31829 0.4599 0.21609 0.25731 0.081797 0.46488 0.48042 -0.38162 0.29328 -0.13488 0.10544 0.1131 0.30092 0.39672 -0.045368 -0.2231 -0.27487 0.43368 0.56665 0.1994 0.021368 -0.42892 0.0088536 0.33581 0.0014335 0.37249 0.028637 0.34754 0.50349 0.58465 0.19044 -0.17181 -0.22476 -0.18486 0.15387 -0.18048 -0.42999 0.2484 -0.18776 -0.77365 0.56396 0.082565 -0.1421 0.28164 -0.21093 0.16447 0.034784 0.14222 0.23723 0.43061 -0.19638 -0.27922 -0.060327 0.16093 0.12562 -0.24455 -0.056718 -0.078608 0.065234 0.34416 -0.20661 -0.27996 -0.18333 0.21043 0.10468 -0.26713 0.19957 0.074693 0.002809 0.040786 0.086513 -0.18901 -0.094932 -0.13828 0.23527 0.40863 -0.5153 0.46757 0.67268 -0.095182 0.12993 -0.056952 -0.13703 -0.28108 -0.07115 -0.1461 -0.21034 0.32252 0.46795 0.025879 -0.37496 -0.053744 0.015181 0.29362 -0.089473 0.0055987 0.12722 0.17895 0.053284 0.22492 0.1961 -0.29542 0.44439 -0.062472 0.10219 0.029482 0.13435 -0.2014 0.2185 0.32438 -0.15809 0.18345 -0.48409 0.11044 0.10079 -0.19531 -0.14628 -0.02951 -0.20327 0.027375 -0.20242 0.015912 -0.044507 -0.22992 -0.31145 -0.43716 -0.2853 -0.012025 0.25347 0.20803 0.39824 0.1719 0.29218 0.022821 -0.13189 0.25893 -0.040545 -0.038099 -0.4996 0.076028 0.06301 -0.096742 0.0063735 0.25837 -0.30524 -0.148 0.28784 0.03914 -0.17789 -0.22809 -0.10272 -0.29135 0.34454 0.092367 -0.72408 -0.49826 -0.34312 0.38135 -0.19377 -0.29118 0.31204 0.27463 0.22169 0.37543 0.0098116 0.34889 -0.012127 -0.024855 -0.016083 -0.24952 -0.36242 0.40436 0.25408 0.011924 -0.26415 -0.31693 -0.16504 0.13423 0.18418 -0.32902 -0.37804 0.3713 0.030331 -0.03217 0.1949 
prehistory 0.14211 -0.23462 0.087663 0.27463 -0.4475 0.92682 -0.2402 -0.07527 -0.060401 0.35259 0.44959 0.19312 -0.14665 -0.10672 0.11661 -0.47068 0.271 0.18807 -0.18904 0.10666 -0.3739 0.22584 0.14849 -0.2616 -0.45017 -0.024964 0.116 -0.34155 -0.12809 0.086555 0.31494 0.46103 -0.57391 0.48235 0.29845 -0.26452 0.65625 -0.18487 0.24283 0.064366 0.1696 -0.023487 -0.018802 0.0025386 0.24367 -0.2362 -0.073878 -0.25178 0.1602 -0.080772 -0.11102 0.29321 -0.058889 -0.30724 0.1784 0.0046998 -0.054497 0.38856 -0.43237 0.60174 -0.18338 -0.16634 0.357 -0.2027 0.38131 -0.16807 0.091447 0.35557 -0.47494 0.15234 0.23723 0.20804 0.14486 0.2327 0.15902 -0.6954 0.076072 0.03661 -0.048232 0.17731 -0.51666 0.055596 0.095118 0.17187 -0.2471 0.03804 0.087469 -0.30232 0.054088 -0.1292 -0.3814 0.21126 0.43508 -0.35099 0.38258 -0.68312 0.35658 -0.029246 -0.25913 -0.00016471 0.18822 -0.16693 -0.34914 -0.38449 0.21893 0.10919 -0.17734 -0.015609 -0.42977 0.042246 -0.10029 0.0016842 -0.066682 -0.12865 -0.43732 -0.69051 -0.093917 0.40965 0.080642 -0.044641 0.16164 0.09069 -0.25071 -0.059457 0.29261 0.0021215 0.25184 -0.10977 0.24415 0.019238 -0.044924 -0.19504 0.19734 0.05356 0.22405 0.058726 -0.17899 -0.11501 -0.39444 0.021414 -0.12814 0.17418 0.2464 0.3323 -0.22753 0.40433 -0.028819 0.092605 -0.089126 -0.084047 0.43924 -0.36606 0.15707 -0.2987 -0.5693 0.038846 -0.25877 0.050603 0.08828 0.25291 0.27281 0.35908 -0.31739 -0.17824 0.52006 0.097603 0.12428 -0.011451 0.77666 -0.13719 -0.084971 -0.29792 -0.60175 -0.46505 -0.40313 0.3482 0.15191 0.20952 -0.03852 -0.23825 0.33103 -0.13758 0.25746 -0.24147 -0.11827 0.010701 0.13306 -0.60568 -0.085698 0.23766 0.050904 -0.38297 0.17934 -0.076078 0.044546 0.065896 -0.26019 -0.039755 -0.10621 -0.16332 0.23762 -0.069023 -0.29253 0.26054 0.086183 -0.11138 -0.092617 -0.088847 0.063631 0.30844 0.24205 -0.23525 0.15634 -0.036468 0.0049401 -0.077819 -0.023202 -0.24302 -0.28558 0.0039363 -0.11082 -0.19152 -0.50436 0.34257 -0.30459 -0.17364 0.19396 0.058118 -0.26466 -0.22421 -0.052535 -0.07945 -0.27356 0.14338 0.17686 0.18186 0.24218 -0.23257 -0.17379 0.14729 -0.096998 0.20247 0.51679 -0.68858 -0.00085704 -0.22312 0.099951 0.21201 0.11836 -0.26064 -0.28185 -0.037448 0.11044 -0.026506 0.030043 -0.19011 -0.36624 0.10195 0.20119 0.14401 0.020789 0.25062 -0.036128 -0.02387 -0.086111 -0.18385 0.23967 -0.47092 0.013294 0.47595 0.10536 0.19835 0.45113 -0.15723 0.30015 -0.17854 -0.50051 0.30821 0.38719 0.21219 0.23478 0.28575 0.031518 -0.42687 -0.13901 -0.26973 0.17788 -0.32759 0.22915 0.58849 -0.22068 -0.31414 0.17859 -0.30247 0.13592 -0.059582 -0.016048 0.14912 -0.27616 0.14577 
egypt -0.17521 -0.71041 -0.15477 0.71456 -0.16204 0.21468 0.088518 -0.30302 -0.07326 0.26929 -0.15112 -0.33122 0.24217 0.46872 -0.26873 -0.22296 -0.022419 0.083072 0.27399 0.14474 -0.17734 0.25815 -0.14402 0.38951 -0.11017 -0.6185 0.12948 -0.23554 0.069471 0.4619 -0.066396 -0.065952 -0.69137 0.15887 0.0096237 -0.34075 0.035558 -0.56319 0.071883 -0.21553 -0.046614 0.075486 -0.27209 -0.12695 -0.1876 -0.30693 0.061307 -0.13754 0.32887 0.14054 -0.10925 -0.029727 -0.2856 0.044323 -0.27516 -0.36274 -0.12458 -0.17187 -0.14387 0.31119 0.099705 0.44428 0.54055 0.046309 0.11918 -0.097685 -0.23254 -0.10705 -0.21684 -0.1294 0.063966 -0.25035 -0.024552 -0.24756 -0.10521 0.15012 0.39355 0.66186 -0.27628 0.16478 -0.16127 0.22637 0.12135 -0.24783 -0.44067 0.088166 -0.0345 0.26343 0.11066 0.13446 0.05172 -0.094422 0.16598 0.002664 0.041838 -0.16893 -0.46556 0.28126 -0.32964 -0.17123 0.33573 -0.041516 -0.074886 0.21492 -0.093046 -0.075223 0.21559 0.28623 -0.31149 0.12658 -0.12257 -0.19656 0.2341 0.18511 -0.016332 -0.1244 -0.069552 0.20057 -0.13122 0.39636 0.073941 -0.064775 0.38179 -0.15459 0.065878 -0.18211 0.22916 0.091013 -0.036659 0.065154 0.16009 -0.19595 0.12482 -0.3735 -0.091603 0.031318 -0.00071288 -0.024731 0.10109 0.21012 -0.36607 -0.059085 0.45361 0.0042615 -0.40455 0.55601 -0.028277 0.093608 0.11575 0.35111 0.11135 -0.37967 -0.077443 -0.15889 0.066812 -0.17079 0.29948 0.21401 -0.008233 -0.25508 0.06884 0.078631 0.54408 -0.099937 0.17136 -0.070593 0.28438 -0.2108 0.43671 0.25641 -0.16164 -0.10725 -0.097486 -0.34614 0.056606 0.023684 -0.013119 0.35813 -0.15262 0.21938 -0.37535 -0.20711 -0.011731 -0.11622 0.10664 0.021405 -0.19477 -0.55827 0.33154 -0.46168 -0.083259 -0.52078 -0.16188 -0.15812 -0.20051 0.39887 -0.14538 -0.39547 -0.42114 -0.23727 0.35864 -0.15859 -0.4843 -0.14305 0.11269 -0.50578 -0.3717 -0.11327 0.45098 0.49132 0.87739 -0.027198 0.034285 -0.12462 0.16459 0.079274 0.40245 -0.24512 -0.34298 0.06473 0.062983 -0.36148 0.15982 -0.053556 0.24979 0.30302 -0.23497 -0.13797 -0.037564 -0.55999 0.29609 0.10304 0.0096469 0.1092 -0.11734 0.14125 -0.30366 0.099314 -0.22751 0.13049 0.15622 -0.34887 0.22437 -0.38595 -0.28231 0.074574 0.025307 0.26883 -0.090892 0.16209 -0.16771 -0.029845 -0.036109 0.039055 -0.24366 -0.20574 0.033772 -0.1103 0.2642 0.13814 -0.060429 -0.24718 0.28083 -0.34072 -0.34569 -0.46884 0.30447 0.19292 -0.074323 0.07243 -0.42824 -0.29242 0.032183 -0.53581 -0.34513 -0.353 0.14573 0.066512 0.13244 0.29522 0.15347 -0.1204 0.32461 0.0053566 -0.38576 -0.13741 -0.24827 0.069674 0.078963 0.39829 -0.36881 -0.0095073 -0.093019 0.054892 0.13114 0.092652 -0.4792 -0.23383 0.10433 0.34448 
middle 0.14382 0.24002 -0.019707 0.35215 0.13178 -0.099118 -0.2599 -0.25027 0.34665 0.018419 0.52312 0.035709 -0.20833 -0.029118 -0.22361 -0.15743 -0.1816 -0.078785 -0.11192 0.32404 -0.17457 0.26804 -0.096359 0.24334 -0.05156 -0.13781 -0.010243 0.051009 -0.29647 0.27351 -0.48211 0.40846 -0.49036 0.15882 0.24255 -0.42307 0.09637 0.081039 -0.013047 -0.162 0.084751 -0.12089 -0.38997 0.01933 0.27691 0.00681 -0.11939 0.25147 -0.021179 -0.2748 -0.31427 0.058855 0.08861 -0.11482 -0.32133 0.090986 -0.25104 0.21709 -0.085247 0.16751 0.028254 0.22255 0.39362 -0.10524 -0.097774 -0.18291 -0.051765 0.024826 -0.17335 0.25031 -0.335 0.018219 0.14472 0.21733 0.031114 0.00062817 0.38312 0.31503 0.062233 0.019073 -0.38898 0.018023 -0.13447 -0.011503 -0.19393 0.15662 -0.39398 0.2634 0.022908 0.51962 -0.36777 0.076641 0.5014 0.10193 0.36758 -0.27987 0.040414 0.15249 -0.20284 -0.10093 0.031378 0.14736 0.056197 0.043146 -0.10316 -0.010626 0.080211 -0.1276 -0.20842 0.072231 -0.30047 0.10891 -0.067724 -0.076752 0.15181 0.071643 -0.088279 0.29193 -0.081894 0.15477 0.26364 -0.037237 -0.074817 0.019863 0.24492 0.23728 0.19849 -0.072272 0.28229 0.19872 -0.074387 -0.18597 -0.085347 0.41324 -0.47512 0.044625 -0.066362 -0.42242 -0.19895 0.13176 0.1517 -0.040908 0.42188 0.056174 0.31389 0.37521 0.10081 -0.036813 -0.071776 0.14281 0.27938 -0.1003 -0.20736 -0.045814 -0.17142 0.32482 -0.010392 -0.075153 0.28403 0.10763 0.23699 0.43324 -0.023674 -0.20685 0.21633 -0.22546 0.12778 -0.0642 0.098289 0.14488 -0.36057 -0.18461 -0.42167 -0.32258 0.14612 0.28743 0.23926 0.41928 0.15188 0.076417 0.10949 -0.060515 -0.16227 -0.0818 0.3206 0.47459 -0.16926 -0.14981 0.19798 0.19284 0.097077 -0.34654 -0.18782 0.021297 0.035683 0.070472 -0.011156 0.28786 -0.16867 -0.24194 -0.12828 -0.21536 -0.23895 0.1605 0.016757 -0.40031 -0.12928 0.21244 0.11282 -0.14613 0.26281 -0.054835 0.19202 -0.007748 0.20931 -0.003927 0.16674 -0.18977 -0.091459 0.12677 -0.356 0.41868 -0.29124 0.092748 0.13509 -0.0020373 -0.1405 0.1728 -0.06648 -0.22938 0.06772 -0.15824 -0.081858 0.010935 -0.023801 -0.0057461 0.16076 0.46034 -0.25262 0.17574 0.18906 0.23306 0.10668 -0.35908 -0.056892 -0.10925 -0.14269 0.09919 -0.184 0.29563 0.02748 0.17341 -0.0055371 -0.43253 -0.55686 -0.026125 0.084276 0.021026 -0.11527 0.080017 0.17458 0.079142 0.27575 -0.15118 0.0086246 -0.13697 -0.33784 0.023523 -0.037546 -0.21147 -0.18279 -0.061043 0.067913 0.011195 -0.057825 -0.092096 -0.055669 0.2328 -0.165 -0.16112 0.19805 0.04843 0.14361 -0.089888 -0.20124 -0.017857 -0.084596 -0.23732 0.13375 0.36494 0.10027 -0.18801 0.33861 -0.16099 -0.05461 0.2777 0.0092757 0.076376 -0.015832 -0.084412 
kingdom 0.075523 -0.20003 0.072464 0.62407 -0.30558 -0.13261 -0.61469 0.20096 -0.14691 0.055389 -0.21633 0.0011322 -0.040842 -0.00098594 0.20329 -0.2361 0.20198 0.16468 0.052665 -0.0021034 -0.18566 0.3083 -0.16959 -0.30434 -0.60549 -0.048215 -0.037782 -0.60199 0.12813 0.24598 -0.038965 -0.24138 0.052395 0.30115 -0.19217 0.19528 0.16035 -0.38362 0.071822 0.13624 -0.3212 -0.52238 -0.29914 -0.32119 0.17782 -0.078745 -0.32209 -0.057185 0.15682 -0.17371 -0.044084 -0.015638 -0.15129 -0.13189 0.00083644 -0.13861 -0.077415 0.399 -0.27893 0.27208 0.052577 0.073247 -0.046095 -0.18284 -0.00077838 -0.29491 -0.32186 -0.3405 -0.53939 -0.47526 0.19799 0.05796 0.40262 -0.11479 -0.14605 0.40842 0.53057 0.20501 -0.11477 -0.080252 -0.042331 0.041069 -0.2272 -0.0477 0.12755 -0.10272 -0.12914 0.22313 0.44342 0.3811 -0.083381 -0.14228 -0.21078 -0.3302 0.34101 -0.24123 -0.31412 0.39642 -0.036468 0.0076134 -0.044663 0.042666 0.0041651 0.61582 -0.093412 -0.59566 -0.060318 0.40657 0.23709 -0.079747 -0.066896 0.060221 -0.36441 0.073325 -0.00061493 0.35123 0.46989 0.49836 0.2274 0.20823 0.23068 0.24249 -0.036642 0.46753 0.24776 -0.035883 0.13101 0.73912 0.26963 0.21577 -0.014417 -0.056383 0.1596 -0.32836 -0.037225 0.18588 -0.062507 -0.25629 0.25446 0.34206 -0.023415 0.38624 0.48578 0.14524 0.035149 0.15967 0.1421 -0.44578 0.14521 -0.16342 -0.050636 -0.11657 -0.29915 0.31639 -0.33647 -0.40923 -0.21006 -0.27387 0.085283 -0.2429 -0.43149 0.60178 0.016772 0.04631 0.32883 -0.55576 -0.031806 0.20822 0.90845 0.215 -0.16555 -0.22853 0.16146 0.30855 0.23246 0.079208 0.074023 0.48624 -0.2538 0.077653 0.038873 -0.20861 0.024967 -0.0040131 0.16081 -0.18401 0.42719 -0.020616 0.37698 -0.077367 -0.19808 -0.40284 0.27715 -0.2702 -0.20762 0.30406 0.12028 -0.41656 -0.47218 0.04245 -0.16651 -0.067207 0.23186 0.15361 0.21994 0.07398 -0.29744 -0.16117 0.15811 0.22214 0.54216 -0.16736 0.2341 -0.22869 0.37814 0.16174 0.058719 -0.21102 -0.10094 0.010413 0.25853 -0.23792 -0.23106 -0.037391 0.023852 0.29933 -0.27081 -0.0056918 -0.22361 -0.56401 0.35314 -0.064755 0.074922 0.16331 -0.17241 0.2941 -0.12614 0.42554 0.18977 -0.047189 0.52031 -0.051778 -0.18449 -0.19858 -0.059192 0.011885 -0.37721 0.16954 -0.12248 -0.36836 0.12604 0.04563 0.0037707 0.020828 -0.1537 -0.0884 -0.20766 0.1984 0.80245 0.49376 0.064989 0.18483 -0.20792 -0.20508 -0.03538 -0.13913 0.014888 -0.13671 -0.15997 0.028427 -0.15952 -0.0022213 -0.17052 -0.16999 0.21639 -0.15886 -0.0010247 0.064854 0.27199 0.40132 -0.17228 0.21454 -0.021118 0.23384 0.15793 0.24101 0.098451 -0.48611 -0.092132 -0.037059 0.39054 -0.19803 0.18267 -0.01482 -0.046147 0.06406 -0.21926 0.13201 0.037698 0.155 
matteo 0.13531 -0.35237 -0.00012609 0.37139 -0.2261 0.060425 0.25498 0.20602 -0.16204 -0.25664 0.012319 -0.022167 -0.5295 -0.42548 -0.20965 -0.028297 -0.11538 0.45243 -0.18786 0.022368 0.48921 0.3842 -0.030848 -0.45193 -0.28482 -0.30076 0.076563 -0.059075 0.054254 -0.13456 0.08832 -0.29505 0.11012 -0.017056 -0.062394 -0.002033 -0.20776 0.05454 -0.20239 -0.15791 0.0012586 -0.11181 0.07282 0.16555 0.3856 -0.29452 -0.081925 -0.43538 -0.67651 0.043743 -0.04535 -0.23948 -0.1895 -0.23241 -0.082825 -0.029664 -0.072383 0.12413 -0.10109 0.48551 0.12738 0.26103 0.10849 -0.22502 0.30037 0.28172 0.22154 -0.014036 -0.59461 0.15308 0.23182 0.28617 0.4545 0.016772 -0.087562 0.47256 0.44693 0.16287 0.17263 -0.32564 0.41101 0.56961 -0.079817 -0.16284 -0.19782 0.42265 -0.50722 -0.30721 -0.1207 -0.25449 -0.010978 -0.9134 -0.00011584 -0.043359 0.24606 0.12727 -0.10451 -0.23179 0.34636 -0.31864 0.17235 0.041554 0.53032 0.32474 -0.06578 -0.050228 -0.2281 -0.51638 -0.084898 -0.32358 0.26815 -0.0038375 0.34668 0.20175 -0.13761 0.17551 -0.31381 0.057085 -0.12671 -0.17519 -0.36762 0.40966 0.12252 -0.25612 -0.12886 -0.21947 0.4726 0.44845 -0.17896 -0.6765 -0.26063 0.052935 -0.19992 0.31373 -0.097114 -0.092021 -0.36771 -0.086578 0.0915 0.22367 0.29091 0.070955 -0.26182 -0.13275 0.18026 0.59221 0.25297 -0.0022509 -0.32429 0.33111 0.062203 -0.23856 0.11843 0.32061 -0.49254 -0.066702 -0.057139 -0.42046 -0.083936 -0.14019 0.12557 0.18704 0.20915 -0.012497 0.48185 -0.21165 0.01105 0.46616 0.74776 -0.049284 -0.36592 -0.048153 0.19184 0.12907 -0.039645 0.52269 -0.45952 -0.034514 0.45014 -0.56454 0.13432 -0.55188 0.051508 0.095776 0.32729 0.27443 -0.067746 -0.17433 0.64985 0.0086918 -0.054765 -0.6305 -0.053332 0.44498 -0.60531 -0.28633 0.032111 -0.17004 0.4696 -0.077716 0.29856 0.18602 0.20496 0.26046 0.074968 -0.44523 0.16674 0.090872 0.25706 -0.29749 0.75604 -0.38555 0.3898 -0.047713 0.20804 0.038234 0.066273 -0.66197 -0.53207 -0.34898 0.25081 -0.48471 -0.12004 0.34852 0.28741 -0.21925 -0.45204 -0.011566 0.13334 -0.20433 0.29961 0.16368 -0.54445 -0.14093 0.40987 -0.11374 0.15458 0.074294 0.054882 -0.23307 0.43728 0.09926 0.052093 0.18069 -0.17483 0.19304 0.28555 0.094833 -0.43394 -0.095634 0.023607 0.16612 -0.13888 -0.014804 0.12753 -0.12888 -0.077172 -0.39734 0.06747 -0.082517 -0.070035 0.068965 0.50689 -0.24898 0.16516 0.26922 -0.041241 -0.017725 -0.063468 -0.089261 -0.40461 0.16481 0.1415 -0.0052622 -0.45162 -0.29985 0.56264 0.15266 -0.16365 -0.17274 0.12071 0.053479 0.26908 0.6019 0.39556 -0.0046233 0.13856 0.30663 0.48564 -0.16481 -0.22053 -0.44373 0.18782 0.25134 0.13863 -0.17789 0.0062272 0.62393 -0.2087 0.087421 
ricci 0.098281 -0.17503 -0.1553 0.32464 -0.046206 0.10274 0.24841 0.097915 -0.055466 -0.17545 0.24603 -0.24893 -0.31628 0.044007 -0.41508 -0.071157 -0.21464 0.36476 0.067286 0.35083 0.18736 0.87112 -0.29005 -0.51067 0.20427 -0.055499 0.16451 -0.11675 -0.22509 -0.42076 0.047054 -0.10505 0.14985 0.074383 -0.15745 -0.21131 -0.15873 0.04511 -0.030215 -0.054451 -0.25251 0.0053131 -0.064838 0.075928 -0.11319 -0.070119 -0.16534 -0.18383 -0.073602 -0.16488 0.0086222 -0.40217 0.14779 -0.29627 0.19437 -0.082004 0.52634 -0.054788 -0.21521 0.089106 -0.1432 0.055245 -0.2805 -0.70214 0.086136 0.10701 0.17494 0.10464 -0.23669 0.14302 -0.060372 -0.15874 0.43885 -0.44679 0.31973 0.22554 0.43048 0.066805 0.52572 -0.55827 0.082428 0.50815 -0.04399 -0.2992 -0.64603 0.18229 0.018086 -0.29808 -0.035797 -0.17893 -0.24304 -0.38109 0.11815 0.026899 0.72164 -0.13 0.2064 0.059121 0.32731 -0.06748 -0.072176 -0.29603 0.22556 0.40964 -0.27143 0.093686 -0.17278 -0.30333 0.099719 -0.015552 0.30292 -0.27313 0.43721 -0.054361 0.26323 0.0016097 -0.38016 0.19928 0.16386 -0.010675 -0.36616 0.29107 0.081618 -0.010867 -0.24895 0.13746 0.013167 0.019762 -0.13773 -0.11151 -0.084654 -0.63166 -0.23708 0.098734 -0.047585 0.47189 -0.32682 -0.57421 -0.45325 0.58207 0.39837 0.13 -0.15809 -0.21639 -0.0049664 0.48917 0.39363 0.62826 -0.22844 0.091785 0.11513 0.04437 -0.0087458 0.0027581 -0.24291 -0.15175 -0.024837 -0.49124 0.090081 -0.38067 -0.17353 -0.18669 -0.14553 0.40642 0.55899 0.30498 -0.3331 0.11176 0.43988 0.30214 -0.21607 -0.019681 0.119 0.11596 0.024178 0.2522 -0.40594 0.24497 0.21315 -0.25136 0.47937 -0.68408 0.44617 0.17214 0.1157 0.06877 0.046364 -0.096611 0.11963 -0.0084751 -0.22733 -0.62563 -0.12392 0.41606 -0.75987 -0.0097201 -0.53272 0.11248 -0.6938 0.031819 0.42345 -0.13753 0.35466 -0.19452 -0.034055 -0.28068 -0.22903 -0.30116 0.80308 -0.50787 0.38272 -0.010397 0.056693 -0.12112 -0.23406 0.10101 0.11581 -0.13519 -0.30925 -0.37849 0.22827 -0.233 -0.005938 -0.27227 0.038256 -0.2528 -0.44466 -0.39162 0.35344 0.084734 0.19617 -0.080832 -0.14271 -0.22571 0.17938 0.14258 0.07105 -0.18767 -0.3769 -0.32887 -0.046345 -0.15988 -0.18018 0.28327 -0.33862 0.014422 0.18957 -0.19166 -0.34306 0.15887 0.080495 -0.047836 -0.35649 0.028261 0.026127 -0.10305 -0.024133 -0.072762 -0.25827 -0.10082 0.16929 0.076844 0.78415 -0.0088755 0.17392 -0.082612 0.081767 0.25913 -0.17169 -0.30718 -0.17059 0.17097 0.18557 0.25706 -0.48408 -0.18382 0.53254 -0.044306 -0.32552 -0.12374 -0.15247 0.11644 0.063155 0.33347 0.39405 -0.11447 0.080543 -0.079616 0.29491 0.61471 -0.27151 -0.024766 0.23809 0.35339 -0.051116 0.14679 0.29615 0.66514 -0.16749 -0.099351 
xu 0.27565 0.38301 -0.37672 0.26471 -0.030069 -0.229 0.48158 -0.30352 -0.11764 0.1059 0.23144 -0.24219 -0.76001 -0.1399 -0.24459 -0.077789 -0.10218 0.044478 0.094083 0.2983 0.29357 0.31339 -0.52992 -0.13549 0.049788 0.12108 0.67016 0.072599 -0.4451 -0.071168 -0.38457 0.024434 0.22299 0.18822 -0.080506 -0.31473 0.53064 0.23773 0.20533 0.14532 -0.50709 -0.1233 0.24342 0.39209 0.14567 0.13724 -0.57427 -0.0015649 0.45339 -0.2448 -0.27084 -0.45102 -0.31678 -0.05957 -0.43773 0.18885 0.43196 -0.022136 0.37021 0.74067 0.11893 -0.37439 0.19557 -0.33515 0.40052 0.17248 -0.15136 -0.25174 0.15904 -0.33354 -0.14112 -0.34242 0.53379 -0.22965 0.018588 0.076044 0.18372 0.43592 0.42817 -0.040497 0.54415 0.27687 -0.11966 -0.36745 0.0071858 0.66199 0.011996 -0.022048 0.59223 -0.18519 0.21772 -0.25033 0.22312 -0.061604 0.10037 0.21401 -0.35686 0.0095844 0.15932 -0.35051 0.036914 -0.035411 0.083545 -0.12917 -0.028189 0.058942 -0.38108 -0.034023 -0.012176 0.22345 -0.16304 -0.31227 0.26354 0.35564 0.26383 -0.14417 -0.047395 0.28 -0.12001 -0.33878 -0.051641 0.0025842 0.20638 -0.034766 0.020639 -0.043172 -0.50502 0.11592 -0.43711 -0.30568 0.34434 0.15586 -0.079692 0.020767 0.40321 0.036801 -0.18508 -0.10621 0.065504 0.20597 -0.1117 -0.36884 -0.011074 -0.11192 0.28002 0.06014 0.11381 -0.25674 0.18668 0.28925 0.30899 -0.17145 0.2927 0.012418 -0.16911 0.16358 0.10383 0.36067 -0.00066452 -0.43914 0.22286 0.099452 0.18761 0.20901 0.4284 0.12425 -0.2477 0.1836 0.4065 0.4034 -0.21591 -0.34959 -0.86126 -0.10584 -0.017325 0.3533 -0.30612 -0.37651 0.34713 -0.29538 -0.094755 -0.51298 -0.093195 -0.27153 -0.19865 0.61064 0.31013 -0.22495 0.11215 -0.0080857 -0.29576 -0.82751 0.24545 0.5473 -0.58514 -0.33057 -0.41557 -0.090064 0.099972 -0.22959 0.67891 -0.18255 0.29609 0.21139 -0.18144 -0.77859 -0.26998 -0.32263 0.95231 0.40903 0.43457 -0.2746 0.0078533 -0.10469 -0.21842 -0.20454 0.26886 -0.064129 -0.31642 0.16665 -0.10714 -0.036243 0.49632 -0.098752 -0.12758 -0.40176 -0.39809 -0.16082 -0.14047 0.27694 -0.37131 -0.2261 -0.53109 0.1949 0.035901 -0.65601 0.22597 -0.36935 -0.59053 0.18381 0.27643 -0.3987 -0.36792 0.21833 0.45419 0.025587 0.0068666 0.20641 -0.73876 -0.0461 0.34712 -0.47993 0.40318 -0.03705 0.35373 -0.036148 -0.40163 -0.11595 0.22526 0.29583 0.16595 -0.20293 0.30971 0.0078855 -0.16119 -0.13391 0.20122 0.40126 -0.021875 -0.79487 -0.29074 0.29286 -0.073806 0.16748 -0.12624 -0.15138 0.49862 -0.29667 0.366 -0.50678 -0.056531 -0.11952 -0.040469 -0.067837 -0.10334 0.11977 -0.053456 0.29014 0.2276 0.053412 -0.3402 -0.28134 -0.25095 0.24678 0.25626 -0.24696 0.071121 -0.24349 -0.11119 0.028681 
guangqi 0.032986 0.32108 -0.057772 0.3395 -0.35842 0.11333 0.21102 -0.62349 0.070555 -0.073377 -0.1876 -0.073745 -0.58074 -0.067345 -0.60891 -0.52609 -0.28939 0.13861 -0.38801 0.58288 0.30295 0.48805 -0.467 -0.058469 -0.023765 -0.0046885 0.38651 -0.20153 -0.41811 -0.12928 -0.39937 -0.083577 0.061815 0.48354 -0.32688 0.18434 0.21449 0.038778 0.32541 0.2908 -0.62776 -0.20053 0.13663 0.21067 0.1136 0.24303 -0.41987 -0.43384 0.087891 -0.41934 -0.31672 -0.79207 -0.56694 0.064876 -0.89146 0.091718 0.71848 0.087222 0.050011 -0.056303 0.47463 0.10246 0.022238 -0.082018 0.33579 -0.27675 0.21336 -0.16277 -0.019418 -0.036323 0.055211 -0.12766 0.39072 -0.27779 -0.34927 0.294 0.32116 0.67703 0.70693 -0.40296 0.69429 0.42779 0.15689 -0.57938 -0.27214 0.7619 -0.056606 -0.10201 0.34051 -0.13485 0.2375 -0.10842 0.65138 -0.54875 0.11794 -0.078311 -0.48702 0.17753 0.33667 -0.73504 0.02766 -0.1078 0.2797 0.27203 0.016577 0.067269 -0.11155 0.20955 0.038453 0.11505 -0.073911 -0.10925 0.35027 0.39369 -0.045916 -0.17519 -0.096866 0.43933 0.053924 -0.52825 -0.042136 0.021261 0.25153 0.094345 -0.13651 0.080558 -0.14472 0.43485 -0.53763 -0.23292 0.52374 -0.17396 -0.0033006 -0.37383 0.37997 0.33006 -0.2408 -0.15587 0.040129 0.081893 0.20896 -0.55055 -0.067051 -0.060426 0.46198 0.45397 -0.34967 0.38836 -0.31153 0.58891 0.25972 0.009377 -0.14914 0.093618 -0.079762 0.32866 0.25688 -0.13621 -0.19993 0.0061585 0.4735 0.053122 0.13696 0.21118 0.91269 -0.33421 -0.069631 0.2702 0.73429 0.19458 -0.37426 -0.12111 -0.44164 -0.30026 -0.15662 0.39626 -0.079165 -0.48471 0.26098 -0.10461 -0.43292 -0.21888 0.14431 -0.43791 -0.049938 0.62123 0.35037 -0.23517 0.30239 -0.10588 0.28443 -1.2423 0.35221 0.24466 -0.85496 -0.19617 -0.14514 0.2337 0.2167 -0.23533 0.37329 -0.053205 0.20387 0.17143 -0.026732 -0.56978 -0.12514 -0.53306 0.96608 0.34902 0.70195 -0.096546 0.080359 -0.047749 -0.052858 -0.15218 0.36496 -0.22719 -0.21316 -0.085225 -0.13738 -0.18691 -0.10732 -0.020769 0.0073878 -0.30643 -0.0058996 -0.17938 -0.014081 0.075075 0.019469 -0.60643 -0.069569 0.0091689 0.34641 -0.54044 0.07451 -0.32183 -0.52993 0.1377 -0.13524 -0.28409 -0.098923 0.013452 -0.1362 -0.35812 -0.227 0.2801 -0.098133 0.041503 0.36988 -0.16856 0.19663 -0.2715 -0.080433 0.15238 -0.47615 -0.078216 0.054903 0.21689 -0.036648 -0.32075 0.17346 -0.42036 0.026152 -0.17036 0.077914 0.4857 -0.044431 -0.57916 -0.27385 0.037807 -0.12153 0.35342 -0.04175 -0.31144 0.22391 0.17757 0.027551 -0.58098 0.24442 0.10893 -0.012692 0.35142 0.12677 0.092438 -0.09458 0.35017 0.57163 -0.017569 -0.50758 -0.40661 0.10258 -0.077085 0.070443 0.11851 0.043497 0.18656 -0.14663 -0.045645 
chinese 0.35488 0.40611 -0.21609 0.066762 -0.049097 0.14724 -0.092921 -0.40549 0.013974 -0.11229 0.14662 -0.09829 -0.06346 -0.30713 -0.16757 -0.28297 -0.22889 -0.19801 0.33648 -0.018836 -0.16403 0.32437 -0.13879 -0.13664 0.046958 0.35166 0.51699 0.215 0.029407 -0.026689 -0.40521 -0.27558 -0.010291 0.25853 -0.26269 0.17163 0.085153 -0.10744 0.35031 0.30599 -0.38882 -0.27481 0.30868 0.38872 0.03883 0.097557 -0.28412 -0.087742 -0.27106 -0.20474 0.0015757 -0.27329 -0.10588 -0.015129 -0.61182 0.18585 0.096651 0.32 0.16316 0.16326 0.34776 0.074124 0.2869 -0.1036 0.27713 -0.050232 -0.024497 -0.2947 -0.14449 0.17655 -0.020923 0.11644 0.42115 -0.071446 -0.086248 0.12729 0.49955 0.12749 -0.0012343 -0.061571 0.39251 0.16645 -0.30634 -0.068181 -0.18486 0.17688 -0.4328 0.43955 -0.20436 0.096891 0.3224 -0.10549 0.57011 -0.36655 0.47804 0.010491 -0.16144 0.050855 0.081435 -0.25442 0.0044408 -0.035788 0.10585 0.22145 -0.053126 0.042167 -0.10426 0.1831 -0.026029 -0.11313 0.058404 -0.29957 0.2884 0.036031 0.20589 0.02146 -0.14871 0.12557 -0.016946 -0.25772 -0.047584 -0.072642 -0.083474 0.0040007 0.28659 -0.19404 0.0019257 0.1269 -0.30494 -0.22404 0.41806 -0.1537 0.073022 0.0055981 0.16444 0.21754 -0.26527 -0.23417 -0.10939 0.12643 0.00040634 -0.13824 0.52724 0.18942 0.39322 0.4751 -0.24565 0.14057 -0.10612 0.080489 -0.02702 0.071902 -0.1981 0.12127 -5.9875e-05 -0.14671 -0.11483 -0.10116 0.0033 0.063276 0.39622 0.15825 -0.13653 0.15955 0.44658 0.012001 -0.026743 -0.052767 0.92897 0.12741 -0.16006 -0.14176 -0.20654 -0.12718 0.10658 0.18036 -0.057721 -0.26377 0.23816 -0.034166 -0.24285 0.0018107 0.0033214 -0.15193 0.21894 0.30764 0.14633 -0.22351 0.062688 -0.043686 0.17139 -0.70686 0.13249 0.13337 -0.22624 -0.20687 -0.37389 -0.010942 -0.31512 -0.10945 0.48956 0.01611 -0.024129 0.089998 0.0034878 -0.67127 -0.34424 -0.31091 0.4113 0.54579 0.50143 0.2868 0.25916 -0.21641 -0.20556 -0.37171 0.38038 -0.12158 -0.53189 0.028745 -0.042577 -0.23335 0.35856 0.44019 -0.45872 -0.07295 -0.23912 0.04372 0.091125 0.066891 -0.26331 -0.046866 -0.13341 0.050331 0.33045 -0.32121 -0.029948 -0.48665 -0.11595 0.23348 0.045381 0.056559 0.18398 -0.090774 -0.33677 0.21739 0.11177 0.38048 -0.23482 0.43129 0.2672 -0.27875 0.11233 0.068225 0.029152 0.44178 0.08433 -0.17664 0.30047 0.067705 -0.018333 -0.20017 -0.091982 -0.23833 -0.37421 -0.32046 0.10289 0.17579 0.00058296 -0.46286 -0.15787 0.014636 -0.21375 -0.029667 0.17869 0.07098 0.010791 0.00064835 0.12314 -0.37061 0.13765 0.097741 0.1073 -0.17489 0.072855 -0.019273 -0.19485 0.037243 0.11425 0.34076 -0.36435 -0.19673 -0.17374 -0.028815 -0.38929 0.045175 0.09088 -0.11127 -0.24787 -0.1016 
plato -0.25014 -0.059174 -0.20575 -0.073366 -0.21367 0.22875 -0.14225 -0.394 0.075507 0.69503 0.0017177 -0.40396 -0.17828 -0.10458 -0.15981 -0.52966 -0.22614 1.0883 0.42178 0.29783 -0.066 0.66385 -0.36647 0.11381 -0.22154 0.060509 0.076732 0.044087 -0.18607 -0.071433 -0.21123 0.45091 -0.55818 0.36424 0.3924 0.1074 0.12881 -0.20336 0.009593 -0.12782 0.099361 0.029746 0.14676 -0.14905 0.1128 0.044383 -0.090223 -0.04912 0.058687 -0.17425 0.22828 0.092951 -0.018584 0.1608 0.0018946 0.16375 0.053815 0.2946 0.10203 0.0025916 0.66987 0.26336 0.58616 0.033056 -0.12449 -0.39566 0.080222 -0.034527 0.044017 -0.072333 0.12751 0.36535 -0.22424 0.2559 0.26394 0.053995 -0.18474 0.49821 0.13119 -0.1804 -0.13964 0.11677 0.17949 -0.31808 -0.39332 0.17127 0.258 -0.17702 -0.23729 -0.16127 0.30531 -0.25084 0.3935 0.038849 0.29967 -0.34233 -0.050863 -0.25375 -0.023681 -0.40646 0.18169 -0.34568 0.56881 0.49124 0.093642 0.62084 -0.13418 0.095822 0.41165 0.55061 -0.043904 -0.37366 0.065094 -0.10523 0.051829 0.21341 0.081939 -0.041992 -0.45765 -0.24094 -0.24543 -0.031161 0.25347 -0.25186 0.12207 -0.14944 -0.14845 0.18272 -0.06472 0.34066 0.10574 -0.029513 0.14003 0.2456 0.28086 -0.0066687 -0.28945 -0.33361 -0.0079566 0.15001 -0.098701 -0.076413 0.04629 -0.2402 -0.15621 0.39486 0.11152 0.033402 0.073615 0.033239 0.45708 -0.28528 0.10899 0.10781 0.155 0.14376 -0.15248 0.036011 -0.12598 -0.18976 -0.17401 0.40901 -0.34056 0.13021 0.15979 0.27789 -0.052761 -0.11301 -0.072389 0.47206 -0.40861 -0.1695 -0.41351 0.087301 -0.31607 0.0015452 -0.045697 0.10592 0.21612 0.056229 -0.16654 -0.19129 0.57257 -0.56006 -0.42582 0.036123 -0.006328 -0.017845 0.34122 -0.28939 0.39251 -0.36563 0.052757 0.01298 -0.17692 0.14165 -0.15166 0.25873 -0.025763 -0.30361 -0.029512 -0.2379 -0.23176 -0.13495 -0.13109 -0.37097 0.0071433 -0.11858 -0.016345 0.4868 0.48142 0.060927 0.19091 -0.3523 0.29551 0.11702 0.081366 -0.44226 -0.21975 0.10696 -0.22285 -0.69467 -0.35706 0.23302 0.243 0.056838 -0.13123 -0.15353 -0.037429 -0.29953 0.043178 -0.0053901 -0.27254 -0.57117 0.61005 0.57287 0.052999 -0.19658 -0.47786 -0.12146 -0.13145 -0.45266 0.28513 0.41397 -0.48704 0.047329 0.086325 0.090135 -0.171 -0.24932 -0.15514 0.40005 -0.64953 -0.10872 -0.15714 -0.041785 -0.054196 -0.082912 0.062811 -0.25655 -0.065896 0.55802 0.34735 0.20906 0.18528 0.23816 0.33088 0.65491 -0.097563 -0.19298 -0.33527 0.25047 0.41307 -0.12156 -0.080473 -0.14678 -0.22908 0.30601 -0.38525 0.0078579 0.24562 0.76976 0.25589 -0.12771 -0.43953 -0.16777 0.42607 0.31486 -0.095156 0.14919 -0.51945 -0.40106 0.24612 -0.2622 0.26752 0.046195 -0.35812 -0.12432 -0.33729 -0.31257 
athens 0.13186 -0.37576 -0.12855 -0.17887 -0.29809 0.14224 0.010406 0.0012394 0.098858 0.072034 0.15316 -0.3174 0.45394 0.3295 -0.12509 -0.35686 -0.11765 0.18422 0.14067 0.1197 -0.37353 0.46916 -0.62225 0.0032934 0.10974 -0.48971 0.18145 -0.085159 0.060837 0.14239 -0.26595 0.22004 -0.33578 0.62649 0.050997 -0.33561 0.11335 -0.73342 0.21798 -0.54669 0.41808 0.14315 0.082827 -0.13775 0.15707 0.09366 0.28461 -0.038663 -0.20115 -0.096202 0.29799 0.44886 -0.4265 0.21207 -0.23141 -0.1814 0.49637 0.077752 -0.0993 -0.021752 0.054738 0.021671 0.35031 -0.17116 0.10751 -0.3255 -0.01614 0.029101 -0.21596 -0.11271 -0.061472 0.16679 -0.20329 0.55346 -0.12828 0.040481 0.41224 0.28243 -0.098206 -0.28329 -0.22855 0.29906 -0.041919 -0.11643 -0.78877 0.032479 -0.095923 -0.070097 0.11872 -0.16565 0.23219 -0.38012 0.060801 -0.081107 -0.26598 0.25715 -0.10291 -0.36521 -0.22748 -0.056073 -0.1681 0.21248 0.17315 0.39753 0.046645 -0.092037 -0.4424 0.22368 0.48422 0.53065 -0.54631 -0.07981 0.32387 -0.013005 0.15875 -0.011333 0.26853 0.33173 -0.061372 -0.23525 -0.12323 0.19595 0.14315 0.17185 0.2252 -0.24165 0.34525 -0.067537 0.47526 -0.063989 -0.0055022 0.072333 0.28349 0.18107 0.21983 0.36034 -0.35926 -0.1937 -0.19523 0.31708 -0.39255 -0.40997 0.051411 0.28775 -0.31481 0.19433 0.09287 0.062326 0.13631 0.28968 -0.0027497 -0.25102 0.27804 0.21624 -0.091882 0.015407 0.077642 -0.10783 -0.14419 0.063289 0.054666 0.26509 -0.18248 0.2001 0.23132 0.22401 -0.15804 -0.025978 0.36269 -0.30674 -0.22719 -0.060655 -0.56217 0.23749 0.32002 0.25291 0.10107 0.16201 0.032118 0.050732 -0.20674 -0.070967 0.095971 -0.27479 -0.18917 0.015197 -0.41262 0.13279 -0.27599 -0.61876 -0.19782 -0.62704 0.050368 0.17457 0.11252 -0.24611 -0.004089 0.2428 0.001536 -0.056946 0.41878 -0.034189 0.084937 -0.25269 -0.010135 -0.1118 -0.12042 0.26765 0.49587 0.21444 0.41533 -0.0040876 0.07797 -0.1397 0.22139 -0.31173 0.049418 -0.69346 -0.39777 0.014595 -0.28035 0.036889 -0.42101 0.21542 0.27314 -0.075758 -0.13942 -0.34473 0.2684 -0.50108 0.16213 0.20423 -0.27889 -0.024548 0.10551 -0.13769 -0.29372 -0.064077 -0.69416 0.36139 0.02608 -0.3569 0.35918 -0.18546 -0.27287 -0.46338 -0.12729 0.24175 -0.063545 -0.34905 0.40965 -0.078775 0.16049 -0.28422 -0.60251 -0.0082328 -0.33263 -0.11291 0.16676 0.18253 -0.10178 -0.18588 0.47033 -0.063792 -0.28485 0.18435 0.30891 0.4262 -0.3415 0.27728 0.025356 0.071536 -0.045036 -0.67734 -0.73995 -0.11815 -0.096741 -0.040364 -0.14725 0.5718 -0.095774 0.027764 -0.3613 -0.21568 -0.13761 0.073232 -0.021408 0.67325 0.081967 0.3206 -0.69781 -0.26578 0.47899 -0.17246 0.033623 0.11246 -0.033782 -0.45138 0.34607 -0.25888 
city 0.087039 -0.22126 0.28234 0.054348 -0.33725 -0.23217 -0.23832 -0.15317 -0.24853 0.071464 0.28981 -0.048546 0.32702 -0.18319 -0.23705 -0.41334 -0.09113 -0.25103 0.098358 0.17095 -0.42538 0.17143 -0.44089 -0.1068 -0.041345 0.042902 0.21679 -0.12305 0.12069 -0.047681 -0.30252 0.021729 -0.27625 0.29796 0.0073816 0.28204 0.31925 -0.39228 0.096429 0.0076577 0.27343 -0.18826 -0.034877 0.095364 -0.026853 -0.21096 0.029485 0.0088177 0.39348 -0.072242 -0.09159 0.10429 0.052902 0.20582 -0.28677 0.20779 -0.21244 0.19957 0.050192 0.18384 0.065457 -0.23552 0.2445 -0.067218 -0.63772 0.1123 -0.3324 0.21542 -0.043091 0.050515 -0.13988 0.028778 -0.20052 -0.036303 -0.24687 -0.026459 0.24393 -0.012006 -0.044602 -0.016885 -0.14971 0.42647 -0.12573 0.2165 0.11103 0.016948 -0.04254 0.42238 0.086137 -0.19831 -0.21735 -0.26888 0.052746 -0.32813 -0.21916 0.099052 0.45249 0.26624 -0.19653 -0.070015 -0.012725 -0.048062 0.38612 0.21361 -0.36272 0.029174 -0.19166 -0.12788 0.028222 0.0029761 -0.19422 -0.073646 -0.071933 0.00037561 0.28428 -0.075453 0.39202 0.040179 -0.17859 -0.13042 0.28748 0.19408 0.065044 0.10898 -0.017584 -0.24729 0.11249 0.36858 0.42476 0.039413 -0.19387 0.092955 0.33221 -0.040804 0.17679 -0.075991 -0.29158 -0.16674 -0.30978 0.51588 -0.13837 0.10578 -0.1705 0.29702 0.10208 0.021487 0.39597 -0.20738 0.11885 0.14036 -0.26878 0.11276 0.26097 -0.1367 -0.17457 -0.35302 0.1944 -0.33162 0.1111 -0.28698 0.26651 0.15518 -0.28848 0.058488 0.54685 -0.16525 -0.17709 0.075158 0.29611 -0.052126 -0.13626 -0.080856 -0.0323 -0.19967 0.0099639 0.26753 0.3491 0.30588 -0.056316 0.0077574 -0.015425 0.13701 -0.19517 -0.023038 -0.098878 0.49143 -0.18565 -0.078946 -0.066182 0.079071 0.38102 -0.30666 0.041953 0.22241 -0.35354 0.3075 -0.14307 0.31387 -0.38921 0.21626 -0.064738 0.07339 0.27288 -0.056804 -0.032128 -0.18171 -0.19605 0.29868 0.51498 0.042395 0.43507 -0.19045 -0.087023 -0.25501 0.24237 0.13372 0.055195 -0.13025 0.048899 -0.27705 0.35087 0.025157 -0.33885 0.32488 0.00096826 0.34527 0.16839 0.018715 0.18807 0.33857 0.27822 0.15902 0.044614 -0.085678 0.0036586 -0.24343 0.081168 0.23428 0.12354 0.064363 -0.11927 -0.15201 -0.096878 0.060935 0.081331 -0.17914 -0.18899 -0.08665 -0.40483 -0.15304 -0.20072 0.11673 0.087306 0.11459 -0.086415 0.010224 0.10924 -0.26279 -0.030487 0.2306 -0.19886 -0.088406 0.12303 -0.22086 -0.14721 0.16294 -0.04327 0.13004 -0.11265 0.19418 -0.051634 -0.253 0.040893 -0.15873 -0.094636 -0.26405 0.37253 0.32703 0.1415 0.36585 0.028832 0.12231 -0.3688 0.35437 -0.1855 -0.040041 0.14815 -0.073076 -0.18536 0.050574 0.039987 -0.19084 -0.32733 0.050801 -0.1913 0.09939 -0.25915 0.11432 -0.044132 -0.068647 
alexandria 0.17686 -0.76236 -0.16836 0.14255 -0.3069 0.27949 0.069102 -0.50055 0.15567 0.2697 0.073587 -0.49402 -0.20998 0.19636 0.063481 -0.17129 -0.18666 -0.17464 0.1326 0.40653 -0.46629 0.57193 -0.34092 0.19895 -0.32826 -0.17805 -0.21707 -0.068235 -0.064717 0.38668 -0.021719 0.20462 -0.82987 0.00090738 0.3809 -0.33999 0.23282 -0.69299 -0.0077217 -0.026065 0.46677 -0.065267 -0.25256 -0.16474 0.086509 -0.3779 0.084919 -0.087353 0.2159 -0.14913 0.0287 0.028478 -0.062909 0.35953 -0.35975 -0.24169 0.18286 0.059943 -0.16801 0.38557 0.1855 0.16772 0.34097 -0.21343 -0.49954 -0.32158 0.048947 0.12329 -0.086457 -0.29341 -0.073723 -0.093072 -0.34009 0.0104 -0.33895 -0.071421 0.094979 0.36419 0.039233 -0.098394 -0.0081699 0.32736 0.024235 -0.22319 -0.60674 0.14401 0.2911 0.18203 0.082025 0.15795 0.14744 -0.1789 0.37663 0.097388 -0.17198 0.05442 -0.43704 -0.37901 -0.2682 0.17851 -0.030245 -0.12264 0.27134 0.24872 0.031846 0.039713 0.15399 0.055415 -0.15973 0.36523 -0.027106 0.071659 0.23394 -0.067618 -0.10383 -0.058553 0.31805 0.18643 -0.3078 0.40911 0.1261 0.10629 0.3892 0.10741 -0.064846 -0.14786 0.38403 0.24383 0.040189 -0.11148 -0.22584 0.024444 -0.28547 0.084986 0.36291 -0.012799 -0.00099862 -0.055867 -0.23105 0.3533 -0.11721 -0.25125 0.055483 -0.1299 -0.3954 0.62096 -0.097029 0.35364 -0.00119 0.15535 -0.10126 -0.54808 -0.23432 0.39788 0.21173 -0.31343 0.24004 0.22301 0.34632 -0.11758 0.22201 -0.061098 0.26932 0.37754 -0.13519 0.25264 0.022849 -0.42479 0.15622 -0.13267 -0.10416 0.017312 -0.38512 -0.43797 0.3083 -0.088551 -0.057341 0.13873 -0.034808 -0.31029 -0.60831 0.1136 -0.21784 -0.22625 0.0066541 0.27171 0.0041479 -0.42636 0.11719 -0.36416 0.40326 -0.7117 -0.22465 -0.17357 -0.28605 -0.15717 -0.13464 0.10199 -0.42604 -0.1654 0.30788 0.15674 -0.58041 -0.26554 -0.21245 -0.44269 -0.41699 0.29768 0.53257 0.35437 0.3829 -0.1799 0.34017 -0.07632 0.073552 0.20158 -0.039915 -0.022694 -0.062579 -0.30335 0.25965 -0.21959 -0.33239 0.013499 0.39584 0.071275 0.083986 -0.20541 -0.036376 -0.20209 0.58965 -0.063574 0.14328 -0.20174 0.14874 0.1089 -0.21926 0.046895 -0.70236 -0.14621 -0.18396 -0.46008 0.28499 -0.010051 -0.44132 -0.15051 -0.39447 0.082287 -0.04237 -0.025135 0.17605 0.21053 0.068608 -0.1938 -0.1372 -0.1225 0.26797 -0.30507 0.39066 -0.24748 -0.26382 -0.030179 0.48467 -0.17346 -0.13144 0.23316 0.29429 0.27293 -0.39537 0.0065188 -0.24414 -0.47781 0.049998 -0.17318 -0.39284 0.21329 0.20234 -0.20075 -0.48854 0.27408 -0.1441 0.098015 -0.21609 0.11249 -0.025246 -0.2943 -0.56863 0.20866 0.11061 0.21997 -0.16351 -0.26985 0.29743 0.080758 0.080024 -0.016452 0.11185 -0.52116 0.27128 -0.071077 
bce -0.2075 -0.049524 -0.4324 0.36412 -0.18834 0.65579 -0.18683 -0.68859 0.14689 0.23339 0.22703 -0.10554 0.057129 0.2584 -0.35188 0.084017 -0.056628 0.43851 -0.0021721 0.20095 -0.069304 0.15579 -0.25388 -0.083021 -0.16705 0.35366 0.16292 -0.90808 -0.30522 0.34392 0.093864 0.53366 -0.20365 0.66917 0.29109 0.0011028 0.78077 -0.084006 -0.3389 0.17166 0.14548 -0.30806 -0.047352 -0.12111 0.40979 0.0062033 0.15322 0.23877 0.091865 0.052792 -0.091098 0.066537 -0.29969 0.051123 -0.31891 0.089689 -0.18892 0.53227 -0.016211 0.3784 0.1487 0.2693 0.0036118 0.12766 0.20824 -0.52261 -0.40179 0.015884 -0.86792 -0.029303 0.042796 0.033636 0.078568 0.14412 0.44288 -0.65443 -0.053621 0.36672 -0.55749 -0.11549 0.10391 0.072678 0.19789 -0.31498 -0.42022 0.47046 -0.094704 0.17676 0.32877 0.047887 0.035219 -0.29477 0.59627 -0.11193 0.48769 -0.20544 0.078792 -0.035937 0.078189 -0.30518 0.10741 -0.070617 0.030657 0.48096 0.66524 0.36417 0.30637 0.014951 -0.16795 0.38541 -0.24973 -0.21526 -0.14009 0.37446 -0.15897 -0.3425 0.19515 0.49802 -0.12229 -0.11056 0.049774 0.73105 0.090101 0.23792 0.0065226 -0.045585 -0.20756 0.14505 0.1575 0.15092 -0.13502 0.28758 0.086175 0.078687 0.72919 0.40253 -0.19761 0.067768 0.14758 0.10491 -0.33914 0.10542 0.40002 0.30091 0.073434 0.51546 -0.043661 0.152 -0.11294 0.54613 0.13353 -0.40124 -0.28306 0.054062 -0.037204 0.052612 0.40028 0.37691 0.198 -0.51485 0.77387 0.10281 0.14804 0.01868 0.71207 0.19157 0.44026 -0.33477 0.54928 0.19337 -0.55708 -0.41218 -0.38733 0.1077 -0.055943 -0.21378 -0.099778 0.16225 0.32069 -0.48219 0.049114 -0.18793 0.33402 -1.1794 -0.02557 0.28349 -0.13227 -0.23 0.49095 -0.19249 0.19511 -0.77389 0.11791 -0.18529 -0.27329 0.0986 0.098824 -0.24089 -0.27706 0.37354 -0.011282 -0.23045 0.14374 -0.16244 0.13301 -0.41147 0.1319 0.26203 0.41685 0.5054 0.27328 0.16717 0.16561 0.1088 0.52296 -0.29127 0.52013 -0.28725 -0.84211 0.15822 0.092729 -0.85562 0.26309 0.0025706 0.14363 0.10071 0.041015 0.10985 0.28915 -0.20011 0.27805 -0.30413 -0.19852 0.18715 0.16945 0.19292 0.247 0.021259 -0.057689 0.055665 -0.03651 -0.56575 0.064833 -0.55807 -0.11047 -0.48619 -0.26818 0.23002 -0.27386 -0.40316 -0.043966 0.22821 -0.0008128 0.17664 0.090412 -0.48047 -0.4676 -0.35466 0.46524 -0.056245 -0.45243 0.50214 0.55165 -0.092679 -0.25541 -0.45521 0.45346 0.60319 -0.34081 0.35351 0.034132 0.56064 0.25003 -0.23124 0.28264 0.23469 0.016791 0.028313 0.47204 -0.49675 0.080305 0.537 0.34375 -0.42179 -0.16184 -0.45796 0.025066 0.24296 0.43295 0.4841 -0.29331 0.041537 0.0048996 -0.24623 -0.05979 0.10918 -0.56455 -0.11255 -0.045197 0.46587 
cradle -0.49164 -0.14038 0.031727 0.27705 -0.16416 0.35662 0.0055958 0.012314 -0.27957 0.033694 0.04059 -0.039372 0.1509 0.11376 0.01471 -0.15358 -0.1015 -0.06472 -0.19866 0.26866 0.099945 0.38745 -0.20464 -0.31104 -0.21468 -0.049146 -0.25841 0.083897 -0.11666 0.47359 0.21507 0.064878 -0.22931 0.10952 0.04594 0.054805 0.34438 -0.12062 0.43007 -0.032429 0.20493 0.038881 -0.20142 0.17085 0.2232 0.40554 -0.76445 0.00031106 0.29601 -0.46248 0.23379 -0.0040673 0.040583 0.45421 0.3594 0.0022293 0.15281 -0.22371 0.42121 0.51906 0.28458 -0.10192 -0.21443 -0.20441 -0.22735 0.039786 -0.0064865 -0.12111 0.18036 0.33828 0.008727 -0.20483 -0.01452 -0.022349 -0.20214 0.026935 0.24039 -0.2759 -0.4217 -0.052651 -0.016809 -0.30815 -0.31851 0.13543 -0.33856 0.1187 -0.24485 0.24084 0.037673 0.17451 -0.11937 -0.018566 0.053307 -0.30025 0.072482 0.16323 -0.053171 -0.011147 -0.21771 -0.061382 -0.081891 0.13158 -0.057734 0.028394 0.14399 -0.056463 -0.26988 0.2042 0.1088 -0.17606 0.18813 -0.20069 -0.29318 0.13564 -0.45211 -0.21068 -0.034757 -0.057831 0.080784 0.050983 0.21454 -0.17029 -0.24813 -0.27434 0.2056 0.068158 0.4093 0.018063 0.33455 0.12689 -0.36652 0.33531 0.14405 0.18774 0.23308 -0.0067102 -0.071191 -0.059943 0.19673 0.0029516 0.12238 0.29349 0.18172 0.029421 -0.05625 0.35032 -0.078144 -0.41247 0.041168 0.0014546 -0.055653 0.082391 0.077964 -0.11974 -0.18186 -0.12632 -0.10208 -0.029589 0.14309 -0.53618 0.15365 0.46346 0.065562 0.076353 0.028755 0.1145 0.1275 0.0054195 -0.17202 -0.15631 -0.057697 -0.51588 -0.012572 -0.23794 -0.53305 0.20794 0.32122 0.068289 0.33497 -0.5902 -0.032611 -0.10421 0.42814 -0.32611 0.12922 0.088248 0.33413 -0.34387 0.3396 0.28506 0.21427 -0.11218 0.36278 0.15498 -0.42114 -0.17276 -0.26633 -0.056458 -0.49678 -0.04548 -0.33337 0.20376 0.07604 0.33609 -0.22682 -0.34393 -0.32762 -0.1825 0.30924 0.16282 0.77884 0.00095686 0.043347 0.058165 0.65208 -0.079316 0.16287 -0.49117 0.020574 0.21768 -0.12559 -0.23166 -0.61472 0.21007 -0.18242 -0.072804 -0.35288 -0.01213 0.16498 -0.48354 -0.081895 0.037319 0.10882 -0.29248 -0.19706 0.11907 0.00232 0.16391 -0.13928 -0.056011 -0.22052 0.2611 0.21243 0.0085251 0.0024243 -0.14926 0.012975 -0.20909 0.047506 0.12081 0.10763 -0.028996 0.34821 -0.16184 -0.43763 0.32935 -0.37731 0.22317 0.27245 -0.064474 -0.18522 -0.011582 0.13867 0.15433 -0.35734 -0.013738 -0.5029 -0.18456 0.29778 0.3331 -0.19975 -0.57117 0.37309 0.35004 -0.0066361 -0.21439 0.18063 -0.015846 0.02505 0.17342 0.22245 0.30648 -0.1585 -0.10153 0.013374 0.016929 -0.068967 -0.30605 -0.16629 0.60475 -0.23076 0.22711 -0.10164 0.3 -0.13738 -0.15212 -0.15301 0.32625 -0.066537 0.058415 
ancient 0.024559 0.071077 -0.12051 0.5584 -0.34788 0.92414 -0.30158 -0.030992 -0.088241 0.30876 0.37553 -0.16159 -0.0022555 -0.16314 -0.046945 -0.34761 0.18341 0.24874 0.075081 -0.16549 -0.33101 0.12484 -0.17062 -0.22577 -0.12077 0.23571 0.17738 -0.10974 -0.27224 -0.068713 0.039135 0.2447 -0.52943 0.6208 -0.0041347 -0.17914 0.46239 -0.2558 -0.057382 0.035613 0.39858 -0.028539 0.20365 0.035157 -0.1387 -0.21467 -0.11955 -0.24613 0.097757 -0.029508 -0.18843 0.11033 -0.26372 -0.10286 0.029663 0.095032 -0.030407 0.14044 -0.081103 0.37432 0.1925 0.22278 0.34824 0.24008 0.32683 -0.41941 -0.18728 0.029761 -0.2339 -0.077371 0.012969 0.23247 0.22702 0.0063837 0.047284 -0.35554 0.11676 0.3099 -0.19595 -0.14108 0.12213 0.10383 0.070625 0.1722 -0.44744 0.31809 -0.0069394 -0.006982 -0.020775 0.063222 -0.049946 0.07597 0.05335 -0.39646 0.20398 -0.14964 0.45714 -0.0032574 0.090759 -0.19532 0.20152 0.0090039 0.25004 0.434 0.27271 0.10416 -0.25978 0.041065 -0.0022558 0.1138 -0.10222 0.020997 -0.11146 -0.24243 -0.17384 -0.2959 0.32527 0.26216 -0.080804 0.015833 0.2993 0.44955 0.21712 0.016756 -0.080717 0.089931 0.08705 -0.10426 0.033713 0.24544 -0.29223 -0.30251 0.17621 0.01468 0.25239 0.083366 -0.018105 -0.30458 0.095999 -0.011184 -0.18892 -0.075122 0.50224 0.066787 0.024854 0.50032 -0.19604 0.0061594 -0.29647 0.093641 0.30076 -0.22537 0.10965 -0.078455 -0.45064 -0.28653 0.025134 0.19161 0.21296 -0.29463 0.075838 0.26682 -0.2173 -0.44978 0.34999 -0.25375 -0.11857 -0.0020977 0.44425 0.14004 -0.02464 -0.32786 -0.080403 -0.076703 -0.23509 0.2369 0.10014 0.2555 0.071866 0.17368 0.092751 0.29039 0.16013 -0.29792 0.10812 0.127 0.015106 -0.34698 0.087252 -0.27077 0.29134 -0.57784 0.13586 -0.081854 -0.40109 0.13645 -0.11436 -0.23461 -0.0205 0.12879 -0.17747 -0.17874 -0.052887 0.23764 -0.22109 -0.30362 -0.13053 0.074505 0.13308 0.11938 0.22967 -0.10875 0.16671 -0.0035597 0.34364 -0.048132 -0.19599 -0.15036 -0.43081 0.10278 0.093291 -0.42419 -0.5562 0.29781 -0.2569 0.040325 0.27439 0.23645 0.23909 -0.058226 0.26327 -0.29192 -0.31829 0.12294 0.20481 0.26694 0.17036 -0.0091109 -0.13438 0.25891 0.0066431 -0.16996 -0.15382 -0.22621 0.03751 0.074833 -0.32043 0.09853 0.065803 -0.062383 0.4368 0.12146 0.20276 0.11456 -0.33215 0.10641 -0.39251 0.070858 0.64227 -0.21447 0.033385 0.055522 -0.1155 0.034419 -0.25919 -0.51659 0.23059 0.2578 -0.43613 0.32003 -0.12713 -0.21499 0.24457 -0.34026 0.18026 0.044321 -0.24975 0.27034 0.029922 0.38003 0.20641 0.16827 0.17944 -0.12871 -0.052797 -0.15781 0.11722 0.11899 0.14317 0.46895 -0.53085 -0.083717 0.0078302 0.063382 -0.026355 0.076251 -0.14843 0.15705 -0.0066507 0.52589 
greece -0.29095 -0.20288 -0.081345 0.30801 -0.40705 0.2079 -0.056221 -0.22294 -0.019032 0.23263 -0.12298 -0.20938 0.34983 0.17544 -0.18287 -0.43506 -0.041613 0.14901 0.41033 -0.24079 -0.49873 0.35942 -0.44276 0.28171 -0.34269 -0.30251 0.054231 -0.40064 0.080921 0.037031 -0.083 0.25107 -0.53216 0.31918 0.13253 -0.37329 -0.14749 -0.44011 0.4897 -0.37361 -0.18053 0.10828 0.013689 0.092598 -0.16541 -0.010937 0.12179 -0.12803 -0.012707 -0.062918 0.18113 0.0072971 -0.23929 0.23401 -0.22595 -0.18651 0.32739 -0.095604 -0.074099 0.40339 -0.18014 -0.061464 0.66003 -0.25833 0.057584 -0.41742 -0.20556 -0.11863 -0.27373 -0.37431 0.31034 0.2701 -0.057655 0.47229 0.14403 0.21477 0.40423 0.56735 -0.22326 -0.018457 -0.28597 0.11779 -0.1698 -0.10778 -0.39354 0.014421 -0.22073 0.076913 0.030105 -0.063927 0.1229 -0.56987 -0.1249 0.022148 0.095373 0.066567 -0.33037 0.04071 -0.22845 -0.15025 0.052909 -0.091659 0.12304 0.022153 -0.12916 -0.16093 -0.29456 0.3238 0.33896 0.49865 -0.13238 -0.13927 0.28459 0.14048 0.035042 0.15118 0.039873 0.12109 0.12188 -0.27181 0.12189 0.31986 0.15064 0.037222 0.30095 -0.28792 0.5576 -0.22649 -0.03432 0.061797 -0.00012629 0.079469 0.28572 -0.13117 0.18272 -0.082748 -0.20262 0.1321 0.21754 0.3054 -0.044504 -0.22941 0.20464 0.28199 -0.42608 0.70621 0.2878 -0.030903 0.10998 0.27233 0.29994 -0.20046 0.059258 0.15725 -0.31411 -0.079372 0.20293 -0.18712 0.19869 -0.19482 0.1579 0.26149 0.00016185 0.066372 0.25525 0.061108 0.011166 -0.23229 0.27211 0.10955 -0.063404 -0.033176 -0.098372 0.37541 0.24264 -0.16336 0.31938 0.13256 -0.16694 0.45477 -0.17834 -0.48174 0.00716 -0.12634 0.083333 -0.35939 -0.17913 -0.5114 -0.047433 -0.62299 -0.34793 -0.54169 0.030526 0.24105 0.067384 -0.16356 0.094386 0.13513 -0.18115 -0.028262 0.31387 -0.22196 0.5889 0.027108 0.13883 -0.1281 -0.10919 -0.043394 0.24164 0.41398 0.21859 0.13491 -0.028141 -0.015907 0.33345 -0.18909 0.36147 -0.71553 -0.33921 0.22109 0.17528 -0.2428 -0.35201 0.22262 0.37446 -0.097717 -0.30034 -0.36493 0.34811 -0.61586 0.018977 -0.00022702 -0.11425 0.020355 0.20418 0.16412 -0.49126 0.035886 -0.47242 0.23485 0.18555 -0.076874 0.34578 -0.15381 -0.21638 -0.1001 -0.037327 0.27232 -0.05411 -0.15092 0.11098 -0.078099 -0.015157 -0.12972 -0.29277 -0.062942 -0.39215 -0.014482 0.4842 0.19305 0.10755 -0.28409 0.4224 -0.47756 -0.36358 0.12333 0.44051 0.27893 -0.41798 0.28972 -0.062524 0.030121 0.073101 -0.78468 -0.24991 -0.14212 -0.23564 0.35459 -0.024605 0.59463 0.026476 0.00024328 0.13489 -0.10812 -0.34106 -0.097879 -0.21798 0.27475 -0.043035 0.45977 -0.60991 -0.1511 0.31576 -0.026325 0.34557 -0.11442 -0.20135 -0.4333 0.1447 0.23747 
rome 0.19442 -0.24911 -0.26938 -0.11867 -0.4707 0.23359 0.17574 0.22614 -0.29807 0.32761 0.3001 -0.1306 0.12557 0.014626 0.10806 -0.35917 -0.011112 0.2606 0.31528 0.23242 -0.2446 0.63753 -0.59869 -0.049033 -0.052985 0.050645 -0.12604 -0.23311 0.21704 -0.10374 -0.17278 0.23054 -0.37512 0.1935 -0.14277 -0.34685 0.019913 -0.5821 0.11574 -0.2463 0.25631 0.020622 0.028892 -0.41613 -0.0069881 -0.36871 0.020451 -0.23738 -0.19602 -0.12815 0.23969 0.0959 -0.13907 -0.0017528 -0.33233 -0.10548 0.13865 -0.064641 -0.36066 0.022961 -0.12867 0.030065 0.1564 -0.12858 -0.050949 -0.24336 -0.031343 0.37511 -0.51228 0.028456 -0.052045 -0.092043 -0.1891 0.06689 -0.067031 0.28669 0.015234 0.46846 -0.19469 -0.39434 -0.41918 0.48228 0.35542 0.089466 -0.51841 -0.083713 0.18524 0.39962 0.16782 -0.16565 -0.092368 -0.70872 0.31903 -0.09511 -0.086334 -0.02276 0.0016352 -0.088429 -0.15585 -0.3031 0.17802 -0.18222 0.28733 0.25613 0.24381 -0.0073827 -0.10379 -0.13544 -0.25906 0.24412 -0.054848 0.01161 0.35282 -0.021756 0.21315 -0.091637 -0.29633 0.35258 0.028917 -0.10351 -0.09505 0.26396 0.42418 -0.091977 -0.20195 0.020757 0.21014 0.29116 0.2474 -0.14548 0.10427 -0.22951 -7.718e-05 -0.2236 -0.12046 0.23452 -0.32007 -0.10091 -0.11109 0.45229 -0.087655 -0.093293 -0.061814 0.11572 0.065992 0.35531 -0.23257 -0.047696 -0.46844 0.49242 0.021462 -0.25731 0.47863 0.10194 0.11719 -0.05189 0.14112 -0.051239 0.12777 0.016591 -0.083278 0.32137 -0.15823 -0.067069 0.11614 -0.064108 -0.047956 0.42092 0.5722 0.011578 -0.41002 -0.053386 -0.16192 0.0062045 0.21225 0.32021 -0.14184 0.057743 0.14191 -0.1885 0.1801 -0.44168 0.09277 -0.24297 -0.16951 -0.031243 -0.089984 -0.051146 -0.018811 -0.28807 -0.067654 -0.91054 0.12575 0.18972 -0.4988 -0.24846 -0.12581 -0.10834 -0.091345 0.27376 0.33733 0.30474 -0.078503 -0.1351 -0.099406 -0.55764 -0.13636 -0.35033 0.32859 -0.11867 0.555 -0.24336 0.059625 0.20565 -0.046047 0.019945 -0.36596 -0.40578 -0.17104 -0.30352 0.072301 -0.26376 -0.38431 -0.090321 0.19003 0.20512 -0.14711 -0.12388 -0.035305 -0.45091 0.43883 0.18136 -0.14554 0.22931 0.22335 -0.04962 0.23721 0.20929 -0.41505 -0.0465 0.049447 -0.54202 -0.13692 0.19473 -0.33752 0.012149 -0.22891 0.07515 0.043001 -0.08942 0.24958 0.47738 0.020088 -0.13259 -0.33046 0.051844 -0.25754 -0.14328 0.22711 0.20196 -0.044893 -0.2187 0.65481 0.14473 -0.12683 -0.016605 0.044344 0.12682 -0.060103 0.13696 -0.085027 -0.1423 -0.37151 -0.39836 -0.096992 -0.1082 0.091131 -0.026229 -0.07031 0.14402 -0.15015 -0.12427 0.10876 0.21503 0.22957 -0.33118 -0.26574 0.26347 0.2745 0.2408 -0.19204 -0.14152 0.1384 0.13752 0.34184 -0.12551 -0.083238 0.20294 0.1669 0.19357 
ce -0.24994 -0.042296 -0.20586 0.059219 -0.23514 0.23363 -0.16062 -1.02 -0.17691 0.3228 0.37253 -0.29348 -0.46493 0.2967 -0.18846 -0.4689 0.093328 0.36723 0.043294 0.28652 -0.42265 0.15841 -0.51359 -0.26455 -0.38081 0.2558 -0.041454 -0.6666 -0.25907 0.086839 0.03078 0.56055 0.12996 0.36394 -0.040184 -0.068 0.34627 0.15386 0.071213 0.16981 0.11682 -0.27542 0.22438 -0.12813 0.19944 0.095375 -0.19762 0.21004 0.16405 0.12072 -0.11607 -0.17786 0.057923 0.17931 -0.16141 -0.16552 -0.48773 0.087344 0.11281 0.26404 0.47025 0.10486 -0.37545 0.29283 -0.19451 -0.65861 -0.16732 -0.54838 -0.63212 -0.089936 -0.14448 -0.092881 0.49272 0.038441 0.032186 -0.48198 0.30501 -0.017967 -0.4674 0.076481 0.4222 0.29097 0.43481 0.30621 -0.15184 0.074327 -0.32814 0.17082 0.61293 0.10442 -0.44108 0.25442 0.45076 0.065192 0.69679 -0.073497 0.46434 -0.1863 -0.03809 -0.67522 -0.31882 -0.23042 0.19731 0.15311 0.48449 -0.025331 0.099352 -0.16635 -0.10664 0.47579 -0.19665 0.38686 -0.22121 0.25366 0.094965 -0.15595 -0.19863 0.30642 0.1506 -0.17067 0.27958 0.13129 0.24311 0.15781 0.45232 0.0763 -0.13081 0.4524 0.0077555 0.15785 -0.10911 0.17745 0.1134 0.13499 0.45075 0.71102 -0.032923 -0.027273 0.29769 -0.17585 -0.16797 0.045418 0.21741 0.072199 0.44423 0.45248 -0.094963 0.25167 0.037408 0.35973 0.043119 -0.63204 -0.03686 0.17211 0.021567 -0.045721 0.15221 0.45903 0.051339 -0.33973 0.23272 0.1168 0.13647 -0.33267 0.23127 0.012737 0.61592 -0.15571 0.57801 0.11758 -0.42784 -0.2538 -0.16981 -0.14533 0.088869 0.08512 -0.079868 0.187 0.21656 -0.62306 -0.19358 -0.39957 0.51725 -0.62988 -0.35418 0.71255 0.44446 -0.060675 0.45339 -0.039747 0.10367 -0.18898 -0.1397 0.082904 -0.23592 -0.107 -0.043537 0.12701 -0.28734 0.20232 0.15574 -0.063501 -0.14859 0.027496 0.61852 0.069504 0.18309 0.10592 0.074071 0.61403 0.60635 0.40814 0.33658 0.072452 -0.14121 -0.50173 -0.17176 -0.029336 -0.45826 -0.14465 0.019726 0.11769 0.20052 -0.25459 0.30834 0.056375 0.070297 0.21583 0.29005 0.3154 0.43258 -0.41064 0.071318 -0.11289 -0.13626 -0.26254 -0.13015 0.11698 -0.43279 0.12896 -0.12443 -0.85264 -0.46275 -0.55643 0.048462 -0.26822 -0.10862 0.42411 -0.36203 0.3181 0.11263 0.25516 -0.034311 -0.059528 -0.026456 -0.44181 -0.37977 -0.29335 0.25621 -0.424 0.071343 0.15109 0.3766 0.042885 -0.37774 -0.20602 -0.21735 -0.20478 -0.068023 -0.24382 -0.27117 0.4022 0.42846 -0.044246 -0.065037 -0.13595 0.2223 -0.34138 -0.012931 -0.47786 -0.63756 0.19752 0.32568 -0.18001 0.41696 -0.22716 -0.34351 -0.14435 -0.047603 0.42257 0.27232 -0.0011459 0.055707 -0.39052 -0.18246 -0.28336 0.074829 -0.16076 -0.024711 0.53412 
china 0.065689 0.22287 -0.02309 0.22571 -0.40829 0.20209 0.050627 -0.54193 -0.054341 -0.09417 -0.057204 -0.21701 0.27108 -0.24155 -0.018543 -0.50884 -0.18678 0.14881 0.51292 0.1878 0.078925 0.12566 -0.01446 -0.2411 0.032422 0.2193 0.34706 -0.025384 -0.016397 -0.072742 -0.39202 0.008891 -0.18731 0.64209 -0.28478 0.07943 0.12217 -0.17543 0.64795 0.044079 -0.59088 -0.32913 0.24741 0.20653 0.032872 0.065651 -0.2368 -0.12108 -0.099713 -0.21533 -0.099832 -0.35268 -0.24883 0.040914 -0.58888 0.23113 -0.012801 0.1191 -0.0037352 0.09232 0.15587 0.058884 0.065553 -0.20468 -0.1098 -0.23882 -0.41982 -0.17718 -0.18999 -0.24917 0.17113 -0.042666 0.11242 0.002326 -0.039174 0.39607 0.42808 0.38375 -0.040636 0.038882 0.17278 0.024396 0.071039 -0.35327 -0.25522 0.28006 -0.4134 0.31974 0.21418 0.081555 0.099518 -0.17782 0.33193 -0.089831 0.1979 -0.039672 -0.31444 0.36548 0.050678 -0.38358 0.26659 0.14465 -0.13481 0.017088 -0.31809 -0.062016 0.092426 0.090672 0.094626 -0.06493 0.11274 -0.437 0.42286 -0.15463 0.1281 0.10588 -0.029211 0.10983 0.17676 -0.32227 -0.1927 -0.24879 0.058913 -0.24949 0.25017 0.2131 0.00032097 0.20191 -0.10117 -0.22431 0.53247 -0.093048 0.057273 -0.33944 0.18812 0.077546 -0.29159 0.013194 0.13342 0.53074 -0.1023 -0.088414 0.19039 0.084093 0.15687 0.68464 0.2324 0.063781 0.21255 0.38941 0.17762 -0.1194 -0.22208 -0.048583 -0.11072 -0.1888 0.075657 -0.23007 -0.14707 0.10654 0.44101 0.27697 -0.28264 0.091994 0.42301 0.024214 0.21469 -0.0055963 0.61808 0.41366 0.011368 -0.32029 -0.2281 -0.18116 0.097602 -0.035473 -0.075761 0.057772 0.3849 0.29019 -0.1127 -0.090393 -0.028256 -0.1953 0.12803 0.28631 0.22777 -0.21673 0.10913 -0.040795 -0.24042 -0.38813 0.025639 0.28692 -0.23208 -0.075002 0.00028567 -0.39697 -0.33356 -0.13321 0.19995 -0.15291 -0.15821 0.19412 0.19912 -0.68404 -0.23277 -0.25741 0.50463 0.40732 0.49134 -0.30274 -0.076914 -0.14547 0.02739 -0.21169 0.49304 -0.35475 -0.27863 0.14678 -0.14472 0.028621 0.24485 0.054801 0.18777 -0.16305 -0.25178 -0.17049 -0.029888 -0.081241 -0.26285 -0.009525 -0.22575 0.1736 0.048085 -0.24964 -0.11551 -0.4198 -0.19372 0.10745 0.094914 0.034002 0.010725 -0.25379 -0.11028 0.10478 0.17535 0.2002 -0.34208 0.36609 0.20416 -0.19419 0.0029167 -0.017394 0.11237 0.32657 -0.14942 -0.21385 0.3707 0.18607 0.1567 -0.19436 0.16092 -0.37515 -0.40662 -0.35811 0.14714 0.16628 -0.11292 -0.25161 0.04737 -0.066223 0.045221 -0.28341 -0.10778 0.072683 0.2144 0.15809 0.39395 -0.22421 0.049194 -0.24625 -0.071613 0.10298 0.29312 0.21619 -0.14858 -0.20806 0.02984 0.4122 -0.44193 -0.20996 -0.21512 0.046574 -0.16249 -0.13412 -0.00039565 -0.12239 -0.22835 -0.17715 
confucius 0.084375 0.42356 -0.1349 -0.030927 0.11585 0.24456 0.013501 -0.51282 0.20688 0.33996 0.076553 -0.23377 -0.14243 -0.43747 -0.010024 -0.47532 -0.019248 0.62976 0.36208 -0.088669 0.33643 0.32433 -0.47773 -0.094551 0.256 0.44044 0.18317 -0.041512 -0.26087 -0.1829 -0.71592 0.24329 -0.27179 0.61205 -0.054678 -0.046986 0.36867 -0.25346 -0.13437 0.38518 -0.4838 -0.35239 0.46696 0.065082 0.43429 0.050922 -0.13275 -0.19154 -0.19731 -0.32031 0.053906 -0.24268 -0.33143 0.05722 -0.63868 0.39178 0.10367 0.11095 0.025049 0.32102 0.45495 -0.045789 -0.15321 0.030464 -0.094721 -0.20922 0.13002 0.08225 0.042378 0.25955 -0.15686 0.0093867 0.48949 -0.030393 0.015476 0.045919 0.58603 0.46093 0.32309 -0.080251 -0.12498 -0.087859 0.17291 -0.32693 -0.18721 0.16655 -0.19168 0.18727 0.0051387 -0.058323 0.35201 -0.30883 0.72354 -0.62982 0.34443 0.11372 -0.1607 -0.29691 0.30119 -0.31272 -0.0081213 0.050055 0.10724 0.096916 0.027087 0.44893 0.046412 0.01618 0.3601 0.050231 0.020642 -0.39723 0.2876 -0.17599 -0.10364 -0.20731 -0.18344 0.085576 -0.086821 -0.034284 0.021148 -0.2669 0.4315 0.048656 0.22633 -0.00805 -0.49555 0.25931 -0.16462 0.029239 0.09087 0.041712 0.31298 -0.21973 0.45678 0.63178 -0.34595 -0.42709 0.00010032 0.32925 0.17079 -0.061594 -0.026686 0.24894 0.26386 0.25727 0.014852 -0.28731 0.067477 0.56429 0.20345 0.0065724 0.36503 -0.035045 0.42828 0.1905 -0.23236 -0.028267 -0.20165 -0.33598 0.36796 0.097772 -0.17569 0.044327 0.48343 0.34044 0.30685 -0.13593 0.39101 0.29311 -0.22922 -0.62617 -0.31878 -0.046355 -0.19924 -0.038423 -0.43322 -0.15022 0.30947 0.0011092 -0.30145 0.10327 0.088627 -0.38474 -0.12958 0.34865 0.26857 -0.27305 0.10999 -0.18724 0.13912 -0.76456 0.088508 0.28328 -0.77911 0.079415 -0.14318 -0.30458 0.019439 -0.40753 0.26176 -0.28795 0.037947 0.20514 -0.10729 -0.80002 0.14912 0.29343 0.50567 0.33769 0.67795 0.16864 0.042024 -0.25255 0.062377 -0.18774 0.16747 -0.25242 -0.14831 0.16537 -0.17657 -0.44844 -0.59562 -0.19605 -0.11376 -0.11272 -0.31189 0.078807 0.053375 -0.010491 -0.044853 -0.26661 -0.26807 0.15497 0.51991 -0.032887 0.15767 -0.44654 -0.33198 0.06702 -0.054311 -0.43249 0.047647 0.25643 0.1473 -0.084093 0.17792 0.10681 0.10038 -0.20897 0.098245 0.010187 -0.23559 -0.096502 -0.050746 0.17529 -0.2873 0.038338 0.26427 -0.14305 -0.16431 0.10962 0.14948 0.13488 -0.21764 -0.074144 0.45423 0.47621 -0.12954 -0.016988 0.22015 0.30529 -0.0026763 0.34462 0.2977 -0.23097 -0.090658 -0.033174 0.14706 -0.26909 0.072425 0.36059 0.14729 0.016316 -0.59464 -0.032735 0.29995 0.066924 0.03352 0.26197 -0.19663 -0.44118 -0.30134 -0.10495 0.0012114 0.23296 -0.32099 -0.071314 -0.23125 -0.078829 
philosopher -0.21416 -0.10232 -0.091267 0.25333 -0.080257 0.063492 0.3194 -0.48117 0.062928 0.60357 0.070087 -0.073354 -0.15818 -0.51028 0.2561 -0.57377 0.0399 0.40104 -0.24865 0.50075 0.23791 0.52427 -0.56608 -0.059275 -0.36816 -0.022952 0.088018 0.15637 -0.00099804 -0.1316 0.04189 0.18772 -0.27208 0.047669 0.14151 -0.005788 -0.22897 -0.2713 0.55206 0.0050023 -0.051148 -0.24254 -0.119 -0.070711 0.526 0.19249 -0.22211 0.025218 -0.18833 -0.058705 0.3473 0.20295 0.028679 -0.11733 -0.17878 -0.84336 0.23758 0.21255 0.31745 0.36799 0.53856 -0.14265 -0.079817 0.58702 0.11276 -0.24605 0.32377 -0.025567 -0.4211 0.064443 -0.048101 -0.057744 -0.05753 0.24669 0.71004 -0.31064 0.20899 -0.02906 0.18967 -0.13266 -0.032947 0.20379 0.45811 -0.36381 -0.34951 0.14033 0.013023 -0.37382 0.30875 -0.33179 0.46561 -0.28722 0.53771 -0.37737 -0.11205 0.0081997 0.27533 0.048664 -0.27446 -0.43145 0.041061 -0.12148 0.32804 0.18342 0.15454 0.61222 0.11174 -0.55725 0.23284 0.19228 0.15024 0.080919 -0.43096 -0.21254 -0.057183 0.25423 -0.095427 -0.081132 -0.29441 0.26284 0.21137 0.11552 0.17648 0.02859 -0.094955 -0.15594 -0.042288 0.011313 -0.22005 0.17301 -0.0027893 -0.071005 0.033019 0.10003 0.25596 -0.26687 -0.13099 -0.31467 0.057954 0.31153 -0.068394 -0.16347 0.09157 -0.0098017 -0.17915 0.30368 -0.17571 -0.12499 0.17726 0.047085 0.58884 -0.33332 0.0012001 0.3369 -0.35833 0.51071 -0.43055 -0.059352 -0.01292 0.16522 -0.11668 0.22361 -0.27404 0.032136 0.23402 0.099804 0.30468 -0.3834 0.35551 0.20034 -0.47597 0.2059 -0.30952 0.088358 -0.11807 0.1905 0.049973 0.12472 -0.23586 0.38926 -0.0021998 0.40281 0.4345 -0.057571 -0.060649 0.62524 -0.04223 -0.18528 0.40852 -0.25793 0.62716 -0.89437 0.45821 0.40774 -0.18955 0.075144 -0.16013 -0.13664 -0.67434 -0.46219 -0.014316 -0.25793 0.065626 -0.13603 -0.033411 0.045704 0.1987 -0.038816 -0.089082 0.46844 0.71845 -0.15688 0.42137 -0.17806 0.2895 0.22413 0.024211 0.063727 -0.55409 -0.022126 -0.4265 -0.068395 -0.83106 0.28789 -0.010511 0.046162 -0.11296 0.18589 -0.022979 0.11636 -0.11613 -0.1947 0.030107 -0.20184 0.34022 0.37329 0.44798 0.10937 0.1288 0.043659 -0.17151 -0.19628 0.27605 -0.2872 -0.15203 0.071889 0.034118 0.061721 0.20529 -0.46602 -0.27766 0.072553 -0.48614 0.12682 0.3942 -0.1566 -0.053157 0.40156 0.39801 -0.22081 -0.60794 0.53846 0.53585 -0.072843 -0.071631 0.36291 0.4803 0.47557 0.10728 0.20435 -0.18657 -0.10893 -0.050056 0.42453 -0.014937 -0.029435 0.07284 0.15893 -0.058012 -0.031717 -0.057636 0.78284 -0.0077334 0.030845 -0.52812 0.13365 -0.088139 -0.12995 0.24646 0.014817 -0.13533 -0.16586 0.064367 -0.22509 -0.09814 -0.084364 0.025008 0.36861 -0.17791 0.40479 
outlook -0.00085999 0.30027 -0.28946 0.15191 -0.15616 0.036836 -0.20122 -0.22586 0.22428 0.14147 0.050903 0.31435 0.080836 -0.23478 0.40724 -0.41966 -0.21151 0.044329 0.59428 0.80484 0.18217 0.39057 -0.22573 -0.56419 0.093154 -0.20458 -0.041456 0.022626 0.052051 -0.39195 -0.5069 0.28564 -0.54449 0.54226 -0.13894 0.27614 -0.48119 0.16851 -0.138 -0.20345 0.096534 -0.33224 0.48633 -0.04976 0.13448 -0.064555 0.041277 0.091628 0.021733 -0.4815 0.282 0.32342 -0.021418 -0.34 -0.026171 -0.11369 -0.059585 0.035484 0.46649 0.10836 -0.056035 0.18311 -0.15042 -0.09116 -0.17347 -0.27048 -0.20933 0.019049 -0.35536 0.02745 0.050273 0.17314 0.047333 -0.060684 0.085946 0.12058 -0.027895 0.18032 0.13434 0.20781 -0.060203 -0.099645 0.34462 0.24068 -0.035766 0.22115 0.23452 0.21108 0.083877 0.20542 -0.37084 -0.10974 0.55623 0.15938 -0.063086 0.19721 -0.15644 0.23337 0.036129 -0.26828 0.10053 -0.19352 0.075321 -0.017527 -0.38556 0.1126 -0.22344 0.23416 0.18091 0.39333 -0.21527 0.10405 -0.33035 0.027143 -0.45093 0.14332 0.26407 -0.089473 -0.22364 0.18293 0.29263 -0.12504 -0.109 -0.077692 0.013628 -0.27277 -0.15452 0.036553 -0.2162 0.062992 0.082898 0.16423 -0.027127 -0.30058 0.11373 -0.15726 -0.14634 0.16616 0.0014083 0.24205 -0.26416 0.30161 -0.070028 0.19007 -0.13173 0.22283 -0.06839 -0.13618 0.072075 -0.12648 0.21784 -0.20282 0.014428 0.11595 0.3178 0.15516 -0.51562 -0.24343 -0.12715 0.20609 0.22354 0.16414 -0.098113 0.032968 0.12191 0.37505 0.18006 -0.24248 0.11003 0.23202 0.27289 0.054735 -0.2128 -0.075978 -0.21791 -0.0030932 0.12755 0.46268 0.14293 -0.13099 0.33171 0.20222 0.26204 0.35056 -0.035041 0.50179 -0.13504 0.0077163 0.11053 0.13622 0.16094 -0.012083 0.023778 0.49024 0.12998 -0.11559 0.32542 0.096908 -0.36626 -0.33964 0.34894 -0.14953 -0.044213 -0.11219 -0.10207 -0.18863 -0.064568 0.086566 -0.080289 -0.10497 0.62699 0.16897 0.40629 0.23312 -0.010488 -0.50861 0.35621 -0.17427 -0.089808 -0.051528 -0.012459 0.12408 -0.41896 -0.10249 -0.08417 0.20342 0.21564 -0.52632 -0.34762 -0.074258 -0.13049 0.14835 -0.19482 0.13585 -0.091062 0.38417 0.34123 0.12576 0.22598 0.12993 0.1305 0.31808 -0.045832 -0.2823 -0.14849 -0.11456 -0.071921 -0.26883 -0.10072 0.052158 0.26465 -0.1869 -0.12927 -0.12249 -0.061708 -0.070194 -0.2209 -0.11072 0.016205 0.30295 0.069567 0.15493 0.41281 0.27557 -0.36798 0.09931 -0.15303 -0.12413 0.066035 -0.030035 -0.23176 0.36266 0.24294 0.34476 -0.45072 0.18308 -0.069358 0.12519 -0.16985 0.034433 0.12156 -0.06522 0.38181 0.26366 -0.064316 -0.47487 -0.17338 0.2427 0.032128 -0.12909 0.10087 0.24459 -0.023389 0.096405 0.34265 0.049703 -0.14633 -0.29294 -0.021209 -0.21265 
japan 0.025987 0.14253 -0.074954 0.2707 -0.41885 0.16126 0.0061804 -0.30932 -0.31355 -0.20224 -0.17624 0.071275 0.35587 -0.47388 -0.024325 0.1072 0.26457 0.30506 0.4383 -0.029353 0.099412 0.098701 -0.39087 -0.40304 -0.40925 0.2206 0.14559 -0.17595 0.034707 0.18894 -0.36349 0.21805 -0.15866 0.41185 -0.5762 -0.15406 -0.057408 -0.1283 0.54523 0.22873 -0.42876 -0.30341 0.28595 0.22488 0.084152 -0.45425 -0.061355 -0.23592 -0.090345 0.034593 -0.11741 -0.33435 -0.089722 -0.053202 -0.25785 0.16197 0.26972 0.16134 0.020986 0.23434 -0.29359 0.18357 -0.067114 -0.29224 -0.18818 -0.072117 -0.56378 -0.17777 -0.059326 0.12038 -0.13772 -0.031085 0.24735 0.14116 -0.14264 0.54825 0.26345 0.28453 -0.19481 0.020148 -0.28725 5.0611e-05 -0.14642 -0.15681 0.047052 -0.20001 -0.2392 0.39689 0.24099 0.35713 -0.12477 -0.16158 0.16321 -0.046527 0.19035 -0.13045 -0.18048 0.16239 -0.25775 -0.30749 0.34524 0.18352 0.23568 0.2759 -0.28282 0.07175 -0.14078 0.083311 0.32701 -0.12241 0.37632 -0.16126 0.14796 -0.098925 0.070775 -0.16294 0.18923 -0.14409 0.34569 0.0047983 0.43862 -0.15867 -0.12728 0.19473 0.61932 0.12585 0.25585 -0.15685 -0.098132 0.04868 0.44373 -0.10639 -0.06905 -0.2376 -0.040629 -0.13759 -0.10445 -0.13023 0.10563 0.43882 0.24816 -0.10474 -0.13138 0.2914 0.0048093 0.61642 0.40858 0.0016151 0.37341 0.17334 0.08388 -0.56714 0.03215 0.063484 -0.20035 -0.11437 -0.27113 -0.10182 -0.16785 0.21198 -0.035957 0.18807 -0.29815 -0.014624 0.089184 -0.19245 0.15548 0.40726 0.4296 0.19959 0.16467 0.043071 -0.10278 0.058547 0.65486 -0.26343 -0.0039709 -0.16459 0.18056 0.59106 -0.25849 -0.35429 -0.071868 -0.2488 -0.0093783 0.39488 -0.19571 -0.19519 -0.015598 -0.017182 -0.62834 -0.42589 0.1907 0.10658 -0.1281 -0.077475 0.40633 0.15558 -0.49119 0.14498 0.18889 -0.20415 0.14279 0.092991 0.1846 -0.47341 -0.2635 -0.22216 0.35392 0.127 0.67092 -0.30831 -0.27781 -0.038082 0.1732 -0.050199 -0.12091 -0.50966 -0.13345 0.2289 -0.26568 -0.41792 0.07692 -0.083607 0.03292 -0.32606 0.19242 -0.2483 -0.15239 -0.38558 0.022098 0.092384 -0.093583 0.1539 0.15852 -0.26555 0.0046966 -0.031003 -0.30808 0.09565 0.057463 0.011609 0.14236 0.14178 0.16814 0.075728 0.038255 0.18318 -0.16473 0.4745 -0.05977 -0.22465 0.21361 0.017954 0.14644 0.34827 -0.39814 -0.1919 0.34352 0.38432 0.1066 -0.14991 0.1409 -0.22288 -0.65462 -0.34693 0.31275 0.14625 -0.15594 -0.38598 -0.090238 0.15313 0.14415 0.27449 -0.16685 -0.0045148 0.011467 0.43497 0.35718 0.21875 0.22289 0.029113 0.013637 0.23237 0.027976 0.05611 -0.37517 0.0044913 -0.085498 0.41396 -0.05537 -0.0066669 0.024747 -0.00060775 -0.046335 -0.057413 -0.32524 -0.16877 -0.24108 -0.17807 
vietnam -0.28399 0.064564 -0.12584 0.52161 -0.60194 -0.010788 -0.026074 -0.61651 0.1194 -0.13309 -0.020323 0.10916 -0.21682 -0.3096 0.10225 -0.24354 -0.26445 -0.18604 0.75977 0.33805 -0.17589 0.25854 -0.2449 0.089785 0.020555 0.20906 0.36724 -0.074124 0.16655 -0.077955 -0.25306 -0.068865 -0.18631 0.52733 0.0022487 -0.20302 0.13465 -0.52064 0.2143 0.012213 -0.68259 -0.31094 -0.092825 0.043023 -0.23514 -0.19873 0.11114 0.0047159 0.076058 -0.23122 -0.16374 0.15796 0.0067079 -0.021971 -0.5535 -0.013746 -0.014833 -0.095247 0.068547 -0.062888 0.22753 0.2515 0.34486 -0.049373 -0.060336 0.010626 -0.48714 0.28314 0.21761 -0.29339 0.044062 -0.074631 0.31541 -0.26136 -0.083974 0.42736 0.049526 0.17238 -0.112 0.028871 0.10365 0.026138 0.021019 -0.54556 -0.073767 -0.28429 -0.82486 0.32852 -0.065753 -0.19263 -0.062553 -0.1943 0.14142 0.085019 0.52585 0.29128 -0.24681 0.22753 -0.42607 -0.30826 -0.15514 0.0062821 0.13386 -0.24786 0.13165 0.22779 -0.047909 0.36989 0.34589 0.022672 0.32904 -0.29488 0.39074 -0.1556 0.36961 0.095666 -0.17412 0.24711 0.076144 0.25303 -0.082268 -0.10287 -0.25778 -0.036321 0.47879 0.0010398 -0.16242 0.24768 0.11876 -0.099114 0.28254 0.30269 0.15865 -0.23656 -0.15075 0.53601 -0.42894 -0.15566 0.37792 -0.075779 0.19498 -0.029116 -0.070006 0.093009 -0.21711 0.86593 0.2126 0.35125 0.35817 0.18574 0.38913 -0.53191 -0.3872 -0.34244 0.23695 0.028405 -0.10877 -0.15099 0.13539 0.72316 0.47364 0.031772 -0.2923 0.20259 0.33877 0.15265 0.1383 -0.22269 0.13098 -0.13001 -0.089947 -0.15745 -0.20057 -0.018999 0.26413 0.27897 -0.060954 0.22921 0.32617 0.28992 0.2143 -0.44551 0.24751 -0.055684 0.13405 0.11546 0.14877 -0.12618 0.21195 -0.12295 -0.017445 -0.23304 -0.21723 0.48888 -0.61952 0.022065 -0.029287 -0.26185 -0.1797 -0.036349 0.31997 -0.25137 -0.14912 0.21592 0.092561 -0.65819 -0.47732 -0.23278 0.41167 0.29471 0.5701 -0.062373 -0.32992 -0.11617 -0.22999 0.093998 0.046568 -0.48182 -0.17886 0.3294 -0.06829 0.15572 0.16069 -0.15735 0.14935 0.034601 -0.095648 -0.21785 -0.31541 0.020049 -0.13717 0.055295 -0.34242 0.25101 0.025823 -0.26821 -0.15777 -0.42585 0.078958 -0.039573 0.2808 0.14653 0.40841 0.064831 0.18054 -0.39361 0.055461 0.31762 -0.35133 0.14277 0.38979 0.10283 0.15113 0.20016 0.36635 0.25148 -0.013622 -0.22062 0.22011 0.12105 0.02521 -0.17789 0.077156 -0.13354 -0.087593 -0.40662 0.389 0.21761 0.50761 0.085032 -0.15847 0.0084287 0.0096571 -0.40196 0.39937 0.098704 -0.018192 0.19757 0.11431 -0.2589 0.074655 -0.084314 -0.11578 0.074931 0.25841 0.25929 -0.2606 -0.12728 -0.41996 0.41942 -0.69876 -0.16635 -0.070648 0.15032 0.00079547 -0.12925 -0.28474 -0.031465 0.16083 -0.22661 
disciples -0.12594 -0.19808 -0.41663 0.17545 0.044348 0.24668 0.18926 -0.62122 0.21214 0.2849 0.049871 0.17565 -0.1217 0.16942 0.017721 -0.54639 -0.032581 0.25454 0.18452 -0.019938 0.11109 0.29842 -0.36374 -0.20958 0.31428 0.19479 0.18695 -0.17123 -0.19062 0.11926 0.084845 0.41383 -0.16357 0.22784 -0.31927 -0.071928 0.068019 0.057075 -0.13954 -0.11428 0.010436 0.17848 0.030859 -0.094708 0.094861 0.087404 -0.036394 -0.05593 0.03542 -0.23402 -0.056303 -0.12435 -0.10813 0.42773 -0.28177 -0.10031 -0.040191 0.11913 0.080545 -0.088412 0.008343 0.098996 -0.52236 0.14701 -0.24837 -0.051532 -0.038218 0.049516 0.23052 0.23674 -0.02883 0.059651 0.40764 -0.26608 0.096036 -0.21532 0.3981 0.056891 0.091101 -0.1091 0.19663 -0.026845 -0.16617 0.060392 -0.32717 -0.13637 -0.12943 0.25694 0.16051 0.14951 -0.07328 0.075458 0.15431 -0.25187 0.18006 0.19222 -0.15454 -0.42874 0.04883 0.077437 0.41993 -0.18542 0.17221 0.0054975 0.36571 0.083496 -0.033029 0.26315 0.32771 0.22564 -0.19861 -0.013979 -0.18651 -0.34413 -0.082362 -0.55251 0.41342 0.12683 0.11717 -0.092415 0.3417 0.10907 -0.066062 0.1427 0.31859 0.30561 -0.12837 0.43548 -0.51957 -0.084886 0.17863 -0.18316 -0.38315 -0.18267 0.042754 0.22133 0.18174 0.036224 -0.20078 0.44075 0.41876 -0.20189 -0.33171 -0.027483 0.39432 0.28654 0.0014852 -0.4521 -0.0088039 0.51144 0.24364 -0.33616 0.13446 0.23414 -0.19705 0.015511 -0.12983 -0.081028 0.022828 -0.25543 -0.34284 -0.17854 0.076476 0.30886 0.049798 0.38704 0.34774 -0.0093571 0.25635 0.14367 -0.07459 0.038039 -0.28189 0.13979 0.022266 0.29565 -0.14235 0.090511 0.22523 0.19664 -0.051576 -0.22255 -0.024972 0.286 -0.34947 0.46487 0.38213 -0.5287 0.86163 -0.10598 0.73743 -0.40027 0.26163 0.29404 -0.3002 0.41037 -0.25011 -0.22228 -0.14864 -0.37125 0.042727 -0.19967 -0.097619 -0.17869 -0.11271 -0.2281 -0.18501 0.079718 0.22522 0.24391 0.75282 -0.22925 0.27258 -0.38076 0.36596 -0.20638 -0.19328 -0.36456 -0.11115 -0.19907 -0.094255 -0.33405 -0.50352 0.11094 0.26986 0.099088 -0.19816 0.0085398 0.5557 0.23162 0.31072 0.06426 0.30192 0.32904 0.2632 -0.079364 0.053451 0.020376 -0.17762 -0.37023 -0.015937 -0.55896 -0.085648 0.40648 -0.1167 0.20952 -0.15918 -0.068412 -0.24223 -0.32681 -0.011738 0.2142 -0.20093 -0.25618 0.066676 -0.28771 -0.3038 -0.059735 0.32862 -0.31918 -0.26488 0.33707 0.089899 0.095008 -0.26464 -0.17489 0.45867 0.16423 0.015243 0.24868 0.10645 -0.056713 -0.12027 0.1921 0.010021 0.18462 -0.13031 -0.21268 -0.51067 -0.46966 -0.24955 0.33021 0.32794 0.29808 -0.26551 0.31624 -0.16206 0.14981 0.20472 -0.022759 -0.55117 -0.08747 0.084864 -0.15459 0.12681 0.029057 -0.26091 0.33976 -0.039806 0.38372 
good -0.13547 -0.049146 -0.046318 0.39408 0.03033 0.16385 -0.18675 -0.13803 0.21152 0.19507 0.1324 0.17902 -0.014759 0.12135 0.26372 -0.2626 -0.12915 0.29616 0.10602 0.0022912 0.096955 -0.10184 -0.13835 -0.28786 -0.17223 -0.019359 0.070993 0.065045 -0.098353 0.064555 -0.2069 0.20942 -0.25595 0.08392 -0.12521 0.0074872 0.041686 0.045258 -0.013352 -0.19317 0.25807 0.1024 -0.10242 0.17235 -0.22454 0.28552 0.11157 0.072486 -0.42207 0.082683 -0.081403 0.16997 0.068285 -0.071831 -0.095231 0.1326 -0.21674 0.033049 0.01576 0.031272 -0.12551 0.091098 0.26753 -0.080332 0.074404 -0.53033 -0.073492 0.17833 0.067993 0.059583 0.0066066 0.023069 0.081373 -0.27371 -0.18953 0.38299 0.33896 0.38827 0.64407 0.092186 0.16999 0.020294 0.30513 0.052946 0.2093 0.12793 -0.012805 -0.039693 -0.20912 0.025542 0.2082 0.043235 0.30179 -0.35992 -0.13103 0.31083 0.20037 0.02871 -0.02063 -0.041863 0.30894 -0.030194 0.32077 0.01956 -0.11588 0.02012 -0.056733 0.26897 0.38778 -0.1879 -0.26059 0.13115 -0.0089401 0.30863 -0.077622 -0.14984 0.31877 -0.073598 -0.046032 -0.021684 0.21395 -0.10323 -0.18107 0.30786 -0.012613 -0.020589 -0.005967 -0.19424 -0.12667 0.14116 0.057213 0.28594 -0.11967 -0.010382 0.20208 0.012488 -0.021745 -0.031209 0.23587 0.26574 0.081013 -0.12416 0.22483 -0.045638 0.02142 -0.10672 0.0698 -0.064694 -0.030641 -0.087495 0.12376 -0.20545 0.072468 -0.26524 0.018377 0.084464 -0.079506 -0.14111 0.17693 -0.16575 -0.0053605 0.13853 -0.14389 -0.24607 -0.15396 -0.044549 -0.095257 -0.22828 0.077004 0.032389 -0.083793 -0.17522 -0.27862 -0.1609 -0.30562 0.28721 -0.013928 0.09352 0.31856 -0.4117 0.22023 -0.37143 0.064975 0.063769 -0.27387 0.11458 -0.28941 -0.054431 0.078617 0.031265 -0.20199 -0.35471 0.13723 0.39051 -0.18429 -0.31982 0.18168 -0.13415 -0.27865 0.20107 0.042392 0.030893 0.22999 0.016176 -0.00055554 0.075457 -0.14568 -0.21274 0.054367 0.12422 0.33441 -0.29417 0.25396 -0.39036 -0.27533 0.11664 -0.010507 -0.35813 -0.30272 -0.011585 -0.11954 0.088927 -0.16263 0.012786 -0.21823 0.51486 -0.0059456 0.15279 -0.068263 0.084439 0.2006 0.14186 -0.052173 -0.23623 -0.20724 0.29208 -0.074425 0.059125 0.037207 -0.27792 0.12127 0.37495 0.087346 0.025986 -0.10144 0.030307 0.23338 0.035902 0.090158 0.15419 0.1679 -0.15758 -0.12776 0.30438 0.027489 -0.14289 -0.065167 -0.096788 0.30875 0.13098 0.095892 0.24356 0.43958 -0.22586 -0.057463 -0.077219 -0.16766 0.1726 -0.34011 -0.29551 -0.089134 0.034251 0.16867 0.19219 -0.13589 -0.16524 0.088443 0.11872 -0.22452 -0.011362 0.0084976 0.0082882 0.25398 -0.11684 -0.062736 0.0028723 0.29097 -0.0047291 -0.27121 -0.12564 0.097855 0.083326 0.043377 0.020247 0.045764 -0.039303 -0.18513 0.15057 0.073727 -0.11282 
