indus -0.31812 -0.31905 -0.50475 0.70662 -0.52712 0.4383 0.026854 -0.091393 -0.29244 0.19801 0.50658 -0.19765 0.35568 -0.18334 0.46058 -0.23884 0.20202 0.26044 0.31274 0.30504 -0.027198 0.48424 -0.1399 -0.29503 0.058704 0.13087 0.48677 -0.66399 -0.027757 0.36284 0.16666 0.71024 -0.60992 0.21027 0.48202 0.43561 0.31401 -0.10615 -0.16263 -0.24363 0.23723 0.31141 0.28474 0.25077 0.43489 -0.11143 0.1307 -0.19001 0.3241 -0.0581 -0.34618 -0.0013647 -0.09237 0.32988 -0.41073 0.040522 0.096169 -0.010894 -0.11464 -0.20982 0.19771 0.48587 0.14698 0.29974 -0.042832 -0.65076 -0.76394 0.086855 -0.45678 0.35409 -0.10203 0.34655 0.083274 0.21763 0.10118 -0.40238 -0.055415 0.3211 -0.40978 -0.13982 0.08735 -0.36481 -0.2338 0.2136 -0.54117 0.15454 -0.5327 0.44232 -0.12203 0.22532 -0.36162 -0.12453 0.19413 -0.089839 0.46094 -0.020649 0.00055097 0.10342 0.25231 0.068624 0.075359 0.37055 -0.03493 0.07999 -0.27471 -0.0098355 -0.086747 -0.051634 -0.56499 0.079849 -0.23525 0.059942 0.31088 0.0015787 0.21817 -0.53379 -0.08431 0.38456 -0.13952 0.29274 0.42851 0.44569 0.25912 0.17561 0.063047 0.21051 -0.39857 0.17403 -0.23485 0.4488 0.039309 0.18684 0.44675 0.15208 0.47385 0.16949 0.013221 -0.17591 -0.16615 0.8154 -0.55658 0.36638 0.47102 0.25818 0.10311 0.44067 -0.40997 0.68679 0.063135 0.38803 0.41592 -0.36871 -0.35358 -0.35729 0.17651 -0.017564 0.12975 0.4418 0.17154 -0.17852 0.60817 0.071653 0.14249 -0.20856 0.16761 0.27421 0.36382 -0.31828 0.53909 0.44649 -0.0010132 -0.11102 -0.080902 -0.65422 -0.04859 0.19409 0.22473 0.3484 0.2081 -0.083511 -0.39192 -0.092143 -0.084791 -0.69338 0.29544 0.43772 0.085901 -0.26004 -0.063603 0.061714 -0.078188 -0.4568 0.088927 -0.59908 -0.22233 0.14563 0.058421 -0.11689 -0.49685 0.13397 0.17613 0.48087 -0.18766 0.05824 -0.38135 -0.074914 -0.29073 -0.061071 0.22731 0.12356 0.28155 0.32115 0.074557 0.026099 0.32691 0.20715 0.39657 -0.47662 -0.031873 -0.1957 0.13267 0.29579 0.058466 0.46013 0.48457 0.12446 -0.15458 -0.28272 0.18708 0.066325 -0.22503 0.033299 -0.12696 -0.075457 0.1768 0.15192 0.12637 -0.69482 -0.15951 -0.15907 0.10148 -0.29304 -0.10013 -0.072149 -0.18873 0.22707 -0.23572 0.66329 0.24754 -0.054633 0.57188 -0.10428 -0.28656 0.24834 -0.60343 0.30566 -0.082257 0.087 0.46982 0.20216 -0.15349 0.46113 0.095361 -0.059728 -0.4811 -0.51478 0.1709 0.097221 0.25488 -0.10429 -0.28956 0.10902 0.47815 -0.24925 -0.041992 0.20695 -0.04918 0.13809 0.22895 -0.07029 0.16126 -0.034999 -0.34983 0.24643 0.052633 -0.14737 -0.12807 0.15982 0.059419 0.17174 -0.61243 0.21802 0.3053 -0.49001 0.44844 -0.32894 -0.63832 0.11102 -0.24027 0.0071937 
valley 0.12977 -0.47004 -0.21326 0.010747 -0.31808 -0.035072 -0.068989 0.047152 0.26655 0.099874 -0.16821 0.034185 0.40524 -0.23022 0.22961 -0.10723 0.074856 -0.065805 0.096949 0.36623 -0.17608 0.6993 -0.1841 -0.14519 -0.035983 -0.30681 0.082431 -0.47594 -0.014088 0.059198 -0.076429 0.079536 -0.45889 0.015455 0.48693 0.052242 0.026642 -0.16762 0.14177 -0.20388 0.36077 -0.14942 -0.49915 0.031586 -0.1879 0.010504 -0.16744 -0.021515 0.5657 0.40121 0.075809 -0.15385 0.12546 -0.15959 -0.34563 0.26487 -0.43036 0.45127 -0.12694 0.31774 0.23293 0.39017 0.17978 0.0092463 -0.17578 -0.29566 -0.27272 -0.021653 -0.50503 0.2997 -0.081994 0.23672 0.41491 -0.05995 0.10209 -0.055807 0.25724 -0.037051 -0.3408 0.029552 -0.53683 -0.021352 -0.48596 -0.06872 -0.51002 0.19267 0.00076338 0.24526 -0.11968 0.083736 -0.19725 -0.060968 0.36971 -0.038074 0.38972 0.11887 0.2188 0.44837 -0.032322 0.051295 0.25055 0.20309 0.027324 -0.13659 -0.3301 -0.092084 -0.47542 0.10754 -0.52271 -0.079308 0.18082 -0.21262 0.010725 0.47301 0.23685 -0.39954 0.21046 0.54044 -0.062842 0.0090703 0.69606 -0.024681 -0.15868 -0.0060581 -0.11811 -0.020044 0.36938 0.017055 -0.32543 -0.034646 -0.47905 0.25039 0.22235 0.23608 0.15272 0.038265 -0.10621 0.12288 -0.41141 0.21196 0.10517 0.62232 0.21202 0.18503 0.60304 0.38831 -0.24196 0.22943 -0.1785 0.12784 0.49318 0.31231 0.02693 -0.11803 -0.39038 -0.44277 0.1592 0.087687 0.064507 0.032477 0.1396 0.16308 -0.13289 -0.17733 0.20016 0.26691 0.16763 0.25689 0.24472 0.012571 -0.10215 -0.11104 -0.4806 -0.42358 -0.36559 0.16858 0.23091 0.33069 0.37929 -0.6724 0.17387 0.12492 -0.11588 -0.22773 0.45095 0.25784 -0.08484 -0.18535 0.12651 0.16889 0.02889 -0.40783 0.10819 -0.049452 0.18198 0.28547 -0.32181 0.25466 -0.20269 -0.26648 -0.12499 0.25423 -0.27609 0.088126 -0.10255 0.22145 -0.30511 -0.052493 0.58409 -0.16205 0.35003 0.30629 -0.11581 -0.3502 -0.1481 0.0268 0.02637 -0.29956 0.20772 -0.46418 0.095797 0.46233 0.32479 0.11287 0.5537 -0.14062 -0.13651 -0.10745 0.24186 0.067106 -0.26567 0.25054 -0.070421 0.1297 0.27833 -0.076529 -0.068548 -0.40648 0.16568 -0.40553 -0.24654 -0.24001 -0.35161 0.021464 -0.17384 -0.036376 -0.071985 0.1565 -0.30661 -0.24658 0.39786 -0.017298 0.3844 -0.1098 -0.19457 0.37096 -0.036613 0.037674 0.46281 0.064511 -0.10077 0.36943 -0.45879 0.031193 -0.40483 0.062331 0.29875 0.22448 0.56401 0.39027 -0.42399 -0.082941 0.1483 0.096657 0.16017 -0.1604 0.23479 0.29604 -0.0034019 0.34376 -0.097647 0.014113 -0.39284 0.29248 -0.20117 -0.43277 -0.14734 -0.055309 0.035474 -0.040379 0.46732 -0.28814 -0.0093462 0.070403 -0.057282 0.16495 -0.017968 0.19205 0.18753 -0.24445 
civilization 0.063318 -0.47053 -0.31075 0.42016 -0.47084 0.57847 -0.36965 -0.45316 0.079414 0.53401 0.32481 0.12712 0.047581 -0.288 0.24929 -0.32262 0.099017 0.30443 0.17225 0.33816 0.003226 0.33626 -0.077788 -0.33863 0.061143 -0.42091 0.29814 -0.5183 0.087471 0.2802 -0.11798 0.47456 -0.61125 0.31247 0.049805 -0.031555 0.61697 -0.33001 0.12427 0.070855 0.2705 -0.2829 0.0898 0.14297 0.0059056 -0.16569 -0.2306 0.020454 0.000586 -0.28661 -0.090772 0.15221 0.03288 0.14413 -0.13168 -0.063058 0.12023 0.19475 -0.017624 0.21213 -0.12862 0.061664 0.18514 -0.024515 -0.23556 -0.024806 -0.21322 0.45605 -0.42252 0.27319 0.082384 0.42372 0.073816 0.25381 0.19187 -0.22716 -0.034917 -0.10181 -0.04269 0.019798 -0.20857 -0.27928 0.050227 0.17854 -0.30329 0.11608 -0.12268 0.18156 0.025519 -0.057733 -0.079345 -0.048675 0.45435 -0.36863 0.43911 -0.2918 0.34562 0.030007 -0.26894 -0.0324 0.14797 -0.053713 -0.11128 -0.21183 0.20128 -0.03768 -0.092891 -0.30912 -0.41371 -0.10959 0.12892 -0.14964 -0.1961 0.3055 -0.2457 -0.33971 0.28237 0.18742 -0.28622 -0.098613 -0.0964 0.08738 0.3193 -0.34776 0.23701 -0.14506 -0.21923 0.19975 0.15121 0.11899 -0.22797 -0.34336 0.28257 0.15941 0.26463 0.08258 -0.025888 -0.11976 0.04127 -0.0439 -0.42686 0.30065 0.02145 0.30938 -0.18096 0.12659 -0.25614 0.18475 0.24334 -0.42579 0.37693 -0.024523 0.29478 0.022947 -0.071888 -0.14516 0.071121 0.23589 -0.052201 -0.20801 0.12822 0.11829 -0.243 0.084552 0.34146 0.20476 0.027681 -0.034157 0.46726 0.17727 -0.059439 -0.3901 -0.16088 -0.23533 -0.043674 0.034491 0.28691 0.012334 0.33048 -0.19017 -0.072923 0.037366 0.24073 -0.19562 -0.19734 0.26492 0.1295 -0.55131 0.31843 -0.22282 0.0078694 -0.73182 0.375 0.059296 -0.25797 0.14579 -0.35147 -0.0027614 -0.34175 -0.12688 -0.020118 -0.053202 -0.11081 0.30341 -0.065122 -0.21511 -0.5311 -0.16207 0.019867 0.15786 0.78613 0.012143 0.015971 0.18346 0.28673 -0.21072 0.30161 -0.040242 -0.25333 -0.0065354 -0.37729 -0.15926 -0.45565 0.25578 0.078616 0.33208 -0.08113 -0.14867 -0.079487 -0.034172 -0.20339 -0.22585 -0.16683 -0.21876 0.25465 0.1593 -0.015974 -0.13669 -0.29164 0.030526 0.041802 -0.096717 0.44356 -0.54278 0.077223 -0.082997 -0.12697 0.20021 0.26937 -0.10826 -0.31257 0.31746 -0.25124 0.40201 -0.30297 0.09136 -0.34086 -0.14363 0.50389 0.047966 -0.14413 0.011738 -0.0044856 0.17149 -0.12334 -0.23473 0.14298 -0.08545 0.096904 0.25732 0.012672 -0.10654 0.33716 0.059173 0.18383 -0.087287 -0.39033 0.13436 0.27627 0.22779 0.24488 0.23496 0.22106 0.17456 -0.25124 -0.34529 0.06013 -0.03872 -0.0010358 0.4642 -0.10676 0.060078 -0.062075 -0.24843 0.24237 -0.085249 -0.29781 0.23815 -0.40061 0.036451 
indus -0.31812 -0.31905 -0.50475 0.70662 -0.52712 0.4383 0.026854 -0.091393 -0.29244 0.19801 0.50658 -0.19765 0.35568 -0.18334 0.46058 -0.23884 0.20202 0.26044 0.31274 0.30504 -0.027198 0.48424 -0.1399 -0.29503 0.058704 0.13087 0.48677 -0.66399 -0.027757 0.36284 0.16666 0.71024 -0.60992 0.21027 0.48202 0.43561 0.31401 -0.10615 -0.16263 -0.24363 0.23723 0.31141 0.28474 0.25077 0.43489 -0.11143 0.1307 -0.19001 0.3241 -0.0581 -0.34618 -0.0013647 -0.09237 0.32988 -0.41073 0.040522 0.096169 -0.010894 -0.11464 -0.20982 0.19771 0.48587 0.14698 0.29974 -0.042832 -0.65076 -0.76394 0.086855 -0.45678 0.35409 -0.10203 0.34655 0.083274 0.21763 0.10118 -0.40238 -0.055415 0.3211 -0.40978 -0.13982 0.08735 -0.36481 -0.2338 0.2136 -0.54117 0.15454 -0.5327 0.44232 -0.12203 0.22532 -0.36162 -0.12453 0.19413 -0.089839 0.46094 -0.020649 0.00055097 0.10342 0.25231 0.068624 0.075359 0.37055 -0.03493 0.07999 -0.27471 -0.0098355 -0.086747 -0.051634 -0.56499 0.079849 -0.23525 0.059942 0.31088 0.0015787 0.21817 -0.53379 -0.08431 0.38456 -0.13952 0.29274 0.42851 0.44569 0.25912 0.17561 0.063047 0.21051 -0.39857 0.17403 -0.23485 0.4488 0.039309 0.18684 0.44675 0.15208 0.47385 0.16949 0.013221 -0.17591 -0.16615 0.8154 -0.55658 0.36638 0.47102 0.25818 0.10311 0.44067 -0.40997 0.68679 0.063135 0.38803 0.41592 -0.36871 -0.35358 -0.35729 0.17651 -0.017564 0.12975 0.4418 0.17154 -0.17852 0.60817 0.071653 0.14249 -0.20856 0.16761 0.27421 0.36382 -0.31828 0.53909 0.44649 -0.0010132 -0.11102 -0.080902 -0.65422 -0.04859 0.19409 0.22473 0.3484 0.2081 -0.083511 -0.39192 -0.092143 -0.084791 -0.69338 0.29544 0.43772 0.085901 -0.26004 -0.063603 0.061714 -0.078188 -0.4568 0.088927 -0.59908 -0.22233 0.14563 0.058421 -0.11689 -0.49685 0.13397 0.17613 0.48087 -0.18766 0.05824 -0.38135 -0.074914 -0.29073 -0.061071 0.22731 0.12356 0.28155 0.32115 0.074557 0.026099 0.32691 0.20715 0.39657 -0.47662 -0.031873 -0.1957 0.13267 0.29579 0.058466 0.46013 0.48457 0.12446 -0.15458 -0.28272 0.18708 0.066325 -0.22503 0.033299 -0.12696 -0.075457 0.1768 0.15192 0.12637 -0.69482 -0.15951 -0.15907 0.10148 -0.29304 -0.10013 -0.072149 -0.18873 0.22707 -0.23572 0.66329 0.24754 -0.054633 0.57188 -0.10428 -0.28656 0.24834 -0.60343 0.30566 -0.082257 0.087 0.46982 0.20216 -0.15349 0.46113 0.095361 -0.059728 -0.4811 -0.51478 0.1709 0.097221 0.25488 -0.10429 -0.28956 0.10902 0.47815 -0.24925 -0.041992 0.20695 -0.04918 0.13809 0.22895 -0.07029 0.16126 -0.034999 -0.34983 0.24643 0.052633 -0.14737 -0.12807 0.15982 0.059419 0.17174 -0.61243 0.21802 0.3053 -0.49001 0.44844 -0.32894 -0.63832 0.11102 -0.24027 0.0071937 
india -0.31769 0.14506 -0.36471 0.57575 -0.13222 0.40453 -0.19492 -0.55563 -0.38972 0.16279 -0.045526 0.18601 0.14253 -0.050678 0.041665 -0.21305 -0.12488 0.18187 0.62789 0.55638 -0.14388 0.36361 -0.12433 -0.31626 -0.22471 0.099936 0.035748 -0.37167 0.39086 0.12409 -0.23452 0.1806 -0.44709 0.23447 -0.25996 0.030131 -0.16572 0.022553 0.29909 0.0090766 -0.41244 -0.038986 0.025394 -0.10333 0.02378 -0.16335 0.046666 -0.24753 -0.049127 -0.19363 -0.21586 -0.3552 0.082392 0.29481 -0.21992 -0.08062 -0.063304 0.11316 -0.060823 -0.04058 -0.12737 0.067223 -0.075719 -0.0041634 -0.061135 -0.16534 -0.51855 -0.21147 -0.080232 0.055015 -0.054847 -0.32736 0.32132 -0.087468 0.29712 0.18674 0.30684 0.44323 -0.31546 0.010993 0.25019 0.18061 -0.026035 -0.25033 -0.12173 0.034856 -0.46469 0.23249 0.10711 0.15198 -0.13207 -0.20381 -0.40824 -0.23653 0.10891 0.26877 -0.12199 0.45204 -0.22681 -0.27921 0.17041 0.27943 0.056881 0.051993 -0.40217 0.041393 -0.21163 0.060635 -0.30607 0.030232 -0.21559 0.059959 0.17638 -0.3655 -0.12754 0.0037116 -0.19975 0.086381 0.13621 -0.1858 0.32162 0.039125 0.053582 0.17684 -0.037593 0.13451 -0.11742 0.032745 -0.06138 0.38209 0.072992 0.15902 0.21803 -0.23455 0.068466 -0.1755 -0.14039 0.0026626 0.36032 0.60831 -0.11997 0.40356 0.30333 0.0081042 0.26114 0.55705 -0.05222 -0.012316 0.32247 0.67212 0.21816 -0.33203 -0.1201 -0.10383 0.25512 -0.019316 0.21047 -0.44323 0.033164 0.20652 0.38409 0.17612 -0.055491 -0.18625 0.41502 0.19313 -0.083699 -0.15057 0.55029 0.34056 0.31876 0.10299 -0.12635 -0.1269 0.059712 0.22683 -0.040551 0.36923 -0.0052634 0.38072 -0.075553 -0.050373 -0.1835 -0.034387 0.093375 -0.040068 0.14753 -0.044561 0.32867 -0.26622 -0.18498 0.16906 0.053139 -0.08106 -0.29661 0.014982 0.32572 -0.50618 -0.45982 0.099347 0.10837 0.12195 0.10337 0.13867 0.049852 -0.30915 -0.17063 0.17356 0.36094 0.16018 0.47203 -0.084641 0.04704 -0.041102 0.31905 -0.44298 0.64227 -0.25034 -0.23715 -0.048877 0.14604 0.13574 -0.21536 -0.019048 0.4597 0.48062 -0.1761 -0.17885 -0.019866 0.012229 0.064511 -0.01947 0.074915 0.018694 -0.14465 0.054571 -0.2285 -0.34588 -0.066058 0.13009 0.08831 0.18868 -0.13149 0.00071352 0.070861 0.22724 -0.26325 0.24403 0.4237 0.34151 0.23989 -0.17564 -0.11691 -0.082447 -0.34525 0.15046 -0.19202 0.16423 0.37492 0.076509 0.23497 -0.25515 0.43093 -0.29995 -0.38934 -0.38513 0.18138 0.2122 0.14209 -0.34575 -0.0072048 0.085813 0.15299 -0.41737 -0.12781 0.037901 -0.019962 -0.029198 -0.057406 -0.21411 -0.061809 -0.34686 0.0020833 -0.0031236 -0.14932 0.31038 -0.4561 0.019597 -0.017963 0.34184 -0.47729 -0.059828 0.24853 -0.43099 0.15247 -0.3182 -0.30743 0.03464 -0.42418 0.06911 
bc -0.21046 -0.30936 -0.49808 0.079847 -0.27559 0.28119 -0.21444 -0.62381 0.037304 0.23331 0.096585 -0.072775 0.39294 0.14818 -0.12516 -0.17776 -0.19066 0.25544 0.054732 0.22365 0.05883 0.21448 -0.51409 0.097548 -0.014793 0.14315 -0.16064 -0.61941 -0.39226 0.5635 0.081613 0.19345 -0.24924 0.39445 0.51326 0.092293 0.66184 0.048245 -0.23424 0.31841 0.33749 -0.31883 -0.037679 -0.20965 0.045099 0.069382 0.25821 0.46275 0.083241 -0.034107 -0.1039 -0.07052 -0.15805 -0.046431 -0.43505 0.29354 0.096794 0.39053 0.067949 0.2876 0.098204 0.47184 0.31763 0.046993 0.26327 -0.27468 -0.29082 -0.10135 -1.171 -0.21542 0.33577 0.092055 -0.010668 -0.39496 0.49553 -0.3751 0.14915 0.45038 -0.65558 0.1167 -0.094796 0.18443 0.15132 -0.049955 -0.62013 0.15264 0.019395 -0.028951 0.13719 -0.32316 0.05417 -0.32713 0.40837 -0.10825 0.36569 -0.17507 0.20149 -0.19116 0.31657 -0.65575 -0.24848 -0.030306 -0.0068084 0.43806 0.34533 0.059626 0.5085 -0.083941 0.15457 0.56727 -0.081291 -0.26788 -0.3787 0.37589 0.10754 -0.12344 -0.020176 0.35641 -0.19648 0.20051 0.014501 0.7563 0.43159 0.34525 0.048246 -0.076618 0.10613 0.11502 0.16268 0.0059353 -0.21433 0.46622 0.0045293 0.30412 0.77801 0.44822 -0.049747 -0.0098128 0.38348 0.42151 -0.65649 -0.081518 0.3522 0.35907 -0.15194 0.26409 0.25908 0.0026758 -0.075352 0.42159 -0.11784 -0.5892 0.0076054 0.0045825 -0.13678 0.077349 0.43123 0.4457 0.10152 -0.32474 0.6953 0.029993 0.12304 0.26786 0.48888 0.12213 0.20304 0.062694 0.50395 0.153 -0.61303 -0.37197 -0.63564 0.26668 -0.087346 -0.15524 -0.015829 0.07962 0.57737 -0.3865 -0.099655 -0.15892 0.23036 -1.2009 0.15225 0.18303 -0.14204 0.066109 0.28762 -0.25084 -0.1541 -0.73035 0.25033 -0.19074 -0.079125 -0.16703 0.15595 -0.10692 -0.4475 0.44186 0.10719 0.044959 0.10856 -0.3528 0.10705 -0.31738 0.27764 0.24469 0.33182 0.26306 0.02982 0.20386 -0.0913 0.12403 0.095973 -0.29628 0.7099 -0.25959 -0.73818 0.18376 0.18964 -0.58162 0.10488 0.16526 -0.12096 -0.017121 -0.016004 0.072295 0.49131 -0.31438 0.4686 -0.27814 -0.56708 0.031533 0.3855 0.26321 0.29177 -0.051959 -0.076931 -0.059566 -0.14719 -0.59397 0.027637 -0.35064 -0.18704 -0.49727 -0.31651 0.20512 -0.10781 -0.26947 0.012172 0.19813 0.43735 0.21198 0.10162 -0.46116 -0.63531 -0.6528 0.29908 0.1723 -0.61387 0.13639 0.77636 -0.22255 0.039508 -0.080246 0.82297 0.52788 -0.12466 0.044363 0.032997 0.60104 0.020467 -0.33943 -0.069171 0.16027 0.098638 -0.125 0.39643 -0.36471 0.13672 0.12137 0.13763 -0.13339 0.19548 -0.25687 -0.085304 0.16304 -0.16525 0.72431 -0.17951 0.091204 0.031834 -0.20389 -0.093475 -0.13878 -0.27631 -0.16481 0.077412 0.23917 
indus -0.31812 -0.31905 -0.50475 0.70662 -0.52712 0.4383 0.026854 -0.091393 -0.29244 0.19801 0.50658 -0.19765 0.35568 -0.18334 0.46058 -0.23884 0.20202 0.26044 0.31274 0.30504 -0.027198 0.48424 -0.1399 -0.29503 0.058704 0.13087 0.48677 -0.66399 -0.027757 0.36284 0.16666 0.71024 -0.60992 0.21027 0.48202 0.43561 0.31401 -0.10615 -0.16263 -0.24363 0.23723 0.31141 0.28474 0.25077 0.43489 -0.11143 0.1307 -0.19001 0.3241 -0.0581 -0.34618 -0.0013647 -0.09237 0.32988 -0.41073 0.040522 0.096169 -0.010894 -0.11464 -0.20982 0.19771 0.48587 0.14698 0.29974 -0.042832 -0.65076 -0.76394 0.086855 -0.45678 0.35409 -0.10203 0.34655 0.083274 0.21763 0.10118 -0.40238 -0.055415 0.3211 -0.40978 -0.13982 0.08735 -0.36481 -0.2338 0.2136 -0.54117 0.15454 -0.5327 0.44232 -0.12203 0.22532 -0.36162 -0.12453 0.19413 -0.089839 0.46094 -0.020649 0.00055097 0.10342 0.25231 0.068624 0.075359 0.37055 -0.03493 0.07999 -0.27471 -0.0098355 -0.086747 -0.051634 -0.56499 0.079849 -0.23525 0.059942 0.31088 0.0015787 0.21817 -0.53379 -0.08431 0.38456 -0.13952 0.29274 0.42851 0.44569 0.25912 0.17561 0.063047 0.21051 -0.39857 0.17403 -0.23485 0.4488 0.039309 0.18684 0.44675 0.15208 0.47385 0.16949 0.013221 -0.17591 -0.16615 0.8154 -0.55658 0.36638 0.47102 0.25818 0.10311 0.44067 -0.40997 0.68679 0.063135 0.38803 0.41592 -0.36871 -0.35358 -0.35729 0.17651 -0.017564 0.12975 0.4418 0.17154 -0.17852 0.60817 0.071653 0.14249 -0.20856 0.16761 0.27421 0.36382 -0.31828 0.53909 0.44649 -0.0010132 -0.11102 -0.080902 -0.65422 -0.04859 0.19409 0.22473 0.3484 0.2081 -0.083511 -0.39192 -0.092143 -0.084791 -0.69338 0.29544 0.43772 0.085901 -0.26004 -0.063603 0.061714 -0.078188 -0.4568 0.088927 -0.59908 -0.22233 0.14563 0.058421 -0.11689 -0.49685 0.13397 0.17613 0.48087 -0.18766 0.05824 -0.38135 -0.074914 -0.29073 -0.061071 0.22731 0.12356 0.28155 0.32115 0.074557 0.026099 0.32691 0.20715 0.39657 -0.47662 -0.031873 -0.1957 0.13267 0.29579 0.058466 0.46013 0.48457 0.12446 -0.15458 -0.28272 0.18708 0.066325 -0.22503 0.033299 -0.12696 -0.075457 0.1768 0.15192 0.12637 -0.69482 -0.15951 -0.15907 0.10148 -0.29304 -0.10013 -0.072149 -0.18873 0.22707 -0.23572 0.66329 0.24754 -0.054633 0.57188 -0.10428 -0.28656 0.24834 -0.60343 0.30566 -0.082257 0.087 0.46982 0.20216 -0.15349 0.46113 0.095361 -0.059728 -0.4811 -0.51478 0.1709 0.097221 0.25488 -0.10429 -0.28956 0.10902 0.47815 -0.24925 -0.041992 0.20695 -0.04918 0.13809 0.22895 -0.07029 0.16126 -0.034999 -0.34983 0.24643 0.052633 -0.14737 -0.12807 0.15982 0.059419 0.17174 -0.61243 0.21802 0.3053 -0.49001 0.44844 -0.32894 -0.63832 0.11102 -0.24027 0.0071937 
river -0.44707 -0.29786 0.051007 0.40058 0.015241 -0.37286 0.095538 -0.094771 -0.1763 0.031716 0.056276 -0.027538 -0.067992 -0.51405 0.1855 -0.2785 0.012295 -0.062789 -0.14839 0.40599 -0.030227 0.2919 -0.17049 -0.37404 0.20903 -0.2555 0.034174 -0.67871 0.16179 -0.27344 0.2154 0.46854 -0.83209 0.16204 0.33612 -0.23495 -0.010857 -0.22438 0.4921 0.27863 0.3029 0.065726 -0.24189 -0.032733 0.20946 0.22088 -0.027965 0.029676 0.49549 0.55311 0.14745 0.095542 -0.3035 0.11485 -0.15676 0.47242 -0.042941 0.21381 0.070043 0.3394 0.013576 0.0857 0.021836 -0.14378 -0.3928 -0.02468 -0.4771 0.20992 -0.21951 -0.076222 0.16211 -0.037994 0.093557 -0.54537 -0.055139 -0.52913 0.23107 -0.0289 -0.38561 0.18326 -0.22341 0.0065065 -0.175 -0.15599 -0.49377 0.18039 -0.21206 0.21469 -0.097016 0.20173 -0.16775 0.044218 0.15518 -0.055221 0.46479 0.28534 0.25558 0.44825 0.1814 -0.060984 -0.073167 0.30609 0.0029169 0.050751 -0.17287 -0.1685 -0.20807 0.3722 -0.43018 -0.027803 0.015928 -0.17 0.070441 -0.071652 -0.0843 -0.51078 0.18996 0.44878 0.0086008 0.090252 0.68147 0.39499 -0.24967 0.43665 0.021549 0.10592 -0.21386 0.032891 0.040488 -0.048559 -0.020245 -0.081612 0.20636 0.36843 -0.11359 -0.093341 0.30267 -0.044897 -0.45107 0.36954 0.32879 0.26481 0.24843 -0.092599 0.32084 0.0069876 0.16997 0.17849 0.10876 0.12622 0.15204 0.16476 -0.034583 -0.2217 -0.26888 -0.25073 -0.084922 0.071177 -0.064318 -0.45947 -0.1555 0.018336 -0.067865 -0.017466 0.11912 0.11945 -0.2722 0.098811 0.11887 0.35559 -0.37816 -0.35348 -0.26876 -0.62847 -0.31906 -0.054459 0.36249 0.40967 0.56812 -0.31363 0.18575 -0.17794 -0.027773 -0.27323 0.47365 0.49342 -0.11014 -0.065215 -0.15425 0.26645 0.19712 -0.3523 -0.020745 0.20998 -0.47938 0.089175 -0.2187 0.23812 -0.51405 -0.060497 -0.2113 0.3418 -0.19389 0.23023 -0.014799 -0.14705 0.3225 -0.051543 0.29071 0.23341 0.04685 0.092766 0.30605 -0.40553 -0.17406 0.15559 -0.33043 -0.47152 0.41966 -0.55904 0.24782 0.34506 0.070311 0.34743 0.42714 0.069568 -0.1004 -0.48046 0.17521 -0.12911 -0.080288 -0.029863 -0.16254 0.075901 0.094952 -0.25429 -0.15838 -0.082869 -0.012869 -0.37649 -0.038924 -0.44143 -0.093523 0.0085415 -0.13222 -0.073744 0.071457 0.30639 -0.2709 -0.0073621 0.47997 -0.078568 0.12026 0.18008 0.27455 0.16015 0.17971 0.015161 0.43661 0.40522 0.06682 0.45792 -0.53299 0.013345 -0.29116 0.041032 0.0074276 0.32924 0.24254 0.40024 -0.26329 -0.18346 0.057808 -0.19853 0.0069129 0.12612 0.24673 0.27705 0.007451 0.22427 0.19456 0.1568 -0.057929 0.0065017 0.10603 0.10184 -0.021518 -0.12722 -0.019845 0.11059 0.045131 -0.015259 0.14891 0.22686 -0.60693 0.04636 -0.14868 0.3846 0.026958 0.0059778 
dravidians -0.041781 -0.24096 -0.65082 0.92915 -0.10933 0.53103 -0.2097 -0.71441 -0.44708 0.07246 0.24169 -0.15362 -0.4369 0.1236 0.05055 0.029144 -0.010397 0.29189 0.46733 0.4514 0.047484 0.38975 -0.15393 -0.19719 -0.30939 0.25751 0.48195 -0.53632 0.45541 0.0075892 -0.27512 0.33041 -0.751 -0.054129 -0.26839 0.27062 0.0069528 -0.067971 0.12327 -0.014044 0.16854 0.053491 0.35255 -0.37408 0.24227 -0.12137 -0.20769 0.13912 -0.29474 -0.41138 -0.28002 -0.066166 -0.25244 0.28976 -0.26553 0.10929 -0.083546 0.17284 -0.077199 0.023599 -0.16016 -0.13746 -0.21189 0.090234 0.57705 -0.19208 -0.34652 0.48978 0.11885 0.73853 0.066466 -0.012742 0.75271 0.23205 0.31763 -0.24963 0.19715 -0.15652 0.024612 -0.055508 -0.11151 -0.40226 -0.20117 0.49817 -0.14274 -0.23245 -0.28173 -0.16144 -0.28997 -0.013124 -0.051035 -0.054913 -0.044127 -0.64193 0.28071 -0.089607 -0.00012801 -0.35008 -0.1722 -0.058399 0.01444 0.20315 -0.096983 -0.31669 -0.14226 0.045998 -0.071494 -0.041199 -0.14478 -0.36606 -0.17927 0.49559 0.2193 -0.46536 0.14832 -0.081135 0.17708 0.38568 -0.060069 -0.20411 -0.24153 0.13241 0.072984 0.48989 -0.0048499 0.1665 -0.27121 0.14419 -0.031678 0.33584 0.46149 0.11713 0.084167 -0.062581 -0.039188 -0.070928 -0.20699 -0.20806 -0.12255 -0.14498 -0.38505 0.27611 0.66247 0.3143 0.32169 0.30781 -0.073151 0.12006 -0.16436 0.28686 0.30142 -0.35489 -0.10084 0.035128 -0.14583 -0.188 -0.01639 0.15464 0.1494 -0.17108 0.37255 -0.08989 0.22046 0.067237 0.4057 0.092632 -0.34504 -0.41989 0.77381 0.20828 0.29684 -0.54402 -0.6863 0.32244 -0.44388 0.12805 -0.25258 0.1039 0.36564 0.081658 -0.12368 0.0076427 -0.0037994 0.17694 -0.17175 -0.0042053 0.23589 -0.27785 0.75167 0.045611 0.090532 -0.7109 0.012551 0.18752 -0.28062 -0.057743 -0.11926 -0.21641 -0.2127 0.14932 0.16123 -0.15611 0.57781 0.47131 0.1571 0.10173 -0.077804 0.18391 0.21353 0.2228 0.31477 0.42857 -0.042212 -0.059976 0.46053 -0.63772 0.34299 -0.55051 0.020449 0.010614 -0.060884 -0.23076 -0.30964 0.034943 0.036604 0.094559 0.10435 0.26478 -0.37601 -0.18016 -0.20324 -0.54765 -0.17381 -0.011648 0.3089 0.28945 -0.012811 0.018542 -0.13479 0.054697 0.32453 0.057848 0.27189 0.15122 -0.27503 -0.26412 -0.35854 0.32604 0.47929 -0.32609 0.41069 0.0021888 0.098087 -0.089446 -0.067409 -0.27252 0.16032 -0.62666 0.24012 -0.056689 -0.11485 0.418 0.19123 0.06884 -0.34379 -0.37388 0.25654 -0.22622 -0.10385 0.17665 -0.25759 0.029101 0.37361 -0.65451 0.21688 0.29819 -0.50293 -0.5556 -0.35036 -0.0034359 -0.11617 0.17491 0.33899 -0.14591 0.060585 -0.32026 0.23855 -0.039049 -0.24747 0.31445 -0.7068 0.05106 0.52176 -0.43266 0.4114 0.045418 -0.52544 -0.068556 -0.39327 0.17911 
civilization 0.063318 -0.47053 -0.31075 0.42016 -0.47084 0.57847 -0.36965 -0.45316 0.079414 0.53401 0.32481 0.12712 0.047581 -0.288 0.24929 -0.32262 0.099017 0.30443 0.17225 0.33816 0.003226 0.33626 -0.077788 -0.33863 0.061143 -0.42091 0.29814 -0.5183 0.087471 0.2802 -0.11798 0.47456 -0.61125 0.31247 0.049805 -0.031555 0.61697 -0.33001 0.12427 0.070855 0.2705 -0.2829 0.0898 0.14297 0.0059056 -0.16569 -0.2306 0.020454 0.000586 -0.28661 -0.090772 0.15221 0.03288 0.14413 -0.13168 -0.063058 0.12023 0.19475 -0.017624 0.21213 -0.12862 0.061664 0.18514 -0.024515 -0.23556 -0.024806 -0.21322 0.45605 -0.42252 0.27319 0.082384 0.42372 0.073816 0.25381 0.19187 -0.22716 -0.034917 -0.10181 -0.04269 0.019798 -0.20857 -0.27928 0.050227 0.17854 -0.30329 0.11608 -0.12268 0.18156 0.025519 -0.057733 -0.079345 -0.048675 0.45435 -0.36863 0.43911 -0.2918 0.34562 0.030007 -0.26894 -0.0324 0.14797 -0.053713 -0.11128 -0.21183 0.20128 -0.03768 -0.092891 -0.30912 -0.41371 -0.10959 0.12892 -0.14964 -0.1961 0.3055 -0.2457 -0.33971 0.28237 0.18742 -0.28622 -0.098613 -0.0964 0.08738 0.3193 -0.34776 0.23701 -0.14506 -0.21923 0.19975 0.15121 0.11899 -0.22797 -0.34336 0.28257 0.15941 0.26463 0.08258 -0.025888 -0.11976 0.04127 -0.0439 -0.42686 0.30065 0.02145 0.30938 -0.18096 0.12659 -0.25614 0.18475 0.24334 -0.42579 0.37693 -0.024523 0.29478 0.022947 -0.071888 -0.14516 0.071121 0.23589 -0.052201 -0.20801 0.12822 0.11829 -0.243 0.084552 0.34146 0.20476 0.027681 -0.034157 0.46726 0.17727 -0.059439 -0.3901 -0.16088 -0.23533 -0.043674 0.034491 0.28691 0.012334 0.33048 -0.19017 -0.072923 0.037366 0.24073 -0.19562 -0.19734 0.26492 0.1295 -0.55131 0.31843 -0.22282 0.0078694 -0.73182 0.375 0.059296 -0.25797 0.14579 -0.35147 -0.0027614 -0.34175 -0.12688 -0.020118 -0.053202 -0.11081 0.30341 -0.065122 -0.21511 -0.5311 -0.16207 0.019867 0.15786 0.78613 0.012143 0.015971 0.18346 0.28673 -0.21072 0.30161 -0.040242 -0.25333 -0.0065354 -0.37729 -0.15926 -0.45565 0.25578 0.078616 0.33208 -0.08113 -0.14867 -0.079487 -0.034172 -0.20339 -0.22585 -0.16683 -0.21876 0.25465 0.1593 -0.015974 -0.13669 -0.29164 0.030526 0.041802 -0.096717 0.44356 -0.54278 0.077223 -0.082997 -0.12697 0.20021 0.26937 -0.10826 -0.31257 0.31746 -0.25124 0.40201 -0.30297 0.09136 -0.34086 -0.14363 0.50389 0.047966 -0.14413 0.011738 -0.0044856 0.17149 -0.12334 -0.23473 0.14298 -0.08545 0.096904 0.25732 0.012672 -0.10654 0.33716 0.059173 0.18383 -0.087287 -0.39033 0.13436 0.27627 0.22779 0.24488 0.23496 0.22106 0.17456 -0.25124 -0.34529 0.06013 -0.03872 -0.0010358 0.4642 -0.10676 0.060078 -0.062075 -0.24843 0.24237 -0.085249 -0.29781 0.23815 -0.40061 0.036451 
bucolic 0.45605 0.14272 -0.089507 0.20545 0.19552 0.17482 -0.035446 -0.11709 0.18543 0.46487 0.34446 0.38703 -0.026327 0.075418 -0.31936 -0.38958 0.10688 0.36804 0.13481 0.21503 -0.044389 0.53682 -0.26016 0.04188 -0.072938 0.13488 -0.11322 0.043823 0.25326 -0.14862 -0.087776 0.64723 -0.485 0.25661 0.48226 -0.14369 -0.30071 -0.42789 -0.43715 -0.054851 0.28393 -0.10071 -0.016055 -0.0095068 -0.042526 0.40884 -0.080285 -0.12585 -0.62757 0.29943 0.36178 0.30736 -0.1431 0.19854 -0.22381 0.56711 -0.05695 0.033587 0.30674 0.25944 0.18285 0.38791 0.28334 -0.078759 0.020278 -0.55085 0.024947 0.2898 0.24617 -0.31014 -0.2521 0.56152 0.16886 -0.047138 0.18932 0.23637 -0.093756 0.19236 0.11455 -0.074625 -0.19748 0.12812 0.14908 0.092068 -0.46991 0.32322 0.30935 0.19515 0.3686 -0.20859 -0.12414 -0.49401 0.67992 0.081818 0.26719 -0.17267 0.28534 0.14739 -0.22047 -0.094074 0.032055 -0.18616 0.33483 -0.12783 -0.29376 0.026475 -0.42322 -0.0062141 -0.088034 0.14152 -0.41714 0.026034 -0.29769 0.14547 0.0011302 0.017853 -0.04135 -0.35442 -0.21307 -0.090909 0.30082 0.11815 0.34126 -0.088876 -0.28882 -0.19355 0.13906 0.13168 0.11404 0.17876 0.055397 -0.112 0.34305 0.33335 0.23869 0.079215 0.18304 0.16515 -0.32727 -0.052764 0.25777 0.31865 -0.24724 0.18606 -0.19252 0.046197 -0.40615 -0.15271 -0.12735 -0.4136 0.0028079 -0.014173 -0.057616 -0.18382 0.039692 0.23982 -0.22555 -0.26104 0.46439 -0.2144 0.11858 0.53801 -0.060421 0.14836 0.16939 -0.20469 -0.24256 -0.1133 0.13611 -0.15734 -0.18523 -0.010954 -0.22358 0.0079365 -0.1691 0.41701 0.056299 0.33583 0.051947 -0.12368 0.37507 -0.094286 0.31208 -0.46647 0.16495 0.38674 -0.11974 -0.39176 0.013336 0.13123 0.4292 -0.2011 -0.22977 0.46514 -0.13584 -0.08542 -0.019026 0.2115 -0.10919 -0.12608 -0.0040344 -0.044779 0.0089266 0.094975 0.19158 -0.63503 -0.19634 0.20358 0.071734 0.41245 0.70196 0.20276 -0.1295 -0.026361 -0.088438 -0.059856 -0.044918 -0.31419 -0.24451 -0.14258 0.45469 -0.040535 -0.14377 0.33918 0.057047 0.1263 -0.27504 0.0089729 0.17366 -0.035608 0.11031 0.17048 -0.12795 -0.2743 0.018757 0.062198 0.27941 -0.10093 -0.27349 -0.0051489 -0.35271 -0.016051 -0.16435 -0.080702 -0.022604 -0.11023 -0.068198 -0.19133 -0.098382 -0.042721 0.30198 -0.13859 0.19294 -0.39793 -0.046466 0.12985 0.018768 0.10011 0.16785 0.16617 0.16468 0.29106 0.034766 0.46625 -0.16478 -0.25768 0.16797 0.32584 -0.24547 0.35394 0.22026 -0.021752 0.040466 0.23583 -0.018019 -0.25587 -0.5014 0.27479 -0.27121 0.16825 0.32584 0.52294 0.12468 0.021793 -0.15935 -0.26584 -0.27735 0.098405 -0.04789 0.041632 -0.16075 -0.090635 -0.097589 -0.22323 0.10653 0.37626 -0.064485 0.47258 0.36478 0.10576 
aryan -0.10928 -0.61219 -0.57706 0.58554 0.060812 0.44819 -0.50348 -0.10459 -0.060889 0.22952 0.14512 0.0097117 -0.021551 -0.22976 0.2539 -0.30646 0.032653 0.13114 0.23006 0.17705 -0.13164 0.70139 -0.20672 -0.023574 0.062365 0.20919 0.23026 -0.14284 0.054084 0.43166 -0.39066 0.079591 -0.76478 -0.13393 -0.15757 -0.082358 0.0047068 -0.19352 0.11067 -0.30999 0.53121 0.17698 0.40478 -0.28646 0.24012 -0.1146 -0.28715 0.034151 -0.079766 -0.26225 -0.013949 -0.20834 -0.022163 0.0079307 -0.13772 0.041771 0.14348 -0.15545 0.16822 -0.37458 0.030907 -0.14881 0.14023 -0.29226 -0.11675 -0.11358 -0.39384 0.35876 -0.10227 0.52885 0.29948 0.0065757 0.49089 0.083072 0.0001549 -0.39074 -0.20663 -0.36907 -0.030345 -0.15831 -0.17661 0.27118 -0.38932 0.30932 0.016988 -0.14808 -0.42518 -0.065955 -0.25873 0.19346 -0.27596 0.05724 -0.054591 -0.20645 0.39512 0.23666 -0.029485 -0.16806 -0.16835 -0.12852 0.026871 0.0034953 -0.031937 -0.0050745 0.22638 -0.0061441 -0.052922 -0.2867 -0.035529 0.30197 -0.18762 -0.32247 -0.1837 -0.35306 0.25675 -0.33532 0.14433 0.12489 -0.22385 -0.24261 -0.16861 0.25818 -0.080518 0.22613 -0.27997 -0.33739 -0.13918 0.44669 0.10092 0.12993 0.09834 -0.045577 0.11547 -0.3543 0.31213 -0.0038466 -0.050974 0.037118 -0.5169 0.35731 -0.56888 0.46609 0.55417 0.16221 0.39338 0.29166 -0.1884 0.41795 -0.27404 -0.014754 0.71915 -0.32892 0.11669 -0.0026791 -0.17489 0.22946 0.068065 -0.038706 0.17778 0.22405 0.67183 0.1177 -0.36219 0.17639 0.20435 0.20041 -0.010336 -0.37592 0.66155 0.33725 0.51207 -0.25528 -0.59151 0.27501 -0.66419 -0.38354 -0.24646 0.03324 0.31676 -0.19415 0.013654 -0.11725 -0.19099 0.32421 0.084064 0.39486 -0.23961 -0.1426 0.52818 0.38326 0.16199 -0.57913 0.023388 0.31524 -0.15674 0.29827 0.088048 -0.3573 -0.15881 -0.17857 0.27846 -0.41754 0.56614 0.39447 -0.07813 0.11427 -0.32333 -0.090721 0.34888 -0.26705 0.12292 0.546 0.16949 0.29198 0.39016 -0.51426 0.088899 -0.19438 -0.32583 -0.12935 -0.54928 -0.14671 -0.21647 0.34464 -0.18489 0.23109 -0.046415 0.25117 -0.029109 -0.12829 -0.059664 -0.17728 0.11717 -0.24568 0.15264 0.7637 -0.15211 0.18272 0.36916 0.18035 -0.088718 -0.056217 0.46495 0.19489 -0.060052 -0.042117 -0.31913 0.46485 0.39461 -0.3794 -0.041673 0.065637 -0.10912 -0.24568 -0.3112 -0.16489 -0.11274 -0.45308 0.3767 0.3476 -0.046627 0.34492 0.20462 0.17483 -0.1425 -0.38216 -0.29742 -0.39767 -0.24378 -0.16899 -0.46308 -0.17268 0.49351 -0.23885 -0.11343 0.072713 -0.34354 -0.18647 -0.17028 0.14703 0.10061 0.28496 -0.11223 -0.11282 -0.30696 -0.14192 -0.057234 0.44989 -0.099409 0.61131 -0.70417 0.20682 0.43992 -0.12667 0.12144 0.13261 -0.24292 0.43461 -0.52011 0.15277 
north -0.35173 -0.24588 0.29002 0.01038 -0.39591 0.10845 -0.3468 -0.14316 -0.21769 -0.079886 -0.13877 -0.18797 -0.29984 -0.43224 0.21746 0.23507 -0.27805 -0.38105 -0.026755 -0.050366 -0.22786 0.01216 -0.21298 -0.52414 -0.21047 -0.084522 0.06897 -0.016041 0.22446 0.26115 0.0066113 0.29262 -0.34089 0.32144 -0.0036412 -0.37594 0.19727 -0.3403 0.18388 -0.00055472 0.1909 -0.53316 -0.12414 0.16681 0.063028 -0.14766 -0.092875 -0.013795 0.33825 0.37718 -0.057419 0.18102 0.1408 -0.022599 -0.27983 0.37282 -0.57879 0.26959 -0.12646 0.63417 -0.42156 -0.05013 0.53742 -0.23982 -0.22946 0.069321 -0.25589 0.09822 -0.2886 -0.038916 0.22625 -0.02937 0.13192 -0.11102 0.15659 0.096269 0.096425 0.066744 0.043295 0.038188 -0.42387 -0.22873 0.2006 -0.090995 -0.098158 0.061701 -0.13792 -0.048255 0.15255 -0.037101 -0.14695 -0.2117 0.27132 -0.072324 0.41567 -0.16459 0.17986 0.21286 -0.024924 -0.0050874 0.053179 -0.074345 0.30061 -0.15417 0.021719 -0.05201 -0.13492 0.23503 -0.036303 -0.13226 0.080304 0.17024 -0.0063217 -0.18122 0.19659 0.21982 0.12146 0.24748 -0.27044 -0.08643 0.5188 0.044453 -0.49279 0.17155 0.48372 0.27477 -0.083277 -0.21206 -0.10542 0.10701 -0.0075891 0.15459 0.28196 -0.095733 -0.22339 -0.063739 -0.019588 -0.0010301 -0.3644 0.46939 -0.0037363 0.2942 0.15743 -0.06865 0.00094043 0.39128 0.10459 0.11952 -0.04157 0.27361 0.032299 -0.49393 -0.33467 0.13534 -0.43588 -0.21912 -0.1098 -0.025473 0.10009 -0.028363 0.040164 0.30543 -0.27888 0.088388 0.30091 -0.19512 -0.18836 -0.027664 0.2504 -0.04467 -0.19453 -0.060963 -0.33114 -0.042596 -0.2422 0.42779 0.057178 0.31021 0.061338 0.0014217 0.13917 0.091886 -0.045902 0.038462 0.33466 0.32037 -0.029663 0.12866 0.19928 0.38344 0.14287 -0.15502 -0.024203 0.25857 -0.088022 0.66842 0.20816 0.045199 -0.38967 -0.25518 -0.12764 0.052499 -0.079749 0.22945 -0.16209 -0.25174 0.20895 0.2153 0.46857 0.16736 0.26056 0.084719 -0.086858 0.13414 -0.052368 0.03267 -0.30151 -0.046147 0.2216 -0.11106 0.12424 0.31106 -0.14563 0.10532 0.11097 -0.081954 -0.051252 0.057353 0.41439 0.022266 0.068525 -0.061889 0.044335 0.33316 -0.024594 -0.16683 -0.046318 -0.26562 -0.23115 -0.14814 -0.19581 0.28897 -0.36354 -0.0047799 -0.092287 0.06229 0.099872 0.30455 0.096379 0.053364 0.25805 0.15006 0.15023 -0.13404 -0.059121 0.10372 -0.053321 -0.073458 0.25808 0.33082 -0.13965 0.18257 -0.15272 -0.024229 -0.010659 -0.18897 0.22965 -0.30649 -0.11131 -0.1433 -0.075968 0.025793 -0.20632 -0.17546 -0.2619 -0.14872 0.12713 0.082631 -0.20181 -0.0060808 -0.1854 0.075678 -0.20998 0.30342 -0.1625 -0.030245 -0.44455 -0.06019 -0.28762 0.56626 0.14212 -0.46936 0.35349 0.43567 -0.24817 0.0077127 -0.16132 -0.020381 -0.20395 -0.019061 
west -0.23022 -0.1885 0.37487 -0.090754 -0.143 0.074448 -0.28046 0.020945 -0.16023 0.27042 -0.063691 -0.23102 -0.30277 -0.27422 -0.091876 -0.004534 -0.17645 -0.32619 -0.14534 0.087537 -0.17129 0.57264 0.050563 -0.33022 -0.20491 -0.012055 -0.011214 -0.032217 0.20315 0.17706 0.10865 0.56499 -0.51063 0.47281 0.26769 -0.55486 0.0065369 -0.25456 0.22402 -0.047536 0.24688 -0.4632 0.087489 0.08417 0.22221 -0.20674 -0.24803 0.17683 0.58011 0.15979 -0.079743 -0.0070377 -0.076412 -0.026162 -0.27765 0.29924 -0.44762 0.3389 -0.096536 0.13908 -0.10287 0.0086852 0.39731 -0.041693 -0.3896 0.18858 -0.45481 0.002913 -0.24046 -0.031042 0.18377 0.20069 0.11562 -0.22354 0.20363 0.22379 0.086364 0.013349 -0.059724 -0.052704 -0.35884 0.012033 -0.032902 -0.18158 0.012058 0.1143 -0.20132 -0.087765 0.06333 -0.030226 -0.16293 -0.054469 0.18655 -0.086097 -0.065604 0.12602 -0.013543 0.15231 -0.017197 -0.010558 -0.06909 0.020935 -0.015075 0.034732 -0.29385 -0.080693 -0.077707 0.34864 -0.14539 -0.23841 -0.088829 -0.040528 0.013624 -0.18044 -0.18167 0.11913 0.37247 -0.24322 -0.022836 -0.18071 0.46606 0.076228 -0.23225 0.25922 0.2893 -0.019346 0.028829 -0.060213 -0.15494 -0.022322 -0.14887 0.0073079 0.10243 0.032892 -0.10351 -0.28096 0.067283 0.18409 -0.30343 0.31617 -0.043863 0.2289 0.12518 0.22327 -0.059106 0.30298 -0.20744 0.10665 -0.14539 0.15437 0.097895 -0.43843 -0.45291 0.036563 -0.54548 -0.18928 -0.076706 -0.068394 -0.023191 0.11957 0.20368 0.25463 -0.14427 0.16607 0.28092 -0.41778 -0.42035 0.12057 0.22952 -0.051544 -0.25983 -0.31354 -0.57031 -0.128 0.0014509 0.28286 -0.15459 0.47436 0.23196 -0.26889 -0.0085333 0.074936 0.034207 0.05232 0.47449 0.46527 -0.093237 -0.05967 0.18709 0.069494 0.25455 0.12868 -0.08905 -0.054442 -0.042243 0.35705 0.10859 -0.065024 -0.29784 -0.37514 -0.060739 0.5036 -0.22034 -0.15927 -0.19913 0.089002 -0.14652 0.30927 0.41474 0.22791 0.48806 -0.08955 0.058518 -0.12122 0.10708 0.1133 -0.058343 -0.31574 0.021088 -0.19461 -0.0088591 0.24892 -0.07685 0.15198 0.12639 0.0078407 -0.0017616 0.1475 0.27009 -0.0026717 -0.063371 0.059108 0.041185 0.3001 0.065116 -0.17116 -0.32352 -0.17752 0.035349 -0.066862 -0.27052 0.15583 -0.37985 0.12263 -0.13277 0.13617 -0.20294 0.044465 -0.052807 0.055784 0.040152 -0.044702 0.10811 -0.49215 -0.059928 -0.0087355 0.049496 -0.1503 0.3608 0.17151 -0.10112 0.35521 0.082518 0.10012 -0.10342 0.11481 0.1421 -0.2508 -0.17288 -0.088817 -0.17447 -0.10517 -0.060858 -0.17384 -0.028636 -0.17759 0.19624 0.31273 0.067919 -0.16604 -0.24587 -0.14487 -0.53728 0.21482 -0.5106 -0.051098 -0.093995 -0.10193 -0.35618 0.12931 -0.08629 -0.62607 0.090887 0.39347 -0.32358 -0.20125 -0.32457 -0.27514 -0.4336 0.050873 
frontier 0.21722 -0.15393 0.23851 0.41166 -0.025971 0.17408 -0.20701 0.53802 -0.044295 0.15631 -0.13991 0.40078 0.079358 -0.2119 -0.055201 0.22026 -0.021639 -0.39522 0.19835 0.35885 -0.037674 0.39272 -0.22044 -0.33194 -0.18205 0.0067439 -0.040113 -0.23732 0.16989 0.10008 0.32722 0.17196 -0.47277 0.50038 0.075457 0.11228 0.33791 -0.22356 0.2443 -0.22834 0.057699 0.2092 -0.1841 0.05443 0.20582 0.065766 -0.31134 -0.14458 0.25984 0.15787 -0.034904 -0.0197 0.00028498 0.32227 -0.60271 0.083831 -0.0036431 0.20181 -0.10943 0.23905 0.18423 0.075101 0.031216 -0.10084 -0.031846 0.09711 -0.56025 0.33396 -0.49414 0.0029559 -0.038976 0.25055 0.076387 -0.27186 -0.083334 -0.11024 0.13079 0.095601 -0.18256 0.22362 -0.29522 -0.026706 0.0017536 -0.15457 -0.1403 0.38312 -0.15762 0.3527 -0.12961 0.16266 -0.53137 -0.41166 0.079371 0.25055 0.0015125 -0.077203 0.078185 0.20932 -0.12761 0.095284 -0.097178 -0.070918 0.19501 -0.019511 -0.20102 -0.26313 0.058177 -0.042303 -0.079433 0.13657 0.11277 -0.44218 -0.087775 -0.012989 -0.03904 0.18129 0.33239 -0.06335 0.024223 0.086356 0.55231 -0.045902 -0.12352 0.25239 -0.034514 0.33223 -0.32933 0.095098 -0.032867 0.103 -0.0028156 0.21835 -0.092381 -0.3632 0.0010123 -0.034558 -0.011098 -0.22667 -0.10722 0.78281 0.12586 0.35195 -0.10171 0.54534 0.033746 0.19974 -0.32244 0.05365 0.098799 -0.04419 0.27561 -0.29293 -0.30756 0.34482 -0.24517 -0.056189 -0.25507 0.24546 0.23453 0.12992 -0.019991 0.29554 -0.019603 0.10638 0.17154 0.24043 -0.032442 0.059216 -0.0016653 0.088588 -0.42716 0.059396 -0.12495 -0.38761 -0.21634 0.5139 0.3077 0.089893 -0.18634 -0.0056711 0.18619 0.085064 0.60362 0.10433 -0.1995 0.42506 0.28491 -0.3317 0.023789 0.27443 -0.20138 -0.51954 -0.19604 -0.21411 0.26956 0.16843 -0.3123 -0.4123 -0.46255 -0.25543 0.46083 -0.0661 -0.15557 0.11307 0.04406 -0.0085922 -0.2115 -0.36873 0.26429 0.18373 0.65386 0.080145 -0.049168 0.19721 -0.044884 0.2296 0.39403 0.019231 -0.36592 0.026016 0.28018 0.28274 -0.11808 0.50076 0.043094 0.10563 0.31526 -0.12631 -0.11185 0.23285 0.051703 -0.019833 -0.13402 -0.17598 -0.037049 -0.28457 -0.060688 -0.21581 -0.16131 0.12178 -0.11879 -0.34929 -0.079488 0.10148 0.1156 -0.23301 -0.031579 0.086356 0.29832 0.055619 0.13559 -0.055137 0.013785 0.00085962 -0.11547 0.41039 -0.15799 -0.021467 0.16216 0.059972 0.35082 -0.13409 0.0098139 0.17116 -0.44126 -0.036742 0.057882 -0.13587 0.24546 0.27554 -0.1282 -0.12165 0.16221 0.23206 -0.13688 -0.10881 -0.22262 0.17718 0.0028782 -0.10274 0.1187 -0.059765 -0.010458 0.18738 0.028004 -0.39068 0.06152 -0.022009 -0.015685 0.10816 0.33303 0.14207 -0.084598 -0.050511 -0.27968 0.005761 -0.22594 0.089617 -0.16223 -0.27504 
ganga -0.3038 0.36588 -0.54818 0.87142 0.16279 0.0082016 -0.11878 -0.081876 -0.43862 0.38189 0.46155 0.15215 -0.024348 -0.13661 0.13708 -0.52005 -0.062981 0.058424 -0.038995 0.72359 -0.05458 0.53214 -0.61748 -0.33937 0.30207 0.14885 0.024977 -0.66012 0.53088 -0.46559 -0.083846 0.20274 -0.65759 0.25218 0.31036 0.35857 0.106 -0.09347 -0.19954 -0.12432 0.3476 0.33368 0.15425 -0.49599 0.18734 0.24365 -0.16932 -0.45578 -0.081209 0.34397 -0.4354 -0.13081 -0.1034 0.22574 0.7046 0.067227 -0.041613 -0.058559 -0.12135 -0.3515 0.24452 -0.032145 0.095474 -0.0010703 -0.23198 -0.095961 -0.27961 0.0062608 -0.26644 0.1147 -0.098833 -0.052161 0.29458 0.12396 -0.085436 -0.3047 0.34755 0.41405 -0.25703 -0.056451 0.14785 -0.027142 -0.011382 -0.051833 -0.3499 -0.20085 -0.75704 0.17799 -0.26669 0.42484 0.44582 -0.27758 -0.08004 -0.20432 0.40493 0.41727 0.017539 0.13755 0.044762 -0.029241 -0.12984 0.34376 0.067729 -0.17469 -0.043936 -0.35514 -0.28809 0.078751 -0.51519 0.18737 0.15645 0.27286 -0.2451 0.024738 -0.33808 -0.71352 0.045936 0.42057 0.15313 0.05161 0.82182 0.051708 0.10572 0.31853 0.27153 -0.37462 -0.34051 0.27672 0.051884 0.17704 0.073302 0.10518 -0.042741 0.31564 0.19616 0.22284 -0.11135 0.079306 0.048562 0.32835 -0.40672 0.12687 0.040668 -0.13003 0.25525 0.14343 -0.099932 -0.20854 0.33861 0.6429 0.50256 -0.25538 -0.15768 -0.043519 0.27305 0.034577 0.45998 -0.22441 -0.076645 -0.14565 0.26322 -0.36879 0.48503 -0.11511 0.32207 -0.052263 0.060673 0.15975 0.44436 0.62709 0.29248 0.13888 -0.71565 -0.16961 -0.38456 0.14925 0.19078 -0.015933 0.11482 0.18159 0.13718 -0.37318 -0.22094 -0.4333 0.27062 0.50772 -0.088378 -0.26064 0.38511 0.19087 -0.46495 -0.0023204 0.082623 -0.098355 -0.81095 -0.23852 0.21274 -0.41205 -0.32443 -0.15133 0.43175 -0.19246 0.49885 0.15884 0.045458 -0.13058 0.17279 0.10364 0.50077 -0.13352 0.70671 0.14515 0.27367 -0.41404 0.24177 -0.37171 0.06335 -0.47357 0.17127 0.021278 0.027662 0.26937 0.3822 0.03169 0.2182 0.011958 -0.23989 -0.14559 -0.40784 0.15893 0.017135 -0.14891 -0.11593 0.023287 -0.37642 -0.05701 -0.23277 -0.2601 0.21931 -0.097403 0.0017264 -0.44982 -0.30757 0.13133 0.20111 -0.24484 -0.020261 0.55952 0.44423 -0.49841 0.53867 -0.088575 0.045432 -0.27295 -0.1859 0.13114 -0.14452 -0.068273 0.51414 -0.1044 -0.051863 0.22117 -0.13202 -0.34785 -0.293 -0.70383 -0.13567 -0.074484 -0.039973 -0.030119 -0.31458 0.098355 -0.075053 0.13747 -0.16518 0.45345 0.18012 -0.41954 -0.19241 -0.16861 0.26188 0.14958 -0.14319 0.49468 -0.45982 0.13979 0.1324 0.08754 0.082357 0.38218 -0.56463 -0.00098042 0.42465 -0.3354 0.049193 -0.49412 -0.23159 0.30078 -0.32758 0.018061 
yamuna -0.30322 0.095347 -0.55566 0.9669 0.26239 -0.14714 -0.060769 -0.14065 -0.49472 0.033063 0.18019 -0.049606 0.21464 -0.33491 0.13268 -0.29029 -0.39112 -0.193 -0.026428 0.89278 0.36895 0.38161 -0.67418 -0.20067 0.20873 0.19962 0.12202 -0.54428 0.83459 -0.11169 0.14009 1.0178 -0.52776 0.11328 0.32914 0.31297 -0.060814 0.16987 0.10071 -0.3444 0.33746 0.37251 -0.051361 0.02727 0.41435 0.19513 0.16182 -0.4597 0.23909 0.16146 -0.34512 -0.29855 -0.21591 0.32073 0.0015508 0.25192 0.21045 0.13896 -0.025815 -0.27763 0.16333 -0.16921 -0.29519 0.037698 -0.10694 -0.15145 -0.42192 0.29392 0.32468 0.16611 -0.21632 -0.068755 0.44636 0.17499 -0.093244 -0.3521 0.19259 0.55177 -0.25857 -0.068715 0.12584 0.05403 0.1505 0.13471 -0.82994 0.069271 -0.43085 0.028675 -0.084657 0.13422 0.095672 -0.16002 -0.40665 0.02673 0.093933 0.38449 0.15578 0.41584 -0.30986 -0.01303 -0.013576 0.42003 0.28423 0.028431 -0.323 -0.089583 -0.27992 0.023878 -0.5474 0.60374 -0.36089 -0.11035 -0.10792 0.18739 -0.085661 -0.79818 0.064108 0.57073 0.19424 -0.017214 0.835 0.22589 -0.0082627 0.54321 0.065332 -0.14693 -0.53041 0.23302 0.098514 0.43096 0.109 0.059407 0.31262 -0.001092 0.23349 0.25792 -0.25651 0.26566 -0.43683 0.43017 -0.38213 0.20599 -0.032842 0.24133 0.45317 -0.099957 -0.46665 -0.17861 0.14065 0.51329 0.27121 -0.49428 0.11325 0.071219 0.84405 0.0076906 0.40483 -0.15464 -0.062574 -0.01734 0.35833 0.10735 0.53263 0.070582 0.096109 -0.31577 0.0080092 -0.31393 0.3051 0.36697 -0.11346 -0.12832 -0.76273 -0.42308 -0.32748 0.14042 0.0049166 0.083528 0.54374 -0.1535 -0.27077 -0.20327 -0.40098 -0.34625 0.61214 0.65646 -0.038691 -0.27611 0.42379 -0.018407 -0.12984 -0.16332 0.084098 -0.062134 -0.67768 -0.040833 0.101 -0.37486 -0.49164 0.077966 0.57538 -0.044644 0.60068 0.38157 0.13422 -0.098801 -0.17808 0.095847 0.29737 0.028926 0.47341 0.088418 -0.10968 -0.21483 0.60617 -0.56961 0.11765 -0.55114 0.16513 -0.68207 0.10424 0.28129 0.54408 0.15579 0.47989 0.17561 -0.000447 -0.41524 -0.27168 0.04539 0.037444 0.033099 0.30421 -0.18521 -0.01712 -0.089276 -0.391 -0.28728 0.071439 -0.1075 -0.13799 -0.27912 -0.49781 0.11308 0.059266 0.1308 -0.16564 0.33262 0.29598 -0.40357 0.60113 -0.25333 -0.062809 -0.27166 -0.21123 0.29364 -0.25951 -0.0021053 0.56672 0.10416 -0.10361 0.32988 -0.32751 -0.18779 -0.44737 -0.50398 -0.29642 0.13687 -0.2654 0.20809 -0.11799 -0.13465 0.32396 -0.22949 -0.38129 0.38503 -0.066952 -0.045839 -0.13169 0.051421 0.078315 0.31217 -0.0054402 0.082704 -0.61612 0.38126 0.061845 0.013596 0.075858 0.46353 -0.43942 0.27171 0.28999 -0.36775 0.64163 -0.089008 -0.50321 0.38016 -0.23488 0.12751 
fluid 0.17741 -0.11223 -0.33314 0.45022 -0.53413 -0.21156 0.013112 -0.24644 -0.33249 0.13348 0.13177 0.30058 -0.061256 0.16207 -0.046943 -0.09927 0.086184 0.1347 0.17787 0.67025 -0.082954 0.049938 -0.016361 -0.066952 -0.22102 0.077942 0.0069681 -0.17656 0.043954 0.0076144 -0.01462 0.38639 -0.6837 -0.0011617 -0.39087 -0.094224 0.20404 -0.16618 0.22275 -0.31391 0.24504 0.35832 -0.23201 -0.044514 -0.11224 0.16152 -0.026453 0.053807 0.2507 0.072552 -0.1971 -0.047692 -0.39307 -0.72685 0.3482 0.025662 0.35684 -0.060525 0.44454 -0.31407 -0.19179 -0.026575 0.049031 0.09624 0.20007 -0.1693 -0.33935 -0.083811 0.16389 -0.61809 -0.43766 -0.26325 0.020959 0.12118 0.085155 0.14425 0.11552 0.31814 0.35857 -0.65495 -0.088767 -0.021114 -0.237 -0.33306 -0.55222 0.19756 0.31029 -0.056755 -0.23682 0.07042 -0.24298 0.036019 0.086031 -0.10022 0.32676 0.028869 0.14725 0.17135 -0.1237 0.21767 -0.097873 -0.28488 0.3828 0.029568 0.21847 -0.031123 -0.40888 0.50353 -0.18119 -0.094963 -0.094439 0.19622 -0.31055 -0.07943 -0.006948 0.23386 -0.19901 0.20538 -0.16127 -0.19361 0.090112 -0.36566 -0.34573 0.356 0.16526 0.19754 -0.38927 -0.028621 -0.11413 0.52163 -0.15184 -0.085003 -0.18526 -0.001833 0.19234 -0.11899 -0.27228 0.31155 -0.1455 0.5598 0.21523 -0.058426 0.19928 0.0094942 -0.3265 -0.12897 0.18791 0.68275 -0.051105 -0.27828 0.1542 0.21375 0.14632 -0.18402 -0.0019004 -0.096708 0.5884 -0.081855 -0.14164 -0.17478 -0.30364 0.24186 -0.051195 0.12717 0.17504 0.31984 -0.48759 -0.30485 0.48694 0.41649 -0.12513 -0.18986 -0.12424 0.51507 -0.12836 0.19915 -0.18254 -0.58303 -0.15721 0.11143 0.08842 -0.12839 0.16144 0.0043528 0.10363 0.50447 0.097859 0.15769 0.028434 -0.42437 -0.17537 -0.046703 0.34723 -0.044873 -0.39802 -0.25206 -0.067844 0.29626 -0.43181 -0.13606 0.22916 0.24594 0.0096931 -0.49711 0.10814 -0.34077 0.089402 -0.15401 0.1722 -0.097599 0.3458 0.35576 -0.054779 -0.042005 0.025007 -0.1417 -0.29996 -0.5619 0.25541 0.2031 -0.10043 -0.4665 0.065256 0.34452 -0.026661 0.031093 -0.41069 -0.55929 0.27728 -0.074518 0.044369 -0.24179 -0.10522 -0.28504 0.23972 -0.15492 0.42845 -0.10634 0.17944 0.34204 0.17956 -0.072917 0.044788 -0.1409 -0.52168 0.41411 -0.24195 -0.32547 -0.39187 0.26595 -0.29598 -0.24665 -0.27539 0.48532 0.09286 0.23218 -0.11886 -0.24409 0.0010891 -0.32456 0.0030345 0.46931 0.18718 0.0020748 -0.069002 -0.52589 -0.62382 -0.043529 0.31145 -0.038367 -0.27464 -0.21559 0.2539 -0.019189 -0.22848 -0.15378 0.062061 0.10714 -0.20089 -0.045664 0.33714 0.0066379 0.08635 -0.30359 0.14663 -0.018876 0.5216 -0.26004 -0.50343 0.29631 -0.20426 -0.20352 0.1151 0.07768 -0.44603 -0.1104 -0.31719 0.36581 0.33784 0.16342 
gupta 0.37783 0.42228 -0.50883 0.51868 -0.22448 0.55134 0.15038 -0.62417 -0.3114 0.69818 0.42211 0.11175 0.066206 -0.34506 -0.049553 -0.53204 0.14526 0.035631 0.26834 0.54202 -0.23517 0.52334 -0.56114 -0.31776 -0.13405 -0.11865 -0.0076325 -0.23547 0.28695 0.56318 -0.32493 -0.19389 -0.044095 0.28235 -0.05524 0.15365 0.13751 0.069518 -0.1582 -0.29673 -0.31303 0.11696 0.10981 -0.31319 0.20533 -0.27366 0.14737 0.22606 0.041139 0.024606 -0.45323 -0.039329 -0.19526 0.23792 0.16201 -0.30539 -0.067676 0.078066 0.10625 -0.24399 0.090431 0.11635 0.21597 -0.093819 -0.33581 -0.036432 -0.38834 0.10423 -0.1752 -0.22602 -0.055134 -0.19486 0.52489 0.31422 0.30962 -0.35014 0.3449 0.26949 -0.074309 0.022919 0.29891 0.14543 0.14907 -0.12154 0.019391 0.018011 -0.33806 -0.1419 0.036597 0.19189 -0.15301 -0.23722 -0.16751 0.1344 0.44164 0.1362 0.081297 0.012358 0.036747 -0.42581 0.25841 -0.044571 -0.15722 -0.20448 0.10165 0.086504 -0.66208 -0.24862 -0.26546 0.41154 -0.31333 -0.31726 -0.26938 -0.043758 0.12385 -0.29944 -0.019577 0.48499 -0.14503 0.39173 0.19106 0.40721 0.16733 0.45067 0.049419 -0.0040941 -0.68117 0.30453 0.053238 0.085456 0.043416 0.1131 -0.16435 0.074587 0.51193 -0.12538 -0.30648 0.0403 0.077913 0.46537 -0.14486 0.25066 0.28582 0.21211 0.48147 0.39542 -0.036981 -0.10798 0.29196 -0.031 0.4115 -0.27169 -0.21575 0.44351 0.07141 0.063345 0.10498 -0.28124 -0.075709 -0.1669 0.62695 -0.10772 0.12858 -0.1937 0.40888 0.59015 0.26358 -0.39374 0.4596 0.4423 0.058844 0.3033 -0.58922 -0.18459 -0.11899 0.026693 -0.46628 -0.23811 0.40126 -0.23745 0.18165 -0.010106 -0.14085 -0.45996 -0.073636 0.22987 -0.24972 -0.45591 0.21151 -0.38601 -0.3934 0.41373 -0.060094 -0.54068 -0.16733 0.071418 -0.13626 -0.23744 -0.62488 -0.24887 0.46393 -0.045022 0.49927 0.18058 -0.064483 0.041815 -0.23709 -0.15059 0.17509 -0.46488 0.3797 0.16884 0.38296 -0.18422 0.033637 -0.19486 0.77276 -0.45789 -0.42013 -0.21761 -0.037736 -0.21997 0.24153 0.40322 0.18565 0.12601 0.146 -0.18365 -0.097445 -0.017574 -0.065585 -0.10506 -0.14289 -0.23812 -0.39164 -0.02696 0.11928 -0.124 0.24378 0.16478 -0.12062 0.12634 -0.41141 -0.046429 -0.15511 0.19144 -0.28706 0.20298 0.19779 -0.1954 0.54554 -0.039192 -0.084191 -0.029563 -0.26486 0.11074 -0.36401 0.096665 0.28847 -0.2627 0.2938 0.27447 0.33704 0.36305 -0.060612 -0.30866 0.020208 0.059906 -0.66958 -0.42127 -0.65518 0.19573 0.14371 -0.25481 0.24283 0.50604 0.55098 -0.32776 -0.10786 -0.34772 -0.016125 0.099487 0.0073258 -0.071991 -0.34367 0.18857 -0.15073 0.60111 0.51056 0.52159 -0.20073 -0.18033 0.40152 0.22017 0.27109 -0.48965 -0.20116 -0.25337 -0.49225 -0.13548 
dynasty -0.0014617 0.051388 -0.33969 0.37722 0.0766 0.22876 -0.26004 -0.64521 -0.35509 0.2888 0.24748 -0.26211 -0.15314 0.076224 -0.13119 -0.35954 0.19304 0.27666 0.036219 0.105 -0.16802 0.27473 -0.60156 -0.21573 0.11289 0.10479 0.036048 -0.52093 0.1076 0.2213 -0.14416 -0.20483 0.48756 0.41033 -0.29195 -0.16403 0.9436 -0.11975 -0.15752 0.069511 -0.14502 -0.44455 0.048455 -0.097765 0.18937 0.0032215 -0.19601 0.01929 0.21669 0.10366 -0.10736 -0.13773 -0.54059 0.1982 0.079927 -0.0050043 0.082755 -0.17111 -0.046053 0.1998 0.59269 0.22463 0.12112 -0.015983 0.089166 -0.42152 -0.47912 -0.027303 -0.32228 -0.25909 0.35816 0.22508 -0.068966 -0.31804 -0.17601 0.081466 0.56974 0.39889 -0.052024 0.17008 0.043353 0.18953 0.34594 -0.33743 -0.032271 0.075225 -0.29771 -0.094976 0.19537 0.11479 -0.14445 -0.32582 0.021033 -0.057891 0.54221 0.13753 0.11031 -0.21277 0.19425 0.19856 0.38596 0.065111 0.062516 0.20931 0.11889 -0.29717 0.2248 -0.07074 0.17499 -0.045933 -0.078695 -0.63579 -0.32735 0.076361 0.024203 0.039312 0.25447 0.5126 0.24078 0.26088 0.34124 0.20775 0.2678 0.029762 -0.0032764 0.46393 -0.64223 0.085873 -0.17719 0.34541 -0.1175 -0.11889 0.67482 -0.34071 0.12458 0.70926 -0.38717 -0.15674 -0.089002 0.073125 0.069083 0.017904 0.34015 0.11156 0.21558 0.43628 -0.31617 -0.31073 -0.11253 0.10048 0.11355 -0.24451 -0.30536 0.18473 -0.43985 -0.63493 0.47022 0.3371 -0.041594 -0.55018 0.41326 -0.15113 0.42176 -0.20582 0.85321 0.14483 -0.092394 -0.32892 0.65914 0.15736 -0.20435 -0.56918 -0.19692 -0.0098884 0.0085659 0.03702 0.18928 0.14991 0.20002 0.31551 0.26988 0.20383 0.087759 -0.43122 -0.14867 0.65767 0.51918 -0.6344 0.54164 -0.17299 0.51385 -0.68936 0.27109 0.3168 -0.2117 -0.00048861 -0.31987 -0.15251 -0.21659 0.080768 0.25919 -0.81149 0.18851 0.14662 0.56801 0.17194 -0.32827 -0.12486 0.47069 0.074229 0.6368 0.071973 -0.0075717 -0.56135 0.3017 -0.2145 0.27908 0.076977 -0.52304 0.20204 0.0060119 0.00040155 -0.14716 -0.026304 -0.020671 0.074481 -0.054418 -0.20605 -0.34569 -0.40151 0.072961 -0.1971 -0.41467 0.42863 -0.3406 0.043601 0.48957 -0.30772 -0.17445 0.38526 0.2898 -0.19017 -0.20175 -0.16669 0.21747 -0.33246 -0.21104 0.19839 0.26612 -0.54624 0.31674 0.24277 -0.019887 0.27813 0.042445 -0.18221 -0.10448 -0.32738 0.14333 0.28 -0.38222 0.1605 0.11057 -0.36665 0.19313 -0.66481 0.13688 0.095042 0.11927 -0.015964 -0.46462 0.061714 -0.1385 0.16208 0.0039629 -0.28278 -0.033653 0.35348 0.042703 -0.38951 -0.069397 0.56272 -0.16176 -0.073171 -0.31924 0.062178 0.096117 -0.28585 0.35259 -0.005068 -0.17411 -0.054944 -0.29432 0.048293 -0.47569 0.30509 -0.071564 0.28165 -0.10547 0.38505 
hindu -0.18098 0.12687 -0.31478 0.81985 0.17328 0.19861 -0.16335 -0.48702 -0.39074 0.398 0.31504 -0.054169 -0.26779 -0.43298 -0.026039 0.038871 0.029204 0.25856 0.69884 0.45196 -0.32657 0.62925 -0.44914 -0.35005 -0.24523 0.042778 0.042391 -0.22058 0.38889 -0.036177 -0.57755 0.27441 -0.56291 0.19294 -0.32824 0.15974 -0.16528 0.016712 -0.13026 -0.066056 -0.062422 0.061819 0.51282 -0.11863 0.55969 -0.21284 -0.012543 -0.28003 0.038303 -0.32531 -0.1267 0.15708 0.55968 -0.057851 -0.048367 0.12051 0.13427 0.21713 0.075872 -0.43499 0.05719 0.29801 0.23339 -0.0029243 0.29735 -0.056093 0.064249 0.088008 0.077164 0.11491 -0.63612 -0.023303 0.36953 -0.14786 0.20983 -0.27167 0.42898 -0.26905 -0.012802 -0.019271 0.3555 0.26785 0.065921 0.38585 0.14564 0.23032 -0.5971 0.0863 -0.34481 0.18556 0.15014 0.051119 -0.01663 -0.37157 0.28071 0.22558 0.14236 0.034395 0.003712 -0.24855 -0.02731 0.34344 0.21408 0.34771 -0.0066341 0.3797 -0.3225 -0.036992 -0.13474 0.13578 -0.318 0.4438 -0.35505 -0.31765 -0.19233 -0.4487 -0.066913 0.38636 0.24661 0.04603 0.43008 0.10796 0.071644 0.23485 0.05109 -0.28265 -0.34584 0.39651 -0.090759 0.18224 -0.037212 0.070647 0.19648 0.2491 0.52522 0.031017 0.0092563 -0.17753 -0.067663 0.2348 -0.67067 0.35005 0.43779 0.19525 0.77563 0.28284 -0.2455 -0.07593 -0.3301 0.38504 -0.071254 -0.54383 0.083593 0.056453 0.28756 -0.23072 0.16256 -0.57556 0.1875 0.17687 0.3185 0.089242 0.38227 -0.15602 0.34239 0.33449 -0.041935 -0.31936 0.64252 0.07675 0.44113 -0.22048 -0.45451 -0.1202 -0.31858 0.089172 -0.037548 -0.10081 0.22906 0.12387 -0.060903 -0.19671 -0.08676 -0.14139 -0.0026445 0.21976 0.24006 -0.20071 0.36047 -0.34166 0.12517 -0.12015 0.087598 -0.15111 -0.55593 0.20471 -0.39527 -0.46381 -0.52002 -0.62491 0.31862 -0.16198 0.324 0.40048 0.079967 -0.21883 -0.11514 -0.028786 0.20719 0.020641 0.49512 0.46437 0.27204 -0.15083 0.35257 -0.5201 0.24511 -0.43944 -0.3177 -0.296 -0.25758 -0.2558 -0.27202 0.13348 0.032222 0.21749 0.16312 0.19367 -0.014405 -0.0038894 0.24335 -0.47234 -0.18792 0.024003 0.047539 0.27377 -0.20825 -0.21406 0.66899 0.11776 0.080031 0.23753 -0.059852 -0.0057935 -0.46893 0.061159 -0.21461 0.16117 0.43735 -0.064117 0.14273 0.084096 0.045254 -0.064243 -0.11999 0.40317 -0.21825 -0.61719 0.45282 -0.088755 -0.30614 -0.0053406 0.31463 0.16 -0.39033 -0.36873 0.18032 0.011597 -0.40579 -0.16993 -0.10143 -0.10111 -0.081429 -0.1064 -0.055947 0.069194 -0.096112 -0.44532 -0.17079 -0.25084 0.17759 0.059994 0.074422 0.1667 -0.48797 -0.04667 -0.086128 -0.28649 0.076622 0.2233 -0.38477 0.069738 0.28325 -0.28325 0.48395 0.29329 -0.17609 0.35547 -0.43753 0.13806 
religion -0.28317 -0.1123 0.039923 0.45703 -0.33084 0.44553 0.12635 -0.21507 -0.041685 0.37401 0.038353 -0.027918 -0.36737 -0.1959 0.2382 -0.36918 0.21274 0.39119 0.41673 -0.031226 -0.348 0.54101 -0.017129 -0.13714 -0.094329 0.094729 0.34071 -0.3469 0.38592 0.089136 -0.61507 0.37161 -0.80221 0.38286 -0.22439 -0.34182 -0.067667 -0.076054 -0.061475 0.16385 0.4005 -0.15172 0.24554 0.24576 0.25423 0.35696 0.055217 -0.15174 0.027999 -0.56694 0.16995 -0.00092667 0.019439 -0.19147 -0.15971 -0.31003 -0.25858 -0.14374 0.18278 0.039944 -0.0378 -0.1532 0.042588 -0.053622 0.27402 0.035814 -0.076202 0.040354 -0.089166 0.28263 0.04159 -0.11542 0.0012263 -0.010614 0.26054 -0.18264 -0.012884 -0.065063 0.2518 0.19792 -0.042407 0.10574 0.073513 0.1801 0.24883 -0.2603 -0.28866 0.045583 -0.17854 0.10367 -0.086894 -0.22298 0.23947 -0.43257 0.16854 0.055518 0.12769 0.14429 -0.04222 -0.34286 -0.053236 -0.069294 -0.34839 -0.25471 -0.025491 0.38066 -0.049486 -0.15104 0.16325 0.066383 -0.061154 -0.0085387 -0.27648 -0.27711 0.10938 -0.20281 0.20172 0.24052 -0.020315 -0.096625 0.13881 0.1284 0.02666 -0.36751 0.030913 -0.35246 0.0098504 -0.0010323 -0.088242 -0.0060052 0.030654 -0.2932 0.027782 -0.30714 0.076315 0.10032 -0.086564 -0.27736 0.22156 -0.19046 -0.06983 -0.095504 0.21803 0.20073 0.020712 0.2092 -0.2446 -0.24954 -0.10669 0.18084 0.30109 -0.094988 0.50616 0.055521 -0.18667 -0.051668 -0.14276 -0.18501 0.2215 -0.043522 -0.097124 0.3904 -0.053659 0.069437 0.55131 0.1025 0.23715 -0.43993 0.42118 0.15681 -0.020025 -0.27859 -0.3231 -0.18839 -0.16501 -0.0096179 0.17908 0.1127 0.074012 0.086492 0.21077 0.0098996 0.074832 0.15512 -0.36682 0.16232 0.49443 -0.28803 0.098391 -0.052957 0.05094 -0.42829 0.0074998 0.091123 -0.55841 0.40149 -0.34833 -0.36993 -0.51177 -0.11983 0.36935 -0.16891 -0.079226 0.18894 -0.02591 -0.06207 -0.074028 -0.42131 0.20165 0.27877 0.6116 0.14934 0.19215 -0.33636 -0.051057 -0.022816 0.00088463 -0.43333 -0.41498 -0.028907 -0.37788 -0.53562 -0.8976 0.022527 0.053296 0.23062 0.22072 -0.23549 -0.10994 0.18542 0.15578 -0.09767 -0.14483 0.1048 0.2266 0.16913 -0.020277 0.14309 0.047459 -0.17642 -0.21171 0.46346 0.092418 -0.17453 -0.50108 0.092435 -0.24394 0.088931 0.019611 -0.38634 -0.063213 0.12775 -0.15372 0.11406 -0.16198 0.21528 -0.036885 -0.4518 0.26291 -0.019889 -0.21085 -0.19347 0.077004 0.093955 -0.048508 0.0024141 0.1025 -0.00781 0.26168 0.36139 -0.14464 0.014697 0.3272 0.17949 -0.017077 -0.39701 -0.36284 -0.32228 -0.046249 0.28335 0.18025 0.4256 0.071508 0.25259 -0.25354 -0.31963 0.33409 -0.6428 -0.44038 -0.23149 0.069616 -0.077255 -0.029674 -0.39678 -0.079598 0.13032 -0.22179 0.12934 -0.23284 -0.052929 
indian -0.075849 0.21509 -0.19131 0.26123 0.015784 0.3967 0.023219 -0.369 -0.63649 0.035563 0.24269 0.31943 0.019894 -0.06275 -0.097967 0.20936 0.087577 -0.056026 0.21419 0.50855 -0.34453 0.30906 -0.31125 -0.17502 -0.084483 0.21258 0.071647 0.14016 0.58512 -0.016835 -0.038143 0.14156 -0.45874 0.064228 0.071679 0.055713 -0.14857 0.020692 0.16744 -0.33433 0.091549 0.21292 0.23192 -0.27622 0.17201 -0.3697 0.0021809 -0.34057 -0.060067 -0.33092 -0.22233 0.095269 -0.050555 -0.11551 -0.30798 -0.045423 -0.076671 0.40412 0.28279 0.21744 -0.17419 -0.12648 0.3979 0.16127 0.15501 0.074456 -0.55655 -0.34479 -0.18976 0.12869 -0.013891 -0.20544 0.63298 -0.24098 0.1562 -0.43033 0.41795 0.069058 -0.25789 -0.14133 0.17665 0.16117 0.13589 -0.0049752 -0.32138 0.21849 -0.18698 0.25669 -0.20888 0.069319 0.062257 -0.19092 -0.021583 -0.33547 0.49688 0.59501 -0.078397 0.30134 -0.48331 -0.15029 -0.012341 -0.099746 -0.031308 -0.001717 0.015052 0.0027772 -0.16363 0.15432 -0.32478 0.09904 -0.17789 -0.089952 -0.017213 -0.51059 -0.31622 0.16253 -0.017734 -0.036123 0.18615 -0.36256 0.58505 0.22114 -0.28571 0.17144 0.1285 0.076452 -0.13926 0.14492 -0.22665 0.37601 -0.029563 0.23576 -0.0091773 -0.10569 0.025309 -0.027346 -0.13379 -0.37115 -0.16046 0.22634 -0.20293 0.23574 0.5951 0.38385 0.36607 0.51306 -0.19115 0.068782 0.065163 0.2369 -0.19414 0.028025 -0.24956 -0.09805 0.012638 0.21406 0.052814 -0.35521 0.2589 0.24284 0.69785 -0.074144 0.19594 0.031211 0.45084 0.1585 0.026527 -0.35344 0.78744 0.13064 0.41403 0.20057 -0.4429 -0.43196 -0.11745 0.37259 -0.1943 0.14872 0.058835 -0.16521 -0.21237 0.37772 0.025674 0.013232 -0.27669 0.40663 -0.23044 0.16971 0.19252 -0.1712 0.15546 0.00090068 0.034858 -0.36741 -0.21564 -0.22854 0.062524 -0.19952 -0.15987 -0.21829 0.3504 0.19082 -0.078712 0.068195 -0.029476 -0.12668 0.17275 -0.34099 0.18402 0.16482 0.38821 0.43705 0.29393 0.024113 -0.0032591 -0.58914 0.53225 -0.17925 -0.58068 -0.071535 0.229 -0.11554 0.0082356 0.39224 0.10547 0.44023 -0.22337 -0.035922 -0.10442 0.24934 -0.077564 0.22812 0.33119 -0.053186 0.051117 -0.14008 -0.29649 -0.1729 0.035781 0.045452 0.03806 0.26342 0.016971 0.22877 -0.16905 0.1175 -0.23457 0.33186 0.46288 0.28081 -0.057125 0.053823 0.098953 -0.12359 -0.31311 0.326 -0.050191 0.11445 0.24374 0.20127 0.051066 -0.04297 0.1097 -0.27565 -0.30308 -0.28806 -0.17199 0.39081 0.053185 -0.42556 -0.16437 0.00012984 -0.14879 -0.55445 0.371 0.21576 0.014587 -0.19597 -0.33128 -0.39648 0.080277 0.11992 0.059882 0.0089089 0.099871 0.27343 -0.46379 0.33789 -0.039543 0.44685 -0.33705 -0.032036 0.27595 0.042927 -0.10022 -0.24896 -0.40815 0.00016608 -0.63467 -0.22882 
afghanistan -0.11317 -0.70081 -0.13853 0.41504 -0.5012 -0.10057 -0.08757 -0.41352 -0.044097 0.16741 -0.34378 0.1336 0.2935 -0.35618 0.28028 -0.18356 -0.34351 0.35085 0.55909 0.35035 -0.064868 0.37463 -0.18073 0.11461 -0.037468 0.027892 0.19087 0.10535 0.015226 0.43053 -0.032615 -0.060598 -0.52892 0.1191 0.33919 0.17539 -0.25888 -0.08135 0.33119 0.077515 -0.16112 0.27698 0.48388 0.057938 0.13582 0.051029 0.33768 -0.023134 0.48876 -0.20231 -0.41384 -0.14199 0.024522 0.25471 -0.61866 -0.25579 -0.22765 0.047055 -0.37206 -0.0023115 -0.032655 0.51659 0.11892 -0.068724 0.011659 -0.41472 -0.70223 0.41445 -0.25724 0.22167 0.032028 0.26959 0.27824 0.011441 -0.0032098 0.50377 0.059456 0.039908 -0.081259 0.12462 -0.083257 0.16758 0.28555 -0.2186 0.061769 0.14459 -0.51046 0.11677 -0.17491 0.023685 -0.29531 -0.84339 -0.068549 0.24071 0.15146 0.073637 -0.32341 0.57814 -0.1267 -0.27386 -0.29942 0.36184 0.23446 -0.20355 -0.020273 -0.052754 -0.062863 0.39132 0.12293 -0.032319 0.45926 -0.53581 -0.026831 -0.052877 -0.056648 0.36431 -0.32039 0.27286 0.019865 0.16458 0.10538 0.080762 0.10067 -0.35119 -0.033251 -0.039226 -0.067107 0.45582 0.033399 0.10716 0.1481 0.21262 -0.062419 -0.47906 0.066319 0.13548 -0.23218 -0.07302 -0.096299 0.42248 -0.051054 0.4202 0.56048 0.32902 -0.25589 0.62459 0.14289 0.2351 0.14167 0.33484 0.56925 -0.30714 -0.33442 -0.16303 0.23091 -0.13921 0.5306 0.0032064 0.31949 0.47278 0.046754 0.017816 -0.085184 -0.23392 0.421 -0.2148 0.34344 -0.23965 -0.10931 0.021896 -0.11052 -0.57397 -0.40699 -0.017785 0.28974 0.21604 0.07123 0.40036 0.1953 0.47738 -0.073316 -0.34474 -0.14818 -0.040817 0.16322 -0.1866 0.11494 -0.39656 0.21779 -0.20524 -0.30627 -0.095384 -0.45448 0.089223 -0.2328 0.18827 -0.061651 -0.6144 -0.4582 -0.21163 0.56342 -0.41139 -0.31364 0.37772 0.33409 -0.51666 -0.30889 -0.30558 0.45142 -0.13795 0.76116 0.45136 -0.537 -0.11328 -0.084049 -0.095117 0.13017 -0.5782 -0.4381 0.30513 -0.27553 0.25166 -0.074019 -0.17978 0.42859 0.19606 0.1227 -0.22707 0.028374 0.22628 0.2789 0.0967 -0.41923 -0.090883 -0.22831 0.13307 -0.13491 0.062375 0.34928 -0.20839 0.34746 0.4265 -0.22303 -0.0095597 -0.015321 0.57491 0.40716 0.31727 -0.28607 0.27395 0.11753 -0.17419 0.23299 -0.014593 0.012106 0.31527 0.085048 -0.092714 0.19543 -0.018288 0.2049 -0.057004 0.11071 -0.1101 -0.26975 -0.30465 0.31354 -0.032199 0.56395 -0.20951 -0.093654 -0.096621 0.31841 -0.65757 0.13049 -0.038189 0.3065 -0.011872 0.19867 -0.33941 -0.1714 -0.32768 -0.14696 -0.012992 -0.0052651 0.24866 -0.10923 -0.059691 -0.026216 0.43188 -0.38646 0.34469 0.080552 -0.31179 0.30556 -0.16456 -0.34433 0.076655 0.025378 0.075696 
bangladesh -0.36661 0.20754 -0.12677 0.92092 -0.35442 -0.00027458 0.1072 -0.51934 -0.2561 0.27452 -0.10343 0.11562 -0.083899 -0.12474 0.26348 -0.28745 -0.27513 -0.068706 0.4509 0.5731 -0.24459 0.85628 0.17705 -0.20803 0.21107 0.30532 -0.13557 -0.051693 0.25336 0.34384 -0.24901 -0.030756 -0.32438 0.28161 0.14098 -0.11768 -0.14858 -0.169 -0.077736 -0.06468 -0.18028 0.025729 0.46587 0.013706 0.12452 -0.15335 0.0022661 -0.12598 0.016373 -0.38453 -0.6015 -0.47434 0.098462 0.21551 -0.10404 -0.058181 0.18436 0.049238 -0.35673 0.10367 -0.40094 0.60476 -0.040255 0.078658 -0.37187 -0.24786 -0.67272 -0.2985 0.3384 -0.070643 -0.19981 -0.1731 0.37015 -0.52392 0.064594 0.30782 0.2029 -0.036881 -0.14269 0.31766 0.063558 0.52627 0.081078 -0.18524 -0.018567 -0.32665 -0.62939 0.050056 0.13492 -0.0051841 0.080612 -0.36924 -0.079235 -0.6009 -0.41542 0.42146 -0.27723 0.4168 -0.088725 -0.69004 -0.094995 0.026092 -0.15187 -0.080263 -0.20292 0.012942 0.07972 0.25821 -0.098945 -0.073376 -0.26248 -0.046246 0.37263 -0.41568 -0.10227 -0.012622 -0.014082 0.044582 0.42155 0.063015 0.24903 -0.061278 -0.23016 0.35015 0.06129 -0.034581 0.20455 -0.045985 0.0070735 0.23861 0.14133 0.088857 -0.095261 -0.287 0.26688 -0.36078 -0.32207 0.20046 0.12178 0.55006 -0.037837 -0.21508 0.47367 0.1505 0.00092201 0.35644 -0.12722 0.013968 0.55497 -0.0037894 0.65705 -0.59145 -0.47686 0.052553 0.33573 -0.23432 0.33198 0.71219 0.30671 0.48196 0.18566 0.1181 0.0040286 -0.047501 0.92019 -0.13248 0.036442 -0.28296 0.54835 0.30883 0.18313 0.14285 -0.019113 -0.24152 0.28197 -0.45502 -0.012969 0.41767 -0.22786 0.41858 -0.32664 -0.30428 -0.35485 -0.27769 0.25768 -0.0017965 0.23762 -0.11798 0.70194 -0.33828 -0.365 0.43481 0.0037838 -0.17237 -0.21512 0.095736 0.42694 -0.535 -0.67865 -0.12927 0.28263 -0.10011 0.04847 0.25872 0.064865 -0.66082 -0.031054 -0.19935 0.42263 0.089026 0.77266 0.17989 0.17193 -0.13808 0.13439 0.121 0.55676 -0.82568 -0.42402 0.13693 -0.07715 0.47369 0.29568 0.18838 0.40777 0.22761 -0.23378 -0.33275 0.177 -0.28636 -0.011557 -0.089198 -0.21207 -0.29872 -0.20593 -0.21286 -0.21362 -0.094202 0.42776 -0.083119 0.083258 0.25298 -0.3024 -0.0076898 0.24404 0.40003 -0.075134 0.68819 -0.043504 0.034639 0.40464 -0.27309 -0.17524 -0.1327 0.12073 0.37358 0.009741 0.13327 0.37564 0.30055 0.23359 -0.23954 -0.2561 -0.25809 -0.13789 -0.32211 0.19036 -0.1017 0.29876 -0.57105 -0.21096 -0.19515 -0.15856 -0.5265 -0.22448 0.0021408 0.32991 0.039412 0.14806 0.030615 -0.040052 -0.31002 -0.1694 0.058837 -0.12092 0.51793 -0.29459 -0.14096 -0.2129 0.29158 -0.87551 0.096065 0.18313 -0.53501 0.27896 -0.062069 -0.57984 -0.082226 -0.16852 -0.18985 
magadha -0.13675 0.071499 -0.50696 0.84842 0.17022 0.32739 0.064017 -0.81811 -0.26613 0.42435 0.28869 0.35474 -0.18171 -0.24757 0.065184 -0.09835 -0.09831 0.37641 0.26412 0.58436 -0.090526 0.45952 -0.84595 -0.34659 -0.38107 0.54392 0.18751 -0.66822 0.34091 0.32381 -0.35357 0.57398 -0.40119 0.56562 -0.3736 0.4063 0.25168 -0.41775 0.036903 -0.31914 -0.013321 0.19174 0.28191 -0.60242 0.54485 0.057116 -0.17441 -0.10495 -0.0056978 -0.049221 -0.56145 -0.021779 -0.46093 0.42508 0.053134 -0.051357 0.06947 0.32001 -0.22159 -0.2902 0.004478 0.10551 -0.071987 -0.30306 -0.092333 -0.10459 -0.58955 0.42638 0.16592 0.19374 -0.064593 -0.037163 0.6722 0.24039 0.0006309 0.18441 0.047223 0.57156 -0.2951 -0.2068 -0.023966 0.11655 0.17663 0.2524 0.0039067 0.64882 -1.0231 0.27365 0.015002 0.010135 0.21658 -0.5938 -0.19894 -0.42403 0.24737 -0.042319 0.16287 0.22414 -0.32326 0.072049 0.10458 -0.054665 -0.27851 0.4545 0.18853 0.056533 0.0016378 0.12303 -0.072172 0.21732 -0.55187 -0.53374 0.039463 -0.09199 -0.099307 -0.20946 0.56957 0.60716 -0.080006 0.16795 0.54514 0.36053 -0.12878 0.79078 0.22735 0.11392 -0.58291 0.41061 0.17208 0.34807 -0.14754 0.26019 0.45704 0.19679 0.52986 0.29903 -0.12676 -0.34835 0.10018 0.56012 -0.26771 -0.081531 0.0092215 0.33366 0.4116 0.17624 -0.06216 -0.083036 -0.14422 0.30912 0.82069 -0.53716 -0.0026474 0.80232 0.17403 0.26429 0.35764 0.24335 -0.19577 -0.12209 0.26133 -0.077679 0.4595 0.14275 0.43943 0.033233 -0.13016 -0.42656 0.55068 0.80458 0.10916 -0.6868 -0.41137 -0.37135 -0.2447 0.34055 -0.24208 0.14119 0.45593 -0.026098 0.12208 -0.25229 0.15827 -0.35827 0.16486 0.044809 0.32257 -0.33024 0.8128 0.21655 0.050065 -0.31157 0.2957 -0.10766 -0.16021 -0.023869 -0.10202 -0.52024 -0.25703 -0.13216 0.26663 -0.16087 0.57123 0.14072 0.24054 -0.0029253 -0.059619 0.0081361 0.29181 0.020788 0.50154 0.50861 0.25054 -0.55645 0.5196 -0.56266 0.3379 -0.39104 -0.65681 -0.071942 0.39867 -0.4692 0.12363 0.28721 0.38336 0.6557 0.3137 -0.19774 -0.39538 -0.51699 0.10388 -0.50304 -0.016889 0.46521 -0.17017 0.24 0.17896 -0.095672 0.10396 0.072474 0.3061 -0.3954 -0.40597 0.21769 -0.042674 -0.08323 -0.17814 0.43292 0.16107 -0.53395 0.4618 -0.15309 0.11433 -0.064349 -0.36463 0.015291 -0.73924 -0.22217 0.79225 0.10643 -0.17398 0.20777 -0.059669 -0.19661 -0.50306 -0.65266 0.28335 0.21079 -0.26215 0.18368 -0.51843 0.020752 -0.10446 -0.3257 0.045975 0.31946 -0.11642 -0.88194 -0.26045 -0.49533 -0.19494 0.39658 0.025728 -0.046919 -0.61365 -0.091873 -0.19868 0.0098237 0.21809 0.40294 -0.4733 -0.093817 0.47278 -0.18763 0.65794 -0.41297 -0.38891 0.0023721 -0.57549 0.1622 
kuru -0.61645 -0.35877 -0.82578 0.64148 0.14729 0.011815 0.13713 -0.14133 -0.26191 -0.31499 0.061514 0.54301 0.099182 -0.55944 0.30775 -0.023987 0.24881 -0.37517 0.13515 0.26696 -0.034433 0.030171 -1.0301 -0.20932 0.10673 -0.017194 0.44433 -0.74152 -0.27993 -0.10536 -0.27909 0.26796 -0.36352 0.71949 0.2513 0.34672 0.12097 0.12844 0.062765 0.46185 0.31381 0.78237 0.5838 -0.27752 0.8327 -0.11111 0.09021 -0.085538 -0.29294 -0.27375 -0.054318 -0.72262 -0.6949 -0.15265 0.17559 -0.16011 0.16459 0.029139 0.57302 -0.12491 -0.051602 0.064871 0.14037 -0.11516 -0.47248 -0.24837 -0.62525 0.31409 0.10433 -0.019011 -0.15272 -0.15832 0.20536 0.24273 -0.66813 -0.43115 0.30494 0.61389 -0.10847 -0.14864 -0.013981 -0.80074 0.28571 0.27668 0.23503 -0.13921 -0.71534 0.32831 -0.10763 0.72354 0.31885 -0.32981 -0.11687 -0.55486 0.56043 0.061413 -0.0737 -0.17682 -0.048114 -0.091554 0.16433 0.98888 -0.42193 0.29077 0.30837 0.27138 -0.064828 0.28091 0.099619 0.27371 -0.4131 -0.45755 -0.22597 -0.084131 -0.57578 -0.43815 0.36357 0.13566 0.13559 0.6866 0.77172 0.099655 0.28622 0.57768 0.51624 -0.46382 -0.52936 0.020737 0.077954 0.83388 0.36672 0.39287 0.49883 -0.044453 0.39631 -0.016299 -0.46007 -0.16493 -0.097435 0.29596 -0.0093355 0.057676 -0.022875 0.073774 0.094351 0.16072 -0.065408 -0.1528 0.24641 -0.029205 0.01394 0.044607 0.10312 -0.027375 0.17886 0.092226 0.7254 -0.29826 -0.12308 0.19124 -0.13368 0.26201 -0.12215 0.074292 0.098113 -0.4841 -0.30273 0.0595 0.73558 1.066 0.03362 -0.78506 -0.25806 -0.24375 0.035944 -0.061723 0.21226 -0.56086 -0.31195 -0.39006 0.37238 -0.48732 0.18414 0.062805 0.059721 -0.0002633 0.30383 -0.067459 0.37286 0.050686 -0.45591 -0.76628 0.4363 -0.12027 -0.083626 -0.17517 0.17012 0.1194 -0.73381 0.12702 0.028768 -0.34748 0.38255 0.40281 0.3119 0.31781 0.41702 0.2122 0.093228 0.1829 0.44312 -0.12216 0.038175 -0.86301 0.32672 -0.21366 0.21608 -0.13666 -0.10722 -0.011314 -0.023811 -0.37526 0.28302 0.053828 0.35414 0.18378 -0.095221 0.15311 0.18076 -0.25402 -0.39618 -0.59214 -0.20696 -0.1719 0.094878 -0.0065062 -0.27728 0.35703 0.14281 -0.24316 0.16595 0.21497 -0.13488 0.18933 0.20081 0.1489 0.44502 0.30195 0.40683 -0.035693 0.11548 -0.34862 0.1671 0.25629 -0.19706 0.0050753 -0.71353 -0.41407 0.085059 -0.39534 0.1811 0.45605 -0.029656 0.46694 0.12013 0.10554 0.31641 -0.26402 0.24974 0.4132 -0.070125 0.17771 0.30424 -0.53135 0.28504 -0.082277 -0.31768 -0.30656 0.22817 0.0067141 -0.053818 -0.053643 0.31515 -0.028231 -0.39117 -0.39358 0.18751 0.47285 -0.068051 -0.53379 0.25029 0.15811 0.093581 -0.27821 -0.070149 -0.093291 -0.25404 0.19725 -0.20042 -0.13525 
gandhara -0.11794 -0.26107 -0.71502 0.50636 -0.22235 0.54193 -0.038916 -1.0085 -0.21934 0.085886 0.10665 0.38208 0.23785 -0.21893 0.33364 -0.0075687 -0.13299 0.11434 0.052761 0.57532 -0.066069 0.54124 -0.563 -0.16325 -0.17718 0.43095 0.49086 -0.68362 -0.11109 0.17353 0.072042 0.52587 -0.20038 0.62339 0.19486 0.43792 0.18281 -0.18439 -0.17832 -0.12587 0.38485 0.082568 0.48706 -0.086973 0.39236 -0.14629 0.067905 -0.18331 0.30625 -0.38944 -0.523 0.12395 -0.066869 0.51602 -0.20042 -0.28953 0.048343 0.15434 -0.25638 0.14951 0.34126 0.76165 -0.37036 -0.062148 -0.10052 -0.25738 -0.27405 0.36356 -0.25442 0.30702 -0.59442 0.49568 0.358 0.57427 0.068904 -0.16703 0.078325 0.15426 -0.18443 -0.10662 -0.24718 0.020368 0.049262 0.029084 -0.5214 0.64921 -0.70053 0.13892 0.2692 0.35873 -0.065113 -0.39849 0.014123 -0.34625 0.38679 -0.47851 0.025137 0.12137 0.09188 -0.22084 -0.16969 0.39673 0.044383 0.41483 0.41485 -0.22215 -0.42219 -0.050597 0.031777 0.49306 -0.071217 -0.49299 0.029754 -0.095157 -0.24931 -0.45288 0.22876 0.33892 -0.095003 0.22951 0.63956 0.57027 0.36634 0.47684 0.083799 0.1526 -0.20599 0.33266 -0.18762 0.31111 -0.24449 -0.062731 0.31715 0.20686 0.77635 0.55239 -0.0039228 0.059373 -0.4121 0.33272 -0.36157 -0.18676 0.21928 0.48257 0.4032 0.35248 0.12586 -0.0071551 -0.15597 0.37864 0.48533 -0.63658 0.065453 0.37511 0.23335 0.29401 0.61914 0.21197 0.026535 0.13363 -0.080577 -0.17923 0.34529 -0.14496 0.49666 0.31925 -0.0036508 -0.26659 0.90934 0.10821 -0.026647 -0.70612 -0.24467 -0.53324 0.11163 0.24038 0.18043 -0.053701 0.16252 0.09388 -0.040006 -0.34772 0.21311 -0.67629 0.41044 0.11915 0.51112 -0.42655 0.18378 -0.32873 0.23655 -0.46334 0.093485 -0.15184 -0.13565 -0.07575 -0.08004 -0.56989 -0.42213 0.044402 0.18901 -0.15954 0.33396 0.28657 0.1297 -0.54902 -0.1252 0.086846 0.37766 -0.085287 0.61775 0.57405 -0.09232 -0.23144 0.27216 -0.38486 0.33648 -0.42554 -0.59096 0.079153 0.41472 -0.073893 0.10391 0.25517 0.22515 0.47032 0.22393 -0.29295 0.13378 -0.385 0.044931 -0.31492 -0.17371 -0.14289 -0.33605 0.391 -0.1665 0.27908 -0.10715 0.1427 0.12359 -0.040097 -0.51398 0.44493 0.060341 0.12647 0.021275 0.34416 -0.49829 -0.23999 0.4066 -0.021486 0.1004 0.019397 -0.43757 0.32551 -0.35206 -0.5993 0.56093 -0.071423 -0.27137 0.24632 0.24807 0.2659 -0.34048 -0.44566 0.25784 -0.059677 -0.14368 -0.03392 0.05263 0.2784 0.23897 -0.29106 0.20526 0.2316 0.028245 -0.46328 -0.22554 -0.14131 -0.1846 0.37495 -0.10038 -0.013473 -0.46231 -0.16409 -0.36694 0.50305 0.24652 0.57097 -0.58295 0.087345 0.34563 -0.056227 0.25 -0.35641 -0.62193 0.11976 -0.48246 0.21681 
ramayana -0.34385 0.23897 -0.47288 0.77377 0.20335 0.42735 -0.14365 -0.19982 -0.33352 0.41807 0.30214 0.26891 -0.5809 -0.42868 -0.34463 -0.31834 -0.28983 0.24755 0.13339 0.3944 -0.14914 0.48137 -0.75072 -0.34079 -0.19298 0.50961 0.25561 -0.42727 0.28997 -0.38319 -0.017984 0.53524 -0.25616 0.24575 0.24138 0.3772 0.091875 -0.21189 0.18483 -0.1301 -0.36154 0.092563 0.34953 -0.22052 0.39198 -0.26724 -0.20325 -0.24852 0.019308 -0.090539 -0.36211 0.36554 -0.17836 0.40497 0.22604 0.20582 0.51122 0.056959 0.026034 -0.464 0.12327 0.59842 -0.023922 0.16475 -0.094322 0.01255 0.073408 0.40619 0.3604 0.22282 -0.25977 -0.11526 0.62766 0.0071168 0.43404 -0.10319 0.25461 0.22376 -0.26585 0.0062538 0.093077 0.23074 0.026888 0.12315 -0.34784 0.56252 -0.31876 0.080261 -0.10143 0.10569 0.373 -0.08666 0.062237 -0.46045 0.19544 -0.15818 -0.029897 0.1759 0.0027866 0.14817 -0.080052 0.35681 0.33706 0.42294 0.37348 0.22987 -0.28791 0.019855 -0.078835 0.13944 -0.3865 -0.13912 -0.22612 -0.41381 -0.34901 -0.60674 0.33234 0.4708 -0.067995 -0.0010452 0.42622 0.26651 -0.17861 0.74072 0.47919 -0.24825 -0.10194 0.38854 0.19035 0.55889 0.20714 0.055218 0.26252 0.10649 0.43445 0.58575 -0.13339 -0.34232 -0.30717 0.30721 -0.10144 0.33493 0.0049912 0.18153 0.47502 0.55156 0.079747 -0.2262 0.06487 0.048397 0.31556 -0.67044 -0.20762 0.33137 0.22637 0.099708 0.54494 -0.48173 -0.26282 0.0040228 0.163 0.1614 0.28586 0.10765 0.28444 -0.17536 -0.30102 -0.39233 0.66901 0.60679 0.37276 -0.13585 -0.28664 0.033266 -0.16779 0.35503 -0.43233 0.15319 0.23383 -0.10046 0.057564 0.039061 0.26561 -0.33241 0.0077164 0.027859 0.10355 -0.18081 0.669 0.24917 0.17197 0.20034 -0.003972 -0.15002 -0.59602 -0.019739 -0.078887 -0.45679 -0.22359 -0.34313 0.38413 0.032361 0.83331 0.1932 -0.17344 -0.24617 -0.12668 0.61281 0.1817 0.30222 0.72913 0.57057 0.024665 -0.15115 0.31506 -0.50086 -0.2023 -0.6206 -0.51991 -0.063386 0.25211 -0.40884 -0.21301 0.21975 -0.27363 0.59072 0.22311 -0.026662 0.11189 -0.13321 0.494 -0.025815 -0.47224 0.072415 -0.1682 0.21187 -0.3893 -0.10322 0.70886 0.18241 0.080473 0.35971 -0.18359 0.34971 -0.024614 0.19402 0.51589 0.33662 -0.23776 -0.13219 0.45098 0.17113 0.16704 -0.17755 -0.12881 0.05071 -0.42896 -0.052116 0.48747 -0.23757 -0.018048 0.33341 -0.21027 0.40168 0.1085 -0.74938 0.20171 0.28159 -0.48349 0.26612 0.065676 0.20481 0.17165 0.087994 0.31964 0.18539 -0.32075 -0.050142 -0.10678 -0.34817 0.56182 0.8429 -0.051053 -0.21404 -0.31559 -0.065554 -0.036617 -0.10353 0.44015 0.095996 -0.58721 -0.17767 0.31232 -0.47044 0.53009 -0.03644 -0.41215 0.42372 -0.23164 0.16005 
lord -0.44083 0.35462 0.18377 0.2151 0.21976 0.16589 0.22224 -0.20295 0.080462 0.51465 -0.21493 0.22833 -0.38025 -0.2222 -0.35021 0.13214 -0.25407 0.045889 0.16223 0.032656 -0.43132 0.15717 -0.36129 -0.31701 -0.18235 0.2035 0.56714 -0.42819 0.14601 -0.052066 0.25581 0.15884 -0.15193 0.034144 0.12071 0.058889 0.19381 0.16686 -0.029577 0.131 -0.080589 -0.023848 -0.011106 -0.28744 0.10387 -0.57723 -0.45536 0.14384 -0.39774 -0.11859 -0.218 -0.17955 0.21666 -0.29665 0.29446 0.43761 0.28931 -0.013053 -0.13377 0.14753 -0.11915 -0.078211 0.12086 0.055554 -0.0023824 -0.1993 0.28472 0.16243 -0.04483 -0.052828 0.0042411 0.084525 0.57755 -0.11401 0.015814 -0.29945 0.69319 0.46391 -0.33137 -0.196 0.20382 0.25131 -0.3512 -0.26193 0.10798 0.081865 -0.12106 0.081852 -0.12404 0.22012 0.08669 -0.014419 0.051585 -0.42443 0.07546 0.33649 -0.26075 -0.046528 0.13177 -0.13117 -0.25759 0.30473 0.26663 0.42058 -0.22217 -0.018513 -0.3815 -0.34475 0.046559 -0.83507 -0.16869 0.20817 -0.11033 -0.016949 0.0027705 -0.27804 0.42292 0.10068 -0.39148 -0.082889 0.36245 -0.43101 0.060635 0.60952 0.0094838 0.096003 -0.029897 0.22092 0.34187 0.23376 -0.20565 0.55114 -0.052972 0.23558 0.374 0.19226 0.1302 0.021457 0.21114 0.38144 -0.14468 0.44384 -0.19674 -0.17721 -0.11165 0.13125 0.22485 -0.61956 -0.1592 0.38948 0.25144 -0.21655 -0.16461 0.24648 -0.00090214 -0.26595 -0.13184 -0.23491 0.14177 -0.39852 -0.30241 -0.082362 0.19618 0.13807 -0.080193 0.18286 -0.03835 0.25433 0.11826 0.19187 -0.16359 -0.37101 -0.51684 0.32077 0.074449 0.34451 0.087113 0.34284 0.0056754 0.54768 0.15689 -0.18884 0.20653 0.49669 -0.31105 0.46782 -0.25727 -0.35332 0.42747 -0.35395 0.02817 -0.35962 -0.30724 0.36811 -0.017813 0.51405 0.061901 -0.31951 0.0062522 -0.35761 -0.43282 -0.57749 -0.072205 0.35825 -0.41818 -0.2317 0.017591 0.28039 0.23032 -0.18797 0.33578 -0.18308 -0.17517 -0.35396 0.43863 0.37633 -0.21387 -0.18023 0.13077 0.37585 -0.064649 0.44663 -0.53729 0.059486 -0.29242 0.41663 -0.4259 -0.20588 0.13122 -0.14241 0.41801 0.30372 -0.039724 0.079885 0.012012 -0.32628 0.020727 0.33283 0.20235 -0.11133 -0.49177 -0.060811 0.032977 -0.022172 -0.65218 -0.15781 -0.50876 0.12806 -0.40572 -0.15734 -0.25013 -0.0052532 0.20935 -0.089138 0.098232 -0.24282 -0.52494 -0.49383 0.26315 -0.12541 -0.17408 -0.075535 -0.047868 -0.043759 0.36008 -0.097701 0.095918 0.029732 0.19154 -0.18215 -0.6173 -0.14068 0.17995 -0.12118 0.15509 0.0061006 0.21448 0.11892 0.098637 0.30569 -0.32944 0.47565 0.44756 0.2854 -0.081084 0.33257 -0.1086 0.28507 0.18418 -0.072043 0.17961 -0.35647 0.25668 -0.25752 -0.072697 -0.15218 -0.31227 0.56295 -0.057361 0.18963 
ram 0.22471 0.33778 -0.073043 0.50539 0.18953 0.065941 0.033469 -0.20855 0.11769 0.39894 -0.17281 -0.36784 -0.067348 0.42563 0.18614 0.18287 -0.16644 0.19734 0.15397 0.12791 0.013947 -0.066094 -0.71369 -0.40505 -0.49889 0.35039 -0.10549 -0.23273 0.24458 -0.071242 0.24539 0.00082672 -0.16999 -0.13889 -0.34367 0.30162 0.20694 -0.14388 -0.32882 -0.12219 0.19583 0.098282 0.13869 0.075345 -0.11725 -0.16591 0.23216 -0.19578 0.31382 -0.051377 0.1421 -0.032446 -0.042926 0.23097 0.15512 0.21603 0.059893 0.32468 0.10311 -0.24242 0.20126 -0.19934 0.14524 0.23275 -0.30394 -0.070502 -0.011357 -0.18545 0.21769 0.17631 0.27553 -0.23967 0.41186 0.12288 0.42928 -0.34488 -0.3582 0.59877 -0.345 -0.36393 0.57434 0.22637 -0.45911 -0.21571 -0.16445 0.080676 -0.022729 0.084613 0.61378 -0.020798 -0.067171 -0.051547 -0.12968 0.015988 0.7133 0.17779 -0.053214 -0.39437 -0.12165 0.11454 -0.53784 0.10245 0.035276 -0.19327 0.33298 0.1489 -0.060097 0.064354 -0.071615 0.3842 0.084016 0.46812 -0.67056 -0.34978 -0.17119 -0.41575 0.0066746 0.23068 0.13301 0.13731 0.55492 0.25344 -0.14339 0.25984 0.13942 -0.31027 -0.26461 -0.0081495 0.058569 0.2431 -0.26837 0.46578 -0.028019 0.11391 0.25836 0.25013 -0.16206 -0.24413 0.10807 0.6149 -0.50731 0.25465 0.35485 0.38019 0.22579 0.64981 0.16613 -0.43448 0.28396 0.13141 0.32886 -0.3693 0.11301 0.12871 -0.16343 0.15879 0.25673 0.10564 -0.27188 -0.39445 0.64963 -0.15968 0.51402 0.085311 0.043021 0.18182 0.18266 0.18099 0.26433 0.22369 -0.043877 0.19659 -0.3464 -0.28383 -0.87831 0.1197 0.015459 -0.32532 0.12312 0.094816 0.65086 0.016751 -0.23842 0.15678 -0.28544 0.49541 -0.35334 -0.39388 0.07085 -0.25126 -0.50142 0.14968 -0.21857 -0.00043765 -0.19836 -0.14425 0.028657 -0.43018 -0.89277 -0.4548 0.26522 0.15926 0.011284 0.35181 -0.16586 0.42012 -0.11566 -0.1188 0.6956 -0.16067 0.64415 -0.014784 0.47506 -0.16383 -0.2368 -0.40885 -0.29876 0.055647 -0.045438 -0.31708 -0.31857 -0.1202 -0.21742 0.13529 0.10509 -0.36981 -0.20572 -0.23683 -0.6313 0.28932 0.4769 0.14871 0.23335 -0.6303 -0.29764 -0.50805 0.095131 -0.24451 0.48088 -0.22513 0.086551 0.27911 -0.22829 -0.058876 0.043921 0.46673 0.18155 0.095837 -0.1799 0.040203 0.50823 -0.0067497 -0.078444 -0.1167 -0.050755 -0.19947 0.15712 -0.241 0.13703 -0.1687 -0.25042 0.03479 -0.061374 0.029089 -0.2017 -0.33593 -0.0053031 0.31464 0.12484 0.067941 -0.38343 -0.012797 -0.41911 0.0080982 -0.008203 -0.0062966 0.35743 0.092968 0.132 -0.18982 0.54996 -0.26911 0.19444 0.067329 -0.36059 0.11128 0.026172 0.5219 -0.65299 -0.19402 -0.21446 -0.11642 0.22686 0.080524 0.78261 -0.1606 -0.21157 0.3859 0.061009 0.0079627 
mahabharta -0.33818 0.28361 -0.34609 0.64666 0.5172 0.38266 -0.217 -0.22273 -0.1623 0.44479 0.49444 0.25661 0.17738 -0.5025 -0.05475 -0.29807 -0.016913 0.29495 0.36251 0.18873 -0.43892 0.3931 -0.85828 -0.1659 -0.17347 0.4695 0.033629 -0.30413 0.014833 -0.33724 0.12489 0.21826 -0.13087 0.28648 0.60394 0.29649 -0.16411 -0.059011 -0.3809 -0.066017 0.043503 0.40059 0.20517 -0.019832 0.17388 0.00091749 0.12294 -0.22338 0.053141 0.38572 -0.041961 0.03121 -0.024107 0.22955 0.14358 0.15503 0.45501 0.20553 -0.3305 -0.15352 0.16389 0.25731 0.04099 -0.077967 0.07373 -0.33436 -0.10087 0.31829 0.49436 0.13679 -0.10449 0.01176 0.52776 0.22678 0.3506 -0.26601 0.027526 0.20521 -0.20717 -0.12841 0.044979 0.12829 0.24552 -0.1574 -0.404 0.2156 -0.39053 0.054529 0.019316 0.28064 0.021413 -0.24095 0.024078 -0.22166 0.19654 -0.15194 -0.036448 0.26161 -0.083742 0.13857 -0.042355 0.4852 0.35921 0.39481 0.12807 0.26062 -0.023769 -0.047544 -0.31197 -0.043656 -0.36621 -0.066619 -0.094406 -0.1745 -0.28096 -0.35842 0.19898 0.55045 -0.18993 0.16221 0.68815 -0.0052644 -0.33209 0.67998 0.098231 0.27899 -0.2743 0.13482 -0.075214 0.558 -0.072397 0.20711 0.48323 0.18998 0.45131 0.42222 -0.039757 -0.38424 -0.39886 0.23789 -0.22934 0.53865 0.2866 0.56765 0.23313 0.75456 0.10076 -0.080362 0.43022 0.3815 0.50808 -0.55474 -0.00036287 0.19239 0.1052 -0.049917 0.27 -0.062235 0.1962 -0.060648 0.30004 0.41115 0.32995 0.036939 0.30403 -0.20192 0.0027279 -0.036535 0.58736 0.42892 -0.019751 -0.40224 -0.24968 -0.1235 -0.22858 0.46744 -0.25471 0.15624 0.20599 -0.43979 -0.13225 -0.092296 0.088559 -0.30443 -0.056189 0.30005 0.066374 -0.32457 0.59053 0.28246 0.092255 -0.1885 0.26907 -0.11056 -0.45421 0.26542 0.049844 -0.51541 -0.2591 -0.41082 0.096316 -0.03249 0.42797 0.35558 -0.25039 0.079225 0.11753 0.13632 0.13463 0.33546 0.39319 0.40343 0.4865 0.11663 0.39496 -0.15484 0.13903 -0.72824 -0.34431 0.088245 0.29717 -0.099418 -0.16689 0.57637 0.029757 0.45539 -0.052427 0.15067 -0.06176 -0.25518 0.20871 -0.1491 -0.28299 0.32144 -0.044271 0.25904 -0.071453 -0.14289 0.70218 0.15586 0.090657 -0.097168 -0.35785 0.44896 0.095066 0.14001 0.38115 0.20075 -0.2455 -0.17304 0.63896 0.37376 -0.0075767 -0.012672 -0.22341 -0.060436 -0.25831 -0.021344 0.4098 -0.0013016 -0.041186 0.43968 -0.43225 0.32911 0.012206 -0.59033 -0.03953 0.36574 -0.1754 0.018044 -0.075061 0.14376 0.28987 -0.041042 0.25461 0.4 -0.04318 -0.065677 0.032776 -0.193 0.33081 0.3683 -0.14925 -0.019982 -0.37313 -0.16071 -0.18779 -0.13291 0.28949 0.14652 -0.53178 -0.446 0.12884 -0.45313 0.5156 0.10958 -0.61069 0.058308 -0.39801 0.12374 
kauravas -0.1827 0.13264 -0.18075 1.2321 0.046584 0.00056607 -0.098422 -0.18514 -0.26622 0.46731 -0.16077 0.13236 -0.28445 -0.084116 0.1507 -0.14655 0.1117 0.16656 0.19235 0.11351 -0.47993 0.47137 -0.87643 -0.088828 -0.15768 0.27845 0.3837 -0.23878 0.25763 -0.063388 -0.11939 0.39244 -0.32932 0.15282 -0.15621 0.44311 0.63622 -0.14379 0.17026 -0.12662 -0.13439 0.54636 0.35977 -0.44942 0.32332 -0.092562 0.063607 0.12308 -0.022804 0.027809 0.047558 -0.0010087 -0.32434 0.33783 0.13937 0.27743 0.50005 0.069537 -0.36469 0.058108 -0.25774 0.18443 0.45419 -0.034817 0.18951 -0.067486 -0.22003 0.56159 0.39955 0.20741 0.066785 0.18314 0.93946 0.17611 -0.014918 -0.065166 0.35027 0.38605 -0.3814 -0.31084 0.038911 -0.12358 -0.19806 0.12366 -0.62284 -0.13715 -0.61029 0.012972 0.1969 -0.055909 0.046034 -0.26497 -0.13218 -0.26494 0.38257 0.8734 -0.033513 -0.19524 -0.3506 0.48615 0.23527 0.26142 0.25258 0.066019 0.31707 0.070096 -0.034217 0.0022829 0.048031 0.47917 -0.37771 -0.4714 -0.3543 -0.25831 -0.43959 -0.63073 0.42554 0.76452 -0.24699 -0.043981 0.65157 0.1799 0.21919 0.78257 0.19539 -0.13231 -0.59453 0.21341 0.099357 0.71668 0.15777 -0.0057149 0.3745 -0.18018 0.15977 0.052719 -0.060937 -0.30041 0.1058 0.095207 -0.44555 -0.11543 0.1832 -0.033258 0.21629 0.2457 -0.1228 -0.2892 0.2618 0.278 0.67689 -0.51114 -0.17604 0.22135 0.15986 0.41289 0.44669 -0.19673 0.33247 -0.14484 0.10808 -0.083278 0.38045 0.36833 0.14384 -0.042554 -0.30403 -0.072859 0.7184 0.62749 -0.040159 -0.71639 -0.42627 0.11064 0.087559 0.57236 -0.25672 0.32273 0.20254 -0.053763 0.0038549 -0.14477 -0.33832 -0.061293 0.040408 0.08552 0.15494 0.02426 0.53035 0.052643 0.035395 -0.66049 0.069198 -0.051828 -0.29927 -0.010173 -0.098121 0.052882 -0.072397 0.035357 0.14477 -0.54948 0.95615 0.59496 -0.050337 -0.12945 0.023092 0.29976 -0.3145 0.16571 0.83829 0.78374 0.24673 -0.062466 1.0063 -0.51441 0.1298 -0.26737 -0.29895 0.285 0.20556 -0.23846 0.46531 0.38597 0.25513 0.85062 -0.069892 0.19353 -0.050697 -0.54757 0.030073 -0.60118 0.21599 -0.1446 -0.24693 0.16507 0.08133 -0.054934 0.41027 -0.31308 0.32992 -0.064 -0.28792 0.82974 -0.1469 -0.061084 -0.14075 0.34999 -0.18495 -0.27937 0.33212 -0.030453 0.052813 0.048217 -0.39777 0.30679 -0.88398 -0.29951 0.47807 -0.2817 -0.16289 0.55709 -0.0087588 0.24002 -0.0041575 -0.71937 0.020252 0.47959 -0.0047364 0.11673 0.10308 -0.033402 -0.018131 -0.16199 -0.18084 0.36138 -0.35137 -0.7324 -0.26105 -0.46707 -0.18251 0.23214 0.06709 0.23467 -0.54046 -0.008106 -0.10076 0.26792 0.01764 0.01241 -0.31199 -0.074478 0.35314 -0.24489 0.73977 0.33917 -0.59142 0.26963 -0.32996 0.099982 
pandavas -0.3132 0.42089 -0.24189 0.94049 0.076378 -0.10054 0.00091203 -0.60949 -0.1889 0.55797 -0.010196 0.13222 -0.25746 -0.25566 -0.086041 -0.20983 -0.12485 0.3275 0.10867 0.34307 -0.45006 0.18579 -1.0878 -0.066286 -0.35183 0.38499 0.28222 -0.22756 0.17087 -0.06108 -0.055493 0.40557 -0.35046 0.2377 0.13681 0.22952 0.36585 0.038862 0.17215 -0.22874 -0.20653 0.38827 0.29326 -0.35521 0.33692 -0.022953 0.096097 0.090142 0.078528 0.035858 0.13658 0.13067 -0.24799 0.43587 0.052282 0.4276 0.4536 0.20254 -0.34081 -0.24774 -0.25616 0.054263 0.29911 -0.15044 0.20213 -0.082213 -0.029834 0.74708 0.34625 0.22727 -0.29187 -0.047674 0.84812 0.18607 0.05996 -0.0065435 0.50485 0.35782 -0.42386 -0.41809 -0.048912 -0.39318 0.395 0.052782 -0.81786 0.083736 -0.6003 0.15624 0.11477 0.024606 0.20849 -0.25627 0.034433 -0.29678 0.21622 0.90415 -0.015278 -0.13772 -0.30753 0.35142 0.005394 0.54153 0.22592 0.0051154 0.34017 -0.042871 -0.21435 -0.1491 -0.20939 0.25285 -0.32916 -0.41632 -0.47076 -0.17996 -0.27485 -0.69947 0.28526 0.75739 -0.2145 -0.06875 0.95198 0.17837 0.21552 0.54702 0.49217 -0.0018654 -0.40557 0.34851 0.10665 0.70913 -0.10038 0.053994 0.43612 -0.032562 0.3437 0.28768 0.15581 -0.097743 -0.17731 0.0043705 -0.2177 0.18773 0.43572 0.086632 0.43598 0.22833 -0.17478 -0.56369 0.41221 0.42165 0.63495 -0.32013 0.32345 0.28702 0.24777 -0.044059 0.3589 -0.1668 -0.007763 -0.25475 -0.017634 -0.12514 0.17953 0.1651 -0.04039 0.045246 -0.13917 0.19897 0.61111 0.36131 -0.0063816 -0.64036 -0.15916 0.43523 0.056394 0.67941 -0.49063 0.51407 0.22545 -0.32981 -0.078625 -0.256 -0.012957 -0.076432 -0.060417 -0.09743 0.28303 -0.011753 0.3653 0.034125 0.08187 -0.57667 0.027029 0.06315 -0.64026 0.11717 -0.034345 -0.3802 0.064947 0.12206 0.13786 -0.24558 1.1407 0.67226 -0.17832 -0.093559 -0.078896 0.16895 -0.16281 0.24879 0.78552 0.25292 0.14668 -0.05558 0.90252 -0.50163 0.34058 -0.577 -0.34261 -0.08438 0.26923 -0.086605 0.49621 0.20535 0.093468 0.97431 0.02038 0.14036 -0.16913 -0.29343 -0.045008 -0.4857 -0.018034 0.14529 -0.30903 -0.056338 -0.089829 -0.11448 0.37976 0.10069 0.26841 0.097209 -0.44561 0.74443 0.102 0.10047 0.11683 0.35435 -0.0020708 -0.37625 0.443 0.12296 0.0012978 -0.25779 0.0011476 0.084544 -0.68129 -0.28971 0.72004 -0.10889 -0.22736 0.36622 0.052334 0.086933 0.039811 -0.71258 0.26874 0.071007 -0.2913 0.026582 -0.083148 0.076974 -0.095881 -0.10833 -0.13847 0.25513 -0.33208 -0.67049 -0.38251 -0.101 0.013818 0.16509 -0.028679 0.01749 -0.46896 0.13164 -0.2104 0.1854 0.034226 0.041968 -0.42919 -0.16906 0.071898 -0.27415 0.86595 0.22711 -0.54893 0.40959 -0.23978 0.15757 
king 0.03259 -0.18164 -0.29049 -0.10506 -0.16712 -0.07748 -0.5661 -0.08622 -0.0021642 0.15366 0.12189 -0.14722 0.015111 0.07209 -0.021561 -0.20612 -0.021042 -0.019992 -0.15506 0.0080204 -0.22746 0.33518 -0.10629 -0.50318 -0.1582 0.27829 0.057515 -0.32697 0.047664 0.010756 0.13972 -0.12445 -0.18989 0.32969 -0.32513 0.10958 0.21962 -0.47215 0.03422 -0.2207 0.021771 0.083204 -0.047755 -0.48873 0.052071 -0.15001 -0.19203 0.061772 0.15535 -0.05598 0.11071 0.39161 -0.17716 0.054489 0.25898 -0.13954 0.4272 -0.072728 -0.4714 0.049927 0.29526 -0.053189 0.034514 -0.10583 -0.30137 0.16372 0.075409 0.21018 -0.11459 0.10976 0.049235 0.17688 0.45658 -0.59762 -0.0039 0.088656 0.53103 0.153 -0.1673 0.13121 -0.055466 -0.03582 -0.34535 0.091285 0.033235 0.45211 -0.16894 0.21139 0.24153 0.51014 -0.01474 -0.47179 0.2235 -0.34668 0.12126 0.23727 -0.084244 0.045548 -0.076977 0.042797 -0.13887 0.29286 -0.28864 0.53446 0.026766 -0.041185 0.40156 0.38334 0.019349 0.020888 0.021424 -0.11958 -0.44997 0.13685 -0.12185 -0.0050911 0.60342 0.65889 -0.16251 0.46393 0.19732 0.19346 -0.07765 0.17387 0.072789 0.043645 -0.012462 0.4392 0.031824 0.34927 -0.13155 0.41265 0.1348 0.031621 0.17821 0.20899 -0.032237 -0.37799 0.23646 0.10512 -0.0048262 0.33617 0.43214 0.28264 0.017248 0.35155 0.28504 -0.41468 -0.20859 0.089347 -0.085684 -0.3982 -0.61611 0.574 -0.34191 0.035695 0.083093 0.027582 0.30767 -0.14426 -0.23718 0.19269 0.12444 0.20298 -0.086357 -0.30212 0.061191 0.08865 0.60565 0.23092 -0.16018 -0.44802 -0.14103 0.083886 0.086041 0.17387 -0.11659 0.15751 -0.25178 0.12577 0.28713 -0.0018292 0.052591 -0.0495 -0.030817 0.13133 -0.0086691 0.0069119 0.30406 0.18153 -0.054785 -0.39295 0.29229 0.27204 0.011847 0.023254 0.025351 -0.21103 -0.45489 0.10004 0.26659 -0.12585 -0.036358 -0.1304 -0.10385 -0.35109 -0.04138 0.20202 0.08724 -0.22088 0.25375 0.080341 0.0021965 -0.14621 -0.16164 0.12694 -0.016512 -0.11299 -0.062347 0.15739 -0.20588 -0.096867 -0.22731 -0.10299 -0.022075 0.1705 -0.41714 0.13382 -0.099881 -0.35683 0.49678 -0.0060405 -0.099167 0.28355 0.27951 0.092127 0.12555 0.12955 0.051878 -0.14202 -0.18416 -0.48024 -0.024233 0.10908 -0.041167 -0.20895 -0.30235 0.47612 -0.22305 -0.41871 -0.030841 0.029807 0.21836 -0.045442 -0.24222 0.073503 -0.16438 -0.057208 0.31028 0.26954 0.20621 0.048351 0.10146 -0.2655 0.0058906 -0.026899 0.055186 0.2096 -0.21835 0.12025 -0.44548 0.053217 -0.23166 0.033231 0.13661 -0.39058 0.1834 0.016259 -0.19765 0.14757 -0.064128 0.34661 0.31601 0.13334 -0.53255 0.26908 0.27234 -0.1101 -0.11572 -0.42586 0.21509 -0.23383 0.074607 0.30356 0.095496 -0.30532 -0.2858 0.27764 0.040278 -0.095764 
bharat -0.14381 0.14092 -0.32366 0.79791 -0.042235 0.42997 -0.32686 -0.7151 0.090152 0.22536 0.010762 0.38916 0.28729 -0.39306 0.13373 -0.15425 -0.20846 -0.23823 -0.060926 1.1385 -0.34497 0.50417 -0.42389 -0.59628 -0.2878 0.12806 -0.15368 -0.29643 0.32791 -0.02846 -0.38151 0.26234 0.2543 -0.328 -0.37586 0.37828 -0.3798 -0.015585 -0.40771 -0.19531 -0.2589 0.36552 0.35053 -0.022316 0.10313 -0.33142 0.089496 0.097917 0.051303 -0.10456 -0.13582 -0.2299 -0.023742 0.32794 0.13712 0.017498 0.11202 0.37397 0.18009 -0.2499 0.13415 0.12173 -0.093371 -0.13466 -0.037875 0.044744 -0.33729 0.17502 0.1462 -0.22135 -0.1118 -0.32308 0.77527 -0.078397 -0.085663 -0.32934 0.20796 -0.035729 -0.16822 0.15854 0.45819 0.49791 -0.24733 -0.24036 -0.50288 0.10778 -0.45005 0.36066 0.039273 0.5708 0.46656 -0.41135 -0.51521 0.077939 0.22443 0.84802 -0.033578 -0.067091 -0.070219 -0.32344 -0.34863 0.23284 0.18844 -0.10776 -0.066415 0.47944 -0.14752 -0.32227 -0.30394 0.15643 -0.49594 -0.058012 0.084908 -0.32964 -0.264 -0.51481 0.26903 -0.028676 0.19336 0.21124 0.61115 0.02918 -0.25678 0.21435 -0.088709 -0.22015 -0.14361 0.30793 0.0066167 0.16296 0.14598 0.58979 0.037677 -0.073396 0.050802 0.14177 0.11376 -0.076629 0.19657 0.28459 -0.42955 0.32822 -0.031575 -0.10298 0.44991 0.38658 0.14276 0.072737 0.51372 0.10886 0.16243 -0.40034 -0.12955 0.083477 0.5326 0.048794 0.10568 -0.13222 -0.27977 -0.033584 0.62673 -0.13235 0.23931 -0.28511 0.38794 0.090886 0.33113 -0.32015 0.44012 0.58008 0.31811 0.20576 -0.20567 -0.16119 -0.45829 0.57107 -0.34606 -0.10612 0.22303 -0.018285 0.10313 -0.27301 -0.45936 -0.0050255 0.14527 0.3446 0.3689 0.32876 0.44352 0.10559 -0.43792 0.3085 -0.29229 -0.40203 -0.5227 -0.49198 0.29987 -0.37717 -0.28985 -0.30861 0.44619 -0.26246 0.50238 0.18915 -0.37075 0.13932 -0.24615 0.46377 0.47998 0.10454 0.73071 0.32436 0.020796 -0.15887 0.31672 -0.5167 0.46372 -0.28718 -0.57858 0.12819 0.42464 -0.16638 -0.1825 0.1852 0.3376 0.42207 -0.23382 -0.30293 -0.14022 0.18305 0.37083 0.021538 -0.17915 -0.38621 0.098079 0.30685 0.31455 -0.7357 0.57343 -0.12523 -0.2547 0.16342 -0.079517 0.15834 -0.29947 0.32631 -0.11998 0.48574 0.36487 -0.04766 0.42286 -0.25989 -0.043723 0.054145 -0.24706 -0.0061571 -0.48571 0.037331 0.11549 0.1331 0.073954 -0.091923 0.20222 -0.085943 -0.69499 -0.27731 -0.31799 -0.11479 -0.11432 -0.32688 0.11344 0.035294 0.0019377 -0.023249 -0.07576 -0.0081943 0.1242 -0.10113 -0.3705 -0.15928 0.31011 -0.24939 -0.56683 -0.026396 -0.10538 0.38128 -0.22363 0.35357 -0.20958 0.48993 -0.35706 0.065317 0.23422 -0.14324 0.3766 -0.52368 -0.44798 0.077417 -0.030191 0.045465 
sita -0.16777 0.52808 -0.059017 0.70846 -0.20241 0.19095 0.22032 0.10602 -0.21539 0.527 0.25704 0.40079 -0.16586 0.010588 -0.12351 -0.22402 -0.24661 0.055062 0.14801 0.54767 -0.56599 0.60744 -1.085 -0.48931 -0.2412 0.50638 -0.037014 -0.26685 0.0081054 -0.16294 0.0029724 0.48292 -0.20794 0.02829 -0.1228 0.18147 -0.22886 -0.28014 0.098054 -0.22859 0.027514 0.030201 -0.11588 -0.42062 0.33248 -0.16323 0.15061 -0.43162 -0.097083 0.022651 -0.29471 0.4381 0.31629 0.32411 0.49008 -0.055844 0.24794 0.12395 0.31154 -0.52984 0.35655 -0.021269 -0.17155 0.1793 0.11533 0.25694 0.13317 0.29605 -0.088156 0.44204 -0.20043 -0.51568 0.48632 -0.18831 -0.076874 -0.37132 0.36318 0.29365 -0.35712 -0.27181 -0.129 0.18846 0.063876 -0.050072 -0.33786 0.25387 -0.17363 -0.17192 0.10384 -0.0052339 0.53047 -0.20862 -0.026059 0.17453 0.39418 0.43424 -0.03897 0.068597 0.074583 0.042925 -0.6048 0.18212 0.20987 -0.18243 -0.038643 0.3365 0.079736 0.052072 -0.004209 0.43892 0.035827 -0.050359 -0.58799 -0.15744 -0.3976 -0.74371 0.54026 0.43266 -0.025344 -0.27709 0.53574 0.42296 0.15124 0.30028 0.24806 -0.28432 -0.28802 0.093634 0.25467 0.067291 -0.42733 0.1979 -0.045624 0.5136 0.16748 0.26313 -0.19173 0.068756 0.007238 0.21996 -0.19485 0.37605 0.086461 0.2457 0.17024 0.49515 0.22334 -0.47694 0.54973 0.28309 0.37353 -0.46459 0.26663 0.13347 0.23961 0.32856 0.31276 -0.035698 0.13952 0.09929 0.043942 -0.15056 0.38266 0.020411 -0.012889 -0.37411 0.15793 0.19322 0.21779 0.55349 0.28316 -0.24795 -0.45757 0.097138 -0.45764 0.41026 -0.26587 -0.26624 0.15016 -0.0047122 -0.11773 -0.24235 0.021563 -0.0049957 0.21927 -0.10292 -0.11237 -0.25738 0.016939 0.30404 0.19372 0.2332 -0.035909 0.10298 -0.65656 -0.30226 0.32401 -0.9032 -0.46573 -0.25695 0.42408 0.018687 0.51339 0.42151 -0.30085 -0.45623 -0.18457 -0.066455 0.24208 -0.16857 0.59613 0.13329 -0.065364 -0.18212 0.17995 -0.23584 0.083959 -0.48608 -0.05918 -0.18876 0.17376 -0.11977 0.2149 -0.16079 0.44125 0.24055 -0.2947 0.0012189 -0.047424 -0.3167 0.48527 -0.059955 -0.35557 -0.13575 -0.273 0.47726 0.047788 -0.19664 0.38329 0.29067 -0.17972 -0.018956 -0.504 0.0048639 -0.2777 0.44898 0.24643 0.40282 -0.1678 0.043215 0.10676 -0.052022 0.25894 -0.27358 -0.07235 0.14596 -0.10262 0.0089807 0.50107 0.22087 0.091872 -0.032985 -0.043439 0.023581 -0.14828 -0.59564 0.05809 -0.028482 -0.24667 -0.077164 -0.27423 -0.2281 -0.052181 0.05641 0.018094 0.16413 0.11445 -0.078366 -0.16933 -0.17165 0.38355 -0.21423 0.11103 0.25194 -0.28392 0.080882 0.11219 0.067174 0.11247 -0.0077754 -0.077094 -0.19129 0.13432 0.033818 0.69595 -0.22683 -0.045402 0.41327 0.1342 0.11629 
ravana -0.30842 0.45862 -0.35216 0.87225 0.13283 -0.15282 0.32368 -0.62138 -0.14963 0.3121 0.13317 0.38876 -0.40161 -0.30086 -0.044205 0.20635 -0.28421 0.11734 0.36646 0.50761 -0.19486 0.30069 -0.8649 -0.451 -0.52535 0.58713 0.33135 -0.40207 0.075911 -0.3788 0.1209 0.54149 -0.3385 0.13052 0.18523 0.48072 0.27903 -0.34169 -0.064425 -0.076013 -0.3673 0.19844 0.24657 -0.23111 0.55153 -0.36431 -0.031345 -0.28684 0.05016 -0.051366 -0.34194 0.45995 -0.14698 0.63594 0.19238 0.21997 0.27723 0.02808 -0.00087087 -0.37426 -0.10447 -0.077654 0.14485 0.14572 0.29573 0.039707 0.48426 0.74887 0.26688 0.23777 -0.14659 -0.3184 0.46058 0.05358 0.19131 -0.0017845 0.074522 0.19334 -0.46301 -0.1717 0.39763 0.20294 0.18414 0.13885 -0.39455 0.62249 -0.25763 0.27796 -0.082622 -0.081012 0.34965 -0.17857 0.33535 -0.3781 0.20527 0.75444 -0.46807 -0.23894 -0.18666 0.063644 0.040697 0.40445 -0.082604 0.105 0.41146 0.26784 -0.43019 -0.068153 0.12962 -0.02721 -0.064303 -0.20573 -0.31471 -0.1177 -0.38115 -0.75628 0.66066 0.47662 0.0077209 -0.018259 0.32854 0.034533 0.0263 0.58073 0.45326 -0.24929 -0.52472 0.4691 0.21962 0.30093 -0.18859 0.38406 0.35078 0.45927 0.35947 0.29013 0.024822 -0.28487 -0.16779 0.061938 -0.49281 0.45906 0.13746 -0.06172 0.33997 0.43451 0.092585 -0.43441 0.38251 0.67824 0.63386 -0.44976 0.10947 0.29961 0.23607 0.059146 0.38185 0.011559 0.2959 -0.22763 0.1023 -0.094105 0.43275 0.091798 -0.001816 -0.21083 -0.10022 0.047095 0.4094 0.44481 0.23845 -0.51181 -0.35406 0.13674 0.10095 0.13961 -0.23441 0.101 0.19457 -0.28921 0.20865 -0.062996 0.078866 -0.13828 0.16314 -0.35278 -0.15538 -0.24672 0.59653 -0.022635 0.049104 -0.054016 0.25098 0.31479 -0.41572 -0.29687 -0.12057 -0.6565 -0.373 -0.062574 0.51759 -0.12386 0.59526 0.46702 -0.16234 -0.60855 -0.36871 0.27847 0.22392 -0.16518 0.68136 0.25171 -0.20658 -0.29792 0.59187 -0.31787 0.19518 -0.52456 -0.28363 0.24086 0.052136 -0.11301 0.13446 -0.070965 0.08559 0.70719 -0.40272 -0.23532 -0.12749 -0.34975 0.46453 0.057235 -0.41584 0.31761 -0.34005 0.14079 -0.40975 -0.0038825 0.47429 0.034929 0.13863 0.20503 -0.48599 0.54653 -0.15885 0.13082 0.01828 0.39715 -0.27541 -0.15889 0.13566 0.10495 0.2308 -0.28232 -0.22497 0.23185 -0.2979 -0.34992 0.77565 -0.028656 -0.10244 0.21874 0.0087225 -0.11933 -0.095764 -0.89972 0.086897 0.48962 -0.31056 -0.026724 -0.056593 -0.06975 -0.11549 -0.22533 -0.12348 0.175 -0.11753 -0.39034 -0.26392 -0.27484 0.19789 0.28971 0.15532 -0.030183 -0.43479 0.067717 0.14504 0.15236 0.23179 0.12429 -0.56642 -0.13749 0.30916 -0.027715 0.63844 -0.0090864 -0.41021 0.2472 -0.33723 0.18432 
