photosynthesis -0.065024 0.15741 -0.23014 0.031347 -0.75226 -0.013602 0.36789 -0.62668 -0.0046588 0.17165 0.1276 0.15682 -0.40648 0.27933 0.34568 -0.46772 -0.10135 0.088924 -0.38711 0.34261 -0.032601 -0.33639 0.18517 -0.29337 -0.5728 0.08521 -0.23579 -0.041347 -0.13969 0.07926 -0.28747 0.29773 -0.31028 0.72197 0.01916 -0.11866 0.053225 0.38936 0.17875 -0.12894 0.21019 0.039245 -0.32155 -0.1077 0.14708 -0.17852 0.26234 0.097684 0.095543 -0.095365 -0.10353 -0.064641 0.059522 -0.63667 -0.085955 0.11055 -0.13931 0.18777 0.29426 0.10457 -0.67747 0.31248 0.037239 -0.049408 -0.71739 0.0079192 0.12401 0.29831 -0.13158 0.30926 -0.49926 0.33502 0.38433 -0.048519 0.091422 -0.15942 0.46645 0.42186 -0.082762 -0.27566 0.45916 0.045596 -0.15876 0.34573 -0.35013 0.12497 0.26624 0.0012765 -0.076159 -0.37649 0.44379 0.29867 0.04548 0.16058 -0.085798 -0.31796 0.3122 0.2308 -0.16392 -0.074256 0.22591 -0.22558 -0.0021922 -0.43281 -0.21351 0.15619 -0.89727 0.37152 -0.051399 -0.047489 -0.0043877 -0.13397 -0.13836 0.15312 -0.23826 0.033705 0.44445 0.26917 0.12448 0.15523 0.11442 -0.09185 -0.45586 -0.21675 0.099128 0.082306 -0.75114 0.48061 -0.205 0.015591 0.53121 0.066844 -0.0833 -0.30579 0.42477 0.33327 -0.26332 0.2355 -0.17734 0.62486 0.25528 0.45369 0.19496 -0.16075 -0.25401 0.10715 0.038745 0.60404 0.40889 -0.2129 0.41421 -0.41013 -0.038103 -0.13849 0.030244 -0.33508 0.49231 0.11835 0.15208 -0.048149 0.25321 -0.0087038 -0.024227 -0.22784 0.18198 0.047459 -0.52828 -0.26271 0.010806 0.25681 -0.45349 -0.47898 -0.21344 0.2302 0.086958 0.37653 -0.84306 -0.20848 -0.1611 -0.038099 0.086823 -0.038033 -0.098865 -0.72798 -0.1163 0.048082 0.58679 -0.084704 0.75707 -0.78088 -0.3387 -0.58732 0.54755 0.11368 -0.043427 0.070852 0.53147 0.16346 -0.0056497 -0.13364 -0.28429 0.059048 -0.26031 -0.21391 0.013983 -0.37925 -0.30342 -0.091832 0.23199 0.10058 0.26871 0.10795 0.17046 0.52811 -0.2304 -0.33193 -0.14268 -0.65113 -0.25427 -0.42693 0.20761 -0.29587 0.40459 0.22415 -0.21176 0.13851 -0.21477 -0.7199 -0.40534 -0.13014 0.055363 -0.31858 -0.29331 -0.11503 0.30916 -0.5356 0.060446 0.032877 -0.42004 0.1539 0.28569 0.037824 0.52933 -0.47373 -0.2927 0.30087 0.11541 -0.10553 0.013723 -0.87867 -0.32191 -0.11733 -0.35163 0.049436 0.29458 -0.19897 -0.18767 -0.0097843 -0.068994 -0.23702 0.059927 0.55166 -0.56722 -0.3011 -0.40611 0.034127 -0.41234 0.035268 -0.084248 0.040244 -0.02662 -0.39566 0.42808 -0.19977 -0.201 -0.66679 -0.40306 -0.31415 -0.24473 0.34628 0.25452 0.36192 -0.66479 -0.16276 0.062477 -0.11104 0.42327 0.22724 -0.47374 0.33801 -0.057611 -0.48067 0.26247 0.014095 0.3071 -0.16374 0.22284 0.81332 -0.014298 -0.055566 
energy -0.19367 0.30713 -0.050337 0.37552 -0.24507 0.20558 0.11718 -0.43432 0.21388 -0.26773 -0.33497 0.22642 0.23673 -0.15998 0.16782 0.16088 0.1784 0.04279 0.056174 0.62751 -0.49971 -0.066948 -0.14949 -0.29101 -0.3787 -0.29657 -0.037894 0.13516 -0.26539 0.11654 -0.21087 0.68953 -0.14738 0.1632 0.19449 -0.0024487 0.17705 -0.25583 -0.11608 -0.30514 -0.10001 -0.084463 -0.042674 -0.20327 0.047172 0.012831 0.12835 0.28023 -0.027714 -0.10712 0.046981 -0.06904 -0.15188 -0.16559 -0.067742 -0.11556 -0.12537 0.01748 -0.020423 -0.19634 -0.44333 -0.263 -0.089361 -0.01011 -0.1467 -0.23488 -0.086193 0.31535 -0.48898 -0.47596 -0.5104 0.17879 0.53001 -0.064461 -0.0058002 -0.38303 0.1736 0.1729 -0.058377 -0.058028 0.46288 0.38635 -0.10903 -0.20471 -0.17699 0.17813 0.1495 -0.16818 -0.1959 -0.027123 -0.046355 -0.039412 0.059211 -0.13382 0.39111 -0.072425 0.36055 0.38839 -0.073471 0.058276 0.1583 -0.24183 0.058912 -0.26967 -0.5222 0.083718 -0.089303 0.056168 -0.15973 -0.12146 -0.011315 -0.13592 -0.50108 0.09231 -0.15606 0.17113 0.24833 0.081154 0.21165 -0.15667 0.071952 -0.2938 0.0014091 -0.28048 -0.16416 -0.21485 -0.32512 0.26324 -0.17769 0.030891 0.43032 -0.027637 -0.40082 0.06142 0.41118 -0.19411 0.2615 0.012919 -0.33531 0.35424 -0.17543 0.19092 0.14022 0.089418 -0.40473 -0.1985 0.27019 0.077141 0.28402 -0.077261 0.24724 -0.024456 0.13925 0.037778 -0.2744 0.045226 0.028197 -0.11849 -0.026896 -0.21532 0.29578 0.23336 -0.070554 0.16699 0.13587 0.08206 0.001717 0.1457 0.28642 0.043581 -0.66004 -0.079358 0.14156 0.02923 0.0099143 0.12941 -0.14201 0.22456 -0.30676 -0.25873 -0.17379 0.2691 -0.36389 0.022947 0.03694 -0.15434 0.47082 0.3072 0.44646 -0.32446 -0.37101 -0.42018 -0.34477 -0.19378 -0.27329 0.0011205 0.12199 0.095056 -0.37027 -0.48169 0.090925 -0.23076 -0.3 -0.43351 0.020003 -0.30592 -0.27843 0.16325 0.50906 -0.35201 0.32923 0.30372 0.084217 0.39671 -0.28317 -0.32368 0.03365 -1.0356 -0.00017105 0.089301 -0.11026 -0.021374 0.020053 0.21299 -0.41165 0.071789 -0.032058 -0.81771 -0.17669 -0.18845 0.26922 0.083452 -0.14105 -0.2107 0.33042 -0.49286 0.023932 -0.30809 -0.28399 -0.069766 0.28891 0.57864 -0.056622 0.23288 -0.026703 0.20088 0.12443 0.050451 -0.34891 -0.16161 -0.054156 -0.16555 -0.17585 0.13979 -0.19078 -0.020661 0.11231 0.29902 0.062779 -0.11011 0.30927 -0.17528 0.059063 -0.54157 -0.44253 -0.13047 -0.059693 -0.12169 -0.41666 0.094441 0.044137 -0.10887 0.11571 0.17484 -0.030448 -0.058642 -0.10334 0.22337 -0.13152 -0.18136 0.66774 -0.059297 -0.028099 -0.33686 -0.045099 -0.16342 0.42544 -0.077411 -0.71213 0.096572 0.63141 -0.15306 0.44603 0.21946 -0.12919 -0.20987 0.089814 0.44328 0.49094 0.17375 
chemical 0.17911 0.10454 0.04333 -0.053047 -0.66328 -0.26982 0.40041 -0.58359 -0.16701 0.1107 0.39541 0.17762 -0.28571 0.092767 0.088561 -0.24202 0.34553 -0.14155 -0.29346 0.58337 -0.1105 -0.19717 -0.061991 -0.44057 -0.08456 -0.024983 0.13949 0.53578 -0.070162 0.4127 -0.11244 0.35093 -0.35061 0.41962 -0.26795 0.18374 0.034214 -0.17889 0.49035 -0.0010593 0.074583 0.24328 0.20941 -0.25822 0.13337 -0.39803 0.053845 0.20875 0.30396 -0.42169 -0.031923 -0.15239 0.36652 -0.38617 -0.038005 -0.15393 -0.026794 -0.35901 0.020816 0.11368 -0.30703 0.091154 0.038198 -0.24245 0.099907 -0.57649 -0.085739 -0.20254 -0.2222 0.1385 -0.32797 0.085305 0.28832 -0.4176 -0.15102 0.29578 -0.060824 0.2732 0.17694 0.10474 0.48356 0.2275 -0.22906 -0.18543 -0.076896 -0.15872 0.21067 0.2947 -0.096834 -0.31088 0.21751 0.53277 0.0036575 -0.048059 -0.36114 0.40104 0.14577 0.20044 -0.030266 0.017672 0.35949 -0.42077 0.25122 -0.11316 0.10402 0.022312 -0.90802 -0.20344 -0.0056658 -0.19498 -0.24027 0.056738 -0.029373 -0.079668 -0.18348 0.54136 -0.10962 0.298 -0.36274 -0.18943 0.58001 -0.11321 -0.23993 0.27455 -0.26706 -0.17353 -0.35086 0.6673 0.06377 0.10746 -0.030258 0.11175 0.066889 -0.038997 0.045365 -0.094425 0.11908 0.33517 -0.20783 -0.024174 0.14128 0.10092 0.25405 -0.13236 -0.20753 0.27404 -0.086712 0.28901 -0.02274 0.1889 0.23754 -0.14363 -0.14293 -0.32108 0.11766 0.031933 0.11617 0.053084 0.10994 0.089258 0.12531 0.051697 -0.50697 -0.30089 0.29445 0.23687 0.19548 -0.14165 0.37205 -0.00079979 -0.51671 -0.33481 0.19266 -0.32797 0.15057 0.27247 -0.058559 -0.30108 -0.23943 -0.20154 -0.37707 -0.17368 -0.10447 0.10535 -0.044067 0.27343 -0.075506 0.11901 -0.11633 0.10758 -0.42528 -0.18009 0.10201 -0.1149 -0.41661 0.44955 -0.098323 0.10589 -0.17096 -0.18246 -0.30185 0.012171 0.055674 0.0098123 -0.094578 -0.27435 -0.25592 0.036199 0.17798 0.15706 0.30552 -0.016731 -0.18459 0.52956 -0.14143 -0.055327 -0.097962 -0.19141 -0.32331 0.17547 -0.12276 -0.36257 -0.10109 0.66875 -0.39173 0.16037 -0.3492 -0.43352 -0.28971 -0.13734 -0.076144 -0.50224 -0.1206 -0.39454 0.26402 0.01366 0.12392 -0.55133 0.23028 0.32541 0.17658 -0.19971 0.10215 -0.10618 -0.32202 0.01833 0.062183 0.097115 -0.17555 -0.06329 0.0046663 -0.03789 -0.093668 0.00803 0.33899 0.17126 -0.30254 0.047809 0.22703 -0.27351 -0.041939 0.16267 -0.092941 -0.11585 -0.25686 -0.23022 -0.01362 -0.28267 0.25054 0.053614 0.36373 -0.24953 -0.1092 0.1595 -0.46147 0.02507 -0.096464 0.25525 -0.14428 0.37884 0.40217 0.19456 -0.22899 -0.23495 -0.17154 0.21239 -0.02057 0.096307 -0.78252 0.6211 0.41653 -0.24137 0.38191 -0.018881 -0.49136 -0.18536 0.0069935 0.32142 0.027234 0.16171 
energy -0.19367 0.30713 -0.050337 0.37552 -0.24507 0.20558 0.11718 -0.43432 0.21388 -0.26773 -0.33497 0.22642 0.23673 -0.15998 0.16782 0.16088 0.1784 0.04279 0.056174 0.62751 -0.49971 -0.066948 -0.14949 -0.29101 -0.3787 -0.29657 -0.037894 0.13516 -0.26539 0.11654 -0.21087 0.68953 -0.14738 0.1632 0.19449 -0.0024487 0.17705 -0.25583 -0.11608 -0.30514 -0.10001 -0.084463 -0.042674 -0.20327 0.047172 0.012831 0.12835 0.28023 -0.027714 -0.10712 0.046981 -0.06904 -0.15188 -0.16559 -0.067742 -0.11556 -0.12537 0.01748 -0.020423 -0.19634 -0.44333 -0.263 -0.089361 -0.01011 -0.1467 -0.23488 -0.086193 0.31535 -0.48898 -0.47596 -0.5104 0.17879 0.53001 -0.064461 -0.0058002 -0.38303 0.1736 0.1729 -0.058377 -0.058028 0.46288 0.38635 -0.10903 -0.20471 -0.17699 0.17813 0.1495 -0.16818 -0.1959 -0.027123 -0.046355 -0.039412 0.059211 -0.13382 0.39111 -0.072425 0.36055 0.38839 -0.073471 0.058276 0.1583 -0.24183 0.058912 -0.26967 -0.5222 0.083718 -0.089303 0.056168 -0.15973 -0.12146 -0.011315 -0.13592 -0.50108 0.09231 -0.15606 0.17113 0.24833 0.081154 0.21165 -0.15667 0.071952 -0.2938 0.0014091 -0.28048 -0.16416 -0.21485 -0.32512 0.26324 -0.17769 0.030891 0.43032 -0.027637 -0.40082 0.06142 0.41118 -0.19411 0.2615 0.012919 -0.33531 0.35424 -0.17543 0.19092 0.14022 0.089418 -0.40473 -0.1985 0.27019 0.077141 0.28402 -0.077261 0.24724 -0.024456 0.13925 0.037778 -0.2744 0.045226 0.028197 -0.11849 -0.026896 -0.21532 0.29578 0.23336 -0.070554 0.16699 0.13587 0.08206 0.001717 0.1457 0.28642 0.043581 -0.66004 -0.079358 0.14156 0.02923 0.0099143 0.12941 -0.14201 0.22456 -0.30676 -0.25873 -0.17379 0.2691 -0.36389 0.022947 0.03694 -0.15434 0.47082 0.3072 0.44646 -0.32446 -0.37101 -0.42018 -0.34477 -0.19378 -0.27329 0.0011205 0.12199 0.095056 -0.37027 -0.48169 0.090925 -0.23076 -0.3 -0.43351 0.020003 -0.30592 -0.27843 0.16325 0.50906 -0.35201 0.32923 0.30372 0.084217 0.39671 -0.28317 -0.32368 0.03365 -1.0356 -0.00017105 0.089301 -0.11026 -0.021374 0.020053 0.21299 -0.41165 0.071789 -0.032058 -0.81771 -0.17669 -0.18845 0.26922 0.083452 -0.14105 -0.2107 0.33042 -0.49286 0.023932 -0.30809 -0.28399 -0.069766 0.28891 0.57864 -0.056622 0.23288 -0.026703 0.20088 0.12443 0.050451 -0.34891 -0.16161 -0.054156 -0.16555 -0.17585 0.13979 -0.19078 -0.020661 0.11231 0.29902 0.062779 -0.11011 0.30927 -0.17528 0.059063 -0.54157 -0.44253 -0.13047 -0.059693 -0.12169 -0.41666 0.094441 0.044137 -0.10887 0.11571 0.17484 -0.030448 -0.058642 -0.10334 0.22337 -0.13152 -0.18136 0.66774 -0.059297 -0.028099 -0.33686 -0.045099 -0.16342 0.42544 -0.077411 -0.71213 0.096572 0.63141 -0.15306 0.44603 0.21946 -0.12919 -0.20987 0.089814 0.44328 0.49094 0.17375 
fuel -0.21603 0.0042762 -0.037414 0.2279 -0.55993 -0.31135 -0.004111 -0.77085 -0.054461 -0.1848 -0.2524 0.18527 0.3649 -0.26687 -0.36725 -0.037058 0.026257 0.33178 -0.10959 0.48366 0.083517 -0.16047 -0.6161 -0.449 -0.43629 -0.16255 0.11463 0.060504 -0.23663 0.22981 -0.24196 0.36685 -0.49519 0.12991 0.060774 -0.030724 0.307 -0.067969 -0.084622 -0.27203 0.21444 0.087366 -0.18662 -0.011654 -0.18621 0.01775 0.22855 -0.038935 0.19164 -0.43885 0.39552 -0.27751 0.018885 0.12064 -0.18964 -0.22033 0.16818 0.18213 -0.1336 -0.34477 -0.46064 -0.14256 0.25019 -0.050898 0.058557 -0.15621 -0.32986 0.1426 -0.20238 -0.0065606 -0.30157 -0.22581 0.27316 0.18018 0.33897 0.34044 0.19363 0.087965 0.10485 -0.13722 0.29911 0.098057 -0.47917 -0.18805 -0.31948 0.01635 -0.14835 0.053293 0.18284 -0.043618 0.24409 -0.047257 -0.37769 -0.056668 0.1982 0.20882 -0.010764 0.16432 0.15563 -0.045307 -0.00057004 -0.12413 0.0056237 0.036676 -0.037997 -0.023271 -0.15395 0.39894 -0.34577 -0.010046 -0.03991 0.36422 -0.45329 -0.42943 -0.16455 0.19978 0.63923 -0.090444 -0.35964 -0.058923 0.37106 -0.016499 -0.15923 -0.31312 -0.11773 -0.08141 -0.25669 -0.22835 -0.075265 0.11543 0.46884 0.10732 -0.18704 0.27892 0.095685 -0.017793 0.11731 -0.076167 -0.17719 0.18608 0.23469 0.27872 0.27073 0.18144 -0.16087 0.33143 0.30622 0.082881 0.016563 0.046335 0.40636 -0.24817 -0.20877 0.018441 -0.14242 0.19469 0.24831 -0.09765 -0.14224 -0.25815 0.2351 -0.50462 -0.097523 0.41999 -0.0035308 -0.12159 -0.16362 -0.22456 -0.0556 0.28619 -0.35929 -0.25401 0.16929 -0.056698 -0.29638 0.045438 -0.35314 0.017868 -0.49072 -0.35726 -0.031632 0.28881 0.38439 0.024738 0.0030292 0.17435 0.29919 0.051213 -0.092619 -0.30954 -0.080094 -0.5322 -0.22011 -0.25988 -0.33805 -0.26222 0.33003 0.10179 0.1112 -0.067348 -0.14616 0.30102 0.05183 -0.031825 0.026991 -0.43302 -0.16803 0.016591 0.24927 -0.029593 0.81446 -0.13328 -0.24746 0.28511 -0.21306 -0.062144 -0.39049 -0.59813 0.33313 0.05993 0.066274 0.31674 0.21185 0.16586 0.089957 -0.18948 -0.046918 -0.25099 -0.081106 0.25455 -0.19135 -0.14479 0.075744 0.084862 0.21619 -0.33528 0.18346 -0.33174 -0.086956 0.27441 0.19272 0.31345 0.45396 0.034385 -0.52283 0.48527 0.16893 -0.32151 -0.43969 -0.32552 0.15945 -0.23017 -0.20536 0.018366 0.083235 0.19941 0.085086 -0.15637 -0.1992 0.60507 -0.10309 -0.28681 0.0060605 -0.12883 -0.56472 -0.26465 -0.046041 0.029389 0.088655 -0.14982 -0.33306 -0.31335 0.11798 0.35194 -0.43388 -0.51522 -0.21085 0.54725 0.053782 -0.055668 0.55249 -0.31562 -0.055391 -0.75128 0.27326 0.10325 0.038277 -0.31767 -0.81462 0.17831 0.55514 0.37197 0.060141 -0.23826 0.21747 -0.14263 -0.04206 0.46806 0.04496 0.56426 
energy -0.19367 0.30713 -0.050337 0.37552 -0.24507 0.20558 0.11718 -0.43432 0.21388 -0.26773 -0.33497 0.22642 0.23673 -0.15998 0.16782 0.16088 0.1784 0.04279 0.056174 0.62751 -0.49971 -0.066948 -0.14949 -0.29101 -0.3787 -0.29657 -0.037894 0.13516 -0.26539 0.11654 -0.21087 0.68953 -0.14738 0.1632 0.19449 -0.0024487 0.17705 -0.25583 -0.11608 -0.30514 -0.10001 -0.084463 -0.042674 -0.20327 0.047172 0.012831 0.12835 0.28023 -0.027714 -0.10712 0.046981 -0.06904 -0.15188 -0.16559 -0.067742 -0.11556 -0.12537 0.01748 -0.020423 -0.19634 -0.44333 -0.263 -0.089361 -0.01011 -0.1467 -0.23488 -0.086193 0.31535 -0.48898 -0.47596 -0.5104 0.17879 0.53001 -0.064461 -0.0058002 -0.38303 0.1736 0.1729 -0.058377 -0.058028 0.46288 0.38635 -0.10903 -0.20471 -0.17699 0.17813 0.1495 -0.16818 -0.1959 -0.027123 -0.046355 -0.039412 0.059211 -0.13382 0.39111 -0.072425 0.36055 0.38839 -0.073471 0.058276 0.1583 -0.24183 0.058912 -0.26967 -0.5222 0.083718 -0.089303 0.056168 -0.15973 -0.12146 -0.011315 -0.13592 -0.50108 0.09231 -0.15606 0.17113 0.24833 0.081154 0.21165 -0.15667 0.071952 -0.2938 0.0014091 -0.28048 -0.16416 -0.21485 -0.32512 0.26324 -0.17769 0.030891 0.43032 -0.027637 -0.40082 0.06142 0.41118 -0.19411 0.2615 0.012919 -0.33531 0.35424 -0.17543 0.19092 0.14022 0.089418 -0.40473 -0.1985 0.27019 0.077141 0.28402 -0.077261 0.24724 -0.024456 0.13925 0.037778 -0.2744 0.045226 0.028197 -0.11849 -0.026896 -0.21532 0.29578 0.23336 -0.070554 0.16699 0.13587 0.08206 0.001717 0.1457 0.28642 0.043581 -0.66004 -0.079358 0.14156 0.02923 0.0099143 0.12941 -0.14201 0.22456 -0.30676 -0.25873 -0.17379 0.2691 -0.36389 0.022947 0.03694 -0.15434 0.47082 0.3072 0.44646 -0.32446 -0.37101 -0.42018 -0.34477 -0.19378 -0.27329 0.0011205 0.12199 0.095056 -0.37027 -0.48169 0.090925 -0.23076 -0.3 -0.43351 0.020003 -0.30592 -0.27843 0.16325 0.50906 -0.35201 0.32923 0.30372 0.084217 0.39671 -0.28317 -0.32368 0.03365 -1.0356 -0.00017105 0.089301 -0.11026 -0.021374 0.020053 0.21299 -0.41165 0.071789 -0.032058 -0.81771 -0.17669 -0.18845 0.26922 0.083452 -0.14105 -0.2107 0.33042 -0.49286 0.023932 -0.30809 -0.28399 -0.069766 0.28891 0.57864 -0.056622 0.23288 -0.026703 0.20088 0.12443 0.050451 -0.34891 -0.16161 -0.054156 -0.16555 -0.17585 0.13979 -0.19078 -0.020661 0.11231 0.29902 0.062779 -0.11011 0.30927 -0.17528 0.059063 -0.54157 -0.44253 -0.13047 -0.059693 -0.12169 -0.41666 0.094441 0.044137 -0.10887 0.11571 0.17484 -0.030448 -0.058642 -0.10334 0.22337 -0.13152 -0.18136 0.66774 -0.059297 -0.028099 -0.33686 -0.045099 -0.16342 0.42544 -0.077411 -0.71213 0.096572 0.63141 -0.15306 0.44603 0.21946 -0.12919 -0.20987 0.089814 0.44328 0.49094 0.17375 
transformation -0.090114 0.1302 -0.39271 0.22881 -0.27467 0.38794 0.33706 -0.25594 0.33767 0.079536 -0.10745 0.13083 -0.18086 -0.13796 0.11381 -0.25696 -0.31586 0.1212 0.57071 0.51841 -0.074406 0.22123 -0.24904 -0.46858 -0.15402 -0.21263 -0.11266 0.060694 -0.47675 0.066741 0.074973 0.8066 -0.025606 0.35701 0.013853 -0.27555 -0.16205 -0.092715 -0.04325 -0.10661 -0.27141 -0.018402 0.25534 0.10411 -0.068679 -0.11565 -0.14508 -0.27049 0.093471 0.093697 -0.005591 -0.022827 0.050699 -0.15335 0.026472 0.0034737 0.011639 0.073014 0.33071 0.082446 0.080212 -0.21098 0.24225 -0.21374 0.042667 -0.17667 0.00097274 -0.2022 0.12115 -0.00073733 -0.20642 0.21194 0.30214 -0.18684 -0.06797 -0.20401 0.15125 -0.30877 0.11122 -0.067644 0.2099 0.11122 -0.32045 -0.18241 -0.058804 0.038622 0.44922 -0.025363 -0.2206 0.13327 0.087974 0.059307 0.27134 -0.13175 -0.046085 -0.1548 0.31576 0.26262 -0.034378 -0.13639 0.1131 -0.13207 0.36556 0.074748 -0.22451 -0.057044 -0.028778 0.03258 -0.050638 -0.1608 0.11972 -0.31635 -0.054674 -0.064998 -0.004424 -0.085576 0.048169 0.040373 0.16609 0.28024 0.09327 0.25092 -0.22624 -0.16436 -0.063401 -0.086863 -0.2307 0.08547 0.22126 0.15108 -0.11573 -0.036461 0.015114 -0.23427 0.0074267 0.21011 -0.040239 -0.074454 0.031267 0.1759 0.12243 -0.082931 0.16088 -0.21818 -0.17841 0.17222 -0.076055 -0.036635 0.067789 -0.24224 0.079116 -0.00013766 0.002432 -0.047963 -0.42193 0.054885 0.16421 -0.07916 -0.026278 0.18863 -0.04305 0.12905 -0.11501 0.36467 0.30436 -0.10543 0.10783 -0.11498 -0.014757 0.22914 -0.089963 -0.24941 0.06405 -0.15433 0.27088 0.060226 0.0361 -0.10113 -0.32522 0.03754 -0.02633 -0.37542 0.22127 0.052709 0.032942 0.17079 0.11507 -0.2101 0.29867 0.09847 -0.21572 -0.202 -0.026521 0.050796 0.12188 0.0021824 -0.014391 0.14765 -0.1551 0.050652 0.38623 -0.2447 -0.17355 -0.00075947 0.10146 -0.25773 -0.43671 0.1052 0.38751 0.024296 0.47904 0.33297 0.087502 0.24231 0.31925 -0.21876 0.18228 -0.46443 -0.11154 -0.36373 -0.15736 -0.055848 0.084991 0.27717 -0.37446 0.042387 -0.29327 -0.32675 0.033204 -0.24624 0.14771 -0.15543 -0.0077103 0.024936 -0.35379 0.28158 -0.00231 0.10669 -0.20713 0.083781 0.01536 0.055314 -0.19543 -0.25624 0.14462 -0.24398 -0.10085 0.21111 -0.10166 -0.2788 -0.21234 0.13212 -0.37252 0.12221 -0.13161 0.25818 -0.017746 -0.060033 0.15541 -0.1334 0.20044 -0.0068788 0.1186 0.37864 -0.1724 0.04131 0.045697 -0.31144 0.063088 0.34612 -0.31554 -0.35443 0.15474 0.35766 -0.018139 0.011766 0.13043 -0.054519 0.28468 -0.13163 0.14554 -0.098093 0.11693 -0.058789 -0.11339 -0.19872 0.34889 -0.038132 -0.22955 0.1756 -0.078419 0.07893 -0.019402 -0.17012 -0.41432 -0.0061838 -0.10389 0.3762 0.31924 -0.15683 
carbohydrate -0.20062 0.40462 -0.04028 -0.18977 -0.64673 -0.39915 0.62447 -0.59398 -0.141 -0.22522 0.23975 0.54948 0.12281 0.23938 0.014356 -0.48978 0.17371 0.047591 -0.30142 0.38612 -0.1902 -0.41844 0.087526 -0.10321 -0.070674 0.14439 0.035928 -0.18673 0.10481 0.32259 -0.46489 0.16318 -0.60826 0.26413 -0.012932 -0.11431 0.14737 0.98499 -0.11919 -0.043899 0.68495 0.12845 0.1804 0.27558 0.27679 -0.2327 0.25202 -0.22078 0.17879 0.0083281 0.058897 -0.16851 0.41419 -0.55585 0.023042 -0.23168 0.016875 -0.33408 -0.25175 0.38546 -0.17442 -0.35737 0.13163 0.0014083 0.2553 -0.35082 -0.18992 0.42113 -0.44828 0.42527 -0.44266 -0.23439 0.65276 -0.12329 0.34235 0.17593 0.37251 0.53331 -0.27827 -0.41786 0.10157 -0.23965 -0.029944 -0.15056 -0.28503 0.0033718 0.35871 0.38434 0.040958 -0.26965 0.71261 0.29304 -0.24807 -0.55256 -0.12397 -0.18752 0.047573 -0.065504 0.0016427 0.46184 -0.1429 -0.014575 0.24162 0.028007 0.0041173 0.179 -0.29464 0.52136 -0.27671 -0.096945 -0.47767 0.17851 -0.15452 0.10312 -0.080042 0.061734 -0.048754 -0.042223 0.26037 0.25202 -0.044576 -0.28155 -0.50339 0.27697 0.14731 -0.23313 -0.54122 0.40849 -0.76387 -0.26799 0.1125 -0.097591 -0.82726 0.0051483 0.26713 -0.12406 -0.20674 0.44442 -0.42098 0.24845 0.25546 0.51404 0.10888 0.031374 -0.20036 0.2581 -0.1138 0.2674 -0.19364 0.042598 0.57357 -0.056382 -0.01171 0.076651 -0.11234 -0.040399 0.19896 -0.31495 -0.11387 0.2789 0.13027 0.12649 -0.29077 -0.36894 0.18147 0.091256 -0.38569 -0.34798 0.42391 0.20617 -0.51553 -0.25839 -0.34349 0.35204 0.21922 0.075635 -0.81317 -0.078142 0.19807 -0.081267 -0.13063 -0.28044 0.052889 -0.32012 -0.43433 0.1374 0.52386 -0.26117 0.3473 -0.39111 -0.6299 -0.73593 0.19214 -0.098185 -0.31023 0.010536 0.34593 0.36846 0.0076055 -0.062312 -0.40236 0.11072 -0.033874 -0.5758 -0.083311 -0.068469 -0.042646 0.28753 0.16548 -0.0089396 0.79493 0.10928 0.25207 0.73769 -0.20084 -0.018743 -0.047234 -0.59703 0.018102 0.18298 -0.09994 0.096956 0.52557 0.11946 -0.039362 0.065166 -0.19986 -0.56418 -0.10703 -0.25664 0.50943 -0.78241 -0.22826 -0.6701 0.21215 -0.078405 0.080736 -0.010865 0.17597 -0.10432 0.018791 0.6083 0.35391 -0.26174 -0.41678 0.33813 -0.12622 -0.056238 0.0032391 -0.24972 -0.44292 0.24041 -0.12387 0.63364 0.1195 -0.020451 0.15047 -0.59885 -0.19424 0.094242 -0.041159 0.57896 0.098193 -0.032499 -0.67128 0.060234 -0.019041 0.086683 -0.10527 0.028369 -0.36137 -0.2198 0.34554 -0.082019 -0.037343 -0.47414 -0.43293 -0.14468 -0.0032055 0.2622 0.53146 0.68555 -0.43071 -0.17782 0.024417 -0.12041 0.55985 -0.1575 -0.53292 0.47236 0.20098 -0.24928 0.2018 -0.47314 -0.5002 -0.12145 0.095168 0.69096 0.20226 -0.41004 
carbon -0.10083 0.1588 0.053414 -0.10782 -0.53756 -0.20756 0.13431 -0.53701 -0.18978 0.074241 0.087932 0.38606 0.25659 -0.1473 -0.33139 -0.16929 -0.038515 0.29393 -0.20347 0.52718 -0.22707 -0.32594 0.0018051 -0.078356 -0.25589 0.028192 0.016984 0.078241 -0.45279 0.30588 -0.57171 0.47267 0.28751 0.37441 0.12717 -0.39182 -0.046903 0.33458 -0.17532 -0.38247 0.22179 -0.21334 -0.24403 0.10078 0.63152 -0.073406 -0.25252 -0.053522 0.17101 -0.53198 -0.11515 -0.16461 0.057203 -0.087831 0.1239 0.27257 0.17944 0.44575 0.049114 0.014376 -0.72463 0.17048 -0.040519 0.19211 -0.052016 -0.35883 -0.43218 0.048314 -0.1263 0.076336 -0.16291 0.072236 0.34205 -0.088476 0.33578 0.00051764 0.079432 -0.042735 -0.19883 0.2071 0.48494 0.052833 -0.085326 -0.11246 -0.43142 -0.15957 0.16762 -0.033974 -0.33573 -0.30132 0.28603 0.2613 -0.13759 0.046901 -0.37841 0.2257 -0.44307 0.20587 -0.23616 0.010938 0.20564 0.13552 0.27022 -0.04213 0.1515 -0.12011 -0.22212 0.30937 -0.18148 0.10258 0.010845 0.17676 -0.36746 0.15486 0.071525 0.082995 0.10569 0.44221 -0.09206 0.0078832 -0.027607 -0.39728 -0.23704 -0.072903 -0.045354 -0.23077 -0.033229 0.23057 -0.23419 0.1891 0.22348 0.31416 -0.3995 0.16358 0.26962 -0.1108 0.28661 0.39935 -0.28549 0.4871 0.048698 0.55892 -0.21802 -0.070144 -0.13388 0.26745 0.015815 0.35555 -0.081179 0.06498 0.119 -0.24397 -0.12932 -0.17926 -0.21366 0.14586 0.045248 -0.29005 -0.29745 0.033376 0.44973 -0.20725 -0.14653 -0.19606 0.38242 0.219 0.011834 -0.11741 0.40271 -0.23982 -0.73806 -0.50449 -0.39702 0.19048 -0.26448 0.28888 -0.5473 0.05354 0.0095086 -0.32066 0.054173 0.34545 0.50971 -0.089462 -0.19493 0.13627 0.22776 0.22315 0.21412 -0.43656 -0.50904 -0.51249 0.11219 -0.55047 -0.14474 0.15505 0.34183 0.57267 -0.074501 0.077579 -0.42165 -0.18346 -0.37576 0.31541 -0.40012 -0.52387 -0.31292 -0.044646 0.11844 -0.075571 0.42066 0.13356 0.044226 0.51774 0.18168 -0.33316 -0.11581 -0.54423 -0.13111 -0.1092 0.082863 0.28164 0.34902 0.2503 -0.052723 -0.068601 -0.21831 -0.63204 -0.039958 -0.23582 0.0059897 -0.76201 -0.25322 -0.20017 0.069374 -0.39133 -0.098864 -0.23435 -0.44096 0.19575 0.27582 -0.44337 0.36708 -0.16773 -0.078161 0.26135 0.14571 -0.19147 -0.22762 -0.32668 -0.042545 -0.32909 -0.28546 0.17789 -0.29916 0.11117 -0.075633 0.13054 -0.045907 0.11478 0.12589 0.074801 0.083105 -0.251 -0.72722 -0.74447 -0.14505 0.12521 -0.19287 0.15749 0.067495 -0.11058 0.54635 -0.1288 -0.69974 -0.27205 0.29367 -0.072541 -0.09486 0.26515 0.3183 0.55379 -0.24611 -0.35706 0.47458 -0.32153 0.25021 0.12726 -0.66705 0.22186 0.1546 0.029655 0.1984 0.18015 0.22354 -0.052087 0.13388 0.53395 0.083431 -0.041865 
dioxide -0.27647 0.17885 -0.020508 -0.2121 -0.69659 -0.15624 0.10577 -0.99596 -0.28934 0.079518 0.010513 0.18961 -0.12518 0.041684 -0.17714 -0.23583 0.13017 0.35027 -0.39709 0.47209 0.057953 -0.30956 -0.27847 -0.029405 -0.22208 0.20432 -0.086195 -0.31152 -0.34481 0.27544 -0.4979 0.3801 -0.050867 0.58539 0.017319 -0.29001 -0.09291 0.25267 0.16396 -0.12285 0.22946 -0.013972 -0.41064 -0.28369 0.51621 -0.4425 0.06075 -0.040975 -0.084623 -0.29553 0.11593 -0.1826 0.17023 -0.64443 0.40886 0.16668 0.13941 0.55318 0.20129 -0.22333 -0.90397 0.2762 0.13454 0.052693 -0.20761 -0.40563 -0.22842 0.22632 -0.10386 0.17321 -0.15339 0.16908 0.21758 0.064224 0.18057 0.13905 -0.082511 0.07578 -0.067354 -0.076227 0.39206 -0.10788 -0.18479 -0.1216 -0.4296 0.012582 0.42425 0.30243 -0.22323 -0.39046 0.17124 -0.044552 0.14501 0.076883 -0.19339 0.36348 -0.19049 0.33335 -0.0081197 -0.084896 0.32012 -0.10372 0.345 -0.18112 0.37303 -0.023436 -0.34119 0.43912 0.081142 0.16573 -0.35799 0.26715 -0.34447 0.16438 -0.3853 0.19012 0.16934 0.41439 0.016548 0.10676 0.13758 -0.40482 -0.54316 -0.23674 -0.094975 -0.15892 -0.215 0.38418 -0.16674 0.40084 0.042026 0.39116 -0.30945 0.16453 0.23284 -0.12944 0.23246 0.22154 -0.34358 0.46463 -0.10027 0.68945 -0.089577 -0.21279 -0.44861 -0.026382 0.21755 0.33862 0.14118 -0.17916 0.36759 -0.17088 0.14208 -0.35492 0.10445 0.035853 0.30245 -0.019198 -0.033229 -0.32308 0.38448 0.016206 -0.090942 -0.26657 0.3554 -0.053604 -0.30705 -0.21518 0.29043 0.044571 -0.44202 -0.71168 -0.10143 0.68408 -0.25844 0.37257 -0.63585 -0.4314 -0.30398 -0.11304 0.20962 0.16494 0.29966 -0.20158 -0.19314 0.3426 0.45409 0.30057 0.22816 -0.6482 -0.42334 -0.60209 -0.050147 -0.20031 -0.43154 -0.10722 0.10259 0.4451 -0.13013 0.17158 -0.35615 -0.2345 -0.049138 0.26325 -0.085445 -0.55188 0.069835 -0.014678 0.33828 0.10969 0.53659 0.0133 -0.11558 0.43372 0.10164 -0.34954 -0.10655 -0.76729 0.039622 0.094606 0.055058 0.33707 0.45143 0.1739 0.18412 -0.070313 -0.12397 -0.81115 -0.039053 -0.10431 -0.081886 -0.40849 -0.2371 0.01149 0.47247 -0.052907 0.19818 -0.43053 -0.0058352 0.38946 0.39273 -0.33959 0.1041 -0.27447 -0.54028 0.21311 0.22453 -0.0022936 -0.47019 -0.49387 0.024928 -0.37473 -0.33669 0.23727 -0.039097 0.19441 0.04721 0.049375 -0.031664 -0.16344 -0.050188 0.44559 -0.13647 -0.49812 -0.8202 -0.70271 -0.16021 -0.0018169 -0.32615 0.024273 -0.0087836 -0.090818 0.40225 -0.28426 -0.50286 -0.50537 0.14341 -0.071927 -0.071879 0.39344 0.53643 0.41629 -0.13434 -0.33817 0.44763 -0.26209 0.084899 -0.055634 -0.56473 0.48222 0.29529 -0.15576 0.33998 0.090644 -0.26665 0.08969 0.54444 0.99008 0.17983 0.25345 
greek -0.15979 -0.065569 -0.069145 0.40601 -0.21595 0.14995 -0.073911 -0.10787 0.022658 0.20073 0.079863 -0.1435 -0.010601 0.05055 -0.41607 -0.11468 0.05491 -0.027991 0.24219 -0.098545 -0.73101 0.17087 -0.67009 -0.12086 -0.082986 -0.21747 0.081575 0.027403 0.037334 0.065942 -0.20942 0.23986 -0.41296 0.36672 0.19089 -0.045467 -0.24544 -0.19901 -0.17466 -0.1673 0.21466 0.29822 -0.034739 0.50628 -0.20855 0.16665 -0.0014123 -0.26675 -0.21033 -0.21534 0.12145 0.057222 -0.15144 0.23161 -0.34997 -0.0738 -0.021189 -0.30798 0.26202 0.2634 0.3462 0.24446 0.94435 -0.13826 0.3478 -0.38435 0.12875 -0.073173 -0.1414 -0.20077 -0.24076 0.35319 0.1735 0.36501 0.10093 -0.011724 -0.022066 0.27564 -0.21795 0.063483 0.092482 0.10549 -0.31855 0.1503 -0.35658 0.042501 -0.15251 0.11921 -0.28111 -0.0015284 0.16048 -0.46456 0.048122 -0.13956 0.15995 0.04431 0.065273 -0.19527 -0.14064 -0.14046 -0.27337 -0.37606 0.34002 0.31463 0.42776 -0.14587 -0.37705 0.33223 0.23273 0.43433 0.056333 -0.18579 0.12521 -0.1802 0.21427 -0.031573 0.0046813 0.21426 -0.16052 -0.022414 -0.01575 0.2906 0.065437 0.13034 -0.14964 -0.49556 0.42184 -0.0992 0.044358 0.15887 0.056339 -0.22584 0.3048 0.297 0.22087 -0.19568 -0.12302 -0.11558 0.044304 0.12379 -0.029687 -0.33209 0.30298 0.25124 -0.46645 0.41702 -0.068768 0.085763 -0.12722 0.025988 -0.23399 -0.057406 -0.1309 0.22824 -0.24733 -0.12817 -0.12884 0.086771 0.38199 -0.4511 -0.2018 0.32592 0.045275 0.1631 0.18774 0.093668 -0.14667 -0.22932 0.33839 -0.11611 -0.23537 -0.23894 -0.18085 0.17455 0.14441 0.043978 0.11737 0.12048 -0.16919 0.026762 -0.41425 -0.12112 0.10561 -0.034798 0.19883 -0.02314 -0.067044 -0.36311 0.15443 -0.48707 0.38462 -0.61714 0.054673 -0.15793 -0.029176 -0.12784 -0.026716 0.43721 0.16287 -0.195 0.34112 -0.37304 0.39316 -0.23538 0.078093 -0.28297 -0.20716 -0.163 0.27813 0.55009 0.37336 0.5717 0.44992 0.090757 0.20486 0.0079854 0.16288 -0.26281 -0.54106 0.014968 0.16501 -0.29804 -0.40882 0.7137 -0.3046 0.17431 -0.33365 -0.12148 0.41124 -0.25389 0.049809 -0.075318 -0.22877 0.053876 0.43077 0.094008 -0.24498 -0.32827 -0.33535 0.26102 -0.14304 -0.0064647 0.63705 0.082874 -0.35798 -0.048927 -0.053289 0.36063 -0.053299 -0.34476 0.42574 -0.067905 0.058248 0.034744 -0.25418 -0.14918 -0.14945 0.089772 0.49372 -0.097549 -0.098612 0.14132 0.50635 -0.30874 -0.21973 0.30983 0.24949 0.31811 -0.4011 0.059108 -0.44665 -0.011527 -0.21262 -0.8086 0.031065 0.19203 -0.060842 -0.029687 -0.44635 0.32631 0.20674 0.18619 0.1745 -0.46711 -0.26173 -0.30638 -0.37695 0.78771 -0.20208 0.42111 -0.77823 -0.096549 0.52084 0.024695 -0.15947 -0.011728 0.10383 -0.24163 -0.22314 0.13433 
oxygen -0.048301 0.1926 -0.60807 -0.13217 -0.74806 -0.17793 0.18831 -0.671 -0.35167 0.47617 0.21267 0.19318 -0.030956 0.35323 0.11016 0.017963 -0.0054491 -0.092758 -0.58335 0.20061 0.34857 -0.20062 -0.4491 -0.1015 -0.19154 -0.06244 -0.19612 0.13861 -0.3221 0.2511 -0.30666 0.21493 0.33893 0.30878 -0.071047 -0.052859 0.081312 0.092481 0.43974 0.11307 0.76376 0.16507 -0.41972 -0.22124 0.077569 -0.16028 0.13734 0.090877 -0.042715 -0.18025 -0.14328 0.0392 0.33096 -0.55824 0.22206 -0.023685 0.25825 0.28779 0.3834 -0.17872 -0.39494 0.11147 0.34411 0.19055 -0.091481 -0.2756 -0.33213 0.74038 -0.027542 -0.058146 -0.22139 0.086977 0.41849 -0.18864 0.40078 0.23113 0.17413 0.33446 -0.30103 -0.18216 0.7534 -0.3557 -0.28558 0.0095493 -0.56819 0.10499 -0.11447 0.25154 -0.31356 -0.66 0.13128 0.21283 -0.10664 0.18179 0.061157 0.40528 -0.013162 0.16838 -0.0057097 0.28743 0.024806 -0.29864 0.060792 -0.18374 0.18483 0.019642 -0.35812 0.26259 0.12116 -0.35942 -0.13808 0.21217 -0.2607 -0.27447 -0.39244 0.10876 0.30511 0.12269 -0.42485 -0.075934 0.10108 -0.42142 -0.66849 0.10617 -0.050235 -0.097556 -0.1387 0.40194 -0.36934 0.24675 0.14 0.2109 -0.27127 0.2194 -0.049355 0.36355 -0.28762 0.38389 -0.065508 0.76114 0.19186 0.49331 0.051207 -0.044121 -0.18814 0.026314 0.14794 0.45289 0.1681 -0.23596 0.45481 -0.1847 0.0072012 -0.42497 0.23035 -0.05149 0.075919 0.28622 -0.21769 -0.27806 0.47018 0.0066373 0.02847 -0.29389 0.2662 0.050821 -0.12603 -0.3013 -0.11932 0.29943 -0.41149 -0.21799 -0.34001 0.55192 -0.04582 -0.010249 -0.51648 -0.57891 0.033517 -0.18761 0.3194 0.16239 0.26979 -0.27375 0.0049825 0.48757 0.53602 0.13127 0.18045 -0.64246 -0.35196 -0.29023 0.13508 -0.032702 -0.31416 0.12615 0.19845 0.22068 0.1732 -0.29174 -0.37128 -0.15678 -0.12384 0.050443 -0.066678 -0.58731 -0.2468 -0.03375 0.40862 -0.04803 0.54604 0.084521 0.21717 0.50379 0.30889 -0.45519 -0.3263 -0.56794 0.063318 0.084156 0.0090246 0.17628 0.39836 0.63895 0.14029 -0.0057605 -0.23216 -0.43689 0.013643 -0.16163 0.17668 -0.005631 -0.43366 -0.14099 0.41974 0.0091529 -0.13345 -0.41435 -0.19563 0.31267 0.14553 0.09336 0.27264 -0.41696 -0.66053 0.49047 0.33679 -0.12445 -0.31735 -0.82597 -0.097043 0.033407 -0.25251 0.043713 -0.28936 0.18543 0.39902 -0.056348 -0.14471 0.17108 0.12774 0.34248 -0.32591 -0.24528 -0.70217 -0.16311 0.010584 -0.085206 -0.19443 -0.13381 -0.13629 -0.30973 0.35362 -0.19851 -0.48062 -0.15497 0.044002 -0.26561 -0.11938 0.23742 0.36637 0.20778 -0.51474 -0.076455 0.52922 -0.22142 0.34179 -0.1087 -0.71251 0.43392 -0.0127 0.17118 0.20689 0.14026 -0.14593 -0.24841 0.51199 0.56501 0.30614 0.31829 
algae -0.3604 0.048431 -0.40225 0.12399 -0.70841 0.25786 0.79358 -0.4362 -0.23115 0.31642 0.12817 0.28233 -0.083015 0.54857 -0.072778 -0.53009 0.21523 0.30944 -0.27176 0.29253 0.028625 -0.28579 0.37384 -0.211 -0.16298 0.057268 -0.3936 -0.059027 0.27249 0.24193 -0.23536 0.17298 -0.608 0.60552 0.15285 0.093618 0.43101 0.5544 0.22465 -0.60025 0.22127 0.26913 -0.15706 -0.18232 0.1085 -0.056339 0.40163 -0.096655 0.18966 -0.1807 0.26533 -0.60541 -0.18312 -0.22422 0.59997 0.11265 -0.19941 0.061273 0.18043 0.28929 -0.1758 0.069286 0.28511 -0.23827 -0.42789 -0.51903 0.011213 0.18985 -0.0011412 0.18198 -0.36992 0.4492 0.35052 -0.3381 0.094362 0.43847 0.33261 0.2605 -0.44679 -0.55738 -0.31805 0.1259 -0.14823 0.18865 -0.089712 -0.34335 0.2189 -0.1144 -0.13548 -0.14097 0.19725 0.23148 -0.39912 0.14757 -0.19914 -0.27322 0.24554 0.2749 0.13567 -0.20091 0.2462 -0.069669 -0.24593 -0.33286 -0.17155 -0.23995 -0.47308 0.31934 -0.34203 0.11167 -0.3635 0.036361 -0.048631 -0.13567 -0.088907 0.1249 0.35203 -0.010989 0.15423 0.19961 0.32597 -0.35555 -0.19036 -0.21875 0.25421 0.10561 -0.52872 0.065144 -0.044999 -0.12553 0.6295 -0.14492 -0.28734 0.10305 0.24627 0.080567 -0.076142 0.20844 -0.38375 0.39603 0.040206 0.81041 0.42685 0.030654 -0.099417 0.50005 0.074057 0.42192 0.54048 0.062603 0.56018 -0.69042 -0.34998 -0.35853 0.076075 0.22285 0.26488 0.41985 0.2173 -0.17409 0.30951 0.091264 -0.56123 0.098068 0.20013 0.0047284 -0.7205 -0.47759 0.67272 -0.0074208 -0.11504 -0.50438 -0.24189 -0.22953 0.25958 0.14192 -0.67609 -0.20228 -0.019542 0.37042 -0.29786 0.06172 -0.56271 -0.29275 0.053096 0.23653 0.4543 0.32197 0.41244 -0.37036 0.13583 -0.90224 0.28133 -0.16271 0.12053 -0.23559 0.27862 -0.052254 -0.1211 0.13027 -0.37647 -0.33761 -0.14748 0.3955 0.25641 -0.5074 0.13688 -0.38369 -0.002015 0.3791 0.079868 -0.086686 0.54366 0.32523 0.044776 -0.091493 -0.2971 0.032519 0.13561 -0.56662 0.20315 -0.11224 0.26454 0.34686 -0.68122 0.21708 0.0068856 -0.24422 -0.0062341 -0.26722 0.066165 -0.56525 -0.5525 -0.46903 0.48147 -0.14717 0.2082 0.23081 0.064164 -0.23936 0.25044 0.0036389 0.64711 -0.31567 -0.25665 0.50251 0.21618 -0.42828 -0.35821 -0.65662 0.40431 -0.81522 0.11634 -0.2278 0.21306 0.16787 0.02787 -0.018654 -0.063665 -0.028213 -0.12242 0.28852 -0.5996 -0.65483 -0.52049 -0.12599 -0.29213 0.48068 -0.23544 0.046804 0.26798 -0.43418 -0.047926 0.191 0.016603 -0.22698 0.050702 -0.34691 0.050327 0.4072 0.73966 0.25532 -0.61753 -0.13162 0.36275 -0.0021221 0.30611 0.14732 -0.66726 0.22632 -0.4373 -0.59484 0.21054 -0.027947 0.2648 -0.36232 0.11226 0.67354 -0.084577 0.22431 
cyanobacteria -0.013722 0.20474 -0.26018 0.26387 -0.87809 0.091093 0.63668 -0.52925 -0.4184 0.15515 -0.038268 0.00078557 -0.56678 0.3478 0.094033 -0.75668 -0.053005 0.13252 -0.29265 0.38626 0.074245 -0.30069 0.27102 -0.12743 -0.22492 0.1474 -0.38772 -0.28772 0.0043235 0.42676 -0.51565 0.10665 -0.34932 0.91442 0.12681 0.15738 0.41441 0.90629 0.025413 -0.28924 -0.0021076 0.49282 0.14488 0.034458 0.15517 -0.17132 0.52084 0.11616 0.22706 0.19522 -0.038441 -0.28336 -0.41795 -0.30163 0.28019 0.13959 -0.0018591 0.21735 0.40898 0.3322 -0.34799 0.19463 -0.012411 -0.29013 -0.47253 -0.15596 -0.076246 0.40246 0.02407 0.21497 -0.12188 0.56412 0.61919 -0.12211 0.06366 -0.015346 0.55367 0.44207 -0.12201 -0.1977 0.12126 -0.31203 -0.16032 0.68415 -0.065835 -0.20607 0.73606 0.10375 -0.41966 -0.21738 0.45527 0.46273 -0.28382 0.32381 -0.041905 -0.43689 0.31918 0.31285 0.10799 0.089162 0.26483 -0.24326 -0.13171 -0.38045 -0.014624 -0.15369 -0.6558 0.42763 -0.15549 -0.071809 -0.32183 0.0053424 0.24316 0.16592 0.083117 0.13548 0.65383 0.12648 0.18939 0.25181 0.00048826 -0.35073 -0.28436 -0.14074 0.35196 -0.36789 -0.58656 0.57238 -0.17496 0.102 0.41401 -0.023261 -0.14809 -0.050254 0.35884 -0.21197 -0.30063 0.26813 -0.35526 0.39086 0.1518 0.87101 0.15967 0.18743 -0.14289 0.33698 -0.05344 0.2561 0.22002 -0.0039088 0.37771 -0.80066 -0.093754 -0.24331 -0.10878 -0.13935 0.48655 0.17582 -0.087502 -0.37888 0.12398 0.099747 -0.23062 -0.12293 0.2534 -0.10697 -0.56789 -0.56714 0.36756 -0.018245 -0.071926 -0.69997 -0.20415 0.11836 0.010695 0.24358 -0.51422 -0.027787 0.12668 0.13597 -0.23776 -0.013433 0.0046083 -0.14526 -0.13602 0.053175 0.45091 -0.053 0.67353 -0.48783 0.061357 -0.77078 0.28405 -0.015584 -0.21209 0.061779 0.33255 0.23457 0.083222 0.33844 -0.34707 -0.12907 0.012504 0.25373 0.077247 -0.56315 0.2686 0.071393 0.023079 0.2187 0.47598 -0.5293 0.47153 0.36348 -0.050387 -0.2448 -0.02715 -0.15332 -0.26466 -0.19395 0.37315 -0.22848 0.36976 0.50222 -0.43462 0.066979 -0.12747 -0.46111 -0.11235 0.0096706 0.20628 -0.5443 -0.5421 -0.64037 0.43576 -0.23093 0.22724 0.25664 -0.16036 0.26887 0.53698 -0.29342 0.35847 -0.54097 -0.21694 0.22839 -0.057624 -0.46684 0.035292 -0.71703 0.42649 -0.48783 0.031385 -0.0026299 0.28829 -0.22658 -0.15621 -0.16914 -0.042158 0.11365 -0.23021 0.85657 -0.6223 -0.46517 -0.72046 -0.23293 -0.31232 0.34521 -0.20727 -0.23584 0.30696 -0.25487 0.23694 -0.20295 0.001201 -0.27298 -0.38927 -0.49337 -0.025654 0.42033 0.29189 0.49944 -0.51111 -0.14291 0.22151 -0.31924 0.56909 0.27255 -0.58237 0.58855 -0.45786 -0.59427 0.35436 0.52797 0.33305 -0.10077 0.18454 0.65533 0.095063 -0.0513 
photoautotrophs -0.22328 0.78629 -0.016895 -0.087624 -0.86141 0.25828 0.64888 -0.90802 -0.40227 0.41142 -0.39553 0.20547 -0.10184 -0.15159 0.44014 -0.44346 0.017228 0.36439 -0.13618 0.21603 -0.0018862 -0.42765 0.12208 -0.32146 -0.83771 0.049641 -0.36818 -0.33805 -0.45355 0.47018 -0.46692 0.16089 -0.22056 0.40983 0.16229 0.042803 0.38473 1.0122 -0.12096 -0.41784 0.18775 -0.053729 0.12643 -0.29721 -0.26237 -0.14562 -0.063873 -0.17305 0.51757 -0.089523 -0.31742 -0.25607 0.12263 -0.437 0.4488 -0.25986 -0.0031556 0.028661 0.23192 0.17218 -0.55067 0.14651 -0.22122 0.048738 -0.38571 -0.40141 -0.22365 0.52313 0.056312 0.1697 -0.14409 0.43983 0.829 -0.093335 -0.14412 0.069413 0.15063 0.44705 -0.020778 -0.232 -0.18034 0.22765 -0.13991 0.41537 0.035993 -0.13011 0.4682 0.18883 -0.28837 0.047656 0.15307 0.31094 -0.13391 0.27879 -0.38441 -0.2467 0.19173 0.27549 0.047047 -0.15275 0.39869 -0.35486 0.24219 -0.76201 -0.25289 -0.055035 -0.7307 0.2705 -0.20191 -0.064032 -0.33557 0.024512 0.18821 0.25623 -0.048173 0.19399 0.57285 0.47634 -0.060771 0.045501 0.20089 -0.33472 -0.56769 -0.51408 -0.040282 -0.3117 -0.5921 0.43545 0.080446 0.061684 0.3506 0.17505 0.15664 0.021922 0.18069 0.28154 -0.0039544 0.39093 0.032372 0.5193 0.41542 0.60229 0.37226 0.038608 -0.26039 0.21404 0.09987 0.42001 0.24634 -0.25109 0.39966 -0.29683 -0.079564 -0.18079 -0.14639 -0.097698 0.20748 0.18326 0.048824 -0.13278 0.032092 0.078491 -0.087487 -0.53807 0.20146 -0.20594 -0.56333 -0.5771 0.29177 0.176 -0.15907 -0.88271 -0.16144 0.4379 0.026729 0.27856 -0.75117 -0.1297 -0.11142 0.01992 -0.31345 0.079282 -0.1125 -0.29868 0.051659 0.34546 0.39779 -0.23828 0.87064 -0.53842 -0.082645 -0.87602 0.44287 0.16533 -0.21471 -0.04173 0.30997 0.4798 0.019005 0.26193 -0.24046 -0.41545 -0.041432 0.20745 0.30049 -0.48883 -0.067787 -0.026929 0.21912 0.28708 0.79648 -0.037071 0.32017 0.76793 -0.019372 -0.18634 -0.109 -0.61768 -0.076872 -0.34768 0.36155 0.017518 0.6223 0.41737 -0.27952 0.41257 -0.010049 -0.6871 -0.15148 -0.16618 0.12313 -0.58209 -0.13651 -0.1832 0.44289 -0.31136 0.12794 -0.11065 -0.33084 0.051395 0.56186 0.38029 0.24241 -0.38325 -0.29144 0.18098 0.13618 -0.29606 -0.13914 -0.94171 0.10189 -0.67854 -0.15417 0.024593 0.35666 -0.11136 0.088982 -0.23018 0.024827 -0.30633 -0.29816 1.0066 -0.44522 -0.033132 -1.0858 -0.35078 -0.4468 0.062385 -0.24663 0.24291 0.5362 -0.23518 0.56031 -0.31348 -0.36289 -0.13785 -0.40096 -0.29319 -0.31523 0.24088 0.32919 0.6625 -0.3199 -0.23179 0.10133 -0.14492 0.43467 0.29698 -0.63599 0.6403 -0.055576 -0.38696 0.41222 0.3339 0.31194 0.19464 0.54285 0.93166 0.26679 0.19972 
earth -0.30029 -0.070795 -0.12162 0.39159 -0.30155 0.048568 -0.25531 0.078062 -0.085115 0.41076 0.18687 0.60866 0.22032 0.019179 0.020512 -0.0288 0.045304 0.2369 -0.20644 0.53383 -0.39098 0.50703 -0.13486 -0.12219 -0.34947 -0.047642 0.054833 -0.16379 -0.21724 -0.046662 -0.0059427 0.58241 0.14925 0.22622 -0.24634 0.18299 0.056697 -0.37334 0.39991 0.096481 0.17243 0.057691 -0.30473 0.02301 0.18662 -0.25616 0.23341 0.15354 0.25112 -0.0041825 0.096122 0.002797 -0.026974 -0.50333 0.18141 0.44531 -0.0021167 0.20863 0.20385 -0.04118 -0.1168 -0.052269 -0.036812 -0.13551 -0.15393 -0.19439 -0.032167 0.20394 0.2436 0.30754 -0.13092 0.014484 0.36095 -0.022595 -0.17498 -0.10758 0.0089354 0.09376 0.10654 -0.33209 0.10336 0.15132 -0.30745 0.22263 -0.19792 0.039624 0.18186 0.35344 0.016328 0.25445 0.13643 0.089985 0.12401 0.14211 0.25257 0.2902 0.14051 0.18059 -0.35056 -0.23167 -0.043555 -0.19904 -0.12911 -0.43421 -0.53314 0.048764 -0.22021 -0.072523 -0.18829 0.088367 -0.069417 -0.14026 0.29681 0.051595 -0.0054101 -0.37584 0.48191 0.32477 -0.013913 0.12776 -0.032969 0.13787 0.057044 -0.00088853 -0.0051027 0.016233 0.13117 0.35048 -0.084608 0.13144 0.13653 0.090748 -0.0772 0.46432 0.1223 -0.14117 -0.041668 -0.03807 0.28797 0.37811 -0.28492 0.015832 0.087261 -0.10085 -0.17085 -0.045793 0.033005 -0.11005 -0.0035775 0.17967 0.68286 -0.086583 -0.1014 -0.043612 0.19707 -0.23712 -0.10457 0.15089 -0.069523 -0.28672 -0.34678 0.17305 0.019049 0.24681 0.065673 -0.025254 0.11065 0.19124 0.034263 -0.05245 -0.10735 -0.20086 0.031069 -0.11147 0.033249 0.25878 0.087293 -0.040857 0.29058 -0.18439 -0.0021068 0.013604 0.35819 -0.2309 -0.02717 0.082835 0.065719 0.25104 0.49615 -0.3877 0.082231 -0.34916 0.16296 -0.09862 -0.26693 0.14712 -0.26544 0.26091 -0.062453 -0.18919 0.13133 -0.23394 -0.30793 0.32792 -0.25532 -0.45141 -0.35825 0.16595 0.36173 0.25317 0.94405 -0.010114 -0.049888 0.11265 0.093221 -0.35403 0.081343 -0.39005 -0.30948 0.12409 -0.62159 0.019733 -0.41271 0.14448 -0.3234 0.16657 -0.22115 0.017922 0.012873 0.021907 -0.030021 0.15461 -0.54719 0.2135 0.16163 -0.31959 -0.31292 -0.034294 -0.27492 -0.29017 0.23378 0.16709 -0.00062392 -0.24219 -0.09166 0.079889 -0.063531 -0.031129 -0.36094 0.014001 -0.08852 -0.068809 -0.34625 0.3264 0.30316 -0.088608 -0.19342 -0.068598 0.15786 0.36233 0.18417 0.10316 -0.037283 0.032879 -0.11795 -0.64619 -0.64488 0.25105 0.016954 -0.09434 0.039819 0.13602 0.30992 -0.035798 -0.19226 -0.023619 -0.24807 -0.23318 -0.18508 0.14159 0.40336 -0.12645 0.17057 -0.16086 -0.32847 -0.36903 0.086951 -0.20479 -0.015111 0.81706 0.086482 0.082676 0.079211 -0.058553 0.054003 0.027518 -0.064571 0.33365 -0.12823 0.2762 
atmosphere -0.037263 0.16008 -0.25649 0.26818 -0.1759 -0.093177 -0.28793 -0.1924 0.10321 0.39252 0.10631 0.15681 -0.025073 0.090351 -0.019766 -0.084304 0.27858 0.079617 -0.013826 0.37456 0.1122 0.080569 -0.2727 -0.10418 -0.14133 -0.023882 0.07603 0.14956 0.1721 -0.063895 -0.60155 0.29903 -0.20124 0.1676 -0.095057 -0.083002 0.00065284 -0.065233 -0.21452 -0.24098 0.14105 0.37613 -0.33732 -0.22203 0.081897 0.041581 -0.10304 0.031262 -0.26449 -0.12278 0.063541 -0.11017 -0.19797 -0.36891 0.38103 0.38269 0.071753 0.25662 0.34509 -0.10627 -0.36465 -0.028499 0.093631 -0.18839 -0.19568 -0.28762 -0.17167 0.15517 -0.071413 -0.014498 -0.26218 0.58746 -0.17033 -0.11356 0.081461 0.21368 0.11399 -0.1215 0.15965 0.036649 0.042038 0.13261 0.11912 0.11919 -0.23767 0.32131 0.24514 0.30365 0.084205 0.0068928 -0.021107 -0.12015 0.17116 -0.015174 0.15941 0.24586 0.20977 0.26888 -0.064124 -0.13187 -0.097118 -0.56769 0.48277 -0.21176 -0.37934 -0.26948 -0.45033 0.39296 -0.011634 -0.22843 -0.2479 0.25529 -0.019625 -0.33396 -0.14325 -0.065862 0.42075 0.21232 -0.070566 0.22395 0.10724 -0.35023 0.14658 -0.23266 -0.029802 0.085959 0.017396 0.36349 -0.46339 0.12726 -0.10157 -0.053304 -0.1716 -0.01634 0.083843 -0.13189 0.0050671 0.23143 -0.0249 0.31567 -0.062973 0.50405 -0.16846 0.15325 -0.19505 -0.22626 -0.076097 -0.0080501 0.53793 -0.33736 0.52772 -0.25801 0.15345 -0.40116 0.18949 -0.22337 -0.23973 -0.10346 0.0066541 -0.015036 -0.13763 0.23503 -0.22869 -0.14303 0.17796 0.066886 -0.0067668 -0.0024318 0.19218 -0.045457 0.064649 -0.035319 0.1553 0.32449 -0.021094 0.36535 -0.27051 -0.48474 0.085064 -0.28672 0.34135 0.30851 0.28517 0.0069628 -0.10181 0.59028 0.2503 0.31274 0.21125 -0.34199 0.018516 -0.23937 0.14452 0.051536 -0.0725 -0.36001 -0.12916 0.2997 -0.13641 -0.089996 0.070135 -0.26283 0.0083194 0.25223 -0.082908 -0.4665 0.029823 -0.21204 0.0033511 0.15112 0.79723 0.33055 -0.034129 0.37611 -0.041303 -0.39894 -0.095221 -0.60657 -0.31855 -0.011039 0.066978 -0.067072 -0.080172 0.042964 0.034567 0.26405 -0.40988 -0.41746 -0.17602 0.17533 0.25256 0.33906 0.052535 0.25615 0.054636 -0.068522 0.13183 -0.16601 -0.10037 0.42672 -0.0045543 -0.28363 -0.087861 -0.32197 -0.39264 -0.46391 0.14897 -0.24398 -0.48416 -0.0095589 0.1853 0.014306 -0.1583 -0.054677 -0.21849 -0.022428 -0.0059643 -0.43226 -0.25406 0.26505 0.041108 0.089531 0.061233 -0.095696 -0.13998 -0.57609 -0.16983 -0.13147 -0.05207 -0.25391 0.13558 -0.20073 -0.065103 0.10282 -0.45096 -0.23746 -0.088893 0.1132 -0.0056813 0.15491 0.4702 -0.14926 0.29195 -0.029067 -0.11804 -0.31219 0.37096 -0.080489 -0.4828 0.56571 0.040263 0.14804 -0.24391 0.1373 0.050308 -0.071406 0.12464 0.25593 0.14656 0.40098 
species -0.31966 0.26761 -0.093161 0.17689 -0.29878 0.41833 0.78896 -0.66082 0.10882 -0.13697 0.40405 0.31976 0.18606 0.036059 -0.14902 -0.37972 0.059899 -0.089485 0.52796 0.0069763 0.2195 -0.41516 -0.14293 0.30177 -0.53062 0.038443 0.084318 -0.28741 0.091098 -0.012179 -0.3177 0.28401 -0.059641 0.44054 -0.041228 0.17557 0.55276 0.095087 0.24035 -0.68311 0.061525 -0.17528 0.10156 -0.020561 0.29481 0.32806 0.32586 -0.03808 0.12586 -0.36071 -0.043141 -0.14044 -0.10787 -0.48164 -0.12037 0.14463 0.11484 -0.1657 0.24039 0.62956 0.0061773 -0.13354 -0.16739 -0.38558 -0.13062 -0.24176 -0.083703 0.30012 0.073876 -0.050956 0.18406 -0.01796 0.59544 -0.32165 -0.15747 0.34075 0.20091 0.65196 0.17745 -0.0052129 -0.089216 -0.1692 -0.21104 0.048814 0.061103 -0.40991 0.57367 0.10685 -0.21321 -0.055161 -0.15337 0.22281 0.083342 0.53587 -0.050948 -0.26606 0.56642 0.59253 0.13376 0.21597 0.68463 -0.23612 -0.17264 -0.023264 0.38396 0.1068 -0.2172 0.17145 -0.11037 -0.11033 -0.034372 0.082114 -0.11722 -0.36572 0.16239 -0.26165 0.16533 0.19596 0.15082 0.06297 0.021107 -0.14021 -0.39379 0.25275 0.16519 0.44098 -0.40959 0.13268 -0.032594 0.034396 -0.085313 0.018203 0.15853 0.11919 -0.19397 -0.052765 -0.49291 -0.00088123 -0.16986 0.026172 -0.10509 0.65058 0.10429 0.10175 -0.31163 0.014507 -0.27481 -0.34997 0.67717 0.26957 0.46881 -0.63492 -0.0666 -0.23953 -0.59315 0.14591 0.063903 -0.0062562 0.62636 -0.38304 0.14402 0.29043 0.012931 -0.35696 0.24676 -0.11883 -0.46355 -0.48571 0.45983 -0.16837 0.067284 -0.0035386 -0.29124 -0.36673 0.48658 0.031192 -0.30734 -0.1604 0.40715 0.35668 -0.55415 0.52766 0.18659 -0.181 0.1296 -0.63037 -0.15957 0.22355 0.45801 -0.11313 0.0082629 -0.25127 0.56032 0.31581 -0.041406 0.00669 -0.24882 0.14592 -0.148 0.076142 0.12845 -0.15257 -0.16019 0.36678 -0.05242 -0.85688 0.055883 0.23058 0.2802 0.17715 0.49927 0.24597 0.49011 0.16298 0.016853 0.27658 -0.26667 -0.1721 0.15015 -0.52788 -0.28029 0.043138 -0.11167 0.41965 0.37169 -0.062431 0.28613 0.039971 0.0004202 -0.18354 0.25041 -0.22209 -0.5178 -0.067593 0.38883 0.22538 0.050859 -0.3352 0.11152 -0.081093 -0.25786 -0.26818 0.37452 -0.23862 0.12489 0.42104 0.1318 -0.59484 0.034412 0.014056 0.032855 -0.19112 0.27154 0.10756 0.37228 -0.24464 0.043214 -0.24649 0.10747 0.20714 0.41235 0.41987 -0.25037 -0.31972 -0.31559 0.16443 0.030196 0.47198 0.025734 -0.07619 0.046075 -0.33251 0.27955 -0.7196 0.075785 0.06153 -0.096219 -0.095498 0.16408 -0.3617 0.54594 0.43066 -0.097659 0.30316 0.43017 -0.09453 0.38113 0.38766 -0.37015 0.027586 -0.38565 -0.2327 0.22205 0.11592 -0.0056119 -0.55458 0.085931 1.0718 -0.034902 0.22364 
proteins 0.096273 0.19172 -0.67054 0.24597 -0.61456 0.13467 0.48934 -0.43338 -0.36967 -0.55822 0.13211 0.32798 -0.45132 0.29591 0.32399 -0.70224 0.1305 -0.38926 -0.43057 0.22435 0.23221 -0.45124 0.073685 -0.21176 -0.30122 0.11388 -0.27876 -0.17928 -0.11136 0.48692 -0.53625 -0.27474 -0.1586 0.32476 -0.21069 0.13831 0.10233 0.4474 -0.08239 -0.15208 0.30363 0.081711 0.15642 0.4138 0.16309 0.1175 0.38012 0.17042 0.29826 0.38764 -0.13574 -0.61533 -0.2237 -0.59044 0.20728 -0.39288 0.45075 -0.47205 -0.36139 0.25112 0.024352 0.23102 0.42291 0.053558 0.075325 -0.042206 -0.22115 0.15689 -0.51933 -0.16502 -0.17128 -0.082271 0.16269 -0.017415 0.149 0.25334 -0.039117 0.60297 -0.23614 -0.42341 0.02668 -0.28904 -0.54026 0.33552 -0.39601 -0.34866 0.85888 0.27649 -0.21618 -0.25168 0.34643 0.55537 -0.2054 0.054051 -0.39843 0.1861 0.22827 0.37405 -0.34376 0.55385 0.016392 0.10354 0.004008 -0.29513 -0.052177 0.29465 -0.9785 -0.037843 -0.090014 -0.22629 -0.4449 -0.39104 -0.27581 0.089121 0.49766 0.3911 0.18299 0.12191 0.35621 0.047358 -0.08513 -0.30212 -1.0704 0.55136 0.33066 0.008145 -0.85452 0.66732 -0.29622 0.20889 -0.027603 -0.23895 -0.62502 -0.3306 0.048467 0.12508 -0.61153 0.39843 -0.54667 0.57023 0.20754 0.46481 0.49424 -0.30665 -0.24276 0.5167 -0.066445 0.34052 -0.13676 0.56532 0.26449 -0.17059 0.13733 -0.050057 -0.19084 -0.086001 0.51395 -0.078465 -0.019475 -0.25141 -0.49525 0.064484 -0.18954 -0.19937 0.10719 0.17871 -0.33429 -0.31666 0.48417 0.2414 -0.18389 -0.58378 -0.13301 0.05554 0.22036 0.086129 -0.21609 -0.083465 0.33184 -0.014823 -0.17201 -0.42878 0.43429 -0.22734 -0.098516 0.29726 0.24397 -0.60702 0.8142 -0.082809 -0.081746 -0.3335 0.02137 0.11693 -0.53663 0.18219 0.34993 0.2927 0.026174 0.13436 -0.16753 0.19742 0.18911 -0.61455 0.044013 -0.13748 0.21268 0.50307 -0.2019 0.11256 0.57753 4.7344e-05 0.4607 0.64181 -0.16497 -0.35047 -0.021137 -1.0676 -0.035519 0.039416 0.090841 -0.088617 0.093529 0.64793 -0.23491 -0.098516 -0.33118 -0.49746 -0.087051 -0.11862 0.27043 -0.6256 -0.16033 -0.31914 0.030521 0.0078235 0.19969 0.0094056 -0.11089 0.35166 0.28691 0.30847 -0.069737 -0.14674 -0.35101 0.19861 -0.0051728 -0.41422 0.1104 -0.030388 -0.34608 -0.30596 -0.25279 0.60919 0.30475 -0.12331 0.20014 -0.42465 -0.189 -0.035298 0.099078 0.56407 -0.037379 0.14575 -0.76422 0.0025584 -0.079041 -0.14442 0.17893 -0.044435 -0.16946 -0.34539 0.066824 -0.32161 -0.38877 -0.4843 -0.4061 -0.070855 -0.027184 0.10489 0.33337 0.65366 -0.13635 -0.26531 -0.076826 -0.0093658 0.61778 0.1956 -0.59467 0.46093 -0.47156 -0.52136 0.17991 0.035245 0.26951 -0.072369 -0.5634 0.587 0.54961 -0.80485 
chlorophyll -0.20273 0.13851 -0.0087801 0.056755 -0.6615 0.087829 0.5157 -0.64624 0.12422 0.17495 0.33576 0.11745 -0.071105 0.42579 0.65068 -0.58735 -0.2351 -0.15557 -0.21122 0.39491 -0.12225 -0.31139 0.096075 0.041563 -0.31853 0.13611 -0.059774 -0.039574 0.072565 -0.091036 -0.51575 0.16401 -0.13421 0.49893 -0.0031887 0.11128 -0.056269 0.59655 0.26563 -0.24264 0.45566 0.19743 -0.50168 0.15215 0.16782 -0.012089 0.54618 -0.11554 0.31178 0.025772 -0.29062 -0.13418 -0.031115 -0.68551 0.1118 0.20552 -0.057534 -0.10832 0.22099 0.037084 -0.36288 0.17118 0.097917 -0.00077313 -0.49647 -0.17625 -0.14699 0.3205 -0.088774 0.046588 -0.089118 -0.035742 0.54852 -0.16376 0.13453 0.081404 0.13799 0.44655 -0.22787 -0.10028 0.1563 0.23333 -0.20063 0.30505 -0.28373 -0.20228 0.48219 0.17918 0.14639 -0.6405 0.72046 0.091734 -0.30311 0.5305 -0.35576 -0.15785 0.33163 0.71067 -0.14215 0.12067 0.21852 -0.072683 0.35668 -0.23343 0.044667 -0.16063 -0.79622 0.12505 -0.074315 -0.13774 -0.22578 -0.12423 -0.046321 0.12987 -0.0040497 -0.015588 0.61346 0.12775 -0.16585 -0.0061799 0.12193 -0.23482 -0.50702 0.070142 0.31829 -0.36927 -0.64224 0.58489 -0.42457 -0.13297 0.128 0.010739 -0.39802 -0.1141 0.28018 0.21374 -0.12715 0.072254 -0.43754 0.64969 0.43672 0.68281 0.17738 -0.16323 -0.1349 -0.13279 -0.27872 0.47131 0.033692 -0.0022801 0.41151 -0.60938 0.13892 -0.08206 0.080609 -0.17046 0.33195 0.20899 0.14124 0.023279 0.38525 0.11523 -0.21917 -0.12856 0.30315 0.025044 -0.70194 -0.30966 0.37444 0.21759 -0.35907 -0.5703 -0.16674 0.0086232 0.28635 0.020582 -0.8857 -0.25744 -0.057429 0.0034049 -0.24684 -0.19299 0.096566 -0.44782 -0.19926 0.31408 0.83817 -0.10585 0.78237 -0.5136 -0.38566 -0.16215 0.39169 0.027302 -0.24154 0.16901 0.47988 0.15827 0.14535 0.016545 -0.25626 -0.27888 -0.050724 0.1869 0.12085 -0.46859 -0.086441 0.039368 0.12275 0.027219 0.14348 0.19178 0.10425 0.68293 -0.39343 -0.43347 0.13838 -0.31869 -0.39811 -0.35674 0.26684 0.01923 0.46744 0.54922 -0.58052 0.12673 -0.13437 -0.48436 0.34671 -0.38399 0.19445 -0.15136 -0.48716 -0.61632 0.534 -0.26268 -0.10997 -0.060027 -0.21963 0.38166 0.18669 0.028912 0.54577 -0.32282 -0.016345 0.046008 0.15537 -0.41616 -0.036743 -0.82819 -0.34705 -0.43699 -0.32804 -0.10621 0.69919 -0.13017 0.08313 -0.22621 -0.037493 -0.25452 0.16124 0.55983 -0.53855 -0.42851 -0.58686 -0.26678 -0.73159 0.13541 0.059054 -0.28872 -0.04522 -0.46348 0.46106 -0.07353 -0.36131 -0.48449 -0.22801 0.20702 -0.0043505 0.22626 0.12982 0.21833 -0.40419 -0.27072 -0.24716 -0.30169 0.53231 0.08824 -0.57547 0.345 -0.020324 -0.37578 0.23271 0.28586 0.11643 -0.48504 0.038196 0.68145 0.040818 -0.0046886 
pigments 0.23819 0.18744 -0.35504 -0.27146 -0.57128 0.50723 0.11865 -0.49739 -0.13187 0.23044 0.32467 0.4863 -0.35542 0.53919 0.49759 -0.44229 -0.17655 -0.0071781 -0.13765 0.53431 0.055627 -0.25733 -0.12697 -0.027082 -0.33171 0.18434 0.22806 -0.24008 -0.34805 0.24299 -0.0081799 0.055355 -0.24033 0.6235 -0.3096 0.07763 0.093172 0.099137 0.20347 -0.010929 -0.13284 -0.039546 0.15553 -0.09401 -0.02453 -0.40162 0.1437 -0.12813 -0.06462 0.17446 -0.33298 -0.12045 -0.14018 -0.28282 -0.021487 -0.45233 -0.28685 0.078752 -0.037269 0.0066101 -0.087279 0.49496 -0.18939 0.069455 0.24105 -0.46824 0.0061801 0.052144 -0.19442 0.3002 -0.49791 0.17188 0.045597 -0.13842 0.37827 -0.11175 -0.14203 0.13641 -0.26161 -0.25332 -0.35759 0.21 -0.36832 0.02483 -0.15201 0.21687 0.39001 0.1323 -0.067024 -0.13362 0.4349 0.58917 -0.16655 0.049221 -0.31162 0.0010129 0.11913 0.68989 0.21707 0.10841 0.37793 -0.2065 0.0057233 -0.052781 -0.042279 -0.11557 -0.49404 -0.26541 -0.57563 0.20218 -0.44695 0.05395 0.050609 0.11929 -0.093678 0.28656 0.16464 0.068366 -0.17403 -0.062375 0.56342 0.10669 -0.15652 -0.09588 -0.033694 0.36098 -0.5026 -0.21579 0.091468 0.15938 -0.11322 -0.1527 -0.24392 0.0079941 0.23445 -0.054853 -0.095034 -0.14735 -0.72487 0.28871 0.28176 0.70416 0.27905 -0.59147 -0.093652 0.19905 -0.15089 0.036595 -0.59709 -0.065538 0.219 -0.70099 -0.049595 -0.068933 -0.20951 -0.11344 0.38232 0.41394 0.35876 -0.0085586 0.026634 -0.21118 -0.092407 -0.19967 0.59788 0.23893 0.069965 -0.16554 1.2309 0.41525 -0.47391 -0.6119 -0.11923 -0.085537 0.20208 0.27677 -0.3902 -0.5174 0.08861 0.20493 -0.13959 -0.19098 0.027833 0.12911 -0.24395 -0.030279 0.49259 -0.19377 0.20263 -0.28123 -0.055332 -0.20116 0.35916 0.063176 -0.13129 -0.05341 0.60227 0.5141 -0.087691 0.14693 -0.13405 -0.29327 -0.11756 0.096652 0.32267 -0.51153 -0.14364 -0.0077052 -0.051377 0.25125 0.33806 -0.21475 0.43417 0.3311 0.16241 -0.054237 0.030751 -0.62327 -0.27101 -0.1785 0.10895 -0.042468 0.53755 0.57452 -0.24744 0.15028 -0.45745 -0.31783 0.066991 -0.12924 0.30801 -0.11205 -0.15901 -0.23705 -0.023225 -0.2341 0.16513 -0.20983 -0.26232 0.44291 0.25267 0.057974 0.17959 -0.18554 -0.32497 0.34256 0.070286 -0.32941 -0.24607 -0.46473 -0.03826 -0.2607 -0.097294 -0.11855 0.53877 -0.17206 0.10572 -0.3644 0.049339 -0.24972 -0.25244 0.8336 -0.033436 -0.06337 -0.57488 -0.35086 -0.46552 0.528 -0.089284 -0.0099075 -0.13272 -0.17093 0.60794 0.099026 -0.60563 -0.51075 -0.30032 0.33203 -0.037029 0.23957 0.264 0.30507 -0.27269 0.35106 0.62337 -0.02827 0.1644 0.17875 -0.68949 0.17836 -0.24378 -0.41145 0.25148 0.27534 0.014711 0.087747 0.17232 0.63773 -0.055397 0.39712 
organelles 0.31087 0.047867 -0.6039 0.034896 -0.44826 0.33541 0.62827 -0.19631 -0.53675 -0.056337 -0.047014 -0.036307 -0.73185 0.18659 0.23246 -0.27758 -0.11897 -0.16618 -0.38354 0.5888 0.0070387 -0.2429 0.26767 0.024506 -0.40706 0.11136 -0.2524 -0.2362 0.14814 0.3402 -0.52265 -0.31012 -0.1568 0.23972 -0.0087549 0.10573 0.24065 0.67158 -0.080986 -0.13152 0.23684 -0.18618 0.082364 -0.15848 0.059758 0.39773 0.11708 0.071344 0.10732 0.3116 -0.22323 -0.46504 -0.39283 -0.42489 0.0011101 -0.50316 0.14988 -0.078277 -0.14039 0.27243 -0.2196 -0.02851 0.43617 0.10741 -0.25718 -0.22688 -0.13064 0.20004 -0.17199 -0.16263 -0.3237 0.09811 0.3797 0.14793 0.054331 -0.0066769 0.32934 0.64932 -0.026024 -0.53881 0.06168 -0.14628 -0.46401 0.4355 -0.3805 -0.010553 0.49613 -0.083216 -0.17001 -0.28804 0.21757 0.47061 -0.063457 0.19409 0.24835 -0.19331 0.48282 0.28491 -0.2407 0.14858 -0.084448 -0.13674 0.025555 -0.60427 0.10519 -0.019008 -1.3458 0.01974 -0.26068 -0.10727 -0.15234 -0.0082858 0.20914 -0.23541 0.31245 0.27186 0.31578 0.19845 0.2824 0.13937 -0.3636 -0.44198 -0.24974 0.40943 0.044724 -0.012859 -0.41218 0.30306 0.031067 -0.015758 -0.084235 0.0436 -0.21824 -0.22392 0.34513 0.11955 -0.41569 0.34093 -0.51497 0.98165 0.18125 0.29736 0.71417 -0.13073 -0.17939 0.28429 0.087243 0.41948 -0.066112 0.38823 0.19651 -0.59159 -0.0011285 0.11477 -0.33677 0.16301 0.33745 0.07602 -0.039595 -0.32184 -0.42401 0.06388 -0.16485 0.057394 0.25532 0.05674 -0.5034 -0.34914 0.38272 0.21388 -0.39194 -0.5165 -0.088807 0.11675 0.062093 0.20126 -0.13351 -0.29788 0.20223 0.14193 -0.21142 -0.47427 0.091921 0.052577 0.177 0.10157 0.44705 -0.29488 0.59431 -0.39182 0.16091 -0.67666 0.043586 0.21163 -0.18198 0.0018967 0.56718 0.21546 0.046953 0.26452 -0.15458 0.11242 -0.047346 -0.2077 0.31974 -0.3393 -0.26768 0.10034 -0.026709 -0.13872 0.3202 -0.014834 0.59563 0.22823 0.21099 -0.29465 -0.1079 -0.87468 0.068054 -0.41022 0.12866 -0.28164 -0.15281 0.37735 -0.32765 0.21749 -0.14514 -0.83843 0.17299 -0.48798 0.12446 -0.82188 -0.18693 -0.52804 0.10696 0.054245 0.14441 0.035687 0.009685 0.36325 0.37687 0.24436 0.25403 -0.39373 -0.52075 0.44454 0.14624 0.04862 0.32424 -0.23198 -0.13017 -0.24719 -0.40668 0.48375 0.46883 -0.085332 -0.032329 -0.34343 0.086897 -0.21143 -0.26718 0.40434 -0.3333 0.19498 -0.45658 0.12943 -0.21722 0.17275 -0.0086491 0.42237 0.080673 -0.30552 0.27134 -0.055994 -0.73346 -0.42522 -0.32287 -0.17907 0.15164 0.13826 0.2749 0.30983 -0.13294 -0.3492 0.039591 -0.0099806 0.49967 0.14909 -0.69956 0.60175 -0.20093 -0.36383 -0.21922 -0.03061 0.28987 0.18888 -0.3853 0.57678 0.10751 -0.16415 
chloroplasts -0.01632 -0.071281 -0.20921 0.080243 -0.42773 0.033399 0.4261 -0.3218 -0.17845 -0.076539 0.053477 -0.050051 -0.49729 0.40658 0.38505 -0.69493 -0.067289 0.11658 -0.26534 0.69172 0.078094 -0.38845 -0.011031 -0.0772 -0.5774 0.51225 -0.26158 0.014513 -0.30104 0.3061 -0.46703 -0.070969 -0.21561 0.42087 -0.10033 0.15746 0.14873 0.63059 0.19721 -0.23448 0.39509 -0.11454 -0.13382 0.19566 0.08061 0.096248 0.39995 -0.078051 0.040696 0.11107 -0.24916 -0.60744 -0.18185 -0.6065 0.055491 -0.20672 -0.25323 -0.09889 0.031539 0.28234 -0.39121 0.24197 0.080933 0.20917 -0.51463 -0.25813 -0.24989 0.31168 0.15699 0.103 -0.4543 0.2938 0.68966 0.22561 0.071257 -0.037954 0.3065 0.71874 -0.25122 -0.38734 -0.064292 -0.10897 -0.58639 0.58326 -0.44389 -0.17332 0.57184 -0.10683 -0.075747 -0.21931 0.42771 0.19074 -0.15664 0.4703 -0.094738 -0.33005 0.44131 0.43633 -0.10754 0.069896 0.04665 0.0052863 0.10849 -0.46971 -0.13892 0.054376 -1.1637 0.4334 -0.053537 -0.17241 -0.43194 -0.38565 0.081769 -0.052043 0.080399 0.26088 0.70676 0.24721 -0.081498 0.19861 -0.18149 -0.1403 -0.34727 0.26148 0.13001 -0.12769 -0.95882 0.49361 -0.053847 0.05002 0.39625 -0.25224 -0.10872 -0.14729 0.11828 0.0024914 -0.34416 0.32308 -0.43899 0.41544 0.35721 0.49322 0.4958 -0.031775 0.00057664 0.090654 0.14742 0.43685 -0.044591 0.19826 0.28005 -0.71148 0.33454 0.22158 -0.38589 -0.066579 0.50084 0.23234 0.46216 -0.14043 0.14667 0.064736 -0.14913 0.051669 0.18754 -0.016241 -0.72129 -0.35055 0.64359 0.0986 -0.17 -0.68133 -0.12369 0.24449 0.17598 0.38348 -0.74368 -0.22634 0.26426 0.23012 0.21457 -0.35369 -0.049319 -0.1832 -0.0080528 0.055806 0.69661 -0.44374 0.88909 -0.57707 0.081967 -0.38419 0.17806 0.33892 -0.15158 0.13069 0.61262 0.23153 0.30293 0.064124 -0.20948 0.013122 0.15661 -0.047149 0.32301 -0.20241 -0.1269 0.36657 0.22839 -0.095207 0.42418 0.27186 0.65326 0.71905 0.036701 -0.36496 0.0059525 -0.77308 -0.1138 -0.35513 0.15287 -0.43881 0.44072 0.57926 -0.3759 0.25067 0.11484 -0.44673 -0.2242 -0.45732 0.069683 -0.87792 -0.36418 -0.38342 0.16643 -0.53805 0.039232 -0.039565 -0.27037 0.36314 0.41871 0.26548 0.21702 -0.34092 -0.36509 0.36528 -0.11734 -0.15107 0.15461 -0.68438 -0.081727 -0.29375 -0.25142 0.14061 0.68844 0.027873 0.32664 -0.12471 0.10992 -0.19181 0.074189 0.69481 -0.81404 -0.16216 -0.84838 -0.1144 -0.33635 0.19208 -0.013922 0.1387 -0.032148 -0.66641 0.27571 -0.16127 -0.41664 -0.45779 -0.37337 -0.22562 0.18392 0.26963 0.23797 0.24008 -0.39776 -0.3405 -0.21188 -0.019979 0.50199 0.25261 -0.69353 0.47174 -0.17013 -0.55363 0.22004 0.27093 0.26635 -0.21506 -0.14145 0.73947 0.13808 0.091322 
bacteria -0.097099 0.31261 -0.57415 0.083231 -0.83698 0.10333 0.33415 -0.51276 -0.25059 -0.037227 -0.24658 0.39097 -0.49403 0.24365 -0.15234 -0.61263 -0.030819 -0.21219 -0.12432 0.34737 0.26252 -0.18991 0.32314 -0.14433 -0.3676 0.11842 -0.43449 -0.37169 0.11059 0.48302 -0.64289 0.12195 -0.66133 0.50407 -0.040296 0.13061 0.46073 0.39059 0.11789 -0.13761 0.17294 0.42296 -0.063685 0.19172 0.068635 0.12664 0.31176 -0.029966 0.17584 0.13279 -0.19737 -0.29296 -0.49109 -0.36516 0.17907 0.19619 0.072988 0.14273 0.070565 0.32553 -0.34613 -0.12072 0.24723 -0.057133 -0.49594 -0.20563 -0.14348 0.53963 0.15064 0.095489 -0.20587 0.30944 0.37616 -0.049466 -0.30522 0.10397 0.11878 0.61276 -0.27118 -0.31774 0.045191 -0.63551 -0.20363 0.519 0.12081 -0.048495 0.52898 -0.056861 -0.44743 -0.090043 0.031666 0.19894 0.0017852 0.061213 -0.11686 0.03493 0.064134 0.49084 0.12454 0.19805 0.30807 -0.2737 -0.12815 -0.33251 -0.049638 0.031708 -0.90333 0.25107 0.084646 -0.089567 -0.33301 0.0087925 0.44645 0.15281 0.19078 0.19375 0.29201 0.0046413 0.4346 0.37111 0.064928 -0.50831 -0.21008 0.031847 -0.026004 -0.15406 -0.28154 0.47647 -0.17207 0.32731 0.11506 0.18376 -0.20484 0.14856 0.035002 0.095361 -0.49912 0.29879 -0.33661 0.0040777 0.089822 0.84228 0.35668 -0.14987 -0.35422 0.22549 0.23032 0.15816 0.20077 0.11604 0.56871 -0.2038 0.053114 -0.048664 -0.10502 0.24373 0.40588 0.33424 0.077639 -0.21686 -0.44421 -0.024504 -0.28998 -0.36348 0.083381 -0.08266 -0.24491 -0.4213 0.36076 0.11778 0.068333 -0.75855 -0.15821 0.28755 0.13405 0.29985 -0.6266 -0.31798 0.38227 0.4266 -0.186 0.09377 -0.052018 -0.3649 -0.026887 0.12394 0.059265 -0.16777 0.2878 -0.44182 -0.17734 -0.67626 0.004082 -0.097532 -0.37105 -0.18019 0.38252 0.050393 -0.25765 0.12481 -0.024315 -0.043272 -0.27636 -0.058998 0.040837 -0.53581 -0.14101 -0.1281 -0.033273 0.16793 0.5583 -0.34544 0.31343 0.64527 0.017831 -0.087884 0.046685 -0.39376 -0.091932 -0.077914 0.28814 -0.14025 0.38519 0.37084 -0.22089 0.24577 -0.16235 -0.44599 0.089323 0.035604 0.070865 -0.59168 -0.16012 -0.60479 0.44396 0.0059111 0.11934 0.10364 0.26197 0.16197 0.34238 -0.21551 0.31368 -0.26464 -0.29828 0.48864 -0.11341 -0.51915 0.11129 -0.3529 -0.12625 -0.041213 -0.22895 0.44795 0.051504 -0.27326 0.01985 -0.22901 -0.066033 0.061107 -0.20786 0.65388 -0.29936 -0.10848 -0.97419 -0.081768 -0.28431 0.089524 0.10086 -0.18441 -0.012424 -0.092708 0.14485 -0.16104 -0.28849 -0.3676 -0.14285 -0.53428 -0.010727 0.16513 0.23384 0.38454 -0.21241 -0.095638 0.059423 -0.30724 0.62644 -0.0065731 -0.64214 0.56546 -0.51556 -0.41634 0.40532 0.075513 -0.065452 0.16262 0.2209 0.73603 0.22481 -0.079404 
plasma 0.22345 0.077713 -0.02197 0.11908 -0.2307 -0.49503 0.14542 -0.22044 -0.090584 -0.10827 0.19412 0.29978 -0.049437 -0.15671 0.30106 -0.26499 0.046677 0.15376 -0.51436 0.51563 -0.1153 0.20991 -0.4002 -0.14581 -0.41935 0.005974 -0.0053114 0.021552 0.008903 -0.04379 -0.019597 0.36785 -0.26264 0.15485 -0.39366 0.11355 0.2195 -0.16831 0.025293 -0.096231 0.016463 0.09792 -0.25851 0.075911 0.021508 -0.26835 -0.1233 0.26329 -0.030198 0.2481 0.034088 -0.2716 -0.64468 -0.59695 0.1949 0.010746 0.12831 -0.037099 -0.10367 -0.26072 -0.43885 0.082987 0.027389 0.24175 -0.035249 -0.11158 -0.21121 0.43868 0.22602 -0.4579 -0.19878 -0.096414 0.2387 -0.080613 -0.13223 0.095652 0.15699 0.062911 -0.37912 -0.41411 0.15429 0.022707 -0.45617 0.049981 -0.17268 -0.34152 0.36213 0.063598 -0.39382 -0.088216 0.059226 0.35138 0.21349 -0.0061061 0.45007 0.073675 0.14511 0.12877 -0.4027 0.026334 -0.097892 0.20649 0.090418 0.17304 0.075583 0.49746 -0.82929 0.14096 -0.24361 -0.098954 -0.24597 0.023239 0.097718 -0.19505 -0.26647 -0.10662 0.065387 0.19033 0.10077 -0.20014 -0.11336 -0.45968 -0.81478 0.41574 -0.3417 -0.20482 -0.47403 -0.14842 -0.20427 -0.016459 0.2458 -0.005739 -0.52659 -0.070349 0.43368 -0.062166 0.072729 0.29683 -0.48117 0.52782 0.037936 0.25831 0.44392 -0.12 -0.36033 0.046274 0.54395 0.55873 0.0035664 0.22806 0.30599 -0.085843 -0.13711 0.040955 -0.050456 -0.020685 0.48357 0.013899 -0.23649 -0.092683 -0.019082 0.33173 -0.08586 -0.045187 0.30151 0.52272 -0.10497 -0.12863 0.0099072 0.48984 -0.16475 -0.27721 0.11175 0.21314 0.21872 0.32044 -0.01704 -0.57447 -0.14732 0.28478 0.1402 -0.24231 0.3413 -0.35617 -0.010938 0.60551 0.55804 0.22566 0.69104 -0.39468 -0.5312 -0.36232 0.32707 0.14406 -0.29991 -0.47049 0.11186 0.27288 -0.24783 -0.418 -0.15753 0.068111 -0.12325 -0.11353 0.14773 -0.16671 0.049482 0.048538 0.093681 -0.13369 0.41185 0.23414 -0.055955 0.26138 -0.08845 -0.26179 -0.13344 -0.65712 -0.46958 -0.33747 -0.21531 0.051567 -0.504 0.53846 -0.23855 0.13886 -0.28102 -0.43843 -0.23352 -0.4183 0.37817 -0.17926 -0.10958 0.096401 0.41431 -0.044406 0.19686 -0.93654 -0.21353 0.8631 0.49046 -0.13691 -0.064972 -0.029347 -0.23305 0.62248 0.15463 -0.20454 -0.16785 0.24192 -0.57091 -0.1875 -0.40946 0.77079 0.052407 -0.17408 0.25457 -0.50621 -0.12524 -0.14162 -0.17276 0.2604 -0.17929 -0.054799 -0.27128 -0.064719 -0.32648 -0.10189 -0.23568 -0.14477 -0.064728 -0.24329 0.073212 0.0053378 -0.27638 -0.15201 0.12682 0.29932 -0.19179 -0.055651 0.23156 -0.1763 0.13677 -0.36613 0.32964 -0.26675 0.52428 -0.26139 -0.36048 0.3964 0.43197 -0.28195 0.086281 -0.12527 0.16784 0.03602 0.06332 0.13449 0.33682 -0.41613 
membrane 0.0081192 0.065619 -0.22555 0.55341 -0.57384 -0.33215 0.34236 -0.090188 -0.29074 -0.33494 0.011445 0.19558 -0.33437 0.22271 0.24283 -0.42699 -0.18109 -0.11676 -0.53024 0.43649 0.28795 -0.10998 0.18365 -0.06348 -0.41765 0.34998 -0.24515 0.063636 -0.091803 0.4467 -0.4965 -0.16872 -0.027339 0.19645 -0.55147 -0.2285 0.25949 -0.095752 0.14333 -0.20078 0.49095 0.0088826 -0.3833 -0.050868 0.12255 0.41511 0.18463 0.2249 0.12124 0.19703 -0.31355 -0.40345 -0.17675 -0.3795 0.41039 -0.30747 0.33589 -0.1673 0.19284 0.13829 -0.094745 0.43398 0.041815 0.061337 -0.19757 -0.1316 -0.16822 0.20726 0.12644 -0.45358 -0.48078 -0.45265 0.27398 0.22054 0.14852 -0.040201 0.3039 0.74388 -0.20157 -0.44184 -0.27848 -0.2935 -0.57297 0.43493 -0.47395 -0.068564 0.72355 -0.040171 -0.34 -0.27052 0.30344 0.21679 0.28553 0.41771 0.34525 0.15039 0.13937 0.46884 -0.29504 0.25726 -0.15661 0.017114 0.20526 -0.1139 0.44504 0.33183 -0.91871 0.32432 -0.060224 -0.1587 -0.40429 -0.017147 -0.056422 -0.075053 0.37907 0.24029 0.0052907 0.16648 0.58246 0.0075245 -0.14569 -0.15408 -0.52896 0.59945 0.064862 0.41712 -0.7726 0.56578 -0.0024246 0.11578 0.27979 -0.32182 -0.56952 -0.060156 -0.025278 0.038143 -0.50612 0.31866 -0.7822 0.61027 -0.060443 0.26714 0.50382 -0.049052 -0.42917 -0.05979 0.061101 0.61918 0.067399 0.68376 0.046807 -0.38864 -0.25825 0.092934 -0.18272 0.015586 0.50778 0.092953 -0.10049 0.031094 -0.32645 -0.2057 -0.07244 -0.048153 0.34832 0.25123 -0.23691 -0.18616 0.19725 0.41117 -0.56785 -0.61039 0.039567 0.58387 -0.00077053 0.066311 -0.20311 -0.22484 0.15021 0.085101 -0.066475 -0.51137 0.37665 0.092437 0.20421 0.64448 0.18842 -0.69699 0.39409 -0.24366 -0.20852 -0.035947 0.22299 -0.00019504 -0.27947 -0.32766 0.56416 0.42441 -0.32151 -0.21708 -0.036076 0.058392 -0.21709 -0.15639 0.096454 -0.48106 -0.025446 0.47406 -0.0053661 -0.11853 0.37185 0.21074 0.4719 0.47723 -0.089295 0.021825 0.05428 -1.1418 0.036276 -0.21187 -0.081804 0.18384 -0.10476 0.58561 0.10764 -0.014351 -0.16253 -0.73631 -0.31099 -0.039094 -0.11021 -0.73566 -0.18265 -0.1423 0.093202 -0.10873 0.32737 -0.18192 0.25182 0.64137 0.21272 -0.0034313 -0.12147 -0.33358 -0.13207 0.61139 -0.16964 -0.25578 0.13373 0.11311 -0.16462 -0.21583 -0.38614 0.76257 0.2097 0.089967 0.004245 -0.26037 0.045613 0.0096599 -0.14581 0.71084 -0.34463 -0.125 -0.61757 -0.29574 -0.5108 -0.16561 0.23032 -0.0096798 0.049715 -0.44426 0.35151 -0.049378 -0.56687 -0.26192 -0.26981 0.11735 0.043981 0.069601 0.21972 0.084137 -0.074787 -0.22194 0.056368 -0.098212 0.59108 0.066828 -0.54233 0.61725 -0.24232 -0.18601 0.22999 -0.22548 0.35353 -0.021227 -0.52581 0.42531 0.44353 -0.37814 
electrons -0.063681 0.11958 0.063213 -0.086737 -0.38103 0.09718 0.43632 -0.4797 -0.52792 0.20793 -0.54377 0.33428 -0.68999 0.10612 0.46051 -0.082958 -0.18256 -0.096184 -0.12887 0.23315 -0.0099948 -0.5838 -0.32378 -0.35133 -0.47336 0.18888 -0.00084873 0.085912 -0.31075 0.032075 -0.51478 0.4204 0.072993 -0.082725 -0.1851 0.17115 0.29061 0.15762 0.41069 -0.085444 0.3053 -0.18174 -0.37656 -0.24293 0.22807 0.15687 0.05519 0.40914 0.28475 0.095497 -0.25013 -0.43597 -0.20434 -0.6912 -0.22872 0.027051 0.11782 0.30007 -0.11131 -0.12077 -0.28163 -0.0094427 -0.18495 0.17857 -0.45875 -0.2793 -0.14701 0.29247 -0.012259 -0.65044 -0.47131 -0.11069 0.5243 -0.016687 -0.051083 -0.079308 -0.24939 0.61958 -0.19904 -0.35183 0.15151 0.0017645 -0.49904 0.36038 -0.27953 0.051763 0.2954 -0.16242 -0.35293 -0.39158 0.22738 -0.029826 0.44241 0.32539 0.64134 0.40367 0.23328 0.10495 -0.40829 -0.049184 0.15368 -0.10544 0.27466 -0.43827 -0.14381 0.00079087 -0.75007 0.10768 0.27978 -0.091053 -0.30488 -0.11312 -0.23023 -0.38364 0.19892 -0.32395 0.21813 0.4115 0.22422 -0.14222 -0.012978 -0.4855 -0.85354 0.14533 -0.22378 0.25327 -0.29448 0.61793 -0.012806 0.19504 0.10535 -0.29015 -0.30897 0.12726 0.41334 0.040865 0.028586 0.036827 -0.16863 1.0426 0.34864 0.096384 0.36029 0.081725 -0.49262 -0.54447 -0.088636 0.64785 0.17844 -0.044679 0.15427 -0.17067 0.26279 -0.44807 -0.22644 -0.15403 0.67678 0.088314 -0.10098 -0.2803 -0.14304 0.096988 -0.012729 -0.51844 0.47293 0.37298 -0.38036 -0.24826 0.24578 0.13048 -0.93774 -0.044199 -0.076479 0.1463 0.46058 0.36986 -0.56032 -0.085791 0.17765 0.22685 0.44453 0.12428 0.38739 -0.086866 -0.40888 -0.17726 0.48661 -0.279 0.44298 -0.38907 -0.13409 -0.24903 -0.010092 0.022474 -0.32419 0.06607 0.059405 0.52982 -0.36943 -0.51667 0.071066 0.27375 -0.034334 0.0097396 -0.069726 -0.34479 -0.20173 -0.13779 0.0074638 0.15095 0.29653 0.1192 -0.021072 0.51619 -0.1703 -0.61195 0.07866 -1.0555 -0.47562 -0.32945 -0.25036 0.37931 0.36283 0.47565 0.1126 0.40961 -0.27909 -0.68772 -0.07681 -0.66445 0.33908 -0.21981 0.010348 -0.065207 0.97252 -0.44874 0.32147 -0.78401 -0.72649 0.092636 0.17724 0.07503 0.094338 0.20124 -0.78688 0.43443 0.21596 -0.25135 -0.04459 -0.17964 -0.40448 -0.33808 -0.45209 0.040928 0.23667 -0.049997 0.31256 -0.0083928 -0.49344 -0.18078 -0.057134 0.32237 -0.14689 -0.071319 -0.77073 -0.57759 -0.27936 -0.17436 -0.15717 0.14162 -0.084969 -0.33354 0.58711 -0.55907 -0.76035 -0.1558 0.10434 0.022241 -0.37548 -0.064277 0.15243 0.23064 0.32272 -0.026885 0.0040322 -0.54553 0.87014 0.2172 -0.52647 0.44695 0.54786 -0.13826 0.024978 -0.015389 0.23768 -0.050755 -0.43408 0.28909 0.6494 0.14788 
gas 0.16879 0.10318 -0.16218 0.18068 -0.67349 -0.47209 -0.01492 -0.21305 -0.061922 0.12102 0.11333 0.07741 0.26567 -0.0092439 -0.12982 -0.12282 0.036397 0.21228 -0.22213 0.65788 -0.4547 -0.053087 -0.32094 -0.12086 -0.27665 -0.18865 0.18889 0.14971 -0.17998 0.2386 -0.37234 0.54786 -0.0041877 -0.0068874 -0.082576 -0.44377 0.29636 -0.35047 0.17253 -0.25858 0.39574 0.16057 -0.30125 -0.068075 0.18488 0.027037 -0.23841 0.25114 0.095923 -0.16129 0.1149 -0.13615 0.074246 -0.17426 -0.15029 0.0077669 0.18774 0.39876 0.32256 -0.15645 -0.60715 -0.36287 -0.24462 -0.013629 -0.1807 -0.26898 -0.56359 -0.077783 0.1246 -0.034964 -0.27887 0.42712 0.52751 -0.071751 0.22982 0.0039968 -0.16738 0.26911 0.43564 -0.028607 0.22478 -0.0080681 -0.29809 -0.29609 -0.24016 0.17156 0.12062 0.067741 -0.28752 -0.046928 -0.01878 0.022401 -0.18038 0.11434 -0.086208 0.13811 0.2072 0.15662 -0.031965 0.1626 -0.084672 -0.13475 -0.16537 -0.098055 0.095085 0.36462 -0.034175 0.22574 -0.22163 0.12694 -0.19746 0.15996 -0.35746 -0.31179 -0.55755 0.45307 0.23718 -0.22909 -0.42995 -0.17343 0.22002 -0.16089 -0.20363 -0.098893 -0.0015603 -0.1823 0.047724 0.23884 -0.31215 0.27259 0.048134 0.3575 -0.46546 0.27486 0.16536 -0.081917 0.010187 0.19602 -0.25441 -0.064721 -0.077065 0.66857 0.63509 0.26934 -0.17168 -0.11869 0.32516 0.32208 0.14225 -0.23587 0.23365 -0.19797 -0.11181 -0.53381 0.17971 0.0013968 0.35209 -0.11598 0.044222 -0.20299 0.18788 -0.19935 -0.33776 0.19187 0.23505 -0.34407 -0.10487 0.060211 0.25617 0.28837 -0.69034 -0.18104 -0.10376 -0.026923 -0.048245 0.27487 -0.070165 -0.29236 -0.24688 -0.17624 -0.02938 -0.07635 -0.0021925 -0.10747 0.20215 0.14545 0.28797 0.30026 0.19314 -0.14459 -0.11539 -0.38771 -0.29725 -0.13009 -0.024032 -0.43537 -0.0025363 -0.025851 -0.51247 0.054746 -0.10858 0.063726 0.1663 -0.1464 0.076076 -0.31607 -0.31121 0.19812 0.0063348 -0.072524 0.23426 -0.019989 -0.39832 0.35492 -0.20909 -0.22952 -0.2759 -0.50498 -0.039476 0.28031 0.083292 0.026335 -0.21956 0.26105 -0.14565 0.1401 0.24165 -0.43913 0.02052 -0.017761 -0.08816 0.054588 -0.050108 -0.065882 0.18508 -0.17596 0.1484 -0.91691 0.041565 0.32424 0.21548 -0.60249 0.3652 0.14916 -0.65927 0.1375 0.13938 -0.17754 -0.38783 -0.29895 0.0050444 -0.51946 -0.15265 -0.085712 -0.16597 0.31809 0.14947 -0.017965 -0.062345 0.1027 0.19115 -0.040186 0.19915 -0.46446 -0.60304 -0.16304 -0.087314 -0.42869 -0.1196 0.086987 0.056567 -0.028871 -0.19292 0.1794 -0.24396 -0.46691 0.38701 0.37565 0.21444 -0.29473 0.46295 0.014311 0.053708 -0.29483 0.18911 0.14207 0.075224 -0.20105 -0.72116 0.56175 0.22553 0.49648 0.45205 0.31526 0.0051644 -0.17529 -0.2218 0.40632 0.045215 0.24573 
hydrogen -0.24792 0.16138 -0.26133 -0.16068 -0.55817 -0.42351 0.2092 -0.69652 -0.4487 0.33065 -0.093225 0.3359 0.044674 0.090218 -0.076444 -0.12563 0.16858 0.034758 -0.27031 0.5667 0.011529 -0.5981 -0.12854 -0.53185 -0.50801 -0.05525 0.12483 -0.067597 -0.52283 0.40018 -0.58994 0.56456 0.0048418 0.13729 -0.14637 -0.049894 0.18576 0.1365 0.18842 -0.19694 0.38272 -0.11049 -0.30748 -0.22155 0.35717 -0.26805 0.052581 0.015528 0.0063202 -0.038275 -0.055241 -0.27161 -0.10967 -0.33954 0.047885 -0.010208 0.21079 0.45771 0.23369 -0.24958 -0.33074 -0.0231 -0.028342 0.44193 -0.12098 -0.42281 -0.41287 0.29065 -0.00085493 0.066093 -0.26404 0.20089 0.35825 0.072238 0.25789 0.11611 -0.22028 0.4153 0.037619 -0.24267 0.5535 0.14052 -0.22983 0.083461 -0.30468 0.066558 0.26417 0.038795 -0.10062 -0.46772 0.25048 -0.008369 0.019459 0.074768 0.084818 0.22893 -0.2856 0.41225 -0.0038729 -0.16066 0.21957 -0.34765 0.16545 -0.24014 -0.038631 -0.015705 -0.63582 0.16618 0.16464 -0.23849 -0.09957 0.23299 -0.35632 -0.2175 -0.050571 0.13105 0.19423 0.4661 -0.30964 -0.28671 0.046173 -0.60202 -0.34651 -0.069965 0.064914 -0.12941 -0.35793 0.49118 -0.32698 0.21516 0.14915 -0.11214 -0.31028 0.30819 0.2023 -0.26896 -0.0061083 0.24918 -0.10184 0.52024 0.0043267 0.57949 0.37531 -0.10516 -0.32429 0.029588 0.34317 0.5144 0.00094473 0.0094501 0.31319 -0.30599 -0.053814 -0.52329 0.095545 -0.064214 0.42603 -0.23836 -0.2096 0.071008 -0.022083 -0.13555 -0.18765 -0.2813 -0.0046826 0.15584 0.018392 -0.084279 0.030015 -0.062035 -0.60941 -0.31262 -0.092174 -0.037596 -0.015904 0.27509 -0.21617 -0.13664 -0.0026475 -0.093083 -0.10783 -0.043075 0.24172 -0.029478 -0.33283 0.1467 0.5691 -0.041824 0.13347 -0.30941 -0.15469 -0.56361 -0.0042069 -0.41582 -0.27771 -0.3454 0.28397 0.33764 0.13928 -0.1158 -0.027639 0.23904 -0.064971 0.22601 0.027007 -0.65821 -0.24239 0.0036803 0.095895 0.13712 0.47883 0.015088 -0.10691 0.73867 0.19147 -0.52885 -0.30207 -0.45631 -0.10046 -0.012506 -0.29086 0.39822 -0.15882 0.49236 0.064058 0.16292 -0.2051 -0.52736 -0.2662 -0.20593 0.25106 -0.34325 -0.094449 -0.40915 0.47618 -0.3844 0.47435 -0.74146 -0.21094 0.42688 0.47037 0.10511 0.35396 0.2109 -0.60171 0.078912 0.17143 -0.15242 -0.21881 -0.58753 -0.13248 -0.16936 -0.59193 0.17052 -0.013124 0.17305 0.46552 -0.031426 -0.22815 0.13202 0.06568 0.22875 -0.22254 -0.21944 -0.8338 -0.47857 -0.23608 -0.054137 -0.21284 0.18346 -0.18029 -0.33293 0.45966 -0.028746 -0.38644 -0.29964 -0.15708 -0.0051021 -0.0038213 0.11123 0.54763 0.21634 -0.069242 -0.23967 0.116 0.12926 0.56856 -0.13557 -0.67307 0.49648 0.25226 0.027496 0.24259 -0.07466 -0.085785 -0.11886 0.017027 0.31181 0.21313 0.31472 
nicotinamide -0.17438 0.18007 -0.33187 -0.39116 -0.56583 -0.35313 0.53179 -0.52133 -0.39782 -0.2467 -0.24521 0.26832 -0.5252 0.43964 0.20176 -0.49727 -0.19823 -0.077983 -0.52106 0.76539 0.50394 -0.23308 -0.26053 -0.4677 -0.3321 0.00046451 -0.0023641 -0.18612 -0.20927 0.78776 -0.49245 0.15993 -0.15766 0.46652 -0.20946 -0.14823 0.10758 0.68628 -0.24379 -0.14171 0.17334 -0.19079 0.051148 -0.21789 0.095059 -0.058736 0.37193 0.039413 -0.074935 0.11515 0.038137 -0.12556 -0.36741 -0.73566 -0.60528 -0.19517 0.30828 -0.15924 -0.37639 0.044865 -0.14252 0.38752 0.0049446 0.33048 0.32518 -0.6038 -0.36952 0.22743 0.3111 0.13922 0.19739 -0.20473 0.86737 0.067127 -0.1851 0.14415 0.055697 0.59046 -0.44743 0.26561 0.40218 -0.24237 -0.23185 0.31944 -0.22414 -0.43418 0.39904 0.39522 0.10105 -0.57921 0.83618 -0.11402 -0.29623 0.45415 -0.24683 0.055694 0.029623 0.5896 0.016146 0.2062 0.46133 0.11667 -0.090876 -0.21223 0.42052 0.35447 -0.5521 0.25399 0.4498 0.082 -0.60086 0.21773 0.086716 -0.1973 0.059431 0.22505 -0.067637 0.39513 0.19115 -0.30708 0.49892 -0.32325 -0.78413 0.56139 -0.30532 -0.49292 -0.64489 0.5441 -0.073616 0.48085 0.16943 -0.40213 -0.19754 -0.16315 0.29896 -0.077956 -0.15964 0.26945 -0.55804 0.26942 0.32774 0.56524 0.09114 0.066282 -0.15577 0.24097 0.21209 0.31055 -0.32387 0.067189 0.32043 -0.35595 -0.013084 -0.10931 -0.10807 0.047349 -0.070652 0.25856 -0.020612 0.077089 0.09789 -0.38504 -0.21967 -0.25348 0.10726 0.081452 -0.11309 -0.52156 0.21678 0.3278 -0.26882 -0.85135 -0.23529 0.30625 0.21981 -0.083347 -0.58232 0.17326 -0.42618 -0.4361 -0.15413 -0.42728 0.12731 -0.19722 -0.37499 0.13027 0.51687 -0.65083 0.17792 -0.23329 -0.80946 0.025791 0.11643 0.24254 -0.67948 -0.0064476 0.48357 0.63502 -0.3514 -0.15801 -0.35801 -0.062763 0.15175 0.27814 -0.139 -0.15864 -0.038301 0.15924 0.37559 0.18597 0.72992 -0.13667 0.04819 0.63734 -0.57326 -0.091723 0.0023416 -0.58988 -0.20264 0.14013 0.030982 0.55377 0.066308 0.56473 -0.048788 0.33899 0.18021 -0.9154 0.1064 -0.48572 0.47273 -0.27768 -0.25472 -0.58054 0.25494 0.21049 0.24587 0.028753 0.19696 0.37148 0.39027 -0.05465 -0.0050597 -0.32891 -0.16229 0.18571 0.12681 -0.12266 0.18002 -0.20221 -0.11817 0.10136 0.14495 -0.07626 0.34809 0.085007 0.47451 -0.58836 0.3395 -0.35276 0.040971 0.50231 -0.4444 0.12948 -0.63632 -0.28682 0.18478 -0.21444 -0.17328 -0.0034572 -0.39471 -0.20738 0.32499 -0.41825 -0.26288 -0.47257 -0.006891 -0.12305 0.10405 0.46089 0.41751 0.83502 -0.098521 -0.11126 0.0070871 -0.64858 0.50801 0.021498 -0.55569 0.68206 0.25079 -0.51124 0.17914 -0.2225 -0.25698 -0.22552 0.16282 0.47895 0.4944 -0.35552 
adenine 0.02744 0.0097304 -0.23052 0.14996 -0.66364 -0.21674 0.91141 0.024799 -0.42813 -0.20424 -0.18362 -0.19991 -0.66463 0.48399 0.22501 -0.42366 -0.22722 -0.04064 -0.35657 0.68629 0.29945 -0.57567 -0.33113 -0.16095 -0.36606 -0.36836 -0.22396 0.18027 -0.28539 0.37301 -0.59319 0.36065 -0.11688 0.05652 0.23292 -0.088223 -0.16107 0.94031 -0.24471 0.17485 0.23255 -0.26392 -0.011604 0.071244 0.35814 -0.11066 0.75138 0.22876 0.44888 0.40363 -0.34135 -0.15346 -0.3496 -0.43516 -0.29804 -0.37755 0.19922 -0.12387 -0.44617 -0.013279 0.21567 0.59378 0.42925 0.53051 -0.057809 -0.47513 -0.29345 0.30054 0.067583 0.23452 -0.063833 -0.21216 0.46356 0.065195 -0.19181 0.19048 -0.022831 0.52824 -0.3235 -0.027998 0.20001 -0.45869 -0.1325 0.59084 0.086967 -0.38598 0.35666 0.37638 0.065333 -0.32677 1.0046 -0.034162 -0.14755 0.33506 -0.53302 0.10327 -0.036031 0.51548 -0.10301 0.34826 0.15433 -0.10891 0.08293 0.013414 0.28786 0.14402 -0.93939 -0.069309 0.25784 -0.35173 0.05239 -0.14261 -0.41853 -0.21801 -0.074857 0.35015 0.062948 0.20444 0.38766 0.18025 -0.10317 -0.25872 -0.76359 0.35312 -0.0087777 -0.17084 -0.55505 0.66594 -0.0809 0.29788 -0.057309 -0.15856 -0.56877 -0.22597 -0.12958 -0.37474 -0.51307 0.44688 0.23334 -0.10289 0.30157 0.36904 0.18988 0.10972 -0.34571 0.38711 -0.19674 0.27413 -0.18613 0.14618 0.44208 -0.34935 -0.15869 -0.46621 -0.23101 -0.12312 0.20492 0.022524 0.10918 0.12957 0.11335 -0.50315 0.18331 -0.38 0.20127 0.038245 -0.43205 -0.81344 0.42911 0.45969 -0.40067 -0.77826 -0.21872 -0.073016 0.32709 0.27336 -0.24951 0.14529 -0.058349 -0.19537 -0.014191 -0.48468 0.43379 -0.25988 -0.55478 0.23354 0.57605 -0.93657 0.26399 -0.1849 -0.4743 -0.15607 0.38321 -0.033147 -0.57659 -0.036009 0.41259 0.43987 -0.20946 -0.07475 -0.40476 -0.055149 -0.080367 -0.42482 0.0030664 -0.446 -0.31834 0.47049 0.31837 0.36763 0.75591 -0.12455 0.20952 0.78736 -0.30757 -0.24095 -0.010592 -0.63917 -0.19946 -0.077561 0.21192 0.38638 0.061836 0.42696 -0.14765 0.257 0.000825 -0.65192 -0.22667 -0.55495 0.35866 -0.47332 0.054902 -0.47762 0.071877 0.033861 0.16125 0.079207 -0.03479 0.070361 0.30935 -0.12247 -0.15512 0.097935 -0.13255 -0.075016 -0.19339 0.13785 0.14141 -0.28409 0.051489 -0.216 -0.022221 -0.011441 0.33344 0.20032 0.7643 -0.48345 -0.042012 0.2419 -0.14788 0.35275 -0.42176 0.50327 -0.80863 -0.24979 0.11189 0.09057 -0.36921 0.2559 -0.27144 -0.36332 0.56419 -0.51511 -0.59875 -0.36623 -0.1195 -0.24242 -0.067547 0.039086 0.47684 0.56681 -0.29272 -0.084887 -0.19247 -0.2392 0.78189 0.16909 -0.7198 0.39748 0.41504 -0.68809 0.34047 -0.096755 -0.18852 -0.33504 -0.35153 0.44638 0.16255 -0.25852 
dinucleotide 0.26535 0.27507 -0.26032 -0.074657 -0.36861 0.12376 0.75533 -0.13489 -0.45797 -0.1535 -0.1452 -0.11687 -0.73933 0.55728 0.38038 -0.5343 -0.090474 0.10771 -0.60062 0.76901 0.41731 -0.089532 -0.15203 -0.3396 -0.44917 -0.19317 -0.11529 -0.15325 -0.32624 0.8001 -0.77012 0.29108 0.17029 0.33496 -0.14309 0.091052 0.18632 0.71031 -0.12724 0.13475 0.10051 -0.49332 -0.002508 -0.034719 0.30069 -0.37856 0.62555 0.22612 0.48804 0.23557 -0.44046 -0.34513 -0.16753 -0.84982 -0.16937 -0.29088 0.17834 -0.18225 -0.38419 0.25942 -0.10164 0.52263 0.17253 0.24582 0.019768 -0.2492 -0.13816 0.42706 -0.16624 -0.01702 -0.12815 -0.12056 0.68473 0.090395 -0.36587 0.14319 -0.078928 0.37338 -0.38639 -0.081922 0.40273 -0.37695 -0.42828 0.38061 -0.24128 -0.68684 0.34039 0.36464 -0.19281 -0.62522 0.96132 -0.26787 -0.0087314 0.17786 -0.5878 0.019146 -0.28388 0.53946 -0.32046 0.29557 0.14026 0.15365 0.21105 -0.3942 0.30769 0.25219 -0.92011 0.11968 0.38188 -0.45039 -0.24976 -0.21912 -0.19465 -0.24755 0.42253 -0.032883 0.0052434 0.31904 0.20139 -0.24901 -0.25648 -0.17222 -1.0522 0.48554 0.18551 -0.068606 -0.75235 0.61121 -0.4126 0.20727 -0.16517 -0.13356 -0.37359 -0.24733 0.13409 -0.051964 -0.26351 0.75318 0.035664 0.32928 0.39576 0.12081 0.24719 0.14394 -0.22148 0.38474 -0.049118 0.3988 -0.61314 0.30713 0.31443 -0.22876 0.20375 -0.43686 -0.42174 -0.16812 0.54769 0.0033007 -0.09128 -0.047263 -0.17228 -0.30549 -0.017707 -0.46677 0.30249 0.039795 -0.63357 -0.65385 0.27743 0.054304 -0.35714 -0.86153 -0.46858 -0.23084 0.28382 -0.049405 -0.36555 0.26593 0.16282 -0.28323 -0.14181 -0.62381 0.29029 -0.18743 -0.50473 0.38203 0.62419 -1.0489 0.53837 -0.17141 -0.33274 -0.091563 0.39705 0.098255 -0.34877 -0.11064 0.64232 0.69928 -0.15731 -0.15899 -0.31349 0.058802 0.066673 -0.20361 0.098505 -0.38392 0.14389 0.60959 0.38431 0.21177 0.74412 0.039913 0.42232 0.63341 -0.25687 -0.42201 0.036916 -0.61046 -0.2172 -0.05707 0.28961 0.75267 -0.19052 0.7215 -0.02147 -0.24132 -0.036702 -0.74389 -0.34022 -0.39417 0.31965 -0.54165 0.018429 -0.52238 0.38937 -0.13172 0.41076 0.071777 0.020156 0.2181 0.44532 -0.20343 0.047508 -0.1626 -0.12284 -0.054326 -0.27549 0.0076126 0.40682 0.06589 -0.2233 -0.13126 -0.17583 0.26334 0.52898 -0.092844 0.58073 -0.28147 0.24503 0.071459 0.013324 0.55479 -0.62958 0.15956 -0.68039 0.13414 0.024114 -0.14625 -0.26571 0.26873 -0.11494 -0.01199 0.32318 -0.50688 -0.26724 -0.50164 -0.010757 -0.3329 0.12656 0.13531 0.21783 0.6954 -0.13041 -0.37742 0.20585 -0.16224 0.92752 0.3848 -0.43207 0.4266 -0.040324 -0.68307 0.2382 -0.08195 -0.27104 -0.029478 -0.25967 0.35572 0.35316 -0.21051 
phosphate 0.14763 0.21712 -0.32413 -0.43259 -0.67727 -0.0026381 0.88087 -0.87414 -0.47772 -0.076584 -0.089391 0.083329 -0.51079 0.50006 0.082696 -0.46928 -0.22196 -0.045357 -0.76193 0.93961 -0.22777 -0.29561 -0.15805 -0.18163 -0.50452 -0.11206 -0.16422 0.22944 -0.53829 0.93083 -0.506 0.18443 -0.28624 0.34338 0.12542 0.21316 0.33517 0.3972 -0.14584 -0.41136 0.52904 0.15658 -0.00022848 -0.28858 0.34633 -0.16298 0.79869 0.13254 -0.073647 0.03632 -0.3763 0.40165 -0.16371 -0.24846 0.09008 -0.11347 0.1118 -0.060511 -0.52951 0.015272 0.32301 0.34662 0.34826 0.40624 -0.15428 -0.22147 -0.033698 -0.08803 -0.55317 -0.050412 0.22357 -0.32834 0.63994 -0.05969 -0.28918 0.18874 0.3912 0.032145 -0.23254 0.29001 0.14349 -0.51878 -0.24925 0.21574 -0.39414 -0.45957 0.8488 0.27975 -0.0090529 -0.13621 0.6695 0.18498 -0.11381 0.21821 -0.23101 0.44263 -0.58332 0.80312 -0.26267 0.14523 -0.026539 0.14919 -0.2083 -0.2157 0.074159 0.30337 -0.61483 -0.039673 -0.073589 0.092906 -0.37066 -0.35629 -0.088033 0.46991 -0.19209 0.38402 -0.11578 0.16099 0.21887 -0.25313 0.20186 -0.1319 -0.70697 0.28695 0.25202 -0.29218 -0.023808 0.39941 0.24914 -0.0331 0.28081 -0.23375 -0.2332 0.26288 -0.10344 -0.015125 0.082719 0.45206 -0.47617 0.1362 -0.082203 0.79915 -0.15841 -0.022856 -0.31327 0.46928 -0.15411 0.26365 -0.14068 0.025998 0.41347 -0.15423 -0.12217 -0.19983 -0.27295 -0.066955 0.24393 0.065679 0.10318 -0.19652 -0.060032 -0.07775 -0.05315 -0.058037 0.73687 -0.32472 -0.28127 -0.42891 0.21157 0.065822 -0.35481 -0.183 -0.079207 -0.12997 0.010696 0.024172 -0.42051 0.53272 0.07708 -0.059494 0.1593 -0.65241 0.017894 -0.29165 -0.26832 0.68205 0.35981 -0.3538 0.32191 -0.31534 -0.53194 -0.17582 0.20077 -0.34076 -0.30181 0.048067 0.37802 0.47911 -0.092572 -0.042518 -0.70823 -0.25485 -0.055282 -0.096091 -0.031018 -0.23966 0.036999 0.34885 0.33513 0.33571 0.70046 0.054893 0.33321 0.61042 -0.2303 -0.3072 0.00894 -0.83122 0.30236 0.30563 0.16633 0.95511 0.4858 0.59863 -0.1831 -0.34045 -0.41563 -0.36355 -0.11098 -0.56625 0.15539 -0.397 -0.21356 -0.52809 0.3061 -0.073689 -0.20522 -0.31137 0.20726 0.27817 0.30243 0.11121 -0.087133 -0.3455 -0.20521 0.24879 0.073158 0.24764 -0.33799 -0.13341 -0.28573 -0.27358 0.064868 -0.022965 0.40251 0.094428 0.20095 -0.22313 0.30984 -0.12092 -0.21658 0.60802 -0.2251 -0.26988 -0.6066 -0.25025 -0.093083 -0.092533 -0.2726 0.31571 -0.069256 -0.24757 0.45712 -0.23927 -0.28009 -0.70412 -0.2612 -0.26454 0.046534 0.041433 0.40552 0.61072 -0.33961 -0.27707 0.32566 -0.18337 0.53997 0.19175 -0.7364 0.50666 0.70561 -0.21922 -0.048114 0.068198 -0.78835 -0.014316 -0.18444 0.5146 0.082632 -0.13265 
nadph -0.34448 0.21611 -0.22237 -0.42356 -0.4929 -0.37055 0.80969 -0.85485 -0.38685 0.29387 -0.42953 -0.43224 -0.85301 0.43059 0.38078 -0.45248 0.0052506 -0.15544 -0.48755 0.51307 0.29066 -0.29207 -0.69544 -0.89963 -0.47883 -0.38023 -0.37588 0.25302 -0.57432 0.84874 -0.40127 0.59988 0.053343 0.43948 -0.07275 -0.38179 -0.12711 0.80695 -0.22162 0.062103 0.35033 -0.18531 0.062023 -0.14809 0.45856 0.42224 0.3805 -0.015989 0.090468 0.028201 -0.46594 0.11713 0.036062 -0.61204 0.10027 -0.6916 0.65902 -0.13234 -0.214 0.12898 -0.26862 0.32214 -0.2376 0.5655 -0.50807 -0.12293 -0.23264 0.53093 -0.003287 0.032707 0.057825 0.2923 1.2747 -0.022625 0.03957 0.42288 -0.048233 0.35379 -0.53121 -0.074055 0.3929 -0.24866 -0.14629 0.53297 -0.71836 -0.30287 0.21687 0.18195 -0.12896 -0.42779 0.81708 -0.032833 -0.49089 0.7406 -0.5551 0.25043 -0.031668 0.71313 -0.40065 0.43163 0.73164 -0.23858 0.48178 -0.0083559 -0.11282 0.263 -0.80207 0.47317 0.44302 -0.15988 -0.59965 -0.19847 0.19123 -0.35286 0.36826 0.31959 0.26931 0.080045 0.41064 -0.3399 0.12819 -0.40074 -0.91392 0.13669 -0.29193 -0.20692 -1.0382 0.69943 0.19791 0.30973 0.051683 -0.40647 -0.43824 0.16456 0.4726 0.10978 -0.30435 0.24896 -0.20852 0.68716 0.16744 0.5398 0.1131 0.2035 -0.13695 0.31727 0.44848 0.45295 -0.31461 -0.12899 0.65787 -0.36169 0.14394 0.02218 -0.23397 0.1179 0.32225 0.23896 0.098231 -0.044108 -0.24244 -0.56654 0.88068 -0.049723 0.45368 -0.67287 -0.49267 -0.88599 -0.023631 0.69353 -0.72041 -0.98444 -0.18835 0.63466 0.16761 -0.063608 -0.92037 -0.038119 0.083437 -0.18204 0.31437 -0.31731 -0.31448 -0.094876 -0.48193 0.66942 0.26519 -1.018 0.50392 -0.6302 -0.50933 0.10103 0.88348 0.28944 -0.32371 0.27194 0.36706 0.5251 -0.016211 -0.0092428 -0.28545 -0.041664 0.020614 -0.26598 0.050513 -0.23898 -0.072955 0.41754 0.45527 0.17244 1.084 0.13276 0.14001 0.86326 -0.1186 0.14495 0.16669 -1.1188 -0.12757 -0.30136 0.31244 0.57356 0.50134 0.88576 -0.048273 0.34619 -0.037412 -1.3701 0.17306 -0.83293 0.078672 -0.11434 0.15199 -0.40868 0.76611 0.18236 0.10831 -0.48279 0.029991 0.22718 0.27963 0.25723 -0.12458 -0.43835 -0.81287 -0.043559 0.19889 0.10886 0.27703 -0.45519 -0.29541 -0.31988 -0.23067 0.15475 0.49437 -0.010288 0.35453 -0.38056 -0.026624 -0.35399 0.17208 0.67312 -0.80211 0.00044814 -0.93956 -0.7588 -0.11105 -0.1643 -0.16874 -0.0032197 -0.05832 -0.18165 0.48653 -0.21394 -0.48155 -0.67159 0.12836 -0.68148 0.099252 -0.029082 0.11462 0.70224 -0.29636 -0.019934 0.28223 -0.54395 0.50678 0.15131 -1.258 0.19357 0.19723 -0.39688 0.30175 0.14661 -0.33067 -0.2172 -0.011056 0.73241 0.45097 -0.098149 
adenosine 0.40122 0.11642 -0.1276 -0.087621 -0.82754 -0.4116 1.1418 -0.37775 -0.28673 -0.15485 -0.33301 -0.036602 -0.61594 0.68226 0.40998 -0.19127 0.18803 0.13642 -0.75962 0.52474 0.13228 0.14542 -0.50185 -0.51074 -0.36322 -0.24971 -0.535 -0.014389 -0.28644 0.3495 -0.48796 0.39143 -0.25915 0.26227 0.057518 0.31424 -0.16388 0.49027 -0.19557 -0.11001 0.27517 -0.37133 0.11881 0.28029 0.39535 0.095395 0.42325 0.33801 -0.071063 -0.060492 -0.056761 0.012656 -0.36472 -0.47312 -0.13382 -0.23082 0.33323 -0.55532 -0.35339 0.188 -0.33322 0.27057 0.22058 0.44561 0.013391 -0.29015 -0.20462 0.43752 -0.52537 -0.056361 0.19918 0.025548 0.86316 0.17108 -0.33904 0.1573 0.47905 0.32284 -0.46419 -0.054542 0.2238 -0.81629 -0.33432 0.57074 -0.41251 -0.53933 0.45523 0.25812 -0.22468 -0.83601 0.86409 -0.32054 0.28914 0.31894 -0.31211 -0.080248 0.15913 0.50597 -0.093728 0.446 0.013776 0.12348 0.041812 -0.04889 0.61201 0.34982 -0.97004 0.32379 0.29613 -0.42237 -0.1524 0.18586 0.17665 -0.0059101 0.15985 0.31813 -0.12908 0.34861 -0.0020085 -0.17665 0.065383 -0.065667 -0.86542 0.22701 -0.066868 -0.4307 -0.69706 0.49972 -0.31447 0.48105 0.31282 0.13055 -0.56279 -0.20351 0.11817 -0.10022 0.050571 0.33839 -0.030029 0.25395 0.20609 0.53466 -0.092226 -0.18325 -0.13508 0.4701 0.044233 0.45589 -0.037202 0.10114 0.6085 -0.16955 0.0031032 -0.30012 -0.30394 0.099801 0.31471 0.17466 -0.029114 0.010433 -0.074783 -0.037858 0.065487 -0.11424 -0.19554 -0.16002 -0.47273 -0.53501 0.079309 0.75262 -0.48541 -0.59918 -0.21637 0.48756 -0.040166 0.031644 -0.74419 0.14387 -0.14021 -0.51643 0.040922 -0.55574 -0.11273 -0.39816 -0.35913 0.40299 0.3839 -0.65915 0.34788 -0.19376 -0.53729 -0.026343 0.44117 0.12016 -0.6545 -0.14329 0.39824 0.36054 -0.14678 -0.56064 -0.37843 -0.19859 0.034385 -0.32924 -0.16849 -0.19445 0.20034 0.6443 0.030604 0.22798 0.83193 0.025581 0.36645 0.43162 -0.29202 -0.48306 0.2219 -0.91825 -0.34839 0.46298 -0.051934 0.59514 0.22067 0.5587 -0.2834 0.019297 0.10131 -0.82207 -0.33656 -0.41473 0.40692 -0.22676 0.079024 -0.78709 0.28628 0.044937 0.14166 -0.00073473 0.39059 0.49599 0.50005 0.17192 -0.41126 -0.067075 -0.012629 0.18707 -0.18757 0.11006 0.32807 -0.0087442 -0.26958 0.15325 0.26373 0.14439 0.23336 0.095828 0.50947 -0.47254 0.035781 -0.12711 -0.030975 0.38066 -0.59296 -0.15714 -0.50954 -0.41481 -0.15719 -0.13249 -0.13835 0.095332 -0.389 0.041511 -0.023868 -0.48704 -0.64135 -0.55732 -0.41439 -0.56278 0.030239 0.35642 0.21803 0.52707 -0.57926 -0.25581 0.29002 -0.48131 0.60043 0.039496 -0.76439 0.26955 0.060675 -0.14337 0.14042 -0.19306 -0.49473 -0.20946 -0.21419 0.33538 0.49963 -0.45019 
triphosphate 0.14242 0.54626 -0.37279 -0.21571 -0.7187 -0.3728 0.92315 -0.60113 -0.3125 -0.024415 -0.23937 -0.18157 -0.37475 0.40552 0.48162 -0.43077 0.2218 0.1085 -0.82188 0.96322 0.065958 0.091273 -0.06159 -0.39823 -0.42829 -0.20115 -0.66709 0.15802 -0.55184 0.8527 -0.70825 0.35962 -0.16257 0.31642 0.096129 0.14742 0.15792 0.48709 -0.23739 -0.074223 0.43521 -0.3139 0.18979 -0.031067 0.29075 -0.17752 0.95405 0.4362 0.11674 -0.32637 -0.13641 -0.027055 -0.44432 -0.17625 -0.022806 -0.16397 0.40879 -0.30451 -0.43517 -0.032801 0.048758 0.55553 0.21056 0.58068 -0.19177 -0.21248 0.086005 0.32351 -0.62425 -0.12656 0.21818 0.032276 0.82569 0.084174 -0.38996 0.088276 0.25106 0.20924 -0.67787 0.17646 0.17735 -0.73349 -0.40153 0.41333 -0.20733 -0.50007 0.71112 0.24873 -0.26269 -0.44815 1.0083 -0.25221 -0.10391 0.45106 -0.36968 0.26694 -0.47539 0.85728 -0.1632 0.33979 0.10053 -0.087372 0.1725 -0.064793 0.41051 0.35232 -0.93658 0.016512 0.57174 -0.2567 -0.44317 -0.19866 -0.089865 0.23072 0.15944 0.38095 -0.058767 0.45326 0.38118 -0.25129 0.067011 -0.21039 -0.8607 0.23439 0.042841 -0.29384 -0.67434 0.60236 0.021255 0.257 0.19183 -0.28955 -0.4529 0.027384 0.10775 -0.18133 -0.094692 0.67584 -0.23036 0.26168 0.15079 0.61237 0.17845 0.014348 -0.50553 0.52388 0.037832 0.21252 -0.0094577 0.26312 0.34164 -0.19727 -0.1846 0.10003 -0.4038 -0.044791 0.51984 0.069516 -0.10269 -0.2163 -0.31389 -0.15347 0.080965 0.089061 0.17999 -0.23696 -0.34908 -0.43518 0.091402 0.60573 -0.56568 -0.40309 0.07792 0.069997 -0.029239 0.088988 -0.83474 0.39073 -0.035992 -0.16744 -0.06771 -0.85562 -0.020546 -0.43393 -0.31399 0.59377 0.51631 -0.4451 0.47262 -0.48436 -0.46814 -0.30207 0.34582 0.13039 -0.38883 -0.15155 0.58234 0.47775 -0.14041 -0.16468 -0.43936 -0.093256 0.2343 -0.41112 0.047724 -0.16462 0.075147 0.73873 0.30457 0.39795 0.82753 -0.060373 0.77284 0.56481 -0.15461 -0.57795 0.17038 -0.80882 0.14739 0.16051 0.32527 0.92879 0.42638 0.77738 -0.18343 -0.14837 -0.20896 -0.89778 -0.15261 -0.56241 0.18119 -0.46173 -0.29834 -0.80531 0.50334 0.0098702 0.23818 -0.070721 0.14746 0.32158 0.39426 0.34032 -0.41456 -0.29922 -0.35623 0.2853 0.014725 0.23902 0.011565 -0.31712 -0.48163 -0.19282 0.16764 -0.021308 0.45475 -0.080716 0.41448 -0.57491 0.24992 -0.27153 -0.22832 0.45257 -0.54469 -0.24745 -0.74114 -0.54679 0.0184 -0.14145 -0.27866 0.25654 -0.076955 -0.016006 0.18444 -0.52195 -0.69527 -0.84341 -0.46963 -0.395 0.2777 -0.030193 0.39303 1.0005 -0.4196 -0.3967 0.31827 -0.2912 0.57067 0.30544 -0.52085 0.53781 0.2648 -0.11127 0.13877 0.06666 -0.52612 0.018757 -0.32136 0.48441 0.41394 -0.1547 
atp -0.25493 0.16963 0.32585 -0.19086 -0.088875 -0.019966 0.50079 0.13786 -0.32484 0.0030371 0.51632 -0.82157 -0.053799 0.2609 0.082181 0.04739 0.74983 0.1465 0.33174 0.51341 0.14097 -0.24952 -0.013775 -0.10835 0.15968 0.34002 -0.4327 0.23688 -0.32548 0.61427 -0.51459 0.015545 0.1491 0.40298 -0.014286 0.13733 0.12 0.36853 -0.53402 0.21949 0.060607 -0.31122 0.28317 -0.11156 0.31037 -0.12062 0.48953 0.61747 0.16259 -0.11824 -0.19561 0.28953 0.27606 -0.18178 0.29399 -0.011015 0.25067 0.066557 -0.16679 0.33152 -0.27167 -0.21528 0.061364 0.77378 -0.35618 -0.36835 -0.13141 0.26315 -0.64179 -0.11286 -0.070091 0.10397 0.55837 0.29272 0.18632 0.21677 0.68539 0.65495 -0.69388 -0.1028 0.36022 -0.18602 -0.29444 -0.076974 -0.43453 -0.41642 0.63367 -0.02225 0.37593 -0.70106 0.32817 0.24129 0.1646 -0.079662 -0.75539 0.043393 -0.3253 0.25204 -0.49351 0.1276 -0.23896 -0.18526 -0.0049475 -0.46382 -0.2144 0.17301 -0.93638 -0.028383 0.094006 -0.10883 -0.53639 0.22015 0.10942 -0.10064 0.40505 0.18011 0.55224 0.72134 0.72648 -0.22333 0.7076 -0.22934 -0.38906 0.0084335 -0.47585 -0.081023 -0.012582 0.30376 -0.11657 0.45411 0.51929 -0.11632 0.22424 0.17707 -0.82766 0.077197 0.16979 0.093054 0.065856 0.74238 0.2557 0.37331 0.41119 0.13257 -0.20625 0.27907 0.5857 0.55894 -0.026109 0.083866 0.51858 -0.24728 0.27312 -0.060455 -0.026871 -0.32361 -0.096621 0.1756 -0.25907 0.17379 -0.39045 -0.69419 -0.16578 -0.35951 0.77424 0.30305 -0.53711 0.58658 0.2507 0.38049 -0.045676 -0.34405 0.26229 -0.093959 -0.1501 0.60833 -0.28035 0.35458 -0.21001 -0.24149 -0.31442 -0.6861 -0.17877 -0.22387 -0.16012 0.72795 0.63257 0.0062092 0.37713 -0.77269 -0.66351 -0.39363 -0.2542 0.16694 -0.2454 0.017868 0.14834 0.073525 -0.49411 -0.71403 -0.22224 0.44063 0.09834 -0.32366 0.51084 0.1014 0.06969 0.4933 0.97393 -0.017036 0.72843 -0.62722 0.3956 0.88732 -0.566 0.40427 -0.10039 -0.6375 -0.66072 0.47133 -0.45504 0.15072 0.10467 0.99944 0.12609 0.1213 -0.27799 -0.83141 -0.43753 -0.38854 -0.27031 -0.079071 -0.06752 -0.52072 0.093829 0.51837 0.17546 0.42857 -0.0715 0.37313 0.33576 0.4125 0.17514 -0.60492 0.0556 0.15384 -0.38297 0.62977 0.16215 -0.36599 -0.11128 -0.11514 0.049504 -0.41009 0.42933 -0.034218 0.21569 -0.94518 0.48724 -0.10195 -0.23097 0.44428 -0.2879 -0.23944 -0.81052 -0.28283 0.51231 0.1997 0.39864 0.37766 -0.12082 0.32504 -0.048896 -0.16574 -0.72266 -0.63975 0.22272 -0.3544 -0.17216 -0.16428 0.061582 0.23227 -0.025286 -0.33051 0.30283 -0.37124 0.30923 0.17301 0.055434 -0.40496 0.29865 -0.54397 -0.046542 0.338 -0.18838 0.10404 0.37536 0.47119 0.2834 0.22471 
currency -0.21538 0.013104 0.28277 -0.10945 0.036136 0.3504 -0.0092896 -0.34872 -0.076218 -0.23854 -0.086039 0.214 -0.071044 -0.3154 0.1843 -0.57631 0.07763 -0.033925 0.05782 0.29382 -0.0836 0.15374 0.22101 -0.12018 -0.033282 -0.1903 0.35952 -0.29865 0.56141 0.088153 -0.61819 0.65535 -0.24319 0.097242 0.046883 -0.20178 0.46816 0.35482 0.088928 0.17709 0.048965 -0.31552 0.49351 0.0083248 0.07337 0.25652 0.11547 0.021257 0.025756 -0.28336 0.15484 0.19481 -0.010569 0.35325 -0.37542 -0.49656 0.18134 -0.065027 0.28395 -0.098595 -0.23629 -0.23082 0.15423 -0.45511 0.002221 -0.36357 0.084835 -0.40999 -0.27522 0.17055 0.53905 0.2527 -0.20463 -0.061219 -0.11709 -0.052782 0.45626 -0.3965 -0.12855 -0.23921 0.2987 -0.1081 -0.31875 0.16454 0.1295 -0.25641 -0.077954 0.14544 -0.21475 -0.38484 0.18604 -0.63128 0.30458 -0.020366 0.069992 0.086577 -0.23281 0.4632 -0.18351 0.047837 0.15182 -0.10195 -0.012034 -0.12808 0.42111 -0.45638 0.23159 0.0785 -0.30864 -0.29575 -0.26706 -0.28703 -0.4935 0.13043 -0.047052 0.28591 0.26534 -0.0060566 0.021778 0.33061 0.31947 0.062382 -0.14996 -0.024585 0.096908 0.15888 -0.11578 -0.046444 0.33638 -0.28919 -0.10707 -0.50761 -0.014766 -0.011563 0.44337 -0.17771 0.0045838 -0.34031 -0.13643 -0.028892 -0.0035809 -0.13333 -0.28969 0.33349 0.32054 0.33778 0.16141 -0.3504 -0.24687 -0.27705 0.51167 0.2101 -0.033171 -0.010814 0.33641 -0.22307 -0.040346 -0.39315 -0.30497 -0.14933 -0.32572 0.42486 0.076701 -0.18908 0.85129 0.18383 -0.19882 -0.53721 0.34693 -0.1901 -0.23035 0.13101 -0.19122 0.14221 -0.23546 0.094444 0.50766 0.57449 -0.19568 0.48353 0.24128 -0.28915 0.68124 -0.1758 0.13395 0.022746 0.13437 0.072767 0.18296 -0.36344 -0.42351 -0.4481 -0.16131 0.22988 -0.26309 -0.058713 -0.032288 0.059623 -0.33167 -0.10886 0.30878 0.19506 0.046913 -0.046886 -0.074317 -0.023615 -0.1129 -0.2585 0.22543 -0.39091 0.53638 0.22563 0.47882 0.022643 0.066866 0.10482 0.25143 -0.30412 -0.35417 0.58208 -0.25795 -0.025471 -0.16622 -0.030334 0.064999 0.28515 0.099757 -0.10124 -0.4458 -0.37677 0.11622 -0.21085 0.094576 -0.19924 -0.076975 -0.62374 0.12081 -0.14099 0.011085 0.14769 0.25796 0.014319 0.46877 -0.068662 -0.13299 0.5939 0.10799 0.040411 -0.026775 -0.2257 0.04819 -0.040758 0.02753 0.023539 0.2624 0.031961 0.29558 -0.24153 0.47929 0.0086328 -0.0066451 0.12997 0.2276 -0.18758 -0.51896 -0.34148 0.042404 -0.29576 -0.2777 0.33654 -0.63709 0.20588 0.12827 -0.19156 -0.13172 -0.18258 0.33607 0.42608 0.074761 -0.042609 0.24837 -0.19064 0.012561 -0.22181 0.33064 -0.19008 0.3265 0.33336 -0.17372 0.093312 0.24244 0.21211 0.13941 0.3807 -0.20497 -0.16866 -0.33992 0.17842 0.032332 0.50606 
